{"env_id":"Hopper-v5","model_xml":"hopper.xml","obs_dim":11,"act_dim":3,"nq":6,"nv":6,"nu":3,"frame_skip":4,"timestep":0.002,"dt":0.008,"action_low":[-1.0,-1.0,-1.0],"action_high":[1.0,1.0,1.0],"obs_components":[{"kind":"qpos","start":1,"clip":null},{"kind":"qvel","start":0,"clip":null}],"needs_rne":false,"init_qpos":[0.0,1.25,0.0,0.0,0.0,0.0],"init_qvel":[0.0,0.0,0.0,0.0,0.0,0.0],"reset_noise_scale":0.005,"healthy":{"terminate_when_unhealthy":true,"z_index":1,"z_range":[0.7,1e+30],"angle_index":2,"angle_range":[-0.2,0.2],"state_range":[-100.0,100.0]},"obs_labels":["rootz pos","rooty pos","thigh_joint pos","leg_joint pos","foot_joint pos","rootx vel","rootz vel","rooty vel","thigh_joint vel","leg_joint vel","foot_joint vel"],"action_labels":["thigh_joint","leg_joint","foot_joint"],"normalization":{"mean":[1.2072359323501587,0.008902224712073803,-0.07797133922576904,-0.06686553359031677,0.127640500664711,0.3037421405315399,-0.09743088483810425,-0.011073168367147446,-0.1841074824333191,-0.1256043165922165,0.07575874775648117],"var":[0.006727445404976606,0.004376109689474106,0.03430792689323425,0.021702317520976067,0.08252023160457611,0.3634136915206909,0.2717432975769043,0.9231888055801392,1.3000092506408691,1.5426777601242065,6.608894348144531],"epsilon":1e-08,"clip_obs":10.0},"policy_onnx":"hopper__lambda_a10__final.onnx","policy_net":{"input_dim":11,"layers":[{"w":[[0.11918999999761581,0.22213000059127808,-0.1399500072002411,-0.004730000160634518,0.1243399977684021,0.02507000043988228,-0.019120000302791595,0.08044999837875366,0.0567299984395504,-0.037950001657009125,-0.13088999688625336],[-0.03643999993801117,0.1892700046300888,0.07204999774694443,-0.19300000369548798,0.057670000940561295,-0.11868000030517578,0.24166999757289886,0.19407999515533447,0.1609800010919571,0.020600000396370888,-0.12859000265598297],[0.0619099996984005,0.13655999302864075,0.08567000180482864,-0.11869999766349792,-0.008750000037252903,-0.10485000163316727,-0.0027699999045580626,0.09556999802589417,0.04134000092744827,0.04131999984383583,0.15970000624656677],[-0.10148999840021133,0.2067900002002716,-0.22287000715732574,0.06706999987363815,0.012109999544918537,0.0965299978852272,0.1717199981212616,-0.02539999969303608,-0.1947699934244156,0.05389999970793724,-0.03243999928236008],[0.07734999805688858,0.11371000111103058,-0.1973399966955185,0.031619999557733536,-0.15264999866485596,-0.13124999403953552,-0.050039999186992645,-0.17788000404834747,0.15154999494552612,-0.039159998297691345,-0.16635000705718994],[-0.17496000230312347,-0.17092999815940857,-0.03328000009059906,0.018959999084472656,-0.2958199977874756,0.07594999670982361,-0.2600399851799011,-0.006560000125318766,-0.09100999683141708,0.02556000091135502,-0.1619500070810318],[-0.035100001841783524,0.13489000499248505,-0.18108999729156494,-0.013299999758601189,0.016200000420212746,0.10163000226020813,0.013089999556541443,0.20403000712394714,0.03692999854683876,-0.024539999663829803,0.0546099990606308],[0.13979999721050262,-0.15921999514102936,0.10746999830007553,-0.10121999680995941,0.10972999781370163,-0.15949000418186188,0.11562000215053558,-0.09893999993801117,0.0716399997472763,-0.014419999904930592,0.07287000119686127],[0.03644999861717224,-0.15696999430656433,-0.2415899932384491,0.007430000230669975,-0.2076999992132187,0.2412099987268448,-0.02783999964594841,-0.2634100019931793,-0.15678000450134277,-0.031599998474121094,-0.08179999887943268],[0.1147100031375885,-0.10687000304460526,-0.06872999668121338,0.06224999949336052,0.18730999529361725,-0.12727999687194824,-0.004279999993741512,-0.08974999934434891,0.03759000077843666,0.16922999918460846,0.02060999907553196],[0.04543999955058098,0.16287000477313995,-0.052069999277591705,-0.04191000014543533,-0.21010999381542206,0.20124000310897827,-0.40250998735427856,0.18851999938488007,0.019419999793171883,-0.05404999852180481,-0.05237000063061714],[0.08337000012397766,-0.2078399956226349,-0.022099999710917473,-0.06984999775886536,-0.08162999898195267,-0.1133200004696846,0.0940999984741211,-0.047839999198913574,-0.28692999482154846,0.08256000280380249,0.04627000167965889],[-0.11462999880313873,0.04033000022172928,-0.18322999775409698,-0.03919000178575516,0.014569999650120735,-0.03906000033020973,0.08613999933004379,0.19670000672340393,0.1156499981880188,0.2278899997472763,0.08122999966144562],[0.08867000043392181,-0.06086999922990799,0.027960000559687614,0.34404000639915466,-0.09718000143766403,-0.08128000050783157,-0.024399999529123306,0.0074800001457333565,-0.16234999895095825,0.04496999830007553,-0.04791000112891197],[0.016200000420212746,0.029370000585913658,0.1254200041294098,0.07541000097990036,-0.13917000591754913,0.04458000138401985,0.06066000089049339,0.09849999845027924,0.2583500146865845,0.16604000329971313,0.16920000314712524],[0.026240000501275063,-0.133650004863739,-0.16752000153064728,0.07377000153064728,0.07908999919891357,-0.05615999922156334,0.1733199954032898,-0.020759999752044678,0.041749998927116394,0.0449800007045269,0.14608000218868256],[-0.04991000145673752,-0.042410001158714294,0.1736699938774109,0.024390000849962234,0.13700999319553375,-0.1526300013065338,0.0038399999029934406,-0.3098999857902527,-0.25793999433517456,-0.2549099922180176,-0.019689999520778656],[0.005410000216215849,-0.19231000542640686,0.1204100027680397,0.037689998745918274,0.11350999772548676,-0.0537399984896183,0.08138000220060349,-0.1660500019788742,0.07756999880075455,-0.21548999845981598,-0.018130000680685043],[-0.07162000238895416,0.004970000125467777,-0.021460000425577164,-0.06718000024557114,0.01233999989926815,0.02457999996840954,0.060770001262426376,0.10877999663352966,0.0544000007212162,0.21412000060081482,0.24124999344348907],[-0.0009699999936856329,0.016109999269247055,0.08771000057458878,-0.16306999325752258,-0.09196999669075012,-0.11643999814987183,0.039650000631809235,0.0822800025343895,-0.012000000104308128,-0.09736999869346619,-0.3186900019645691],[-0.051979999989271164,0.1024399995803833,-0.12240000069141388,-0.11400000005960464,-0.054760001599788666,0.26458999514579773,0.11253000050783157,0.14891000092029572,0.020360000431537628,0.041430000215768814,-0.1169700026512146],[0.07436999678611755,-0.14283999800682068,-0.25870999693870544,0.07363999634981155,-0.1658100038766861,-0.018969999626278877,0.19530999660491943,-0.2501400113105774,-0.2502000033855438,0.0215000007301569,-0.11187999695539474],[0.11591999977827072,-0.210999995470047,0.12052000313997269,-0.05691000074148178,0.21342000365257263,-0.11896999925374985,0.09675999730825424,-0.09386999905109406,-0.017680000513792038,-0.0030300000216811895,0.10610999912023544],[0.24427999556064606,0.09561000019311905,0.03150999918580055,-0.2182600051164627,0.005049999803304672,0.1311199963092804,-0.11935000121593475,0.14520999789237976,0.3004100024700165,-0.24296000599861145,-0.05919000133872032],[-0.0269399993121624,0.19338999688625336,-0.2348400056362152,-0.010520000010728836,-0.13767999410629272,-0.011769999749958515,0.09341000020503998,0.12619000673294067,-0.05638999864459038,-0.08020000159740448,-0.06202999874949455],[-0.1676200032234192,0.11420000344514847,-0.08034999668598175,-0.019610000774264336,0.07912000268697739,0.16956999897956848,-0.00687999976798892,0.12577000260353088,0.03068000078201294,0.06232000142335892,0.027499999850988388],[-0.037300001829862595,0.012810000218451023,-0.1250700056552887,0.19801999628543854,-0.18664999306201935,0.1715400069952011,-0.21379999816417694,0.0029100000392645597,0.2549700140953064,0.057339999824762344,-0.19540999829769135],[-0.11371999979019165,-0.02696000039577484,0.006579999811947346,0.09684000164270401,0.039420001208782196,-0.059119999408721924,-0.009940000250935555,-0.052730001509189606,-0.21769000589847565,0.21365000307559967,0.2198300063610077],[-0.2863200008869171,-0.0652099996805191,-0.14614999294281006,-0.15782999992370605,-0.17506000399589539,0.04129999876022339,0.04295999929308891,-0.05595000088214874,-0.04332000017166138,-0.00107999995816499,0.048250000923871994],[-0.13147999346256256,0.07970999926328659,-0.010379999876022339,0.047359999269247055,-0.01761000044643879,-0.08038999885320663,0.22887000441551208,0.17589999735355377,0.27285000681877136,0.054579999297857285,-0.11271999776363373],[-0.09216000139713287,0.1387999951839447,-0.07777000218629837,-0.04800000041723251,0.10209000110626221,0.24063000082969666,0.05009999871253967,0.1125200018286705,-0.1323699951171875,-0.03923000022768974,-0.02142000012099743],[0.10146000236272812,-0.06648000329732895,0.01843000017106533,-0.044199999421834946,0.001879999996162951,0.04472000151872635,0.039659999310970306,0.009060000069439411,-0.00419999985024333,-0.40035000443458557,-0.024720000103116035],[0.003869999898597598,-0.03172000125050545,0.44481000304222107,0.0044200001284480095,0.08117999881505966,-0.07322999835014343,0.11947000026702881,-0.11225999891757965,0.22269999980926514,-0.03152000159025192,0.14202000200748444],[0.05006999894976616,-0.03135000169277191,-0.1394300013780594,-0.10136000066995621,-0.013749999925494194,-0.005200000014156103,0.10117000341415405,0.2468400001525879,0.238319993019104,0.0716399997472763,0.048980001360177994],[-0.03784999996423721,0.0009399999980814755,-0.11905000358819962,-0.07294999808073044,0.05407999828457832,0.018309999257326126,-0.01759999990463257,-0.010660000145435333,-0.06644999980926514,-0.20563000440597534,0.08498000353574753],[-0.04202999919652939,0.08231999725103378,0.05034000054001808,0.04740000143647194,0.013930000364780426,0.006599999964237213,-0.005439999978989363,0.27869001030921936,0.1947699934244156,0.09619999676942825,0.05728999897837639],[-0.08976999670267105,-0.05911000072956085,0.03162999823689461,-0.2103700041770935,0.011660000309348106,-0.035679999738931656,-0.031050000339746475,0.37292999029159546,0.177729994058609,0.09827999770641327,0.18081000447273254],[-0.03465000167489052,-0.1468300074338913,0.062369998544454575,-0.09143000096082687,0.24793000519275665,0.01840999908745289,-0.07387000322341919,-0.21108999848365784,-0.097680002450943,-0.21807000041007996,0.07991000264883041],[0.3444499969482422,0.06559000164270401,0.02246999926865101,0.12092000246047974,-0.0436599999666214,0.1642400026321411,-0.3079499900341034,-0.03116999939084053,-0.05435999855399132,-0.15896999835968018,0.10666999965906143],[-0.0026499999221414328,-0.06684999912977219,0.22935999929904938,-0.23037000000476837,0.3281799852848053,-0.11209999769926071,-0.0653500035405159,0.1348399966955185,0.131850004196167,-0.043529998511075974,0.02622999995946884],[-0.21095000207424164,0.12655000388622284,-0.21813000738620758,-0.12449000030755997,0.10276000201702118,0.019300000742077827,-0.06595999747514725,0.12281999737024307,0.0053900000639259815,-0.06970000267028809,-0.05152999982237816],[0.06218999996781349,0.07722999900579453,-0.20833000540733337,-0.08160000294446945,-0.15951000154018402,0.0885699987411499,0.14726999402046204,0.18411000072956085,0.12545999884605408,-0.15852999687194824,0.06543999910354614],[-0.07981999963521957,-0.015610000118613243,-0.1808599978685379,-0.06526999920606613,-0.1333400011062622,-0.0023399998899549246,0.13970999419689178,0.17447000741958618,-0.21342000365257263,0.22980999946594238,0.10881999880075455],[0.26475998759269714,0.052390001714229584,0.005160000175237656,0.019430000334978104,-0.19176000356674194,-0.031099999323487282,-0.31773999333381653,0.009680000133812428,0.123259998857975,-0.19328999519348145,0.12035000324249268],[0.13110999763011932,-0.04360000044107437,0.12809999287128448,-0.07091999799013138,0.005280000157654285,-0.11349000036716461,0.15193000435829163,-0.016780000180006027,0.08117000013589859,0.12609000504016876,-0.005429999902844429],[-0.053530000150203705,-0.033330000936985016,0.15501999855041504,-0.19922000169754028,0.007569999899715185,0.01582000032067299,0.01271000038832426,0.2224300056695938,0.10902000218629837,-0.08481000363826752,0.027319999411702156],[-0.1401199996471405,-0.06646999716758728,-0.07603999972343445,-0.19933000206947327,0.16489000618457794,-0.11061999946832657,0.19027000665664673,0.07237999886274338,-0.05575999990105629,0.20611999928951263,0.0979899987578392],[0.020360000431537628,0.3174999952316284,0.24814000725746155,0.12896999716758728,0.05806000158190727,-0.030990000814199448,-0.03585999831557274,-0.04826999828219414,-0.19561000168323517,0.12379000335931778,0.30013999342918396],[0.14601999521255493,0.07724999636411667,-0.046549998223781586,-0.03878999873995781,-0.20096999406814575,0.08036000281572342,0.07626000046730042,-0.04343999922275543,-0.005100000184029341,0.004650000017136335,-0.26144999265670776],[0.04961000010371208,-0.15042999386787415,0.19874000549316406,-0.145019993185997,-0.06960999965667725,-0.23952999711036682,0.05212999880313873,-0.11715999990701675,-0.13718000054359436,0.08674000203609467,-0.039420001208782196],[0.02013999968767166,-0.003930000122636557,-0.0645499974489212,-0.01865999959409237,-0.004769999999552965,-0.005400000140070915,-0.04134000092744827,-0.149959996342659,-0.03855999931693077,-0.18219999969005585,0.04515000060200691],[-0.10787999629974365,-0.08172000199556351,-0.024170000106096268,0.3531999886035919,-0.012310000136494637,-0.0950699970126152,-0.1173200011253357,-0.242139995098114,-0.13574999570846558,-0.02247999981045723,0.03960999846458435],[0.07016000151634216,-0.07480999827384949,0.07596000283956528,-0.14385999739170074,0.05618999898433685,0.05006999894976616,0.1337900012731552,-0.19798000156879425,0.06464000046253204,-0.31011998653411865,0.05829999968409538],[0.2975200116634369,-0.02710999920964241,0.17715999484062195,0.04843999817967415,-0.0015200000489130616,-0.09854999929666519,0.014390000142157078,-0.032189998775720596,-0.16843999922275543,0.09269999712705612,-0.02394000068306923],[-0.0002500000118743628,-0.0035800000187009573,0.0012499999720603228,0.09014999866485596,-0.012090000323951244,-0.06801000237464905,-0.005869999993592501,-0.1230200007557869,-0.07959999889135361,0.03308999910950661,0.16095000505447388],[0.03886000066995621,-0.013609999790787697,0.08247999846935272,0.04915999993681908,0.1054299995303154,-0.13468000292778015,0.183569997549057,0.058559998869895935,0.06716000288724899,0.048569999635219574,-0.009050000458955765],[0.0529399998486042,-0.023280000314116478,0.22401000559329987,-0.05694999918341637,0.11246000230312347,-0.13787999749183655,0.1710599958896637,0.1383100003004074,0.03683999925851822,0.021490000188350677,0.1028200015425682],[0.14530999958515167,-0.23670999705791473,0.2630000114440918,-0.03084000013768673,-0.08760000020265579,-0.12421999871730804,-0.038989998400211334,-0.10778000205755234,-0.14252999424934387,-0.0802299976348877,0.11737000197172165],[-0.10773000121116638,-0.1935099959373474,0.04746999964118004,-0.017249999567866325,0.07543999701738358,0.008580000139772892,-0.06357000023126602,0.0015999999595806003,0.007899999618530273,-0.02246999926865101,0.10045000165700912],[0.024010000750422478,0.1396699994802475,0.030859999358654022,0.0516900010406971,-0.13976000249385834,-0.2681399881839752,-0.14055000245571136,0.039980001747608185,0.1263200044631958,0.08016999810934067,-0.017109999433159828],[-0.14733000099658966,0.1673399955034256,-0.22954000532627106,-0.15097999572753906,-0.022290000692009926,0.1252399981021881,-0.0818599984049797,-0.05384000018239021,-0.0738999992609024,0.15177999436855316,-0.07225999981164932],[-0.13845999538898468,-0.2546299993991852,-0.1805800050497055,0.01906999945640564,0.1452600061893463,-0.10547000169754028,-0.005100000184029341,0.04830000177025795,0.04861000180244446,0.14717000722885132,-0.05737999826669693],[-0.08167000114917755,0.03553000092506409,-0.04676000028848648,0.027529999613761902,-0.01143999956548214,0.0958700031042099,-0.029729999601840973,0.13954000174999237,-0.007470000069588423,0.3425599932670593,0.033410001546144485],[0.09153000265359879,-0.022110000252723694,-0.01923999935388565,0.16609999537467957,0.13279999792575836,-0.10633999854326248,0.07147999852895737,0.14720000326633453,0.09949000179767609,-0.018850000575184822,-0.010830000042915344],[-0.038690000772476196,0.11467000097036362,-0.0065899998880922794,0.08855000138282776,-0.032590001821517944,0.13176000118255615,-0.07113999873399734,0.2170100063085556,-0.0509600006043911,0.14868000149726868,-0.1244100034236908],[-0.08141999691724777,0.17478999495506287,-0.010529999621212482,0.04893999919295311,-0.06671000272035599,-0.016289999708533287,-0.020360000431537628,0.14159999787807465,0.04039999842643738,-0.12835000455379486,-0.027960000559687614],[0.016750000417232513,-0.07142999768257141,-0.1536799967288971,-0.06182999908924103,-0.014209999702870846,0.07216999679803848,-0.0016700000269338489,-0.08794999867677689,-0.17138999700546265,-0.011760000139474869,0.1619900017976761],[0.09939000010490417,0.08866000175476074,0.010280000045895576,0.0004799999878741801,0.05711999908089638,-0.06357000023126602,0.05705000087618828,0.030950000509619713,-0.043719999492168427,-0.07295999675989151,0.09762000292539597],[-0.1273999959230423,-0.025919999927282333,0.03367000073194504,0.03440000116825104,-0.2357800006866455,0.04284999892115593,0.0400799997150898,0.19041000306606293,0.08473999798297882,0.27167001366615295,-0.129380002617836],[0.07981999963521957,-0.04977000132203102,0.03652999922633171,0.2539199888706207,0.016839999705553055,-0.021940000355243683,-0.3086000084877014,-0.07608000189065933,-0.2668299973011017,-0.1453000009059906,0.006070000119507313],[-0.18458999693393707,0.19483999907970428,-0.11731000244617462,0.07326000183820724,0.012129999697208405,0.046950001269578934,-0.01840999908745289,0.19821999967098236,-0.0686199963092804,0.01940000057220459,-0.14936000108718872],[-0.09628000110387802,-0.07002999633550644,-0.10281000286340714,-0.012129999697208405,0.2487799972295761,0.02508999966084957,0.1517000049352646,0.18493999540805817,-0.09839999675750732,0.049890000373125076,-0.14072999358177185],[-0.04613000154495239,-0.02565000019967556,-0.026590000838041306,-0.12321999669075012,-0.21398000419139862,0.20534999668598175,-0.19189000129699707,0.05048999935388565,0.023569999262690544,-0.053690001368522644,-0.04453999921679497],[-0.0473099984228611,-0.07998000085353851,-0.05674999952316284,-0.09728000313043594,-0.33107998967170715,-0.014220000244677067,0.2088100016117096,-0.11781000345945358,-0.0378899984061718,0.0320499986410141,-0.14959000051021576],[0.025350000709295273,-0.11489000171422958,0.15443000197410583,0.0481100007891655,0.19589999318122864,0.07799000293016434,0.05364000052213669,-0.05033000186085701,0.052299998700618744,0.13136999309062958,0.3166100084781647],[0.12851999700069427,0.040119998157024384,0.13198000192642212,0.11648999899625778,-0.10089000314474106,0.032519999891519547,-0.054829999804496765,-0.0478999987244606,-0.09239999949932098,-0.21206000447273254,0.06177999824285507],[-0.0002500000118743628,-0.017170000821352005,0.22366000711917877,0.008659999817609787,-0.32537999749183655,-0.2312999963760376,-0.00977999996393919,-0.1917400062084198,-0.13766999542713165,-0.11864999681711197,-0.08462999761104584],[-0.09529999643564224,0.1535699963569641,-0.3599100112915039,0.05886000022292137,-0.12210000306367874,-0.013659999705851078,-0.07599999755620956,0.07257000356912613,-0.021209999918937683,-0.03181000053882599,-0.26438000798225403],[0.1035500019788742,0.07276999950408936,0.23322999477386475,-0.1977899968624115,0.028610000386834145,0.18147000670433044,-0.0327799990773201,0.2999800145626068,0.22405000030994415,-0.03376000002026558,0.04329000040888786],[0.17219999432563782,-0.022870000451803207,0.07084999978542328,0.1299699991941452,0.13926999270915985,-0.20321999490261078,-0.03401000052690506,-0.08901999890804291,0.059780001640319824,0.09412000328302383,0.2013300061225891],[-0.08714000135660172,-0.012120000086724758,0.08714000135660172,-0.07739999890327454,0.11949999630451202,0.22306999564170837,-0.03717000037431717,0.1900400072336197,0.005100000184029341,-0.01131999958306551,-0.1531199961900711],[0.12224999815225601,0.03378000110387802,-0.3257499933242798,0.21491000056266785,-0.12856000661849976,0.04374000057578087,-0.1720300018787384,-0.06603000313043594,0.029689999297261238,-0.15835000574588776,-0.1500599980354309],[0.19877000153064728,0.22148999571800232,-0.0010000000474974513,-0.10743000358343124,-0.023579999804496765,0.010339999571442604,0.07430999726057053,0.09492000192403793,-0.012620000168681145,0.09138000011444092,0.20258000493049622],[0.018629999831318855,-0.024469999596476555,-0.005210000090301037,0.03824000060558319,-0.16769999265670776,0.06802999973297119,-0.1531600058078766,-0.13484999537467957,0.0012400000123307109,0.2563300132751465,0.0618400014936924],[-0.03943999856710434,-0.034790001809597015,-0.05685000121593475,0.09258999675512314,0.018449999392032623,-0.1103999987244606,-0.23797999322414398,0.20782999694347382,0.2291100025177002,0.05037999898195267,0.0756400004029274],[-0.02782999910414219,-0.03852999955415726,0.22596000134944916,0.0708099976181984,0.28036999702453613,0.030230000615119934,-0.14160999655723572,-0.031190000474452972,-0.20114000141620636,-0.1303199976682663,0.15926000475883484],[0.05299000069499016,0.07106000185012817,0.2661600112915039,0.022630000486969948,-0.18313999474048615,0.1770000010728836,0.09865999966859818,0.047120001167058945,-0.0646200031042099,-0.16425999999046326,-0.04755000025033951],[0.12955999374389648,0.11885999888181686,0.11683999747037888,0.12706999480724335,0.037689998745918274,0.05392000079154968,0.024380000308156013,0.09763000160455704,0.14941999316215515,-0.12400999665260315,-0.16502000391483307],[0.03446999937295914,0.23714999854564667,-0.18560999631881714,-0.019300000742077827,-0.04836000129580498,0.1165900006890297,0.06328000128269196,0.12555000185966492,-0.039719998836517334,-0.058010000735521317,-0.1278800070285797],[-0.0014100000262260437,-0.046720001846551895,-0.011119999922811985,-0.043719999492168427,0.13572999835014343,0.29646000266075134,-0.11432000249624252,-0.0018899999558925629,-0.06964000314474106,0.031369999051094055,-0.09690000116825104],[0.10129000246524811,-0.07795999944210052,0.09042000025510788,0.01152000017464161,-0.18219999969005585,-0.08084999769926071,-0.21563999354839325,0.08344999700784683,0.11794999986886978,-0.025019999593496323,0.0384799987077713],[-0.07193999737501144,-0.07129999995231628,-0.10944999754428864,-0.06159000098705292,0.020010000094771385,-0.20403000712394714,0.11148999631404877,-0.018789999186992645,0.12296999990940094,0.22160999476909637,-0.13113999366760254],[-0.032590001821517944,-0.06290999799966812,-0.024450000375509262,0.01071999967098236,0.004209999926388264,-0.08675000071525574,-0.014430000446736813,-0.23330999910831451,0.0816899985074997,-0.12097000330686569,-0.012910000048577785],[0.3663400113582611,0.04504000023007393,0.0003699999942909926,0.3092699944972992,-0.007710000034421682,-0.057500001043081284,-0.19291000068187714,-0.023019999265670776,-0.06860999763011932,0.07199999690055847,0.2599399983882904],[0.0712599977850914,0.15183000266551971,0.22045999765396118,0.1641799956560135,0.05494000017642975,0.05195999890565872,-0.10467000305652618,0.054349999874830246,0.09749999642372131,0.056460000574588776,-0.1167600005865097],[-0.05714999884366989,-0.04004000127315521,0.03147999942302704,0.01735999993979931,-0.16824999451637268,-0.2055400013923645,-0.08262000232934952,-0.0008900000248104334,-0.20805999636650085,0.19183999300003052,0.007899999618530273],[-0.20847000181674957,0.013079999946057796,0.022089999169111252,-0.09509000182151794,0.07355999946594238,0.11531999707221985,0.06611000001430511,-0.029340000823140144,0.09403999894857407,-0.06954000145196915,-0.27423998713493347],[0.025860000401735306,0.13812999427318573,0.15550999343395233,0.06362999975681305,0.1298999935388565,-0.029559999704360962,-0.02662999927997589,0.33851000666618347,-0.015930000692605972,0.10379000008106232,-0.011009999550879002],[-0.013150000013411045,-0.08473999798297882,0.0030300000216811895,-0.009789999574422836,0.03505999967455864,-0.007930000312626362,0.06881000101566315,-0.13558000326156616,-0.06086000055074692,-0.04489000141620636,0.06627000123262405],[-0.05415000021457672,-0.009829999879002571,-0.09255000203847885,-0.2505599856376648,0.13145999610424042,0.12342000007629395,-0.16795000433921814,0.10187000036239624,-0.20658999681472778,0.2515299916267395,-0.016119999811053276],[-0.01104000024497509,-0.10445000231266022,0.07416000217199326,0.03432000055909157,0.22235000133514404,0.04292000085115433,-0.14655999839305878,-0.20364999771118164,0.043150000274181366,-0.10006000101566315,-0.07428999990224838],[-0.052719999104738235,0.02679000049829483,-0.15960000455379486,0.15818999707698822,0.10488999634981155,0.04799000173807144,-0.33967000246047974,-0.2565700113773346,-0.13975000381469727,0.041749998927116394,0.02580999955534935],[-0.10044000297784805,0.13831999897956848,0.18738000094890594,0.055479999631643295,-0.044829998165369034,0.27978000044822693,0.034449998289346695,0.03061000071465969,-0.009929999709129333,0.044520001858472824,0.0647599995136261],[0.03610000014305115,0.1624000072479248,0.09223999828100204,0.2212900072336197,-0.2175700068473816,0.058559998869895935,-0.259799987077713,0.35106000304222107,0.05640999972820282,0.06977999955415726,-0.12506000697612762],[0.034690000116825104,0.010619999840855598,-0.02126000076532364,-0.0008299999753944576,0.12394999712705612,-0.06707999855279922,-0.1632699966430664,-0.012269999831914902,0.004840000066906214,0.397350013256073,-0.032430000603199005],[0.15654000639915466,0.04173000156879425,0.10678999871015549,-0.03265000134706497,0.10008999705314636,0.000859999970998615,-0.11695999652147293,0.03423000127077103,0.15680000185966492,0.01363999955356121,-0.04422999918460846],[0.1840600073337555,0.0017800000496208668,-0.06665000319480896,0.02841999940574169,-0.19157999753952026,0.020800000056624413,0.10817000269889832,-0.26973000168800354,0.03734999895095825,0.040150001645088196,-0.228410005569458],[-0.16675999760627747,-0.08268000185489655,0.0765099972486496,-0.04309000074863434,0.07116000354290009,0.021740000694990158,-0.05428000167012215,-0.16030000150203705,0.02621000073850155,0.055240001529455185,-0.2726899981498718],[-0.06387999653816223,-0.08716999739408493,-0.027230000123381615,-0.23499999940395355,-0.05620000138878822,0.17952999472618103,0.22206999361515045,0.24161000549793243,-0.0030799999367445707,0.010449999943375587,0.057590000331401825],[-0.017340000718832016,0.03536999970674515,0.10241000354290009,0.07879000157117844,0.1047699972987175,-0.08312000334262848,-0.10577999800443649,0.07517000287771225,-0.022290000692009926,-0.03117999993264675,-0.0362199991941452],[0.013089999556541443,0.056609999388456345,0.1755100041627884,-0.09130000323057175,0.2588599920272827,-0.2710599899291992,-0.09969999641180038,0.24650000035762787,-0.003710000077262521,0.02807999961078167,0.21235999464988708],[-0.1998399943113327,0.11853999644517899,-0.20319999754428864,0.07212000340223312,-0.05770000070333481,0.2742899954319,-0.031369999051094055,0.16519999504089355,-0.1970299929380417,0.04095999896526337,0.05934000015258789],[-0.0257399994879961,0.025909999385476112,0.0195700004696846,0.011380000039935112,0.14684000611305237,0.18077999353408813,-0.010979999788105488,-0.07500000298023224,-0.06447000056505203,-0.05163000151515007,-0.01995999924838543],[-0.1261100023984909,-0.006380000151693821,-0.11465000361204147,0.05508999899029732,0.33197999000549316,-0.030319999903440475,0.25756001472473145,0.21211999654769897,0.006920000072568655,-0.04809999838471413,-0.008100000210106373],[-0.1675100028514862,0.16408999264240265,-0.18166999518871307,-0.15498000383377075,-0.17684000730514526,-0.05900000035762787,0.23750999569892883,-0.045090001076459885,0.1441500037908554,-0.05844999849796295,-0.21480000019073486],[-0.05939999967813492,-0.09651999920606613,-0.04690000042319298,-0.04774999991059303,-0.12160000205039978,-0.008089999668300152,0.05096999928355217,-0.10029000043869019,-0.11695999652147293,0.0033400000538676977,-0.19098000228405],[-0.02346000075340271,-0.22472000122070312,0.03027000091969967,0.05703999847173691,0.18614999949932098,-0.12279000133275986,0.24021999537944794,-0.02768000029027462,-0.24726000428199768,0.08443000167608261,0.14372999966144562],[-0.2872999906539917,-0.17892000079154968,-0.04611000046133995,-0.19325000047683716,-0.03044999949634075,0.021069999784231186,0.17071999609470367,-0.15795999765396118,-0.1447799950838089,0.06847000122070312,3.9999998989515007e-05],[0.09624999761581421,-0.09036999940872192,-0.052799999713897705,0.025350000709295273,0.3250400125980377,0.010049999691545963,-0.10761000216007233,-0.21065999567508698,0.009990000165998936,-0.0529399998486042,0.08455999940633774],[-0.08372999727725983,-0.048990000039339066,-0.18366999924182892,-0.04645000025629997,-0.30430999398231506,0.09053999930620193,0.03077000007033348,-0.1949699968099594,0.018230000510811806,-0.12430000305175781,-0.2190600037574768],[-0.010379999876022339,-0.09608999639749527,0.004519999958574772,-0.031950000673532486,0.10623999685049057,0.03852999955415726,-0.05521000176668167,-0.09342999756336212,-0.1052900031208992,0.12657000124454498,0.185139998793602],[-0.04047999903559685,0.24785999953746796,-0.0522800013422966,0.11856000125408173,-0.18655000627040863,0.13539999723434448,-0.12167999893426895,0.0832500010728836,0.11413999646902084,-0.0471000000834465,-0.08970999717712402],[-0.10627999901771545,-0.06955999881029129,-0.20378999412059784,-0.025119999423623085,0.030139999464154243,0.062470000237226486,0.16568000614643097,-0.08295000344514847,-0.10595999658107758,0.05195999890565872,0.21663999557495117],[0.030139999464154243,0.09121999889612198,0.059579998254776,-0.006099999882280827,0.05302000045776367,0.13085000216960907,-0.023749999701976776,0.011070000007748604,-0.0391400009393692,-0.07979000359773636,-0.07130999863147736],[0.11027999967336655,-0.2326900064945221,-0.23690000176429749,0.02020999975502491,0.04989999905228615,0.11987999826669693,-0.16718000173568726,0.03215000033378601,-0.05550000071525574,0.020080000162124634,-0.05471999943256378],[0.019990000873804092,-0.11726000159978867,-0.0406700000166893,0.05090999975800514,-0.30331000685691833,-0.11082000285387039,0.15849000215530396,-0.12512999773025513,-0.014229999855160713,0.024960000067949295,0.12285999953746796],[-0.058959998190402985,-0.2388399988412857,-0.03376999869942665,-0.09713000059127808,-0.053700000047683716,0.05795000120997429,0.017999999225139618,-0.22224000096321106,-0.10559000074863434,-0.19086000323295593,-0.13285000622272491],[-0.035750001668930054,-0.19222000241279602,0.4078899919986725,0.1809699982404709,0.11404000222682953,-0.19057999551296234,-0.07212000340223312,-0.01721999980509281,0.03254000097513199,0.05517999827861786,0.2091899961233139],[-0.1338600069284439,0.07021000236272812,-0.14441999793052673,-0.015399999916553497,-0.03951000049710274,-0.026650000363588333,0.1720699965953827,0.07037000358104706,-0.11625000089406967,0.11439000070095062,0.16619999706745148],[0.2654300034046173,0.042249999940395355,0.2932699918746948,0.09686999768018723,0.14499999582767487,0.04024000093340874,0.08722999691963196,0.0737600028514862,0.11677999794483185,-0.07655999809503555,0.4088999927043915],[-0.026660000905394554,-0.3688899874687195,-0.0982699990272522,-0.3495500087738037,-0.07531999796628952,0.11286000162363052,0.1354299932718277,-0.09532000124454498,-0.0729999989271164,-0.2429099977016449,-0.08056999742984772],[0.16324999928474426,-0.13710999488830566,0.08400999754667282,-0.05048000067472458,-0.13885000348091125,-0.18562999367713928,0.11050000041723251,-0.06199000030755997,0.2973400056362152,-0.08122999966144562,0.05372000113129616],[-0.1534699946641922,0.16042999923229218,-0.008190000429749489,-0.14701999723911285,0.014580000191926956,0.28139999508857727,-0.045579999685287476,0.07752999663352966,-0.01769999973475933,-0.28999999165534973,-0.008089999668300152],[-0.14386999607086182,0.04121999815106392,-0.07643000036478043,0.005119999870657921,-0.17167000472545624,-0.0011899999808520079,-0.1256999969482422,0.05212000012397766,0.12962999939918518,-0.09515000134706497,-0.27854999899864197],[-0.03658999875187874,-0.09646999835968018,-0.016850000247359276,-0.006599999964237213,0.08963999897241592,-0.08611000329256058,0.058159999549388885,-0.07179000228643417,-0.25457999110221863,0.04871999844908714,-0.06898999959230423],[-0.10296999663114548,-0.08041000366210938,-0.11818999797105789,0.018549999222159386,-0.0364300012588501,0.18145999312400818,0.02759999968111515,-0.07597000151872635,-0.11033999919891357,-0.0902400016784668,0.18203000724315643],[-0.13842999935150146,0.022590000182390213,-0.004569999873638153,-0.14409999549388885,-0.08566000312566757,0.28150999546051025,0.09965000301599503,0.163100004196167,0.14483000338077545,-0.2939800024032593,0.0778999999165535],[-0.08884000033140182,5.999999848427251e-05,-0.45061999559402466,0.052299998700618744,0.2101600021123886,0.03180000185966492,-0.04774999991059303,0.001449999981559813,-0.09920000284910202,-0.15338000655174255,0.02817000076174736],[0.07610999792814255,-0.17330999672412872,0.16120000183582306,0.29284998774528503,0.10543999820947647,-0.1761299967765808,-0.2291799932718277,0.013399999588727951,-0.11168000102043152,-0.024250000715255737,0.02498999983072281],[0.03740999847650528,-0.41150999069213867,0.1604599952697754,-0.18082000315189362,0.11285000294446945,-0.04400999844074249,0.06168000027537346,-0.046069998294115067,0.06712000072002411,-0.021309999749064445,-0.09331999719142914],[-0.12806999683380127,0.25196000933647156,-0.02944999933242798,0.11042000353336334,-0.012609999626874924,0.054510001093149185,0.03294000029563904,0.11461000144481659,-0.06661999970674515,0.02500000037252903,-0.010710000060498714],[0.014910000376403332,0.022280000150203705,0.14334000647068024,-0.17463000118732452,0.2477400004863739,0.08137000352144241,0.08704999834299088,0.14322000741958618,-0.01039000041782856,-0.07592999935150146,0.24970999360084534],[-0.022129999473690987,-0.02126000076532364,0.019029999151825905,-0.05186000093817711,0.09864000231027603,0.0254100002348423,0.0928800031542778,-0.013399999588727951,0.024150000885128975,0.03217000141739845,-0.01157000008970499],[0.1061599999666214,-0.06456000357866287,0.20531000196933746,0.28123998641967773,0.048590000718832016,-0.022779999300837517,-0.46623000502586365,-0.14618000388145447,-0.02013999968767166,0.05418999865651131,0.20427000522613525],[-0.22596000134944916,-0.03626000136137009,-0.11680000275373459,-0.15279999375343323,-0.21571999788284302,-0.09605000168085098,0.03407000005245209,0.027389999479055405,-0.10969000309705734,-0.04196000099182129,0.15098999440670013],[-0.014639999717473984,0.1500300019979477,0.11588999629020691,-0.06573999673128128,0.011470000259578228,-0.03099999949336052,-0.07135999947786331,0.11647000163793564,0.28676000237464905,-0.21482999622821808,-0.11502999812364578],[-0.0398700013756752,-0.2805599868297577,-0.036649998277425766,0.034370001405477524,-0.30555999279022217,-0.1720300018787384,0.3101699948310852,-0.27682000398635864,-0.3829900026321411,0.19908000528812408,0.12306000292301178],[-0.024769999086856842,0.10904999822378159,-0.2542499899864197,0.02329999953508377,-0.13016000390052795,0.07458999752998352,-0.12184999883174896,0.17338000237941742,-0.1759600043296814,0.042410001158714294,-0.16080999374389648],[-0.07573000341653824,-0.10372000187635422,-0.10814999788999557,-0.060019999742507935,-0.0972599983215332,-0.015309999696910381,0.008299999870359898,-0.20578999817371368,-0.14640000462532043,0.11588999629020691,-0.040219999849796295],[-0.20681999623775482,-0.02607000060379505,0.09125000238418579,-0.18634000420570374,0.056359998881816864,-0.13301999866962433,0.18503999710083008,-0.0958700031042099,0.1438799947500229,0.26759999990463257,-0.03818000108003616],[-0.07361999899148941,0.07643000036478043,-0.03604000061750412,-0.12454000115394592,0.11406999826431274,0.188510000705719,0.17383000254631042,0.07237999886274338,-0.05730000138282776,0.004170000087469816,0.006260000169277191],[0.2777700126171112,-0.09899000078439713,0.18222999572753906,-0.06224000081419945,0.03187999874353409,-0.0668099969625473,0.06662999838590622,0.016140000894665718,-0.056120000779628754,0.03539999946951866,0.07116000354290009],[-0.24017000198364258,0.09562999755144119,0.12477999925613403,-0.12018000334501266,-0.00887999963015318,0.13857999444007874,0.3511500060558319,-0.043859999626874924,-0.08161000162363052,-0.11071000248193741,-0.05012999847531319],[0.01971999928355217,0.11326999962329865,-0.013319999910891056,0.12498000264167786,0.15546999871730804,0.26302000880241394,-0.008740000426769257,-0.0031900000758469105,-0.028710000216960907,0.3199799954891205,-0.13981999456882477],[-0.045660000294446945,0.04523000121116638,0.058740001171827316,0.17225000262260437,-0.17815999686717987,0.00863999966531992,-0.12323000282049179,-0.1681700050830841,-0.0722699984908104,0.14329999685287476,-0.19120000302791595],[0.021330000832676888,0.19176000356674194,0.016170000657439232,-0.08567000180482864,-0.09845999628305435,-0.05104000121355057,-0.03894999995827675,0.1238899976015091,0.14595000445842743,0.022539999336004257,0.011970000341534615],[0.05590999871492386,-0.0508200004696846,-0.01785000041127205,0.1474200040102005,0.18786999583244324,-0.055799998342990875,-0.06129999831318855,-0.21196000277996063,-0.006949999835342169,-0.13954000174999237,0.037379998713731766],[0.22440999746322632,-0.0435199998319149,0.14635999500751495,0.3816800117492676,0.2720000147819519,-0.007699999958276749,-0.2612000107765198,-0.09116999804973602,0.026329999789595604,0.0076500000432133675,0.2612299919128418],[0.16329999268054962,-0.007290000095963478,-0.025469999760389328,0.22623999416828156,-0.15241000056266785,0.12703999876976013,0.035100001841783524,0.13689999282360077,0.1747400015592575,0.10305999964475632,0.012319999746978283],[0.1222200021147728,0.09098000079393387,-0.08752000331878662,-0.10289999842643738,-0.09898000210523605,-0.13478000462055206,0.058410000056028366,0.048250000923871994,0.014560000039637089,0.026329999789595604,-0.07158000022172928],[-0.04264000058174133,0.1145699992775917,-0.05632000043988228,-0.19248999655246735,0.099590003490448,0.05386999994516373,0.00698000006377697,-0.009650000371038914,-0.0917000025510788,0.07715000212192535,0.12646999955177307],[0.1159600019454956,-0.1647000014781952,-0.09877000004053116,-0.030519999563694,0.09115000069141388,0.16598999500274658,0.33796000480651855,0.12570999562740326,0.0745600014925003,-0.14646999537944794,-0.20482000708580017],[-0.11530999839305878,0.02548000030219555,-0.04433999955654144,-0.24219000339508057,0.12404999881982803,0.13304999470710754,0.32919999957084656,-0.048259999603033066,0.23678000271320343,0.04027000069618225,0.21668000519275665],[0.23858000338077545,0.09432999789714813,0.10224000364542007,-0.13816000521183014,-0.06379999965429306,-0.02507999911904335,-0.08918999880552292,-0.0863099992275238,0.08100000023841858,0.04033999890089035,0.044449999928474426],[0.10662999749183655,-0.0049299998208880424,0.11031000316143036,-0.02184000052511692,-0.10271000117063522,-0.11824999749660492,-0.16311000287532806,0.06013999879360199,0.23885999619960785,-0.016049999743700027,0.12046000361442566],[-0.0628800019621849,-0.06831999868154526,-0.14324000477790833,-0.06686999648809433,-0.2841300070285797,-0.13495999574661255,-0.18618999421596527,-0.07152000069618225,-0.02775000035762787,-0.006659999955445528,-0.08288999646902084],[0.07846999913454056,0.1725499927997589,-0.18634000420570374,0.011819999665021896,-0.17406000196933746,0.11524999886751175,-0.11187999695539474,0.28207001090049744,0.12841999530792236,0.1041100025177002,0.057840000838041306],[0.17003999650478363,-0.08100000023841858,0.29047998785972595,0.2187100052833557,0.2441900074481964,0.10662999749183655,-0.09245000034570694,0.01027000043541193,0.01962999999523163,-0.060189999639987946,0.1050800010561943],[-0.0427200011909008,-0.1010499969124794,-0.12498000264167786,0.053449999541044235,-0.06293000280857086,-0.21220999956130981,-0.0750499963760376,-0.002469999948516488,-0.028669999912381172,0.09741000086069107,-0.10739000141620636],[0.0894400030374527,-0.00887999963015318,0.08566000312566757,-0.1656699925661087,0.09696000069379807,0.02613000012934208,-0.18562999367713928,-0.07735999673604965,0.18119999766349792,-0.16854999959468842,-0.17644000053405762],[0.08332999795675278,-0.05996000021696091,0.04261999949812889,0.08845999836921692,-0.015610000118613243,-0.21893000602722168,-0.08516000211238861,0.04303000122308731,0.07689999788999557,-0.1702200025320053,-0.03249000012874603],[-0.009730000048875809,0.03666999936103821,-0.017820000648498535,0.39625999331474304,0.0628800019621849,-0.1818699985742569,0.01384000014513731,0.029659999534487724,0.06007000058889389,0.2333499938249588,0.03765999898314476],[-0.03237000107765198,-0.28167998790740967,0.01582000032067299,-0.08201999962329865,0.14103999733924866,0.0328500010073185,0.11745999753475189,-0.02102999947965145,-0.10299000144004822,-0.16524000465869904,-0.2026199996471405],[-0.028310000896453857,0.00343000004068017,-0.1347000002861023,-0.0859299972653389,0.03068000078201294,0.2953700125217438,0.06919000297784805,0.055309999734163284,0.08833999931812286,0.022760000079870224,-0.32561999559402466],[-0.06696999818086624,0.13268999755382538,-0.0573900006711483,0.10805000364780426,-0.07030999660491943,0.019589999690651894,-0.14285999536514282,0.08969999849796295,-0.21990999579429626,0.18355000019073486,0.0867300033569336],[-0.06334999948740005,0.15932999551296234,-0.07034000009298325,-0.0811299979686737,-0.061489999294281006,0.0239499993622303,0.15454000234603882,0.054090000689029694,0.0012799999676644802,-0.16075000166893005,0.02928999997675419],[0.09909000247716904,-0.14337000250816345,0.04075000062584877,-0.0026199999265372753,-0.11768999695777893,-0.18871000409126282,-0.0732399970293045,0.004980000201612711,0.19676999747753143,-0.0902400016784668,-0.06072000041604042],[-0.05959000065922737,0.09217999875545502,-0.051660001277923584,-0.022019999101758003,-0.15418000519275665,0.23833000659942627,-0.02029000036418438,0.13818000257015228,0.01298999972641468,0.1446000039577484,-0.11302000284194946],[0.047929998487234116,-0.2766999900341034,-0.03660000115633011,0.1139099970459938,-0.0662899985909462,-0.06380999833345413,0.13072000443935394,0.04413999989628792,0.004490000195801258,0.33296999335289,0.08528000116348267],[0.09752999991178513,-0.18922999501228333,0.16440999507904053,-0.15725000202655792,-0.1865600049495697,-0.26723000407218933,-0.11282999813556671,-0.07433000206947327,-0.0063299997709691525,-0.1627500057220459,0.12428999692201614],[0.12897999584674835,-0.18201999366283417,-0.034619998186826706,-0.044179998338222504,-0.09352000057697296,-0.2423900067806244,0.021409999579191208,-0.06162000074982643,0.002409999957308173,-0.15520000457763672,-0.05349000170826912],[0.09055999666452408,-0.08681000024080276,0.09991999715566635,0.10879000276327133,0.07624000310897827,-0.10852999985218048,0.0236200001090765,-0.05683000013232231,-0.014039999805390835,0.31709998846054077,0.17090000212192535],[-0.1516299992799759,-0.21150000393390656,-0.0449099987745285,0.047839999198913574,-0.015250000171363354,-0.13961000740528107,-0.00046999999904073775,-0.0528700016438961,-0.15174999833106995,0.0973299965262413,-0.15958000719547272],[0.09916000068187714,-0.12116999924182892,0.02979999966919422,0.03671000152826309,0.04456000030040741,-0.2626799941062927,0.1447400003671646,-0.08291999995708466,0.18751999735832214,0.2013999968767166,0.07943999767303467],[0.19404999911785126,-0.14612999558448792,0.09751000255346298,-0.02198999933898449,0.03855999931693077,-0.014739999547600746,0.053300000727176666,0.08975999802350998,0.07182999700307846,0.017570000141859055,-0.19182999432086945],[-0.1275400072336197,-0.07802999764680862,-0.06335999816656113,-0.009859999641776085,0.1930299997329712,0.09617000073194504,0.006289999932050705,-0.08516000211238861,-0.05443999916315079,-0.021209999918937683,0.04648999869823456],[0.15001000463962555,0.16015000641345978,-0.21144999563694,-0.08094999939203262,-0.07321999967098236,0.19447000324726105,0.04134000092744827,0.032280001789331436,-0.07851000130176544,-0.06689999997615814,0.026839999482035637],[-0.09435000270605087,0.06882999837398529,-0.22208000719547272,-0.16925999522209167,-0.17348000407218933,-0.04334000125527382,0.1740099936723709,-0.04836000129580498,0.17093999683856964,0.14452999830245972,-0.24098999798297882],[-0.03596999868750572,0.11537999659776688,-0.022579999640583992,-0.1430799961090088,0.11937999725341797,-0.02443999983370304,-0.12681999802589417,-0.07181999832391739,0.07874000072479248,0.0007800000021234155,0.08912000060081482],[0.055879998952150345,0.1064700037240982,0.04416000097990036,-0.0816200003027916,-0.25839000940322876,-0.09562999755144119,-0.007519999984651804,-0.14903999865055084,0.17725999653339386,-0.055730000138282776,-0.1208299994468689],[-0.04104999825358391,-0.12387999892234802,0.11055000126361847,0.16920000314712524,0.3530699908733368,-0.35133999586105347,0.05965999886393547,-0.06518000364303589,-0.07288999855518341,0.19112999737262726,-0.11319000273942947],[0.0031900000758469105,0.311599999666214,-0.09009999781847,0.01759999990463257,0.05451999977231026,-0.11757999658584595,0.1834300011396408,0.033959999680519104,0.03884999826550484,-0.05167999863624573,0.0954200029373169],[0.044509999454021454,0.15740999579429626,-0.04496999830007553,-0.11121000349521637,-0.007369999773800373,-0.012729999609291553,-0.003590000094845891,0.12424000352621078,-0.09031999856233597,0.20137999951839447,0.029160000383853912],[0.1253499984741211,0.06577999889850616,0.1986899971961975,-0.20434999465942383,-0.0838799998164177,0.006819999776780605,-0.33246999979019165,0.20904000103473663,0.27094000577926636,-0.10441000014543533,0.10062000155448914],[-0.08392000198364258,-0.0530799999833107,0.12870000302791595,-0.012000000104308128,0.12266000360250473,0.16967999935150146,0.04376000165939331,0.07481999695301056,-0.07281000167131424,-0.020500000566244125,0.2693299949169159],[0.08708000183105469,-0.13481000065803528,0.32027000188827515,-0.12479999661445618,0.14007000625133514,-0.19001999497413635,0.15097999572753906,-0.051589999347925186,0.1080700010061264,-0.041110001504421234,0.013819999992847443],[-0.0040799998678267,-0.14267000555992126,0.02783999964594841,0.09375,0.17770999670028687,-0.038270000368356705,0.060189999639987946,-0.1033800020813942,-0.04625999927520752,-0.06632000207901001,-0.11601000279188156],[0.07565999776124954,0.08234000205993652,0.17608000338077545,-0.1143300011754036,0.17878000438213348,0.02590000070631504,0.04191000014543533,-0.057670000940561295,-0.03390999883413315,0.2024099975824356,0.08513999730348587],[-0.10554999858140945,-0.12160000205039978,-0.20529000461101532,-0.06047999858856201,-0.06984999775886536,0.020640000700950623,0.15433000028133392,0.09937000274658203,-0.05209000036120415,-0.022630000486969948,-0.07779999822378159],[0.0558600015938282,0.17312000691890717,0.019279999658465385,0.11607000231742859,0.030969999730587006,0.157260000705719,-0.03864999860525131,0.13612000644207,-0.1610500067472458,0.0485600009560585,0.050850000232458115],[0.10643000155687332,-0.1449200063943863,0.16089999675750732,0.07997000217437744,0.091279998421669,-0.03903000056743622,0.0523499995470047,-0.17233000695705414,-0.11948999762535095,0.0914900004863739,0.1593099981546402],[-0.060440000146627426,-0.10041999816894531,-0.04117000102996826,-0.017330000177025795,-0.09341999888420105,0.14334000647068024,0.07598000019788742,-0.05009999871253967,-0.3942900002002716,0.06266000121831894,0.10627999901771545],[0.0838100016117096,-0.16990000009536743,0.2484000027179718,-0.04357000067830086,0.10920000076293945,-0.34174999594688416,0.01656999997794628,0.11403000354766846,-0.17228999733924866,-0.14560000598430634,-0.0935399979352951],[-0.0008299999753944576,-0.07797999680042267,0.08609999716281891,-0.18601000308990479,-0.17737999558448792,-0.2401999980211258,-0.011640000157058239,-0.023320000618696213,-0.06751000136137009,0.11518999934196472,0.07772000133991241],[-0.15570999681949615,-0.041850000619888306,-0.045660000294446945,-0.07231999933719635,0.019859999418258667,0.08450999855995178,0.1501999944448471,-0.2076999992132187,0.040059998631477356,-0.15045000612735748,0.12748999893665314],[-0.1672399938106537,0.14149999618530273,-0.23443999886512756,-0.0782800018787384,-0.19769999384880066,0.08551999926567078,0.14316999912261963,-0.014010000042617321,-0.04828000068664551,0.08034999668598175,-0.21803000569343567],[0.0005799999926239252,-0.2616100013256073,0.09364999830722809,0.025210000574588776,-0.05565999820828438,0.054010000079870224,0.004569999873638153,-0.21044999361038208,-0.06325999647378922,0.07501000165939331,-0.10736999660730362],[-0.07257000356912613,-0.16200000047683716,0.010449999943375587,-0.11012999713420868,-0.010119999758899212,0.16557000577449799,0.08389999717473984,-0.10950999706983566,-0.12264999747276306,0.13089999556541443,0.11811000108718872],[-0.1456799954175949,0.047040000557899475,-0.15649999678134918,-0.1400499939918518,0.08867999911308289,0.126460000872612,0.16481000185012817,0.10143999755382538,-0.15681999921798706,-0.013299999758601189,-0.08184000104665756],[0.14273999631404877,0.13353000581264496,0.0741799995303154,-0.3085800111293793,0.024150000885128975,-0.01510000042617321,0.3039099872112274,-0.034960001707077026,0.07643000036478043,-0.20208999514579773,0.1567700058221817],[0.13328999280929565,0.021490000188350677,0.24220000207424164,0.021570000797510147,-0.026009999215602875,-0.16708000004291534,0.07453999668359756,0.12985999882221222,0.1702200025320053,0.04845000058412552,0.15549999475479126],[-0.04351000115275383,-0.019130000844597816,0.13244999945163727,-0.08642999827861786,-0.09706000238656998,-0.09160000085830688,0.027160000056028366,-0.19401000440120697,-0.38297000527381897,0.0406000018119812,-0.1661899983882904],[-0.2112099975347519,0.07291000336408615,-0.39184999465942383,-0.16921000182628632,-0.07591000199317932,-0.0134699996560812,0.119159996509552,0.022299999371170998,0.006519999820739031,-0.15591999888420105,-0.09683000296354294],[-0.04676999896764755,-0.15360000729560852,0.006380000151693821,0.13463999330997467,0.0020099999383091927,0.17080999910831451,-0.1090100035071373,-0.133650004863739,-0.09408999979496002,-0.2261199951171875,0.026669999584555626],[0.08071999996900558,-0.10373999923467636,0.043880000710487366,-0.01955999992787838,0.15060000121593475,-0.045419998466968536,0.21195000410079956,-0.1225999966263771,-0.023770000785589218,0.1807900071144104,-0.010169999673962593],[-0.1853100061416626,-0.03880999982357025,0.0849199965596199,-0.08707000315189362,0.06378000229597092,-0.092009998857975,0.15973000228405,0.3201099932193756,0.2701199948787689,0.05094999819993973,-0.04623999819159508],[0.05987999960780144,-0.0951400026679039,0.08764000236988068,0.17399999499320984,0.09612999856472015,-0.1493699997663498,-0.30265000462532043,0.0015699999639764428,-0.07068999856710434,-0.05299000069499016,0.2633199989795685],[-0.008349999785423279,-0.1041800007224083,-0.2067199945449829,-0.03254000097513199,-0.09196999669075012,-0.07857000082731247,0.1530900001525879,0.10159999877214432,-0.16288000345230103,-0.04896000027656555,-0.25878000259399414],[-0.12357000261545181,0.08026999980211258,-0.005900000222027302,-0.22374999523162842,-0.07348000258207321,0.1560399979352951,-0.004350000061094761,-0.0696600005030632,0.05778999999165535,0.13841000199317932,-0.0020600000862032175],[0.06905999779701233,-0.18493999540805817,0.08285000175237656,0.09954000264406204,0.14824999868869781,0.1311199963092804,-0.05335000157356262,0.012790000066161156,-0.055330000817775726,-0.0427899993956089,0.13384999334812164],[-0.04523000121116638,0.0264699999243021,0.20694999396800995,0.21400000154972076,0.1028899997472763,0.14801999926567078,-0.09715999662876129,0.1295499950647354,-0.1334500014781952,0.32943999767303467,-0.09179999679327011],[0.026489999145269394,-0.04390000179409981,0.07718999683856964,-0.0016299999551847577,0.015449999831616879,-0.284060001373291,0.15197999775409698,0.05940999835729599,0.007269999943673611,0.07903999835252762,0.05697999894618988],[0.1207600012421608,-0.07838000357151031,-0.1480800062417984,-0.08601000159978867,0.020899999886751175,-0.1358799934387207,0.03409000113606453,-0.11846999824047089,-0.0012199999764561653,0.10555999726057053,0.04675000160932541],[0.02831999957561493,-0.024819999933242798,0.003019999945536256,0.0493599995970726,0.025040000677108765,0.10045000165700912,0.035679999738931656,0.3698999881744385,-0.03590000048279762,0.2004999965429306,0.06052999943494797],[-0.06903000175952911,0.01803000085055828,-0.18815000355243683,0.019169999286532402,-0.06911999732255936,0.27472999691963196,-0.008990000002086163,-0.030389999970793724,0.08608999848365784,0.1064700037240982,-0.29124000668525696],[0.041030000895261765,-0.20106999576091766,0.03894999995827675,-0.13439999520778656,0.01568000018596649,-0.1491599977016449,-0.030060000717639923,-0.05793999880552292,-0.08933000266551971,0.16957999765872955,-0.0849199965596199],[0.03149000182747841,0.08780000358819962,0.0979200005531311,0.20062999427318573,0.04836000129580498,-0.027729999274015427,0.0032999999821186066,0.14303000271320343,0.2305700033903122,0.1385599970817566,-0.06797000020742416],[0.08178000152111053,0.03846000134944916,0.05260999873280525,0.008369999937713146,0.040619999170303345,-0.18294000625610352,0.12314999848604202,-0.15094000101089478,0.1783600002527237,-0.05711999908089638,-0.10768000036478043],[0.042490001767873764,0.1745000034570694,-0.11590000241994858,-0.13648000359535217,-0.10078000277280807,0.06502000242471695,0.23777000606060028,0.3099299967288971,0.05844999849796295,0.1829099953174591,0.15153999626636505],[-0.15341000258922577,0.06793999671936035,0.20645000040531158,0.07064999639987946,-0.07011000066995621,-0.1081399992108345,-0.34681999683380127,0.018780000507831573,-0.12387000024318695,0.2025900036096573,0.20087000727653503],[-0.10628999769687653,0.08019000291824341,-0.07508999854326248,-0.061730001121759415,0.21897999942302704,0.0006200000061653554,0.015060000121593475,0.039009999483823776,-0.15275000035762787,-0.14178000390529633,-0.026119999587535858],[-0.035339999943971634,0.08675000071525574,0.04019999876618385,0.07560999691486359,-0.060759998857975006,0.03714999929070473,-0.11264000087976456,0.37567999958992004,0.20305000245571136,-0.06678000092506409,0.15985000133514404],[-0.091109998524189,0.015540000051259995,-0.1426199972629547,0.007199999876320362,-0.13865000009536743,-0.1160999983549118,-0.12901000678539276,0.01152000017464161,0.08540000021457672,0.1474200040102005,0.022379999980330467],[-0.19415999948978424,-0.029999999329447746,0.07983999699354172,0.023150000721216202,0.07762999832630157,-0.07283999770879745,0.01689000055193901,-0.13693000376224518,0.02865999937057495,-0.11830999702215195,0.2583799958229065],[-0.06036999821662903,0.05699000135064125,0.013779999688267708,-0.10053999722003937,-0.11428000032901764,-0.11877000331878662,-0.1816300004720688,0.10486999899148941,0.07897000014781952,0.10644999891519547,-0.0022100000642240047],[-0.0029299999587237835,0.2192700058221817,0.07257000356912613,0.0009200000204145908,0.03579000011086464,0.00022000000171829015,0.06815999746322632,0.21845999360084534,0.10753999650478363,0.11830999702215195,0.060100000351667404],[0.2264699935913086,0.0689999982714653,-0.056710001081228256,-0.25029000639915466,-0.2173900008201599,0.0023499999660998583,0.1041100025177002,0.094200000166893,0.006039999891072512,0.08911000192165375,-0.10621999949216843],[0.026329999789595604,0.16787000000476837,-0.10008999705314636,-0.26100999116897583,-0.1364399939775467,-0.11263000220060349,0.0799499973654747,0.0017300000181421638,-0.010449999943375587,-0.0391400009393692,-0.07785999774932861],[-0.11170999705791473,0.12268999963998795,0.009270000271499157,-0.13276000320911407,-0.05493000149726868,-0.014000000432133675,-0.005859999917447567,0.16505999863147736,-0.08275999873876572,-0.09010999649763107,0.014870000071823597],[-0.00033000000985339284,-0.13062000274658203,-0.02824000082910061,0.008419999852776527,-0.009259999729692936,-0.1398800015449524,0.15094999969005585,-0.09520000219345093,0.07254000008106232,-0.10268999636173248,0.2064400017261505],[-0.022110000252723694,0.00279999990016222,-0.017570000141859055,-0.015440000221133232,-0.30553001165390015,0.3535099923610687,-0.09098000079393387,0.06947000324726105,-0.09770999848842621,0.047609999775886536,-0.024970000609755516],[-0.03691999986767769,-0.046140000224113464,0.03522999957203865,0.26326000690460205,0.05187999829649925,0.24100999534130096,-0.02290000021457672,-0.10050000250339508,-0.14580999314785004,0.10865999758243561,0.0458500012755394],[-0.19482000172138214,-0.16042999923229218,-0.09672000259160995,-0.22758999466896057,0.14593000710010529,0.1455399990081787,0.092739999294281,0.11488000303506851,0.02879999950528145,0.04042999818921089,0.0948600023984909],[-0.12567000091075897,0.06165999919176102,-0.020560000091791153,0.08917000144720078,-0.034380000084638596,0.17941999435424805,-0.01759999990463257,0.10040000081062317,0.028610000386834145,0.06385000050067902,0.09531000256538391],[0.11208000034093857,0.1717199981212616,0.23274999856948853,0.09471999853849411,-0.021409999579191208,-0.07919999957084656,-0.09211000055074692,-0.0032999999821186066,0.2583099901676178,0.08139000087976456,0.04323999956250191],[0.18012000620365143,0.17600999772548676,0.04696999862790108,0.02046000026166439,-3.9999998989515007e-05,0.028049999848008156,-0.04503000155091286,0.19723999500274658,-0.1249300017952919,0.23006999492645264,0.0030700000934302807],[0.031190000474452972,0.01489999983459711,0.167930006980896,-0.10251999646425247,-0.030419999733567238,-0.13492000102996826,-0.13818000257015228,-0.00930000003427267,0.031690001487731934,-0.28297001123428345,-0.14097000658512115],[0.08043000102043152,0.23296000063419342,0.293040007352829,0.04763000085949898,0.3111799955368042,0.058889999985694885,-0.17279000580310822,0.06830000132322311,0.017389999702572823,-0.03683999925851822,0.25661998987197876],[-0.015799999237060547,0.08715999871492386,0.015650000423192978,0.010579999536275864,0.1605599969625473,0.0829399973154068,0.29374998807907104,0.02111000008881092,0.10743000358343124,0.10623999685049057,0.2429099977016449],[-0.2114800065755844,-0.07298000156879425,0.10984999686479568,0.01939000003039837,-0.018400000408291817,0.20336000621318817,0.060770001262426376,0.02638999931514263,-0.08846999704837799,0.07847999781370163,-0.08974999934434891],[-0.1450600028038025,0.23512999713420868,0.19294999539852142,0.06887000054121017,0.18291999399662018,0.16787000000476837,0.0681999996304512,0.10420999675989151,-0.001230000052601099,-0.04204000160098076,-0.07236000150442123],[0.20880000293254852,0.02157999947667122,0.08834999799728394,-0.1306000053882599,-0.11232999712228775,-0.08476000279188156,-0.025369999930262566,0.0668099969625473,0.08224000036716461,0.274150013923645,-0.3072200119495392],[0.07485000044107437,0.12906000018119812,0.026890000328421593,-0.14949999749660492,0.030980000272393227,0.0015999999595806003,0.03832999989390373,0.17791999876499176,0.179299995303154,-0.007269999943673611,0.1309099942445755],[0.1403599977493286,0.05795999988913536,0.04343000054359436,0.14500999450683594,-0.027140000835061073,-0.03468000143766403,-0.1385200023651123,0.0325700007379055,0.24977000057697296,0.06892000138759613,0.03058999963104725],[0.01145000010728836,-0.182669997215271,-0.041179999709129333,0.1838500052690506,-0.16666999459266663,-0.19925999641418457,-0.034129999577999115,-0.0378899984061718,-0.015890000388026237,0.10023000091314316,-0.04560000076889992],[0.10093999654054642,0.07038000226020813,0.1406099945306778,0.02944999933242798,0.019869999960064888,-0.02676999941468239,-0.09743999689817429,0.16575999557971954,0.15424999594688416,0.25235000252723694,0.08976999670267105]],"b":[-0.03197000175714493,0.06430000066757202,-0.1405400037765503,0.11106999963521957,-0.11872000247240067,-0.10787999629974365,-0.044039998203516006,-0.20550000667572021,-0.04961000010371208,-0.11531999707221985,0.24952000379562378,-0.19115999341011047,0.035930000245571136,0.03305999934673309,-0.05212000012397766,-0.0995199978351593,-0.006639999803155661,-0.05998999997973442,0.0010300000431016088,0.10813000053167343,0.0018899999558925629,-0.11406999826431274,0.0005099999834783375,-0.025459999218583107,0.15240000188350677,-0.033309999853372574,0.016759999096393585,-0.03027999959886074,0.08139000087976456,-0.08833000063896179,0.1975499987602234,0.08405999839305878,-0.018969999626278877,-0.02833000011742115,0.15970000624656677,-0.11743000149726868,-0.045419998466968536,-0.028929999098181725,0.0749799981713295,-0.10499999672174454,0.015879999846220016,0.18328000605106354,-0.0824899971485138,0.07028000056743622,-0.18416999280452728,-0.05762000009417534,-0.04780999943614006,0.018859999254345894,-0.09093999862670898,-0.1368200033903122,0.17608000338077545,0.03027000091969967,0.07044000178575516,0.0036800000816583633,0.11467000097036362,-0.13774999976158142,0.008899999782443047,-0.11901000142097473,-0.023830000311136246,-0.13124999403953552,0.10101000219583511,-0.13989999890327454,-0.10531999915838242,-0.10036999732255936,0.07986000180244446,-0.05844999849796295,0.07671000063419342,-0.1554899960756302,-0.07037000358104706,0.029179999604821205,0.12685999274253845,-0.01964000053703785,-0.04625999927520752,-0.15202000737190247,-0.06637000292539597,0.09803000092506409,-0.13420000672340393,0.08744999766349792,-0.0021800000686198473,-0.0754999965429306,0.13447999954223633,0.16037000715732574,-0.005470000207424164,-0.03974999859929085,-0.1304900050163269,-0.07806000113487244,0.008440000005066395,-0.014929999597370625,0.03505000099539757,0.07470999658107758,-0.14184999465942383,-0.24097999930381775,0.09567999839782715,0.026739999651908875,-0.02638000063598156,-0.13986000418663025,0.026489999145269394,0.011889999732375145,0.1413400024175644,0.11855000257492065,0.06521999835968018,-0.04341999813914299,0.020260000601410866,0.059769999235868454,-0.04926000162959099,-0.11488000303506851,-0.09200000017881393,-0.10649000108242035,-0.11808999627828598,-0.054349999874830246,-0.04481999948620796,0.13304999470710754,0.16190999746322632,-0.04002000018954277,0.18568000197410583,0.05398999899625778,-0.13616999983787537,0.06086999922990799,-0.13917000591754913,0.014120000414550304,-0.13597999513149261,0.032590001821517944,0.013159999623894691,-0.16888999938964844,-0.13220000267028809,-0.20839999616146088,-0.006310000084340572,-0.13747000694274902,-0.060029998421669006,-0.11890999972820282,-0.1825300008058548,-0.09385000169277191,0.18598000705242157,0.12601999938488007,-0.11620999872684479,0.09249000251293182,0.03243999928236008,0.039329998195171356,0.007160000037401915,-0.16582000255584717,0.2139499932527542,-0.0582600012421608,0.31679001450538635,-0.1296900063753128,0.16869999468326569,0.12161000072956085,-0.18796999752521515,-0.021139999851584435,0.07991000264883041,-0.06105000153183937,0.19156000018119812,-0.08601000159978867,-0.05542999878525734,0.20363999903202057,0.06985999643802643,-0.03303999826312065,0.08174999803304672,-0.009519999846816063,-0.06225999817252159,-0.0488400012254715,-0.02792000025510788,0.14429999887943268,0.09192000329494476,-0.08826000243425369,-0.08416999876499176,-0.13097000122070312,0.07850000262260437,-0.1286199986934662,-0.1360200047492981,-0.03984000161290169,-0.12398000061511993,-0.07423999905586243,-0.025110000744462013,0.010089999996125698,0.12675000727176666,-0.006649999879300594,-0.11518999934196472,0.10482999682426453,-0.2218099981546402,-0.12771999835968018,-0.1252799928188324,-0.2579300105571747,-0.23607000708580017,-0.10492999851703644,-0.010859999805688858,0.09634999930858612,0.10572999715805054,-0.05220000073313713,-0.03863999992609024,0.0020800000056624413,-0.20712000131607056,0.07326000183820724,-0.05063999816775322,0.06877999752759933,-0.005080000031739473,-0.10552000254392624,0.09916000068187714,-0.062139999121427536,-0.1618500053882599,0.15123000741004944,-0.023399999365210533,0.015560000203549862,-0.07276999950408936,-0.1829099953174591,0.19211000204086304,-0.05685000121593475,-0.15995000302791595,-0.047449998557567596,0.14600999653339386,0.06398999691009521,0.09244000166654587,0.05079000070691109,-0.022849999368190765,0.08279000222682953,0.03061000071465969,-0.043549999594688416,-0.013670000247657299,-0.08803000301122665,-0.050280001014471054,-0.16358999907970428,0.0010499999625608325,-0.16415999829769135,-0.08474999666213989,0.06383000314235687,0.15123000741004944,-0.2234400063753128,-0.08239000290632248,-0.014829999767243862,-0.05724000185728073,-5.999999848427251e-05,0.11114999651908875,-0.049869999289512634,0.10053999722003937,0.08325999975204468,-0.012029999867081642,0.10180000215768814,-0.006899999920278788,-0.134770005941391,0.052060000598430634,0.0831499993801117,0.06790000200271606,0.05375999957323074,-0.029980000108480453,0.1863200068473816,0.02092999964952469,-0.11473000049591064,0.1376899927854538,0.14589999616146088,-0.029069999232888222,-0.030980000272393227,0.2337999939918518,-0.01916000060737133,-0.08632999658584595,0.12845000624656677,-0.15129999816417694,-0.10152000188827515],"act":"tanh","in":11,"out":256},{"w":[[0.01027000043541193,0.09155000001192093,-0.0887800008058548,0.04262999817728996,-0.13582000136375427,-0.13792000710964203,0.15163999795913696,0.024049999192357063,-0.22011999785900116,0.030640000477433205,0.037039998918771744,0.09905999898910522,-0.11710000038146973,-0.04287000000476837,0.0822800025343895,0.12058000266551971,-0.048820000141859055,0.030799999833106995,0.048829998821020126,0.02969999983906746,0.07269000262022018,0.039489999413490295,0.09269999712705612,-0.14946000277996063,0.04264000058174133,0.060029998421669006,-0.021849999204277992,0.03809000179171562,-0.016680000349879265,-0.03463999927043915,-0.08115000277757645,-0.008070000447332859,-0.012629999779164791,-0.03585999831557274,0.06941000372171402,0.06614000350236893,-0.10738000273704529,-0.1177000030875206,0.06377000361680984,0.08510000258684158,-0.028689999133348465,0.09685999900102615,0.023229999467730522,0.08603999763727188,-0.015879999846220016,0.02800000086426735,0.04994000121951103,-0.11680000275373459,0.012260000221431255,-0.06317999958992004,-0.11035999655723572,0.06810999661684036,0.07169999927282333,-0.11911000311374664,0.08121000230312347,0.013059999793767929,-0.13175000250339508,0.1944900006055832,0.030959999188780785,0.007290000095963478,0.06176000088453293,0.04458000138401985,0.1426199972629547,0.07389000058174133,0.025270000100135803,0.017810000106692314,-0.06160999834537506,0.03127000108361244,0.031539998948574066,0.017160000279545784,-0.06021999940276146,-0.10497000068426132,0.06808999925851822,-0.23792999982833862,-0.015209999866783619,-0.09485000371932983,0.06683000177145004,-0.18038000166416168,-0.01891000010073185,0.09989999979734421,0.088189996778965,-0.00913000013679266,-0.05040000006556511,-0.012489999644458294,0.02401999942958355,-0.07033000141382217,-0.00011000000085914508,-0.03181000053882599,-0.00046999999904073775,-0.02442000061273575,-0.06532999873161316,-0.030619999393820763,0.0340300016105175,-0.09013999998569489,0.07486999779939651,0.07197000086307526,-0.1129399985074997,-0.17539000511169434,-0.1125900000333786,-0.0009200000204145908,-0.1755400002002716,-0.06340000033378601,0.016920000314712524,-0.012160000391304493,0.038520000874996185,-0.14180999994277954,0.14180999994277954,0.05040999874472618,0.03361999988555908,-0.17502999305725098,-0.08038999885320663,-0.009189999662339687,0.0246799997985363,-0.1628500074148178,0.0203000009059906,0.06259000301361084,-0.11653000116348267,-0.12009000033140182,-0.08681999891996384,-0.14681999385356903,-0.011470000259578228,-0.13854999840259552,0.039250001311302185,0.15166999399662018,0.01534000039100647,0.043880000710487366,0.10070999711751938,0.21353000402450562,-0.14709000289440155,-0.1723099946975708,0.035259999334812164,-2.9999999242136255e-05,-0.18339000642299652,-0.008150000125169754,-0.04280000180006027,-0.17911000549793243,-0.022849999368190765,0.08553999662399292,0.09679000079631805,0.0023900000378489494,-0.10834000259637833,-0.002360000042244792,-0.07942000031471252,0.018570000305771828,-0.05500999838113785,-0.09869000315666199,0.002899999963119626,0.2415200024843216,0.03409000113606453,-0.032519999891519547,0.03796999901533127,0.0048699998296797276,0.08735000342130661,0.10162000358104706,-0.05490000173449516,0.1947299987077713,-0.04462999850511551,-0.10322999954223633,0.0768899992108345,-0.10811000317335129,-0.04969000071287155,0.022059999406337738,0.055730000138282776,-0.12103000283241272,0.02311999909579754,0.04546000063419342,-0.18970000743865967,0.18921999633312225,0.020269999280571938,-0.03821000084280968,-0.0847100019454956,0.0617000013589859,0.06629999727010727,-0.008569999597966671,0.01655999943614006,-0.10435999929904938,-0.12935000658035278,-0.07119999825954437,-0.16820000112056732,-0.08831000328063965,-0.13142000138759613,0.09839999675750732,0.015189999714493752,-0.06109999865293503,-0.09239000082015991,-0.005009999964386225,-0.02645999938249588,0.0354899987578392,0.008990000002086163,0.03830999881029129,-0.0391400009393692,-0.02834000065922737,-0.12055999785661697,0.0004299999854993075,-0.030959999188780785,-0.18277999758720398,-0.17919999361038208,0.005510000046342611,-0.03319999948143959,0.03620000183582306,0.052060000598430634,-0.21288999915122986,0.10761000216007233,0.03660000115633011,0.1344199925661087,-0.0011699999449774623,0.006039999891072512,-0.02525000087916851,0.12937000393867493,0.20206999778747559,-0.18583999574184418,0.1031000018119812,-0.08218000084161758,-0.029319999739527702,-0.049229998141527176,0.04693000018596649,0.12494000047445297,-0.01761999912559986,0.009750000201165676,-0.017899999395012856,-0.05665000155568123,-0.1103999987244606,0.10639999806880951,-0.013899999670684338,-0.025100000202655792,-0.16312000155448914,0.038830000907182693,0.01501999981701374,-0.05423000082373619,-0.07611999660730362,-0.022849999368190765,-0.04092999920248985,0.11525999754667282,-0.07699000090360641,-0.036570001393556595,-0.011119999922811985,0.02305000089108944,0.08969999849796295,0.1081399992108345,-0.0677499994635582,0.021460000425577164,-0.06268999725580215,0.13007999956607819,0.02191999927163124,0.10756999999284744,-0.03602999821305275,0.0829399973154068,-0.0005099999834783375,-0.009510000236332417,-0.12165000289678574,-0.028689999133348465,0.014820000156760216,-0.03311000019311905,0.05990999937057495,-0.06518000364303589,-0.1269499957561493],[-0.02507000043988228,0.012679999694228172,0.1509000062942505,0.031619999557733536,0.11777999997138977,0.045729998499155045,-0.2610799968242645,0.025760000571608543,0.10932999849319458,0.07765000313520432,0.16700999438762665,-0.05490000173449516,-0.10694000124931335,0.1446000039577484,0.04932999983429909,-0.03669999912381172,0.1517000049352646,0.0327799990773201,0.11224000155925751,0.06069999933242798,0.03581000119447708,-0.08235999941825867,-0.06745000183582306,-0.004110000096261501,-0.012910000048577785,-0.1600400060415268,-0.0901700034737587,0.04284999892115593,0.05234000086784363,0.12732000648975372,-0.004470000043511391,-0.1772100031375885,-0.09899000078439713,-0.06920000165700912,-0.09151999652385712,-0.05449000000953674,0.0603800006210804,-0.023879999294877052,0.0689300000667572,-0.13332000374794006,0.03068000078201294,0.0752200037240982,-0.010529999621212482,0.22434000670909882,0.2082500010728836,0.010219999589025974,0.010239999741315842,0.09828999638557434,0.09499000012874603,0.0765099972486496,-0.009709999896585941,0.13933999836444855,0.17680999636650085,0.14711999893188477,0.09572000056505203,-0.07478000223636627,0.04098000004887581,0.21518999338150024,-0.1309099942445755,0.1687300056219101,-0.12306000292301178,-0.15369999408721924,-0.05017999932169914,-0.01537999976426363,0.05982999876141548,0.13032999634742737,0.26221001148223877,0.07146000117063522,0.08116000145673752,0.31279000639915466,-0.07807999849319458,-0.18751999735832214,-0.033720001578330994,-0.12046000361442566,-0.052469998598098755,0.21716000139713287,0.13255999982357025,-0.02621999941766262,-0.003969999961555004,0.02676999941468239,0.04676999896764755,0.07381000369787216,-0.12155000120401382,-0.0790100023150444,-0.06938999891281128,0.06392999738454819,0.22842000424861908,-0.20472000539302826,0.006930000148713589,-0.06750000268220901,0.0006600000197067857,-9.999999747378752e-06,0.06923999637365341,0.07616999745368958,-0.09159000217914581,0.09482000023126602,0.04709000140428543,0.10840000212192535,0.13458000123500824,-0.16001999378204346,-0.05503999814391136,0.015370000153779984,0.010739999823272228,-0.016380000859498978,0.02589000016450882,-0.13634000718593597,0.24371999502182007,0.130280002951622,0.03203999996185303,0.0094200000166893,0.020309999585151672,-0.10685999691486359,-0.07164999842643738,-0.2119400054216385,-0.06942000240087509,0.14358000457286835,0.15800000727176666,-0.15158000588417053,-0.18897999823093414,-0.039489999413490295,-0.07829999923706055,0.20371000468730927,-0.11291000247001648,0.10120999813079834,-0.18057000637054443,0.014449999667704105,-0.06752000004053116,0.12998999655246735,-0.05590000003576279,0.03262000158429146,-0.08274000138044357,0.24181999266147614,0.018880000337958336,-0.16689999401569366,-0.02841999940574169,-0.07934000343084335,-0.05621999874711037,-0.10463999956846237,-0.00431999983265996,0.04706000164151192,-0.18107999861240387,-0.05559000000357628,0.08239000290632248,0.005439999978989363,0.0297200009226799,0.015410000458359718,-0.013340000063180923,-0.08816000074148178,0.0027000000700354576,-0.05253000184893608,-0.09679999947547913,0.07478000223636627,-0.10120999813079834,-0.16182999312877655,-0.05993000045418739,-0.04803000018000603,-0.11043000221252441,0.009359999559819698,0.02060999907553196,0.1022299975156784,0.067610003054142,-0.09502000361680984,-0.04148000106215477,0.16930000483989716,0.061159998178482056,0.15360000729560852,-0.04709000140428543,0.030500000342726707,-0.015540000051259995,0.05906999856233597,-0.016019999980926514,-0.06955999881029129,-0.09234999865293503,-0.1586800068616867,0.024159999564290047,-0.061069998890161514,0.18176999688148499,-0.001610000035725534,-0.10164999961853027,0.192330002784729,0.07255999743938446,0.13357000052928925,-0.010300000198185444,-0.13301999866962433,-0.02101000025868416,-0.13993999361991882,-0.07187999784946442,0.06960999965667725,-0.027860000729560852,0.1352899968624115,0.03652999922633171,-0.014379999600350857,-0.07688000053167343,0.005520000122487545,-0.005549999885261059,0.2323399931192398,-0.11485999822616577,-0.1343899965286255,-0.049150001257658005,0.016189999878406525,0.00014000000373926014,-0.013170000165700912,-0.08765999972820282,0.11740999668836594,0.03506999835371971,0.11930999904870987,0.0029299999587237835,-0.05488999933004379,-0.09046000242233276,0.01664000004529953,0.10418999940156937,-0.003800000064074993,0.010440000332891941,-0.007240000180900097,-0.005319999996572733,-0.14214999973773956,-0.016119999811053276,0.016620000824332237,-0.07444000244140625,0.011830000206828117,0.031099999323487282,0.16335000097751617,0.04651999846100807,-0.056370001286268234,-0.16509999334812164,-0.10705000162124634,0.010409999638795853,-0.03962000086903572,-0.05593999847769737,0.14464999735355377,-0.22476999461650848,-0.0565200001001358,-0.0064500002190470695,-0.04292000085115433,-0.04162999987602234,0.0012600000482052565,-0.04391999915242195,0.11861000210046768,0.1904599964618683,0.04058999940752983,0.06325999647378922,-0.017009999603033066,-0.06702999770641327,-0.12896999716758728,0.07168000191450119,0.08997999876737595,-0.03643999993801117,0.17521999776363373,-0.012269999831914902,-0.028689999133348465,-0.08490999788045883,0.16996000707149506,0.14494000375270844,0.022290000692009926,0.012609999626874924,-0.07427000254392624],[0.11027999967336655,0.1479800045490265,-0.01343000028282404,0.14117999374866486,0.06606999784708023,0.16535000503063202,0.19518999755382538,-0.18403999507427216,-0.07034999877214432,-0.03733000159263611,0.01988000050187111,0.007029999978840351,0.07598999887704849,0.016820000484585762,0.02522999979555607,-0.22397999465465546,0.028459999710321426,-0.0980599969625473,0.0024399999529123306,0.13343000411987305,-0.09334000200033188,-0.01664000004529953,-0.0810299962759018,-0.0369499996304512,0.030489999800920486,0.367249995470047,-0.07643000036478043,0.10892999917268753,-0.06103000044822693,0.12223000079393387,0.10328000038862228,0.012310000136494637,0.1510400027036667,-0.14399999380111694,-0.09715999662876129,-0.0013200000394135714,-0.04121999815106392,0.007019999902695417,-0.07305999845266342,-0.05696000158786774,0.020570000633597374,0.01606000028550625,-0.01363999955356121,-0.1190899983048439,0.02353000082075596,-0.040869999676942825,0.014680000022053719,0.061000000685453415,-0.20500999689102173,0.13485999405384064,-0.07687000185251236,0.10721000283956528,-0.13229000568389893,-0.13062000274658203,-0.1193699985742569,0.16008999943733215,0.045910000801086426,-0.03912999853491783,0.08355999737977982,0.03897000104188919,0.12839999794960022,-0.14422999322414398,0.1296599954366684,0.011090000160038471,0.13851000368595123,0.11288999766111374,-0.04171999916434288,0.038100000470876694,0.13444000482559204,-0.0025500000920146704,0.35405001044273376,0.028470000252127647,0.0006200000061653554,-0.013199999928474426,-0.17892999947071075,0.10064999759197235,0.10672999918460846,-0.06543000042438507,0.15609000623226166,-0.22308999300003052,0.11445000022649765,-0.06097999960184097,0.02930999919772148,0.012020000256597996,-0.08950000256299973,0.07389000058174133,0.16471999883651733,-0.08907999843358994,0.07298000156879425,0.22550000250339508,-0.1554100066423416,-0.016209999099373817,-0.040950000286102295,-0.14246000349521637,0.23946000635623932,0.012450000271201134,0.18167999386787415,0.2522299885749817,0.006659999955445528,0.19968000054359436,0.08377999812364578,-0.04901000112295151,0.1536799967288971,0.21886999905109406,0.021379999816417694,-0.09948000311851501,0.00827999971807003,0.010219999589025974,0.1089399978518486,0.11772000044584274,0.05418999865651131,0.03443000093102455,0.14380000531673431,0.05843000113964081,-0.032990001142024994,0.036079999059438705,0.17670999467372894,-0.05665000155568123,-0.03325999900698662,-0.06210000067949295,-0.17723999917507172,0.1612199991941452,0.04741000011563301,0.08991000056266785,-0.07129999995231628,-0.16095000505447388,0.10843999683856964,0.03296000137925148,-0.07184000313282013,-0.15570999681949615,-0.15928000211715698,-0.2791700065135956,0.1413400024175644,0.17644000053405762,-0.05243999883532524,-0.06122000142931938,-0.02669999934732914,-0.0616299994289875,0.011970000341534615,0.12099000066518784,0.2792400121688843,-0.013749999925494194,0.04340000078082085,-0.0291300006210804,-0.1506499946117401,-0.049720000475645065,0.02022000029683113,0.1276800036430359,0.046640001237392426,0.018160000443458557,-0.0163199994713068,-0.1226700022816658,0.0421999990940094,0.15650999546051025,0.033399999141693115,0.03158999979496002,-0.042100001126527786,-0.1494400054216385,0.026969999074935913,0.0966000035405159,0.025939999148249626,0.042729999870061874,-0.17900000512599945,-0.09672000259160995,-0.054919999092817307,-0.21272000670433044,0.053199999034404755,0.05356999859213829,0.07054000347852707,-0.09610000252723694,0.007969999685883522,0.1125200018286705,-0.15091000497341156,0.1650799959897995,0.0903099998831749,-0.08410000056028366,-0.10227999836206436,0.07524999976158142,-0.06046999990940094,-0.1359499990940094,-0.12087000161409378,0.06420999765396118,0.025609999895095825,-0.057999998331069946,0.10814999788999557,0.053610000759363174,-0.20227999985218048,-0.08815000206232071,-0.09917999804019928,-0.13157999515533447,0.031099999323487282,0.049970000982284546,0.11286000162363052,0.03968999907374382,-0.07801999896764755,-0.02855999954044819,-0.08032000064849854,0.0500900000333786,0.0055599999614059925,0.2828899919986725,-0.09093999862670898,-0.12613999843597412,0.08897999674081802,0.014069999568164349,-0.1915300041437149,0.035270001739263535,-0.11937999725341797,0.05324999988079071,0.10730999708175659,0.06362000107765198,0.02897999994456768,0.15338000655174255,0.1505099982023239,-0.0899600014090538,0.21129000186920166,0.07677000015974045,-0.16972999274730682,0.16559000313282013,0.03010999970138073,-0.11738000065088272,0.34703999757766724,0.07833000272512436,-0.14648999273777008,0.0945499986410141,0.007280000019818544,0.022089999169111252,0.06575000286102295,0.04029000177979469,0.2376600056886673,0.13659000396728516,0.10204999893903732,-0.010379999876022339,-0.0595100000500679,-0.023099999874830246,0.1252799928188324,0.021220000460743904,-0.037390001118183136,-0.06701000034809113,0.13745999336242676,-0.2764599919319153,0.009039999917149544,-0.07980000227689743,0.044509999454021454,0.12098000198602676,-0.04467000067234039,0.08472000062465668,-0.015350000001490116,-0.01269999984651804,0.051600001752376556,0.17037999629974365,0.18976999819278717,-0.021740000694990158,0.1179800033569336,-0.06889999657869339,-0.2017199993133545,-0.07150000333786011],[-0.03753000125288963,0.07895000278949738,-0.1611199975013733,-0.02305999957025051,-0.01964999921619892,-0.029920000582933426,0.04025999829173088,-0.08077000081539154,0.051600001752376556,0.06086000055074692,0.012810000218451023,0.0038499999791383743,-0.09799999743700027,-0.1111299991607666,-0.06430000066757202,0.07435999810695648,-0.038679998368024826,-0.12381000071763992,-0.06984999775886536,-0.049550000578165054,-0.0501599982380867,0.16447000205516815,0.134660005569458,-0.011699999682605267,0.1157900020480156,-0.16824999451637268,-0.02304000034928322,-0.020570000633597374,0.0579800009727478,0.11965999752283096,0.20024999976158142,-0.0705299973487854,0.04579000174999237,0.1338600069284439,0.059459999203681946,0.19309000670909882,-0.11892999708652496,-0.024900000542402267,-0.002420000033453107,0.0987199991941452,-0.056529998779296875,-0.02711999975144863,-0.06518000364303589,-0.038920000195503235,0.10890000313520432,0.08071000128984451,-0.062300000339746475,-0.05736999958753586,-0.03863999992609024,0.07357999682426453,0.045889999717473984,-0.06741999834775925,-0.04405999928712845,-0.16147999465465546,-0.02068999968469143,-0.033399999141693115,-0.0951400026679039,0.02223999984562397,0.09843000024557114,-0.11965999752283096,0.04120999947190285,0.11005999892950058,0.1830500066280365,-0.06520000100135803,0.01336000021547079,0.0423399992287159,0.024000000208616257,-0.0926700010895729,-0.05517999827861786,0.11873999983072281,0.03260999917984009,0.07483000308275223,-0.20768000185489655,-0.02435999922454357,-0.10750000178813934,0.009069999679923058,-0.030750000849366188,0.009720000438392162,0.03926999866962433,0.041519999504089355,0.09741000086069107,0.07694999873638153,-0.07727000117301941,0.07079999893903732,-0.03840000182390213,0.21302999556064606,0.0581200011074543,0.19572000205516815,0.10465999692678452,-0.023310000076889992,0.08440999686717987,-0.05646999925374985,0.043469998985528946,0.09837999939918518,-0.03807999938726425,-0.14691999554634094,0.07558999955654144,-0.03694000095129013,-0.04901999980211258,0.14598000049591064,-0.033250000327825546,0.004389999900013208,0.037629999220371246,0.006899999920278788,-0.05235999822616577,0.09763000160455704,0.09685000032186508,-0.05090000107884407,-0.06055000051856041,-0.2126300036907196,0.16110000014305115,-0.017559999600052834,0.06983000040054321,-0.12601999938488007,0.07044000178575516,-0.030500000342726707,0.14066000282764435,-0.13896000385284424,-0.01155999954789877,-0.0943399965763092,-0.05810000002384186,0.07244999706745148,-0.023150000721216202,-0.04022999852895737,-0.02971000038087368,0.07139000296592712,-0.08490999788045883,-0.06933999806642532,-0.0022299999836832285,-0.09532999992370605,-0.029349999502301216,0.08442000299692154,-0.033649999648332596,-0.049550000578165054,-0.09149999916553497,-0.010929999873042107,0.17050999402999878,-0.04873000085353851,0.1411599963903427,0.02572000026702881,-0.05039000138640404,0.03319999948143959,0.08342999964952469,-0.005789999850094318,0.14196999371051788,0.045340001583099365,0.1286499947309494,-0.14643999934196472,-0.014109999872744083,-0.03180000185966492,0.02930000051856041,0.006000000052154064,0.12559999525547028,-0.007120000198483467,-0.06518000364303589,0.05863000079989433,0.09867999702692032,-0.04114000126719475,-0.07898999750614166,0.08182000368833542,-0.16035999357700348,-0.10225000232458115,0.04501999914646149,-0.0006300000241026282,0.13684000074863434,0.06182999908924103,0.04910999909043312,-0.05823000147938728,-0.0711899995803833,-0.09122999757528305,-0.0798100009560585,0.007029999978840351,0.10999999940395355,-0.0866599977016449,-0.012230000458657742,0.008329999633133411,0.059300001710653305,-0.012149999849498272,-0.02491999976336956,-0.003379999892786145,0.0014299999456852674,0.08707000315189362,-0.0066999997943639755,0.01631000079214573,-0.03677999973297119,-0.05384000018239021,0.10446000099182129,-0.2156600058078766,-0.0707399994134903,-0.07291000336408615,-0.08815000206232071,0.14792999625205994,0.05519000068306923,0.11807999759912491,0.06038999930024147,0.0568699985742569,0.1820800006389618,-0.06836000084877014,0.01948999986052513,0.0765099972486496,0.10299000144004822,0.10333999991416931,-0.06128000095486641,0.02411000058054924,-0.15750999748706818,0.09967000037431717,0.1995600014925003,0.03881999850273132,0.11789999902248383,-0.13407999277114868,-0.11069999635219574,0.09939999878406525,0.03181000053882599,0.0579800009727478,-0.043230000883340836,-0.010160000063478947,0.11422000080347061,0.04701000079512596,-0.1407800018787384,0.02727999910712242,0.15205000340938568,0.08713000267744064,-0.13423000276088715,0.014019999653100967,-0.08805999904870987,-0.021970000118017197,0.0792199969291687,0.08183000236749649,0.06746000051498413,0.3939099907875061,0.0006399999838322401,0.08026999980211258,-0.04465999826788902,0.030789999291300774,-0.0730300024151802,-0.015930000692605972,0.2442999929189682,0.15904000401496887,0.0363599993288517,-0.12293999642133713,-0.10251999646425247,-0.08789999783039093,-0.05961000174283981,-0.06684999912977219,-0.05634000152349472,-0.0652099996805191,0.05745000019669533,-0.0787699967622757,0.01310999970883131,-0.026240000501275063,0.01565999910235405,-0.008349999785423279,-0.051989998668432236,0.03838000074028969,0.08822999894618988,-0.07756999880075455],[-0.059950001537799835,-0.030479999259114265,0.05511999875307083,-0.0928800031542778,-0.016820000484585762,-0.004339999984949827,0.21782000362873077,-0.06569000333547592,-0.05324000120162964,-0.07648000121116638,-0.08432000130414963,0.25885000824928284,0.049219999462366104,-0.04520000144839287,0.06352999806404114,0.047370001673698425,-0.010329999960958958,0.04247000068426132,0.09136000275611877,-0.059470001608133316,-0.03822999820113182,-0.2040099948644638,-0.010569999925792217,-0.1561499983072281,0.057110000401735306,-0.1120700016617775,0.03463999927043915,-0.020330000668764114,0.07119999825954437,0.07942000031471252,0.1057099997997284,-0.07468999922275543,0.030009999871253967,-0.05245999991893768,-0.13389000296592712,0.10256999731063843,0.08865000307559967,-0.17895999550819397,-0.03262000158429146,-0.02751999907195568,-0.019680000841617584,-0.15716999769210815,0.024539999663829803,0.09053000062704086,-0.020549999549984932,-0.008019999600946903,0.05299000069499016,-0.053050000220537186,0.07917000353336334,0.09728000313043594,-0.11856000125408173,0.14545999467372894,0.13289999961853027,-0.004430000204592943,-0.005109999794512987,0.03302000090479851,-0.01169000007212162,-0.05502000078558922,0.008019999600946903,0.2110300064086914,-0.10526999831199646,0.021250000223517418,-0.022670000791549683,-0.008190000429749489,0.060430001467466354,-0.10792999714612961,-0.16960999369621277,-0.07269000262022018,-0.09527000039815903,0.017500000074505806,-0.018810000270605087,-0.04772000014781952,0.005619999952614307,0.022050000727176666,-0.014720000326633453,-0.020519999787211418,0.0287299994379282,0.13568000495433807,0.01638999953866005,-0.06072999909520149,0.03821999952197075,0.17381000518798828,0.08259999752044678,-0.03677000105381012,-0.05110999941825867,-3.9999998989515007e-05,0.08488000184297562,-0.12304999679327011,-0.06027999892830849,0.12431000173091888,-0.05136999860405922,-0.12263999879360199,-0.0594400018453598,-0.052379999309778214,0.10565000027418137,-0.008919999934732914,-0.0616299994289875,0.001069999998435378,0.09927999973297119,-0.11657000333070755,0.07343000173568726,-0.006180000025779009,-0.07054000347852707,-0.21674999594688416,-0.09246999770402908,0.13144999742507935,-0.04915999993681908,-0.06900999695062637,0.001019999966956675,-0.08686999976634979,-0.02785000018775463,-0.06689000129699707,-0.09511999785900116,0.03655000030994415,-0.08523000031709671,0.12664000689983368,0.016599999740719795,-0.045510001480579376,0.02831999957561493,-0.04098999872803688,0.10926000028848648,0.07667999714612961,-0.03440999984741211,0.06046000123023987,-0.051430001854896545,-0.06207000091671944,-0.0414699986577034,-0.09303999692201614,0.13742999732494354,0.06622999906539917,-0.013620000332593918,0.09895999729633331,0.16951000690460205,0.07670000195503235,-0.058070000261068344,0.047040000557899475,-0.12251999974250793,0.05305999889969826,0.07517000287771225,0.194240003824234,-0.07462000101804733,-0.008679999969899654,0.08906999975442886,-0.025040000677108765,-0.11940000206232071,-0.14782999455928802,-0.004920000210404396,-0.05683000013232231,0.09398999810218811,-0.04262999817728996,0.22346000373363495,-0.2137800008058548,0.1483599990606308,0.06437999755144119,0.11388999968767166,0.10768000036478043,-0.08760000020265579,-0.030500000342726707,0.027620000764727592,-0.05226999893784523,-0.13033999502658844,-0.08816000074148178,0.19309000670909882,-0.03753000125288963,0.08110000193119049,0.036490000784397125,0.059769999235868454,0.21724000573158264,0.04413999989628792,0.0654899999499321,-0.17407000064849854,-0.024809999391436577,-0.0964599996805191,0.017349999397993088,0.013949999585747719,0.006430000066757202,0.02882000058889389,0.0019199999514967203,-0.14211000502109528,0.08609999716281891,-0.023649999871850014,-0.00686000008136034,-0.11641000211238861,0.11101999878883362,0.17207999527454376,0.16619999706745148,-0.16064999997615814,0.026909999549388885,-0.026480000466108322,0.04399000108242035,-0.06888999789953232,0.010780000127851963,-0.08208999782800674,0.08755999803543091,-0.057590000331401825,-0.08963000029325485,0.08375000208616257,0.12644000351428986,-0.07212000340223312,0.2550100088119507,-0.06835000216960907,0.07680000364780426,-0.04910000041127205,-0.1733500063419342,0.07981999963521957,0.032419998198747635,-0.0872500017285347,0.03491999953985214,0.00786999985575676,-0.10931999981403351,0.07814999669790268,-0.05234000086784363,0.10932999849319458,0.030409999191761017,0.0076500000432133675,-0.057029999792575836,0.08297999948263168,-0.07400000095367432,0.13579000532627106,-0.060120001435279846,-0.013450000435113907,0.11874999850988388,0.11212000250816345,-0.08064000308513641,0.13958999514579773,0.1537099927663803,-0.017550000920891762,0.10510999709367752,-0.07466000318527222,0.04039999842643738,-0.037459999322891235,0.034380000084638596,-0.054740000516176224,0.06902000308036804,0.09216000139713287,-0.14696000516414642,0.04831000044941902,0.1541299968957901,-0.060819998383522034,0.020829999819397926,-0.032669998705387115,-0.019349999725818634,-0.04002000018954277,0.07022000104188919,0.0007900000200606883,0.050530001521110535,0.08829999715089798,-0.00977999996393919,-0.03037000074982643,0.09487999975681305,-0.03652999922633171,-0.039889998733997345,-0.09621000289916992,-0.02060999907553196,0.044849999248981476,0.11269000172615051],[-0.03418999910354614,0.09643000364303589,-0.17636999487876892,0.058150000870227814,-0.006560000125318766,0.03556999936699867,-0.12477999925613403,0.0751900002360344,-0.16298000514507294,0.04586999863386154,0.0017300000181421638,-0.06823000311851501,-0.009469999931752682,-0.043389998376369476,-0.04094000160694122,0.10874000191688538,0.09412000328302383,0.02266000024974346,0.01899000070989132,-0.127020001411438,-0.021900000050663948,-0.0797400027513504,-0.03826000168919563,0.019929999485611916,-0.07513000071048737,0.026329999789595604,-0.052319999784231186,-0.1103300005197525,-0.04537000134587288,-0.015130000188946724,0.13128000497817993,-0.01030999980866909,-0.02449999935925007,-0.0782100036740303,0.10773000121116638,0.012520000338554382,-0.010730000212788582,-0.00687999976798892,-0.021229999139904976,0.002689999993890524,0.15004000067710876,-0.010219999589025974,0.16200999915599823,0.07605999708175659,-0.0699400007724762,0.07406999915838242,0.0038900000508874655,-0.08720000088214874,0.1070299968123436,-0.17871999740600586,0.0061900001019239426,0.05942000076174736,0.033900000154972076,0.02264999970793724,-0.12556999921798706,0.05110999941825867,0.26853999495506287,0.009220000356435776,0.04603999853134155,0.043129999190568924,0.10713999718427658,-0.040800001472234726,-0.12665000557899475,-0.03082999959588051,-0.0840499997138977,0.03836999833583832,0.05601999908685684,0.015270000323653221,0.047449998557567596,0.11170999705791473,0.2134300023317337,0.02638999931514263,0.16027000546455383,0.02776999957859516,0.12515999376773834,0.03739999979734421,0.09672000259160995,0.10937000066041946,-0.012659999541938305,-0.021460000425577164,0.02112000063061714,0.07947999984025955,0.031209999695420265,0.06395000219345093,-0.15206000208854675,0.20803000032901764,-0.13109000027179718,0.17768000066280365,0.0044999998062849045,-0.13207000494003296,0.11576999723911285,-0.04961000010371208,-0.09424000233411789,-0.023229999467730522,0.02865999937057495,0.03668000176548958,0.06015000119805336,0.04190000146627426,-0.01140000019222498,0.21067999303340912,-0.13944999873638153,-0.032340001314878464,0.0016499999910593033,-0.007029999978840351,0.15519000589847565,-0.15905000269412994,-0.062380000948905945,-0.14011000096797943,0.008019999600946903,0.09420999884605408,0.017009999603033066,0.08560000360012054,-0.043469998985528946,-0.1071000024676323,0.046160001307725906,0.036400001496076584,0.058240000158548355,0.009200000204145908,0.028540000319480896,0.11738999933004379,0.04812999814748764,-0.03976999968290329,0.12998999655246735,-0.0480399988591671,-0.14782999455928802,0.01981000043451786,0.06870999932289124,0.1047699972987175,0.0914200022816658,-0.0029700000304728746,-0.025860000401735306,0.10281000286340714,0.029170000925660133,-0.05077999830245972,0.012199999764561653,-0.1594800055027008,0.07384999841451645,-0.09111999720335007,0.05330999940633774,0.08243999630212784,-0.05976000055670738,-0.12088000029325485,0.09935999661684036,-0.03936000168323517,0.12050999701023102,-0.08867999911308289,0.09182000160217285,0.10333000123500824,0.14217999577522278,0.0762299969792366,-0.04490000009536743,-0.12625999748706818,-0.05761000141501427,0.15169000625610352,-0.1385899931192398,-0.07534000277519226,0.013439999893307686,-0.05383000150322914,-0.11324000358581543,0.05339999869465828,-0.1949400007724762,0.0670199990272522,-0.04098000004887581,0.054099999368190765,-0.017249999567866325,-0.013240000233054161,0.05463000014424324,0.10176999866962433,-0.04628000035881996,0.04376000165939331,0.04800000041723251,-0.11085999757051468,0.06061000004410744,0.07603000104427338,-0.21717999875545502,0.02442000061273575,-0.10423000156879425,-0.07608000189065933,-0.13288000226020813,0.0516900010406971,0.042169999331235886,0.12204000353813171,0.04357999935746193,0.057429999113082886,-0.07502999901771545,-0.0321200005710125,0.06299000233411789,0.03790000081062317,0.06958000361919403,0.01795000024139881,0.018699999898672104,-0.0822099968791008,0.04362000152468681,0.07413999736309052,0.05056999996304512,-0.11650999635457993,-0.10292000323534012,0.0702499970793724,0.03189000114798546,0.1141199991106987,-0.007840000092983246,-0.009960000403225422,0.043790001422166824,-0.012690000236034393,0.06662999838590622,0.028519999235868454,-0.05333999916911125,-0.1250700056552887,-0.054019998759031296,-0.01413000002503395,0.12619000673294067,-0.03798000141978264,0.011590000241994858,0.030079999938607216,-0.05181000009179115,0.12845000624656677,0.11774999648332596,-0.0215000007301569,-0.03650999814271927,0.0645499974489212,-0.012799999676644802,0.16805000603199005,-0.0929500013589859,0.0812700018286705,0.1353899985551834,0.013199999928474426,-0.06984999775886536,-0.015650000423192978,0.09836000204086304,-0.08743999898433685,0.038750000298023224,-0.06604000180959702,-0.04089000076055527,0.13389000296592712,-0.04642999917268753,0.005779999773949385,0.022509999573230743,0.07801000028848648,-0.17854000627994537,0.00395999988541007,0.07672999799251556,0.16946999728679657,0.02474999986588955,-0.04075000062584877,0.08259999752044678,0.15686999261379242,-0.034370001405477524,-0.0034099998883903027,-0.04899999871850014,-0.07224000245332718,-0.026499999687075615,0.05107999965548515,-0.07919000089168549,0.1601099967956543,0.16785000264644623,0.01193000003695488],[0.054669998586177826,-0.008050000295042992,0.07467000186443329,0.12817999720573425,-0.09781000018119812,-0.05172999948263168,-0.029969999566674232,0.19039000570774078,-0.1498199999332428,-0.10552000254392624,-0.10763999819755554,0.08821000158786774,0.14114999771118164,0.04464000090956688,-0.04376000165939331,0.13241000473499298,0.06679999828338623,0.025310000404715538,-0.09697999805212021,-0.14603999257087708,0.06599000096321106,0.192890003323555,0.012140000239014626,-0.08202999830245972,-0.001120000029914081,-0.07495000213384628,-0.10553000122308731,-0.17260999977588654,-0.11802999675273895,-0.07805000245571136,0.08516000211238861,-0.057440001517534256,-0.17465999722480774,0.06477999687194824,-0.024739999324083328,0.08178000152111053,0.04510999843478203,0.04269000142812729,-0.14158999919891357,-0.10927999764680862,-0.016769999638199806,0.22735999524593353,-0.08861000090837479,0.03311999887228012,-0.01882999949157238,-0.26370999217033386,0.12996000051498413,-0.09234999865293503,0.06593000143766403,0.1304599940776825,-0.07560999691486359,-0.01408000010997057,-0.038419999182224274,0.1268399953842163,-0.007019999902695417,-0.035339999943971634,0.15804000198841095,0.03660000115633011,0.18911999464035034,0.0963200032711029,-0.08225999772548676,-0.09257999807596207,0.09407000243663788,0.04191000014543533,-0.011009999550879002,-0.07987000048160553,-0.04109000042080879,-0.04853000119328499,-0.03660000115633011,0.0033499998971819878,0.13833999633789062,-0.04992999881505966,0.21845999360084534,0.04055999964475632,-0.03784999996423721,0.02687999978661537,-0.039069999009370804,0.030649999156594276,-0.004269999917596579,-0.07998999953269958,0.012450000271201134,0.0333699993789196,0.12985999882221222,0.06797000020742416,-0.14431999623775482,0.06791999936103821,0.007910000160336494,0.1429000049829483,0.0945499986410141,0.061969999223947525,-0.12612000107765198,0.1893399953842163,0.12466000020503998,-0.063960000872612,0.002099999925121665,0.05040000006556511,-0.008969999849796295,-0.043699998408555984,0.021929999813437462,-0.06948000192642212,0.11422999948263168,-0.062130000442266464,0.04605000093579292,0.18396000564098358,-0.017869999632239342,0.16861000657081604,0.007819999940693378,0.07670000195503235,-0.04538999870419502,-0.08669999986886978,0.08230999857187271,0.035110000520944595,-0.09663999825716019,0.13018999993801117,-0.08320000022649765,-0.10209000110626221,-0.012439999729394913,-0.07101000100374222,-0.0757799968123436,0.05821000039577484,0.07282000035047531,-0.0860000029206276,0.0008399999933317304,-0.13145999610424042,-0.14993000030517578,-0.023919999599456787,0.024539999663829803,-0.01616000011563301,-0.06036999821662903,0.020109999924898148,0.011509999632835388,-0.19620999693870544,0.040780000388622284,-0.04969999939203262,-0.02012000046670437,0.029419999569654465,0.1721400022506714,-0.005119999870657921,0.0023799999617040157,-0.06601999700069427,0.031209999695420265,-0.02930000051856041,0.03305000066757202,-0.01889999955892563,0.13755999505519867,0.06836000084877014,0.11124999821186066,0.08930999785661697,-0.027990000322461128,-0.02239999920129776,0.07255999743938446,0.011649999767541885,0.06227000057697296,0.04368999972939491,