{"env_id":"Walker2d-v5","model_xml":"walker2d_v5.xml","obs_dim":17,"act_dim":6,"nq":9,"nv":9,"nu":6,"frame_skip":4,"timestep":0.002,"dt":0.008,"action_low":[-1.0,-1.0,-1.0,-1.0,-1.0,-1.0],"action_high":[1.0,1.0,1.0,1.0,1.0,1.0],"obs_components":[{"kind":"qpos","start":1,"clip":null},{"kind":"qvel","start":0,"clip":[-10.0,10.0]}],"needs_rne":false,"init_qpos":[0.0,1.25,0.0,0.0,0.0,0.0,0.0,0.0,0.0],"init_qvel":[0.0,0.0,0.0,0.0,0.0,0.0,0.0,0.0,0.0],"reset_noise_scale":0.005,"healthy":{"terminate_when_unhealthy":true,"z_index":1,"z_range":[0.8,2.0],"angle_index":2,"angle_range":[-1.0,1.0],"state_range":null},"obs_labels":["rootz pos","rooty pos","thigh_joint pos","leg_joint pos","foot_joint pos","thigh_left_joint pos","leg_left_joint pos","foot_left_joint pos","rootx vel","rootz vel","rooty vel","thigh_joint vel","leg_joint vel","foot_joint vel","thigh_left_joint vel","leg_left_joint vel","foot_left_joint vel"],"action_labels":["thigh_joint","leg_joint","foot_joint","thigh_left_joint","leg_left_joint","foot_left_joint"],"normalization":{"mean":[1.134207010269165,-0.5423055291175842,-0.49800124764442444,-0.7413714528083801,0.2016567438840866,-0.035119567066431046,-0.15882571041584015,0.7360909581184387,1.5216169357299805,-0.037213969975709915,-0.10472448170185089,0.03562648594379425,-0.5529634952545166,-0.6605385541915894,-0.08338408917188644,-0.01676016114652157,-0.2530179023742676],"var":[0.00263294973410666,0.04810255393385887,0.17245666682720184,0.4692903161048889,0.34735193848609924,0.009209925308823586,0.06434406340122223,0.05303511396050453,1.1329035758972168,0.34106817841529846,12.142420768737793,31.774396896362305,44.846649169921875,49.84453201293945,17.42436408996582,22.730655670166016,25.53411293029785],"epsilon":1e-08,"clip_obs":10.0},"policy_onnx":"walker2d__ppo_walker2d_3M_s1__best.onnx","policy_net":{"input_dim":17,"layers":[{"w":[[-0.33017000555992126,0.11998999863862991,0.027329999953508377,0.08487000316381454,0.15320000052452087,-0.1271599978208542,0.2598699927330017,0.29350998997688293,-0.02572000026702881,0.3504999876022339,0.25394999980926514,-0.12947000563144684,-0.0056500001810491085,0.17649999260902405,0.11020000278949738,-0.02469000034034252,0.0328500010073185],[0.24969999492168427,0.11180000007152557,0.2836199998855591,-0.027130000293254852,-0.28626999258995056,-0.11597000062465668,-0.0823500007390976,0.0370200015604496,-0.10728999972343445,0.40233999490737915,0.23183000087738037,-0.16200999915599823,-0.02701999992132187,-0.11221999675035477,0.14244000613689423,0.01752999983727932,-0.28308001160621643],[0.09967000037431717,0.15770000219345093,0.2768400013446808,0.18468999862670898,-0.15467999875545502,-0.2508299946784973,0.2312600016593933,-0.17262999713420868,-0.20051999390125275,-0.19697000086307526,0.08434999734163284,0.22688999772071838,-0.1390800029039383,-0.07141999900341034,0.03853999823331833,-0.21762999892234802,0.1883399933576584],[0.10492999851703644,-0.015110000036656857,0.031449999660253525,0.18775999546051025,-0.03976999968290329,-0.1674399971961975,0.23917999863624573,0.07187999784946442,0.12002000212669373,0.1636199951171875,-0.0376100018620491,-0.45576998591423035,0.39610999822616577,-0.01727999933063984,-0.15139000117778778,0.08595000207424164,-0.09752999991178513],[0.00026000000070780516,-0.07892999798059464,-0.07525999844074249,0.08020000159740448,0.020109999924898148,0.2150299996137619,0.26440000534057617,0.1117900013923645,-0.2206300050020218,0.1208299994468689,0.23199999332427979,-0.046870000660419464,0.26218000054359436,0.2652699947357178,0.1485300064086914,0.21696999669075012,0.025359999388456345],[0.09653999656438828,-0.02848999947309494,-0.08224999904632568,0.13576999306678772,0.25898000597953796,-0.04554999992251396,-0.22421999275684357,0.21834999322891235,0.01413000002503395,-0.022220000624656677,0.06662999838590622,0.07013999670743942,0.41620999574661255,0.45061999559402466,-0.009349999949336052,-0.14223000407218933,-0.00827999971807003],[0.060839999467134476,-0.03252999857068062,0.07078000158071518,-0.07733000069856644,0.23879000544548035,-0.13786999881267548,0.22697000205516815,-0.023070000112056732,-0.050050001591444016,0.14246000349521637,0.13578000664710999,-0.06499999761581421,-0.13225999474525452,0.15131999552249908,-0.050530001521110535,0.24640999734401703,0.3407599925994873],[-0.21887999773025513,0.19672000408172607,-0.04383999854326248,-0.1035500019788742,0.11420000344514847,0.032600000500679016,0.06334000080823898,0.016669999808073044,0.34521999955177307,-0.02857000008225441,0.06239999830722809,-0.09825000166893005,0.15702000260353088,0.11608000099658966,-0.2709299921989441,-0.3599399924278259,0.01631000079214573],[-0.12506000697612762,0.26759999990463257,0.1267700046300888,-0.28766000270843506,0.00279000005684793,-0.2618499994277954,0.14399999380111694,-0.20074999332427979,0.2396100014448166,0.3128199875354767,0.04487999901175499,0.11828000098466873,-0.09072999656200409,0.37386998534202576,-0.2168699949979782,-0.008550000376999378,-0.300570011138916],[0.07506000250577927,-0.05115000158548355,-0.2949399948120117,0.02785000018775463,0.24163000285625458,0.05576999858021736,0.07321000099182129,0.14605000615119934,-0.19763000309467316,-0.13492000102996826,-0.04535000026226044,-0.05006000027060509,-0.19408999383449554,-0.03511999920010567,-0.13379999995231628,0.18042999505996704,-0.05217000097036362],[-0.36250999569892883,-0.12664000689983368,0.21645000576972961,-0.09867999702692032,0.022450000047683716,0.09848000109195709,-0.06508000195026398,-0.16866999864578247,-0.02078000083565712,0.002400000113993883,0.04123000055551529,0.07327999919652939,0.24650000035762787,-0.08003000169992447,-0.013059999793767929,0.30303001403808594,-0.009469999931752682],[0.08421000093221664,0.015549999661743641,-0.1045600026845932,0.14910000562667847,0.1556600034236908,0.25332000851631165,-0.030640000477433205,-0.10925000160932541,-0.049890000373125076,-0.26798999309539795,-0.2663300037384033,-0.1741899996995926,-0.04202999919652939,-0.33131998777389526,-0.13702000677585602,0.2447499930858612,-0.061719998717308044],[0.09910999983549118,0.14643999934196472,-0.1712699979543686,0.0521400012075901,0.022269999608397484,0.10406000167131424,0.06549999862909317,-0.0919400006532669,-0.2367900013923645,-0.24794000387191772,-0.1361899971961975,-0.02102999947965145,-0.1313299983739853,0.161640003323555,-0.22127999365329742,0.07311999797821045,0.44246000051498413],[0.04142000153660774,-0.011540000326931477,0.06702999770641327,0.0582600012421608,0.031870000064373016,-0.02988000027835369,0.10068000108003616,-0.015309999696910381,-0.04072999954223633,0.3719100058078766,0.18734000623226166,0.047540001571178436,0.18448999524116516,-0.014870000071823597,0.12551000714302063,0.1803700029850006,0.3483699858188629],[0.09324000030755997,0.054680000990629196,0.05587000027298927,0.23038999736309052,0.06894999742507935,0.03195999935269356,0.07001999765634537,-0.35308000445365906,0.19896000623703003,-0.051500000059604645,0.08337000012397766,0.2168699949979782,-0.11101000010967255,-0.14369000494480133,-0.13549000024795532,0.20544999837875366,-0.042089998722076416],[0.02783999964594841,0.22070999443531036,-0.2656500041484833,0.08506999909877777,-0.03602999821305275,0.12031999975442886,-0.12678000330924988,0.243149995803833,0.2584800124168396,-0.1576099991798401,0.18628999590873718,-0.32085999846458435,0.056689999997615814,0.14508000016212463,-0.07241000235080719,-0.08902999758720398,-0.007809999864548445],[-0.14620999991893768,0.04676999896764755,-0.14568999409675598,0.07840000092983246,0.2223300039768219,0.004629999864846468,-0.09240999817848206,-0.007780000101774931,0.15398000180721283,-0.4332900047302246,0.054110001772642136,-0.10318999737501144,-0.1933699995279312,0.1111299991607666,-0.33629998564720154,-0.27344998717308044,0.0847100019454956],[0.17913000285625458,-0.32054001092910767,-0.11254999786615372,0.1315699964761734,0.11608999967575073,-0.07745999842882156,-0.22509999573230743,0.03353000059723854,-0.14847999811172485,-0.2047400027513504,-0.012880000285804272,0.034040000289678574,0.2494799941778183,0.25999000668525696,0.14507000148296356,-0.4371500015258789,0.22296999394893646],[0.0833899974822998,-0.21252000331878662,-0.02181999944150448,-0.13141000270843506,0.043150000274181366,-0.4619300067424774,0.15699000656604767,0.015519999898970127,-0.11503999680280685,0.3280799984931946,-0.3224399983882904,-0.16207000613212585,-0.23029999434947968,-0.051920000463724136,-0.21377000212669373,-0.10531999915838242,0.06142999976873398],[-0.056540001183748245,-0.23461000621318817,0.09292999655008316,0.13899999856948853,-0.12554000318050385,-0.15092000365257263,0.2342199981212616,0.00953999999910593,0.08319000154733658,-0.3744400143623352,-0.12443000078201294,0.015169999562203884,0.0746299996972084,-0.08270999789237976,0.05034000054001808,-0.028839999809861183,-0.030300000682473183],[-0.04579000174999237,0.24582000076770782,0.13808999955654144,0.011309999972581863,0.18817000091075897,0.343860000371933,-0.2496500015258789,0.0802299976348877,0.3070800006389618,-0.10174000263214111,0.21302999556064606,0.06102000176906586,-0.08962000161409378,0.17324000597000122,0.16234000027179718,0.056279998272657394,0.06565000116825104],[-0.04019999876618385,-0.23386000096797943,-0.10552000254392624,-0.1535400003194809,0.0457100011408329,-0.17423999309539795,-0.2492000013589859,0.03869999945163727,0.006380000151693821,-0.32857000827789307,0.3153400123119354,0.06977999955415726,0.004730000160634518,0.13404999673366547,0.3532800078392029,0.2004999965429306,0.30597999691963196],[0.0088900001719594,-0.10324999690055847,-0.06582999974489212,-0.01868000067770481,0.1050100028514862,-0.239889994263649,0.12830999493598938,-0.08777999877929688,-0.08295000344514847,-0.22909000515937805,-0.1746399998664856,-0.08269999921321869,-0.12341000139713287,-0.13370999693870544,0.057750001549720764,-0.22499999403953552,-0.06829000264406204],[-0.0800200030207634,-0.21581000089645386,0.19638000428676605,-0.06360000371932983,-0.17204999923706055,0.15261000394821167,0.04173000156879425,-0.15974999964237213,-0.041189998388290405,0.29631999135017395,-0.17890000343322754,0.15113000571727753,-0.1921900063753128,-0.27524998784065247,-0.019940000027418137,-0.208079993724823,-0.02621999941766262],[0.31404000520706177,0.05576999858021736,0.05071000009775162,0.16613000631332397,-0.05431000143289566,-0.15289999544620514,0.1794700026512146,0.21275000274181366,0.05567000061273575,0.1727299988269806,0.0480399988591671,-0.06988999992609024,-0.1149199977517128,0.20582999289035797,0.12151999771595001,-0.23229999840259552,0.3467699885368347],[0.13373999297618866,0.3787499964237213,-0.051979999989271164,0.26655998826026917,-0.1281300038099289,-0.0392800010740757,0.1289999932050705,0.31815001368522644,0.17288999259471893,0.02507000043988228,-0.13184000551700592,-0.156810000538826,-0.05851000174880028,-0.2928900122642517,-0.11095000058412552,0.08919999748468399,0.06142999976873398],[0.24820999801158905,0.10034000128507614,-0.11980000138282776,0.08765999972820282,0.2305299937725067,0.05860999971628189,0.02160000056028366,-0.06537000089883804,-0.10898000001907349,-0.26076000928878784,-0.059539999812841415,-0.06128999963402748,-0.03596000000834465,0.32870998978614807,-0.22853000462055206,-0.10526999831199646,0.19620999693870544],[0.23781000077724457,-0.24538999795913696,-0.07186000049114227,-0.1246500015258789,0.14983999729156494,0.08150999993085861,-0.29877999424934387,0.017629999667406082,-0.23609000444412231,-0.05576999858021736,-0.19750000536441803,0.039820000529289246,-0.17865000665187836,0.3508099913597107,-0.0751900002360344,0.01735999993979931,-0.10322000086307526],[-0.1253799945116043,0.14478999376296997,0.15466000139713287,0.12793000042438507,-0.06355000287294388,-0.011380000039935112,-0.12330000102519989,0.019039999693632126,0.00471000000834465,0.09313999861478806,-0.09504000097513199,-0.021789999678730965,-0.10657999664545059,-0.375900000333786,0.08312000334262848,-0.15080000460147858,0.4150699973106384],[-0.131290003657341,0.12544000148773193,-0.02418000064790249,0.36184999346733093,-0.06888999789953232,-0.3072200119495392,0.0789399966597557,-0.22172999382019043,0.03232000023126602,-0.11430999636650085,0.07056000083684921,-0.051899999380111694,0.01513999979943037,-0.023280000314116478,-0.0327799990773201,-0.3853699862957001,0.5163599848747253],[0.1430400013923645,-0.3193899989128113,-0.19315999746322632,0.03739999979734421,0.07416000217199326,-0.27507999539375305,0.07299000024795532,0.11285000294446945,-0.004980000201612711,0.06592000275850296,-0.16342000663280487,-0.35635000467300415,-0.02993999980390072,-0.07530000060796738,-0.04173000156879425,0.14462000131607056,-0.08489999920129776],[-0.02208000048995018,-0.029850000515580177,-0.1735599935054779,-0.07919000089168549,-0.07370000332593918,-0.48691999912261963,0.03367000073194504,-0.08382999897003174,-0.026240000501275063,0.012659999541938305,0.27978000044822693,0.09444999694824219,0.2757200002670288,0.03929999843239784,0.16017000377178192,0.03596999868750572,-0.17896999418735504],[-0.12847000360488892,-0.09109000116586685,0.06650000065565109,-0.16056999564170837,0.032660000026226044,0.10999000072479248,0.1076899990439415,0.21739999949932098,0.19389000535011292,-0.1670600026845932,0.1239200010895729,-0.3332799971103668,0.19009000062942505,0.17270000278949738,-0.16391000151634216,0.22583000361919403,-0.05778999999165535],[0.19140000641345978,-0.031230000779032707,-0.03274000063538551,0.0017600000137463212,0.08789999783039093,-0.1907999962568283,-0.11768999695777893,0.15318000316619873,-0.40648001432418823,-0.144569993019104,0.021220000460743904,0.19697999954223633,-0.0018500000005587935,0.4842900037765503,0.07478000223636627,-0.0036899999249726534,-0.00839999970048666],[0.1386999934911728,-0.12070000171661377,0.09239999949932098,0.210439994931221,-0.3142099976539612,-0.2561500072479248,-0.25440001487731934,0.208079993724823,0.02112000063061714,-0.11189000308513641,-0.10134000331163406,-0.07135000079870224,0.13149000704288483,-0.11116000264883041,0.04408999904990196,-0.26941001415252686,-0.08372999727725983],[-0.0784199982881546,0.039889998733997345,-0.031099999323487282,0.19809000194072723,0.1071000024676323,0.2154500037431717,0.009100000374019146,0.0844699963927269,0.13792000710964203,-0.27081000804901123,0.03029000014066696,-0.006039999891072512,-0.14444999396800995,-0.17188000679016113,0.10540000349283218,-0.04041000083088875,-0.09477999806404114],[0.049479998648166656,-0.053449999541044235,0.032269999384880066,0.22982999682426453,0.1624699980020523,0.04816000163555145,-0.1945199966430664,0.24688999354839325,-0.1214200034737587,-0.34867000579833984,-0.1153699979186058,-0.08053000271320343,-0.041829999536275864,0.10419999808073044,0.3128199875354767,-0.3652600049972534,-0.0676800012588501],[-0.185589998960495,-0.11849000304937363,-0.10232000052928925,0.14677999913692474,0.23562000691890717,0.26886001229286194,-0.054430000483989716,0.16031000018119812,0.13796000182628632,-0.1947299987077713,-0.13937999308109283,-0.22709999978542328,0.1530900001525879,0.31150001287460327,0.14768999814987183,0.007969999685883522,0.0944100022315979],[0.22078999876976013,-0.3467099964618683,0.1573300063610077,0.0036200000904500484,0.03711000084877014,-0.004920000210404396,0.03826000168919563,0.23412999510765076,-0.14496000111103058,0.1554500013589859,-0.03508999943733215,-0.292959988117218,0.14591999351978302,0.41822999715805054,-0.17653000354766846,-0.0921500027179718,0.21541999280452728],[-0.005270000081509352,-0.11982999742031097,0.06352999806404114,-0.14597000181674957,0.15067000687122345,-0.11213000118732452,0.15689000487327576,0.0333699993789196,-0.023099999874830246,-0.1144300028681755,-0.05674999952316284,0.0282600000500679,0.22801999747753143,0.35058000683784485,0.37749001383781433,-0.09872999787330627,-0.028610000386834145],[0.27764999866485596,0.21708999574184418,-0.024490000680088997,0.11948999762535095,-0.007670000195503235,0.42173999547958374,0.008559999987483025,-0.1595499962568283,0.17860999703407288,0.19283999502658844,-0.013670000247657299,-0.029100000858306885,0.13116000592708588,0.07435999810695648,0.0759200006723404,-0.02848999947309494,0.063680000603199],[0.1412699967622757,0.2369299978017807,0.10498999804258347,-0.10784000158309937,0.1404000073671341,0.185139998793602,0.155349999666214,-0.23479999601840973,-0.0841199979186058,0.13447000086307526,0.1261799931526184,0.008849999867379665,0.08093000203371048,0.1190899983048439,0.10407000035047531,0.012539999559521675,0.17677000164985657],[0.15700000524520874,-0.021730000153183937,0.23654000461101532,-0.11242999881505966,0.24323999881744385,0.029610000550746918,0.01269999984651804,-0.1497499942779541,0.20469999313354492,-0.33344000577926636,0.09551999717950821,-0.24161000549793243,-0.04586999863386154,-0.00011000000085914508,-0.26868999004364014,0.04334999993443489,-0.33197999000549316],[-0.01360000018030405,0.1049799993634224,0.13420000672340393,-0.06296999752521515,0.2232699990272522,0.0849900022149086,-0.10639999806880951,0.058809999376535416,-0.1693899929523468,-0.15966999530792236,-0.03207999840378761,0.030559999868273735,0.39879000186920166,-0.21480999886989594,-0.07062999904155731,0.04981999844312668,-0.08106999844312668],[0.20630000531673431,-0.24455000460147858,0.06769999861717224,0.06057000160217285,0.3055799901485443,-0.016769999638199806,-0.26976001262664795,-0.05505000054836273,-0.025510000064969063,-0.13325999677181244,-0.14002999663352966,0.10708999633789062,-0.18001000583171844,-0.06933999806642532,0.012009999714791775,-0.15267999470233917,-0.19723999500274658],[0.10862000286579132,-0.3279699981212616,-0.05471000075340271,-0.057739999145269394,0.15661999583244324,0.2716499865055084,0.24042999744415283,0.14041000604629517,-0.048190001398324966,0.07254999876022339,0.14892999827861786,-0.19346000254154205,0.04058000072836876,0.3193199932575226,0.13989999890327454,-0.2558700144290924,-0.24818000197410583],[-0.08410000056028366,0.07282000035047531,-0.24974000453948975,0.06757999956607819,0.13628000020980835,0.17517000436782837,0.048700001090765,-0.07548999786376953,0.054659999907016754,-0.22906999289989471,-0.12116000056266785,0.05259000137448311,-0.1887499988079071,0.010700000450015068,-0.31036001443862915,0.2342199981212616,-0.1379700005054474],[0.17069000005722046,0.06973999738693237,-0.15849000215530396,-0.046859998255968094,0.1659799963235855,-0.023280000314116478,0.1418199986219406,0.05617000162601471,0.14237000048160553,0.05691999942064285,-0.009809999726712704,-0.07214999943971634,0.06669999659061432,0.17013999819755554,-0.12462999671697617,-0.44753000140190125,0.2950100004673004],[-0.07360000163316727,-0.19267000257968903,0.08985999971628189,-0.045239999890327454,0.18578000366687775,-0.21663999557495117,-0.01269999984651804,0.24829000234603882,0.30671998858451843,0.16485999524593353,-0.12575000524520874,-0.07446999847888947,0.07801999896764755,0.24166999757289886,-0.08438000082969666,-0.05731000006198883,-0.22583000361919403],[0.032999999821186066,0.08280999958515167,0.09852000325918198,-0.0023300000466406345,-0.020390000194311142,0.14048999547958374,-0.13267000019550323,-0.10582999885082245,0.07968000322580338,-0.3082599937915802,0.3288100063800812,0.3904300034046173,-0.1817999929189682,-0.08315999805927277,0.2317200005054474,0.2431199997663498,0.3355199992656708],[-0.2041500061750412,0.3053700029850006,-0.07938999682664871,-0.20844000577926636,0.08800999820232391,0.15026000142097473,0.004860000219196081,0.09942000359296799,0.08280999958515167,0.2077299952507019,0.19889000058174133,-0.17903999984264374,-0.14429999887943268,0.23465000092983246,-0.23588000237941742,-0.14975999295711517,-0.004840000066906214],[0.0038999998942017555,-0.33667001128196716,-0.09404999762773514,0.03968999907374382,-0.19874000549316406,0.05728999897837639,-0.3630000054836273,0.07991000264883041,-0.25308001041412354,0.15196000039577484,-0.03917999938130379,0.003909999970346689,0.1511400043964386,0.025119999423623085,0.13655999302864075,-0.060169998556375504,0.10388000309467316],[0.07963000237941742,-0.1891999989748001,0.12791000306606293,-0.06659000366926193,-0.07885000109672546,0.015420000068843365,-0.1585099995136261,0.303629994392395,0.012769999913871288,-0.1961199939250946,-0.07728999853134155,-0.221220001578331,0.17467999458312988,0.1037599965929985,-0.27862998843193054,0.37160998582839966,-0.032430000603199005],[-0.20399999618530273,-0.28352999687194824,0.04318999871611595,0.14869000017642975,-0.2566699981689453,-0.036970000714063644,0.16173000633716583,0.18639999628067017,-0.14312000572681427,0.13553999364376068,-0.04763000085949898,0.003659999929368496,0.10145000368356705,-0.22164000570774078,-0.08979000151157379,0.32242000102996826,-0.3437800109386444],[0.3624599874019623,-0.04713999852538109,0.017510000616312027,-0.11202999949455261,0.03720000013709068,-0.19032999873161316,-0.16327999532222748,-0.1418900042772293,-0.2558700144290924,-0.12276999652385712,-0.011110000312328339,-0.030750000849366188,0.052650000900030136,-0.14236000180244446,0.07259000092744827,0.14236000180244446,-0.13042999804019928],[0.2053299993276596,-0.051339998841285706,0.07558000087738037,-0.00791999977082014,0.09996999800205231,0.37724000215530396,0.0473099984228611,-0.1315000057220459,0.07044000178575516,0.01155999954789877,0.27875998616218567,0.19009000062942505,0.29346001148223877,0.05366000160574913,-0.06913000345230103,0.05716999992728233,0.4546400010585785],[0.10854999721050262,-0.13369999825954437,-0.20972999930381775,-0.31856998801231384,0.0544699989259243,0.2505800127983093,-0.08682999759912491,0.2097799926996231,-0.31424999237060547,0.027370000258088112,0.044929999858140945,0.06911999732255936,0.09111999720335007,0.11474999785423279,0.059379998594522476,0.11658000200986862,-0.16113999485969543],[0.21894000470638275,0.26256999373435974,-0.16759000718593597,0.017069999128580093,-0.1555500030517578,0.4828299880027771,0.01513999979943037,0.08867000043392181,0.25110000371932983,0.03116000071167946,0.07468999922275543,-0.1756799966096878,0.19085000455379486,-0.16112999618053436,-0.05462000146508217,-0.19965000450611115,0.05928000062704086],[0.0762299969792366,-0.03376999869942665,-0.1449899971485138,0.16151000559329987,0.0853400006890297,0.11839000135660172,0.057739999145269394,-0.2013700008392334,0.06896000355482101,0.00687999976798892,0.10518000274896622,0.02101000025868416,0.09380000084638596,0.2540999948978424,0.31731998920440674,-0.3628300130367279,-0.0017000000225380063],[0.16255000233650208,0.03313000127673149,0.1234700009226799,0.22808000445365906,-0.15553000569343567,-0.207179993391037,0.050450000911951065,0.21730999648571014,0.2781600058078766,-0.20145000517368317,-0.019670000299811363,-0.28422999382019043,0.38203999400138855,0.3300600051879883,-0.09019999951124191,0.27511999011039734,0.1369599997997284],[0.11591000109910965,-0.15244999527931213,0.2796800136566162,0.1400499939918518,-0.001180000021122396,0.01979999989271164,0.12007000297307968,-0.1537500023841858,0.16210000216960907,0.14975999295711517,0.089819997549057,0.1266299933195114,0.27827000617980957,-0.09963999688625336,0.04871999844908714,-0.03142999857664108,-0.1786700040102005],[0.16978000104427338,-0.03753000125288963,0.09185999631881714,0.13896000385284424,-0.12598000466823578,-0.009809999726712704,-0.35679998993873596,-0.09619999676942825,-0.01671000011265278,-0.36649999022483826,0.0802299976348877,0.02281000092625618,-0.13282999396324158,0.2556599974632263,0.010289999656379223,0.12462999671697617,-0.05349000170826912],[-0.2276500016450882,0.3377400040626526,-0.03894000127911568,-0.19343000650405884,-0.06739000231027603,0.17826999723911285,-0.14086000621318817,-0.10474999994039536,0.01597999967634678,-0.10874000191688538,-0.20013999938964844,0.15625,-0.02159000001847744,-0.05920000001788139,0.10347999632358551,-0.3306500017642975,-0.16620999574661255],[-0.12200000137090683,-0.018519999459385872,-0.15357999503612518,-0.02387000061571598,-0.05090000107884407,0.10491999983787537,-0.20458999276161194,-0.14554999768733978,-0.09754999727010727,-0.2772499918937683,-0.10544999688863754,-0.07416000217199326,-0.29427000880241394,-0.2247299998998642,0.13669000566005707,-0.2877799868583679,-0.036320000886917114],[0.1495400071144104,0.20805999636650085,0.03587999939918518,-0.224590003490448,0.0832199975848198,-0.07551000267267227,0.1257600039243698,0.07649999856948853,0.15029999613761902,-0.12741999328136444,-0.2488500028848648,-0.25769999623298645,0.3275899887084961,0.08161000162363052,-0.2353699952363968,-0.03320999816060066,-0.24363000690937042],[0.2293899953365326,0.08340000361204147,-0.1980299949645996,-0.09612999856472015,0.027319999411702156,0.13691000640392303,0.20589999854564667,0.4028399884700775,-0.1428699940443039,0.08614999800920486,-0.11883000284433365,-0.11032000184059143,-0.05874999985098839,-0.032019998878240585,-0.14256000518798828,0.2655700147151947,-0.2228900045156479],[0.050209999084472656,0.16737000644207,-0.12645000219345093,0.1748100072145462,-0.28977999091148376,-0.2910099923610687,0.05826999992132187,-0.09312000125646591,0.20539000630378723,0.03962000086903572,0.23569999635219574,0.14322000741958618,0.21322999894618988,0.2549999952316284,0.17765000462532043,-0.07408999651670456,0.15068000555038452],[0.13715000450611115,0.20214000344276428,0.18524999916553497,-0.06645999848842621,-0.01030999980866909,0.020069999620318413,-0.07062000036239624,0.018079999834299088,0.13860000669956207,0.39166000485420227,0.25758999586105347,0.05624999850988388,0.041829999536275864,-0.055229999125003815,0.21762000024318695,-0.3006899952888489,0.1926800012588501],[-0.04885999858379364,-0.3122600018978119,0.18491999804973602,-0.09656000137329102,-0.1805499941110611,0.15995000302791595,-0.07128000259399414,0.005080000031739473,-0.19485999643802643,-0.047029998153448105,-0.2602800130844116,-0.16220000386238098,-0.010579999536275864,0.025779999792575836,-0.09211000055074692,0.14371000230312347,0.38958999514579773],[0.03454999998211861,0.1410900056362152,0.1558299958705902,0.04188999906182289,0.026170000433921814,0.19979999959468842,0.018279999494552612,-0.4684700071811676,-0.1787700057029724,-0.022539999336004257,0.13303999602794647,0.07498999685049057,0.21731999516487122,0.2458299994468689,0.13075000047683716,-0.2671999931335449,0.13765999674797058],[0.19335000216960907,-0.2909800112247467,-0.10672999918460846,0.30741000175476074,-0.07633999735116959,-0.28022000193595886,-0.1914599984884262,0.20869000256061554,-0.08961000293493271,0.035020001232624054,-0.26488998532295227,0.2061299979686737,-0.10768000036478043,-0.2644299864768982,-0.028270000591874123,0.025939999148249626,-0.1851000040769577],[-0.01573999971151352,-0.06516999751329422,0.18031999468803406,0.10739000141620636,-0.18513000011444092,-0.132860004901886,-0.23816999793052673,0.22337999939918518,-0.19937999546527863,0.22682000696659088,-0.09137000143527985,-0.18477000296115875,0.07400000095367432,0.27090999484062195,0.10251999646425247,0.18841999769210815,-0.01931999996304512],[-0.12647999823093414,-0.0251499991863966,0.0408799983561039,0.32839998602867126,0.09719999879598618,-0.10965000092983246,-0.09285999834537506,-0.2235099971294403,-0.23695999383926392,-0.12138000130653381,0.06260000169277191,-0.13809999823570251,0.352510005235672,-0.13023999333381653,-0.08417999744415283,-0.15629999339580536,-0.2556599974632263],[0.1304599940776825,-0.09284999966621399,0.0510299988090992,0.003100000089034438,0.36660000681877136,0.34676000475883484,-0.057440001517534256,0.2772800028324127,-0.1050499975681305,0.1481499969959259,0.060109999030828476,0.26982998847961426,-0.08646000176668167,-0.018149999901652336,0.12723000347614288,-0.20329999923706055,-0.08543000370264053],[-0.30397000908851624,-0.010379999876022339,-0.03585999831557274,-0.36785998940467834,-0.04238000139594078,-0.03852999955415726,0.13322000205516815,0.09717000275850296,-0.04566999897360802,-0.2551000118255615,-0.27875998616218567,0.08436000347137451,-0.10170000046491623,-0.10834000259637833,-0.14553000032901764,0.11072000116109848,0.09937000274658203],[-0.0500200018286705,0.015270000323653221,0.12398000061511993,-0.21397000551223755,0.05372999981045723,0.21845999360084534,-0.24969999492168427,-0.38624000549316406,-0.08076000213623047,0.24921999871730804,0.195700004696846,0.06669999659061432,0.08831000328063965,-0.10649999976158142,0.16809000074863434,0.0508200004696846,-0.023150000721216202],[-0.0521400012075901,0.13228000700473785,-0.09071999788284302,-0.01962999999523163,0.03290000185370445,-0.16571000218391418,0.11486999690532684,0.31951001286506653,-0.10797999799251556,0.08993999660015106,0.2049800008535385,0.05389999970793724,0.03223999962210655,-0.033649999648332596,0.15376000106334686,0.25508999824523926,0.28527000546455383],[-0.2550100088119507,-0.26600998640060425,0.03269999846816063,-0.1890600025653839,0.020169999450445175,0.21427999436855316,-0.08233000338077545,0.1566700041294098,-0.19723999500274658,-0.15563000738620758,-0.2059900015592575,-0.10717999935150146,0.08854000270366669,-0.19162000715732574,-0.37202998995780945,-0.002219999907538295,-0.03409000113606453],[-0.1583700031042099,0.15463000535964966,-0.032499998807907104,-0.09444999694824219,-0.006839999929070473,0.09758999943733215,0.08799999952316284,0.2023800015449524,0.22172999382019043,-0.30055999755859375,0.03142999857664108,0.1286800056695938,-0.0885000005364418,0.06814999878406525,0.017030000686645508,0.11045999825000763,-0.21453000605106354],[-0.0812000036239624,0.1509300023317337,0.06735000014305115,-0.29962998628616333,0.04707000032067299,-0.291920006275177,0.06352999806404114,-0.17858000099658966,-0.1214200034737587,0.06105000153183937,0.03726999834179878,-0.02662000060081482,0.14002999663352966,-0.29736998677253723,0.08291999995708466,-0.04975000023841858,0.04341999813914299],[0.028209999203681946,0.2331800013780594,0.11817000061273575,-0.05990999937057495,-0.052560001611709595,-0.04994000121951103,-0.2490600049495697,0.2829200029373169,0.01568000018596649,-0.12781000137329102,0.1891999989748001,0.24309000372886658,0.10931999981403351,-0.09949000179767609,0.3061999976634979,-0.05835999920964241,0.24128000438213348],[-0.1525000035762787,-0.16990000009536743,-0.0291300006210804,-0.1329600065946579,0.15126000344753265,-0.027960000559687614,-0.08556000143289566,0.19357000291347504,0.2129400074481964,-0.13391999900341034,-0.027370000258088112,-0.22250999510288239,0.038189999759197235,-0.022129999473690987,-0.21003000438213348,0.24995000660419464,-0.23034000396728516],[0.27847999334335327,-0.19092999398708344,0.0948299989104271,-0.2898699939250946,-0.19246000051498413,0.09911999851465225,0.020560000091791153,0.027089999988675117,0.09994000196456909,0.12331999838352203,0.026149999350309372,0.034960001707077026,-0.1785299926996231,0.21796000003814697,-0.014100000262260437,0.29339998960494995,-0.2797999978065491],[0.1945600062608719,0.23590999841690063,0.1190200001001358,0.06046999990940094,0.042819999158382416,-0.2574000060558319,-0.011260000057518482,0.04706000164151192,-0.029270000755786896,0.28589001297950745,0.04741000011563301,0.025499999523162842,0.10853999853134155,0.08134999871253967,0.03454999998211861,-0.30066001415252686,0.38888001441955566],[-0.030330000445246696,0.20419999957084656,0.017570000141859055,0.09059999883174896,-0.0701799988746643,-0.1812800019979477,0.068790003657341,0.008700000122189522,0.0913499966263771,0.014000000432133675,-0.17556999623775482,-0.3412500023841858,0.20027999579906464,0.09560000151395798,-0.19518999755382538,-0.06492999941110611,-0.48614001274108887],[0.03474999964237213,0.09611999988555908,-0.1632400006055832,-0.19554999470710754,0.09503000229597092,-0.18725000321865082,0.12201999872922897,-0.10687000304460526,0.03539999946951866,0.3359000086784363,-0.09892000257968903,-0.08285000175237656,-0.08483999967575073,0.2253900021314621,-0.37942999601364136,0.19196000695228577,-0.2451999932527542],[-0.18982000648975372,0.23760999739170074,0.2925199866294861,-0.2424899935722351,-0.04560000076889992,-0.05266999825835228,0.014510000124573708,0.24331000447273254,-0.15320000052452087,0.06803999841213226,0.24121999740600586,0.28202998638153076,0.23193000257015228,-0.09088999778032303,0.5634199976921082,-0.0408799983561039,-0.022949999198317528],[0.26298001408576965,0.06595999747514725,-0.24637000262737274,0.37669000029563904,0.22258999943733215,-0.17805999517440796,-0.10379000008106232,0.0625699982047081,-0.08511999994516373,0.28687000274658203,-0.11722999811172485,-0.0777600035071373,0.08921000361442566,0.05319000035524368,-0.022260000929236412,0.23639999330043793,-0.1292099952697754],[-0.1068200021982193,-0.2667999863624573,-0.14736999571323395,-0.12709000706672668,0.11861000210046768,0.2180200070142746,0.2609800100326538,-0.25130000710487366,-0.0071299998089671135,-0.032519999891519547,0.06949999928474426,0.03451000154018402,-0.10384999960660934,0.21693000197410583,0.45726001262664795,-0.40272998809814453,-0.2337699979543686],[-0.013489999808371067,0.038440000265836716,-0.2656799852848053,0.3137499988079071,0.05178999900817871,-0.11240000277757645,0.09374000132083893,-0.04661000147461891,-0.10124000161886215,-0.030820000916719437,0.31520000100135803,-0.07390999794006348,0.04523000121116638,-0.0946900025010109,0.25231999158859253,-0.207519993185997,0.06465999782085419],[-0.38837000727653503,-0.11738000065088272,-0.02321000024676323,-0.2893100082874298,0.04301000013947487,-0.033810000866651535,-0.07086999714374542,0.1483200043439865,0.008750000037252903,0.0517599992454052,-0.11945000290870667,-0.3182600140571594,0.039159998297691345,0.12469000369310379,-0.2439499944448471,0.304500013589859,-0.19607999920845032],[0.26627999544143677,-0.08378999680280685,-0.03700999915599823,0.08218000084161758,-0.13210000097751617,-0.25393998622894287,0.042500000447034836,-0.29335999488830566,-0.3050599992275238,0.16584999859333038,-0.17149999737739563,0.056759998202323914,0.05209999904036522,0.07541999965906143,0.24083000421524048,0.0407399982213974,-0.1340699940919876],[-0.1119299978017807,0.3137899935245514,-0.08907999843358994,-0.08222000300884247,-0.0624300017952919,0.24628999829292297,0.016440000385046005,0.1859699934720993,0.1801300048828125,-0.020090000703930855,0.07586000114679337,0.14820000529289246,0.03578000143170357,0.4476900100708008,-0.1785999983549118,0.20589999854564667,0.07840999960899353],[0.13606999814510345,-0.13575999438762665,0.18724000453948975,0.06193000078201294,-0.1528400033712387,-0.17584000527858734,-0.148049995303154,0.2788099944591522,-0.4151400029659271,-0.029370000585913658,-0.055879998952150345,0.09318999946117401,-0.07972999662160873,0.18324999511241913,0.010300000198185444,0.06767000257968903,-0.21161000430583954],[0.06645999848842621,0.010259999893605709,-0.05517999827861786,0.07360000163316727,0.15605999529361725,-0.20110000669956207,0.2544400095939636,-0.059530001133680344,0.3415600061416626,0.3749600052833557,0.0967399999499321,-0.2503899931907654,0.12848000228405,0.0515500009059906,-0.1534299999475479,0.2666099965572357,0.0948299989104271],[0.34602999687194824,0.11534000188112259,-0.3115699887275696,0.1583700031042099,-0.026920000091195107,-0.04196999967098236,0.1331299990415573,-0.2107899934053421,0.34439998865127563,0.14595000445842743,0.21252000331878662,0.1625099927186966,-0.1509000062942505,0.07282999902963638,-0.07232999801635742,0.004209999926388264,0.2151699960231781],[0.035009998828172684,-0.0678199976682663,0.054749999195337296,0.08704999834299088,0.0003800000122282654,0.09630999714136124,-0.05449000000953674,0.04481999948620796,0.28619998693466187,-0.10982000082731247,0.2823199927806854,0.10444000363349915,-0.05967999994754791,-0.1996700018644333,0.1890999972820282,0.23288999497890472,-0.4808799922466278],[0.2332099974155426,-0.07892999798059464,0.025259999558329582,-0.03650999814271927,0.024490000680088997,0.27649998664855957,-0.014139999635517597,-0.36302000284194946,-0.058490000665187836,0.130280002951622,0.14496999979019165,-0.015850000083446503,-0.19091999530792236,0.03821999952197075,-0.18336999416351318,0.1419299989938736,-0.10548000037670135],[0.07472000271081924,0.07571999728679657,-0.17928999662399292,-0.038109999150037766,0.22470000386238098,0.23631000518798828,0.08461999893188477,0.055399999022483826,0.22734999656677246,-0.23879000544548035,-0.1579899936914444,0.0557899996638298,-0.1837099939584732,0.04442000016570091,-0.16664999723434448,0.02239999920129776,0.03578000143170357],[-0.14005999267101288,0.30285999178886414,0.09890999644994736,0.11270000040531158,-0.15679000318050385,0.09707000106573105,0.16745999455451965,0.0831499993801117,-0.17761999368667603,0.24285000562667847,-0.0756400004029274,-0.013899999670684338,-0.1453000009059906,-0.024010000750422478,-0.22179999947547913,-0.0033499998971819878,-0.05039000138640404],[-0.18343999981880188,-0.19578999280929565,0.03353000059723854,0.05009999871253967,-0.07519999891519547,0.10048999637365341,0.021900000050663948,-0.278219997882843,-0.42465999722480774,0.004559999797493219,-0.04868999868631363,0.3359000086784363,-0.01809000037610531,0.02167999930679798,0.10051000118255615,0.04527999833226204,-0.20228999853134155],[0.06723000109195709,0.08997000008821487,0.21684999763965607,-0.047290001064538956,-0.19874000549316406,-0.1147800013422966,-0.14612999558448792,0.029419999569654465,-0.25947999954223633,0.28202998638153076,-0.1944500058889389,0.20632000267505646,-0.049479998648166656,0.1687600016593933,-0.06928999722003937,-0.13051000237464905,-0.249549999833107],[-0.05000000074505806,0.28231000900268555,0.03819999843835831,-0.19574999809265137,-0.014680000022053719,-0.016200000420212746,0.42254000902175903,-0.0935399979352951,0.11759000271558762,-0.3140200078487396,0.06701000034809113,0.17644000053405762,-0.11573000252246857,-0.4832099974155426,0.02556000091135502,-0.07163000106811523,0.36122000217437744],[0.06560999900102615,0.06554999947547913,0.32374000549316406,-0.11302000284194946,-0.030810000374913216,-0.390749990940094,-0.014650000259280205,0.03878000006079674,0.06270000338554382,-0.2699800133705139,-0.337119996547699,-0.17371000349521637,0.14192000031471252,0.018079999834299088,-0.17576999962329865,-0.013290000148117542,0.25137001276016235],[-0.2996000051498413,0.022439999505877495,0.13245999813079834,-0.07953999936580658,-0.002940000034868717,-0.09995000064373016,-0.08619000017642975,-0.1789499968290329,0.12953999638557434,-0.4341900050640106,0.07220999896526337,-9.999999747378752e-05,0.07005999982357025,-0.2918199896812439,-0.3650999963283539,0.18276000022888184,-0.0009699999936856329],[0.02653999999165535,-0.34455999732017517,-0.03051000088453293,0.0004900000058114529,0.13264000415802002,-0.08786000311374664,-0.20315000414848328,0.09087000042200089,0.10947000235319138,-0.07094000279903412,0.20288999378681183,-0.19182999432086945,0.15365999937057495,0.025779999792575836,0.36660000681877136,-0.22440999746322632,0.3123199939727783],[0.09651000052690506,-0.12251000106334686,0.04425999894738197,0.1717199981212616,-0.0393499992787838,-0.42041999101638794,0.039080001413822174,0.34136998653411865,-0.0041600000113248825,0.2679100036621094,0.13734999299049377,0.118709996342659,-0.247979998588562,0.16082000732421875,0.2097499966621399,-0.2882699966430664,0.3182600140571594],[-0.11150000244379044,0.03584999963641167,0.17565999925136566,-0.008100000210106373,-0.1349399983882904,0.05488000065088272,0.14385999739170074,-0.05274000018835068,0.1334500014781952,-0.002259999979287386,0.3628399968147278,0.3227899968624115,0.06415999680757523,0.06730999797582626,0.07778999954462051,-0.0379600003361702,0.18242000043392181],[0.1272200047969818,-0.2901099920272827,-0.024460000917315483,-0.3449999988079071,-0.17364999651908875,0.20868000388145447,0.008229999803006649,-0.04879999905824661,0.03830999881029129,-0.04510999843478203,9.000000136438757e-05,-0.022360000759363174,0.11456000059843063,0.12363000214099884,0.43112999200820923,-0.1669600009918213,-0.1410599946975708],[-0.007120000198483467,0.14077000319957733,-0.1412300020456314,0.07716000080108643,0.006060000043362379,0.011210000142455101,-0.40213000774383545,0.220210000872612,0.1062299981713295,-0.24733999371528625,-0.04531000182032585,0.07971999794244766,-0.024399999529123306,0.1530900001525879,-0.09363999962806702,0.11640000343322754,-0.11991000175476074],[-0.13888999819755554,0.02531999908387661,0.04816000163555145,0.14493000507354736,0.029820000752806664,0.05877000093460083,0.1467999964952469,0.06134000048041344,0.08395999670028687,-0.3608799874782562,-0.007420000154525042,0.005030000116676092,0.46630001068115234,-0.029430000111460686,0.16192999482154846,0.009479999542236328,0.002739999908953905],[0.06137999892234802,0.05916000157594681,0.19077999889850616,-0.06521999835968018,-0.17534999549388885,0.0636100023984909,-0.03533000126481056,0.018640000373125076,-0.1165900006890297,0.3176499903202057,0.21187999844551086,0.13387000560760498,0.2658900022506714,-0.18027999997138977,-0.09624999761581421,0.00646999990567565,-0.11394999921321869],[-0.01924999989569187,-0.2919900119304657,0.05282999947667122,-0.27368998527526855,0.057089999318122864,-0.012419999577105045,-0.16226999461650848,0.07231000065803528,0.02807999961078167,-0.09980999678373337,0.051169998943805695,0.03661999851465225,0.24368999898433685,0.09703999757766724,0.22935999929904938,-0.13819000124931335,-0.06785000115633011],[-0.21496999263763428,0.10478000342845917,-0.12211000174283981,-0.08083999902009964,0.19958999752998352,-0.14382000267505646,-0.05333999916911125,-0.3291400074958801,0.037370000034570694,-0.36890000104904175,0.019689999520778656,-0.05691999942064285,-0.26455000042915344,-0.10221000015735626,0.029729999601840973,0.19075000286102295,-0.34523001313209534],[-0.16366000473499298,-0.1325100064277649,0.10213000327348709,0.006909999996423721,-0.1845099925994873,0.24833999574184418,-0.04755999892950058,0.28130999207496643,0.05770000070333481,0.05846000090241432,0.08681999891996384,0.15881000459194183,-0.05651000142097473,0.15351000428199768,0.062139999121427536,-0.12960000336170197,-0.5976300239562988],[0.1906999945640564,0.10362999886274338,-0.04830000177025795,-0.06299000233411789,-0.12283000349998474,0.002630000002682209,0.07483000308275223,-0.09646999835968018,0.2564600110054016,-0.08589000254869461,-0.005570000037550926,-0.008070000447332859,-0.18018999695777893,0.005280000157654285,-0.1615699976682663,0.4015200138092041,0.24264000356197357],[0.1011200025677681,-0.007300000172108412,0.08980000019073486,-0.02321000024676323,-0.07329999655485153,0.10343000292778015,-0.39037999510765076,-0.11159999668598175,0.006459999829530716,-0.3697800040245056,-0.07920999825000763,0.0902400016784668,-0.3854300081729889,0.07915999740362167,-0.06744000315666199,-0.3636400103569031,-0.09691999852657318],[-0.05040000006556511,-0.00953999999910593,-0.20603999495506287,0.0989999994635582,-0.31450000405311584,0.24539999663829803,-0.04320000112056732,-0.12125000357627869,-0.1698800027370453,-0.5271099805831909,-0.030789999291300774,-0.036890000104904175,-0.28630000352859497,-0.19246000051498413,0.08015000075101852,-0.1141899973154068,-0.027569999918341637],[-0.039570000022649765,-0.059130001813173294,-0.16425999999046326,-0.24853000044822693,0.14048999547958374,0.24828000366687775,-0.10544999688863754,0.046390000730752945,-0.01915000006556511,0.34825000166893005,0.13009999692440033,0.12037999927997589,-0.038770001381635666,-0.43606001138687134,0.31459999084472656,-0.06964000314474106,0.1829099953174591],[-0.3057900071144104,0.0768899992108345,-0.18897999823093414,0.14890000224113464,-0.3100399971008301,0.06720999628305435,0.10503999888896942,0.30265000462532043,-0.19306999444961548,0.16091999411582947,0.14854000508785248,-0.32892999053001404,0.28925999999046326,0.22638000547885895,0.06669999659061432,-0.08205000311136246,-0.10649000108242035],[-0.1092199981212616,0.04675000160932541,-0.18108999729156494,0.03082999959588051,0.058889999985694885,0.3597300052642822,-0.14830000698566437,0.23187999427318573,-0.012649999931454659,-0.13007999956607819,-0.022430000826716423,0.14422999322414398,-0.17508000135421753,0.36722999811172485,0.060770001262426376,0.033640000969171524,-0.37564000487327576],[0.16286000609397888,0.041200000792741776,-0.07728999853134155,0.04543000087141991,-0.25867998600006104,-0.08243999630212784,-0.055399999022483826,0.0094200000166893,-0.048700001090765,0.1520799994468689,0.007040000054985285,0.07428999990224838,0.009770000353455544,-0.07467000186443329,-0.37297001481056213,0.6272199749946594,0.03328999876976013],[-0.2919999957084656,0.36855000257492065,0.1347000002861023,0.10877999663352966,0.017240000888705254,0.15800000727176666,-0.06693000346422195,0.08111000061035156,0.325300008058548,0.0655599981546402,0.03328999876976013,-0.07845000177621841,-0.06962999701499939,0.15645000338554382,-0.043540000915527344,0.18930000066757202,-0.24514999985694885],[0.1765100061893463,-0.05578000098466873,0.11299999803304672,0.037209998816251755,0.022199999541044235,-0.11868999898433685,0.12501999735832214,0.20031000673770905,-0.20186999440193176,0.148049995303154,-0.08094999939203262,0.06164000183343887,-0.16222000122070312,0.3753400146961212,0.023339999839663506,-0.07141999900341034,0.12908999621868134],[-0.2798300087451935,0.05418999865651131,0.08320999890565872,0.038120001554489136,0.026329999789595604,0.1340000033378601,-0.0843999981880188,0.21080000698566437,-0.09292999655008316,0.15488000214099884,0.02215000055730343,0.04092999920248985,0.09764000028371811,0.030859999358654022,-0.02280000038444996,0.41589999198913574,0.14714999496936798],[-0.21083000302314758,-0.018230000510811806,-0.11729999631643295,-0.046799998730421066,-0.05048000067472458,-0.020169999450445175,0.05646999925374985,0.301800012588501,0.01735999993979931,-0.20577000081539154,-0.21397000551223755,-0.27333998680114746,0.11665000021457672,0.0003600000054575503,-0.15282000601291656,-0.36302000284194946,-0.1373099982738495],[-0.06380999833345413,-0.3052699863910675,0.1589599996805191,-0.08984000235795975,-0.33660998940467834,0.060830000787973404,-0.1064400002360344,-0.23266999423503876,-0.19763000309467316,0.022590000182390213,-0.060430001467466354,0.03886999934911728,0.16308000683784485,-0.23683999478816986,0.014960000291466713,-0.2636899948120117,0.030619999393820763],[-0.04648999869823456,-0.2267400026321411,0.02913999930024147,0.026920000091195107,-0.06398999691009521,-0.13425999879837036,0.10760000348091125,-0.21080000698566437,0.15690000355243683,-0.359499990940094,-0.11305999755859375,-0.11957000195980072,-0.0838799998164177,-0.10202000290155411,-0.049630001187324524,0.033330000936985016,0.0829399973154068],[0.00875999964773655,0.2801100015640259,-0.03338000178337097,-0.03757999837398529,0.06831999868154526,-0.24716000258922577,-0.11230000108480453,-0.17654000222682953,0.07421000301837921,-0.09731999784708023,-0.11601000279188156,-0.014340000227093697,0.012450000271201134,-0.1016400009393692,0.16300000250339508,-0.6070700287818909,0.18286000192165375],[0.3788599967956543,-0.11050999909639359,-0.2855699956417084,-0.07240000367164612,0.37681999802589417,0.29368001222610474,-0.05705999955534935,0.04323999956250191,0.10321000218391418,0.06649000197649002,0.2688800096511841,-0.030160000547766685,0.2707599997520447,0.026569999754428864,0.09869000315666199,-0.04692000150680542,-0.14480000734329224],[0.10225000232458115,0.036559998989105225,-0.27893999218940735,0.0239499993622303,-0.18668000400066376,-0.22894999384880066,-0.37996000051498413,-0.2804200053215027,-0.004699999932199717,0.048489999026060104,-0.1559399962425232,0.22994999587535858,-0.2641800045967102,-0.3841499984264374,-0.04405000060796738,0.10388000309467316,0.17535999417304993],[-0.05033000186085701,0.04029000177979469,-0.08677999675273895,-0.019999999552965164,0.049219999462366104,-0.3477500081062317,0.0758500024676323,-0.20117999613285065,-0.09324999898672104,0.048909999430179596,-0.40327000617980957,-0.27351000905036926,-0.02913999930024147,-0.34018000960350037,-0.2004999965429306,-0.16899999976158142,-0.15415999293327332],[0.12422999739646912,0.10683000087738037,-0.2232699990272522,0.028130000457167625,0.11021000146865845,0.27121999859809875,-0.0871099978685379,0.002850000048056245,0.01375999953597784,0.14715999364852905,-0.2779200077056885,0.11423999816179276,-0.28619998693466187,-0.07086999714374542,0.1636900007724762,-0.3813300132751465,-0.07782000303268433],[0.098860003054142,0.244159996509552,-0.06566999852657318,0.010329999960958958,-0.025830000638961792,0.016419999301433563,-0.14751000702381134,-0.02930999919772148,0.344760000705719,-0.0990699976682663,0.0008399999933317304,-0.15654000639915466,-0.045049998909235,-0.23694999516010284,-0.28929001092910767,0.14926999807357788,0.05768999829888344],[-0.13344000279903412,-0.03892999887466431,0.11727999895811081,-0.037039998918771744,-0.1786700040102005,-0.10350000113248825,0.20420999825000763,-0.26517999172210693,0.2561100125312805,-0.2826800048351288,-0.011640000157058239,-0.05764999985694885,0.16366000473499298,-0.25453999638557434,-0.10188999772071838,0.15655000507831573,0.19273999333381653],[-0.08365000039339066,-0.014019999653100967,0.3118099868297577,-0.24648000299930573,-0.08242999762296677,0.0434500016272068,0.00559999980032444,0.1418199986219406,-0.14917999505996704,-0.06499999761581421,-0.12695999443531036,-0.029559999704360962,0.059700001031160355,0.3718099892139435,-0.018559999763965607,-0.05260000005364418,0.05347999930381775],[-0.04800000041723251,-0.09623999893665314,0.13954000174999237,0.04597000032663345,-0.10571999847888947,-0.030959999188780785,0.01425000000745058,0.363070011138916,0.0023499999660998583,0.16077999770641327,0.3223100006580353,-0.027809999883174896,0.37457001209259033,0.28755998611450195,0.22412000596523285,-0.01496999990195036,0.055390000343322754],[-0.12556999921798706,-0.10927999764680862,-0.36959001421928406,-0.029349999502301216,-0.14342999458312988,0.09359999746084213,0.010219999589025974,0.28791001439094543,0.10540000349283218,0.16731999814510345,-0.12042000144720078,-0.0575999990105629,-0.03779999911785126,-0.14101000130176544,-0.39548999071121216,-0.18978999555110931,-0.19393999874591827],[-0.09942000359296799,0.10796999931335449,0.25227001309394836,0.07494000345468521,-0.020239999517798424,-0.03618999943137169,0.1376499980688095,-0.4704500138759613,0.13845999538898468,0.5064499974250793,0.03968999907374382,0.1605300009250641,-0.03243999928236008,0.00877000018954277,0.028370000422000885,0.06565000116825104,-0.006310000084340572],[0.2877599895000458,0.03520999848842621,-0.2285500019788742,0.1278200000524521,0.11885000020265579,-0.03781000152230263,0.14693999290466309,-0.26249998807907104,0.2683500051498413,-0.27333998680114746,0.08008000254631042,-0.029729999601840973,-0.08842000365257263,0.31025999784469604,0.18082000315189362,-0.24062000215053558,0.11420000344514847],[0.1419599950313568,0.02321000024676323,-0.015469999983906746,-0.022749999538064003,0.3703800141811371,-0.1542000025510788,0.025989999994635582,0.567110002040863,-0.041269998997449875,0.1238899976015091,0.253030002117157,-0.008840000256896019,0.10305999964475632,0.3170199990272522,0.04907999932765961,0.1922599971294403,0.1632699966430664],[0.12789000570774078,-0.003220000071451068,0.16292999684810638,0.006070000119507313,-0.23277999460697174,-0.04077000170946121,-0.007120000198483467,-0.19294999539852142,-0.33202001452445984,0.03109000064432621,0.1170400008559227,0.2741900086402893,0.1041800007224083,-0.06550999730825424,0.17069000005722046,0.3872399926185608,0.05948999896645546],[-0.11271999776363373,0.37518998980522156,0.12184999883174896,0.07794000208377838,0.20587000250816345,0.20317000150680542,0.10286000370979309,0.2648099958896637,0.3868800103664398,0.012719999998807907,-0.010040000081062317,-0.24280999600887299,-0.17895999550819397,0.0944100022315979,0.012199999764561653,0.007670000195503235,-0.2364400029182434],[-0.3916099965572357,-0.10333000123500824,-0.10902000218629837,-0.2131499946117401,-0.16165000200271606,-0.07596000283956528,-0.08087000250816345,-0.18940000236034393,0.08121000230312347,0.3390899896621704,0.27292999625205994,0.03517000004649162,-0.07494000345468521,-0.14569999277591705,0.09904000163078308,-0.007939999923110008,-0.14799000322818756],[0.23050999641418457,0.168380007147789,-0.01720999926328659,0.026750000193715096,0.16086000204086304,-0.11186999827623367,0.15431000292301178,-0.2585099935531616,-0.05926999822258949,0.3876799941062927,-0.024620000272989273,-0.04749000072479248,0.08595000207424164,0.012109999544918537,-0.024949999526143074,0.37292999029159546,-0.2340800017118454],[0.0066200001165270805,-0.2826400101184845,0.07785999774932861,-0.022260000929236412,-0.09480000287294388,-0.13307000696659088,-0.04611999914050102,0.4814299941062927,-0.05031999945640564,-0.1433899998664856,0.119159996509552,0.07114999741315842,0.13725000619888306,0.17026999592781067,0.19994999468326569,-0.007060000207275152,0.3831000030040741],[0.1359499990940094,0.21353000402450562,0.16220000386238098,-0.07451000064611435,-0.18020999431610107,-0.025219999253749847,-0.22505000233650208,-0.04258999973535538,0.4268999993801117,-0.01647000014781952,-0.10367000102996826,0.07277999818325043,-0.02280000038444996,-0.11975999921560287,0.034170001745224,0.13450999557971954,0.2150000035762787],[0.049949999898672104,-0.01095999963581562,0.2255299985408783,-0.045570001006126404,0.11806000024080276,0.045490000396966934,-0.016939999535679817,-0.04633999988436699,0.30496999621391296,-0.45023998618125916,0.04904999956488609,0.3496200144290924,-0.22096000611782074,-0.3541699945926666,-0.07979000359773636,0.12559999525547028,0.09099999815225601],[0.07383999973535538,-0.05366000160574913,-0.2353000044822693,0.08707000315189362,0.32879000902175903,0.05023999884724617,-0.06620000302791595,0.11727000027894974,-0.14959999918937683,-0.44308000802993774,-0.16202999651432037,0.06321000307798386,0.01850000023841858,0.08164999634027481,0.039069999009370804,-0.10170000046491623,0.4726400077342987],[0.002689999993890524,0.25745001435279846,-0.010780000127851963,0.021929999813437462,0.07963000237941742,-0.19323000311851501,0.1534699946641922,-0.1778700053691864,0.2919900119304657,0.2718999981880188,-0.11142999678850174,0.1145000010728836,-0.2003999948501587,-0.21318000555038452,-0.20371000468730927,0.3129799962043762,-0.385809987783432],[0.027580000460147858,0.08371999859809875,-0.16861000657081604,0.20327000319957733,0.0803999975323677,-0.10163000226020813,-0.10975000262260437,-0.30941998958587646,0.14388999342918396,-0.012260000221431255,0.24073000252246857,-0.0842600017786026,-0.04893999919295311,-0.09697999805212021,0.25314998626708984,-0.2657899856567383,0.058159999549388885],[0.2337300032377243,-0.1184300035238266,-0.03183000162243843,-0.0857900008559227,-0.043630000203847885,0.019370000809431076,-0.09677000343799591,0.30303001403808594,0.020330000668764114,0.40459001064300537,0.25995999574661255,0.06488999724388123,0.14488999545574188,0.007019999902695417,0.1368200033903122,-0.0697999969124794,0.023819999769330025],[0.381989985704422,-0.03009999915957451,0.07235000282526016,0.14590999484062195,-0.17605000734329224,-0.5003700256347656,0.1815200001001358,0.06100999936461449,-0.21421000361442566,-0.05891000106930733,-0.02466999925673008,-0.09638000279664993,-0.04174000024795532,0.17851999402046204,-0.07540000230073929,0.16728000342845917,-0.0933699980378151],[-0.18887999653816223,0.18242999911308289,0.21469999849796295,0.1391099989414215,-0.4153200089931488,-0.056689999997615814,0.11610999703407288,-0.005929999984800816,0.06165999919176102,0.18809999525547028,0.007590000052005053,-0.012190000154078007,0.04820999875664711,-0.12609000504016876,-0.2376900017261505,0.2270199954509735,0.09734000265598297],[0.07742000371217728,-0.24527999758720398,0.09122999757528305,-0.015039999969303608,-0.10172999650239944,0.00203999993391335,0.17680999636650085,-0.013570000417530537,-0.261929988861084,0.09299000352621078,-0.17295999825000763,0.07740999758243561,-0.26521000266075134,-0.3533500134944916,-0.19933000206947327,-0.18970000743865967,-0.15154999494552612],[-0.17453999817371368,-0.0731000006198883,0.0769599974155426,0.04941999912261963,0.08794999867677689,-0.048250000923871994,0.16047999262809753,-0.022910000756382942,-0.2027599960565567,0.33796000480651855,0.07190000265836716,0.2525100111961365,-0.09324000030755997,-0.06662999838590622,0.058639999479055405,0.18108999729156494,0.24451999366283417],[0.3002299964427948,0.283160001039505,0.29041001200675964,0.039820000529289246,0.30500999093055725,0.14313000440597534,0.25492000579833984,-0.11362999677658081,-0.12135999649763107,-0.1324000060558319,-0.1927099972963333,-0.10524000227451324,-0.047029998153448105,0.2386299967765808,-0.07829000055789948,-0.49922001361846924,0.16050000488758087],[-0.09756000339984894,0.27667000889778137,-0.10502000153064728,0.000699999975040555,-0.2523599863052368,0.2614800035953522,-0.17428000271320343,-0.048889998346567154,0.03499000146985054,0.38234999775886536,-0.1407099962234497,-0.28224998712539673,0.1784999966621399,0.006049999967217445,-0.15723000466823578,0.1835400015115738,0.0744599997997284],[-0.10986000299453735,0.04724999889731407,-0.09668999910354614,0.013509999960660934,-0.018799999728798866,-0.2442599982023239,-0.2558499872684479,0.08292999863624573,-0.11148999631404877,-0.3217400014400482,-0.28696000576019287,0.057089999318122864,-0.12302999943494797,-0.008750000037252903,-0.0652099996805191,-0.23898999392986298,0.01408000010997057],[0.011070000007748604,0.14402000606060028,0.06689000129699707,0.06785999983549118,0.16543999314308167,0.024890000000596046,0.23243999481201172,-0.2752000093460083,0.18752999603748322,0.2457599937915802,0.2106499969959259,0.1637199968099594,0.36948999762535095,-0.26241999864578247,0.5138999819755554,-0.227060005068779,0.03288999944925308],[-0.10155999660491943,0.25949999690055847,0.26357001066207886,0.056379999965429306,-0.28683000802993774,0.01131999958306551,0.02029000036418438,0.04340999945998192,0.11799000203609467,-0.08202999830245972,-0.06145000085234642,-0.06757000088691711,-0.04554999992251396,-0.23291000723838806,-0.15191000699996948,-0.07346999645233154,-0.19372999668121338],[-0.14000000059604645,0.29947999119758606,0.1052900031208992,-0.16087999939918518,0.08634000271558762,0.20443999767303467,0.1316000074148178,0.028710000216960907,-0.13991999626159668,-0.03917999938130379,0.16556000709533691,-0.028999999165534973,0.24860000610351562,0.33417001366615295,-0.1667100042104721,0.19279000163078308,-0.18616999685764313],[-0.07965999841690063,-0.12336000055074692,0.04692000150680542,-0.14347000420093536,0.08574000000953674,-0.000699999975040555,-0.19627000391483307,0.01792999915778637,-0.25804999470710754,0.446370005607605,0.11841999739408493,0.1930599957704544,-0.18688000738620758,-0.055629998445510864,0.4275699853897095,0.1138399988412857,0.10081999748945236],[0.04311000183224678,0.09447000175714493,-0.019750000908970833,0.2696399986743927,0.012640000320971012,-0.372979998588562,-0.0723000019788742,0.06341999769210815,0.09156999737024307,0.07874000072479248,-0.04540000110864639,-0.2547999918460846,-0.032710000872612,-0.25150999426841736,-0.03784000128507614,-0.29210999608039856,0.1345600038766861],[-0.5307000279426575,0.1633400022983551,-0.1424800008535385,-0.01819000020623207,-0.09313999861478806,0.16910000145435333,0.029170000925660133,0.08664000034332275,-0.022460000589489937,-0.07925999909639359,0.26653000712394714,-0.0195700004696846,-0.1617099940776825,-0.18333999812602997,-0.029030000790953636,0.309579998254776,0.11458999663591385],[-0.16746999323368073,-0.07526999711990356,-0.009399999864399433,0.011710000224411488,-0.13796000182628632,0.24558000266551971,-0.26203998923301697,-0.22158999741077423,-0.29561999440193176,-0.22758999466896057,-0.38927000761032104,0.035610001534223557,-0.2155900001525879,-0.007300000172108412,-0.023320000618696213,-0.3673500120639801,-0.15253999829292297],[-0.1160999983549118,-0.08696000277996063,0.02961999922990799,0.013930000364780426,0.24568000435829163,-0.14138999581336975,-0.029400000348687172,-0.12613999843597412,0.012570000253617764,-0.22744999825954437,-0.12371999770402908,-0.03424999862909317,0.2458599954843521,0.10426999628543854,0.06151999905705452,0.30535000562667847,0.20016999542713165],[0.14657999575138092,-0.0022499999031424522,0.08930999785661697,-0.03109000064432621,-0.03310000151395798,-0.26381000876426697,-0.10611999779939651,-0.011020000092685223,-0.00853000022470951,0.49369001388549805,-0.03197000175714493,-0.15404999256134033,-0.1767899990081787,0.10791999846696854,0.16943000257015228,-0.4166199862957001,-0.1845099925994873],[-0.17430999875068665,-0.37742000818252563,0.05959000065922737,-0.2692500054836273,-0.05465000122785568,0.03587000072002411,-0.20935000479221344,0.06889999657869339,-0.09882000088691711,-0.013679999858140945,-0.07259999960660934,0.18265999853610992,-0.2579599916934967,0.22752000391483307,-0.07659000158309937,0.13371999561786652,-0.292169988155365],[-0.17660999298095703,-0.0925000011920929,-0.039250001311302185,-0.15624000132083893,-0.18071000277996063,0.2744799852371216,0.026480000466108322,-0.03929999843239784,0.06549999862909317,-0.3495599925518036,0.012900000438094139,-0.02369000017642975,-0.10589999705553055,-0.3752000033855438,-0.12131000310182571,0.05916000157594681,-0.49362000823020935],[-0.18849000334739685,-0.13447999954223633,0.09000000357627869,-0.009999999776482582,-0.028030000627040863,-0.1136000007390976,-0.07451999932527542,0.10593999922275543,-0.08320000022649765,-0.2315099984407425,-0.009890000335872173,-0.10892999917268753,0.10244999825954437,-0.0742499977350235,-0.10126999765634537,0.7124300003051758,0.1855199933052063],[-0.04526999965310097,0.17284999787807465,-0.18413999676704407,0.2655700147151947,-0.23808999359607697,-0.045889999717473984,-0.07903999835252762,-0.11960999667644501,0.02628999948501587,-0.3280400037765503,-0.3672800064086914,-0.12193000316619873,0.039340000599622726,0.30118998885154724,-0.014530000276863575,-0.26015999913215637,0.19729000329971313],[0.05279000103473663,0.06672000139951706,-0.04859999939799309,0.3124299943447113,0.03857000172138214,0.058820001780986786,0.10935000330209732,-0.0029299999587237835,0.04771000146865845,-0.3012799918651581,0.2640100121498108,0.1526699960231781,-0.1045600026845932,0.06921999901533127,0.13467000424861908,0.40529000759124756,0.11655999720096588],[0.1724500060081482,-0.14809000492095947,-0.07694000005722046,-0.07236000150442123,-0.2318599969148636,-0.3536500036716461,-0.003449999960139394,-0.10182999819517136,0.21074000000953674,-0.1540600061416626,-0.1718900054693222,0.014240000396966934,-0.16327999532222748,0.03618999943137169,-0.01940999925136566,0.11181999742984772,0.20157000422477722],[-0.19681000709533691,0.005350000225007534,-0.1170400008559227,0.2554199993610382,0.11607000231742859,0.09599000215530396,0.06395000219345093,0.24334999918937683,0.17499999701976776,-0.11430999636650085,-0.36417001485824585,-0.3691200017929077,0.013829999603331089,0.038839999586343765,-0.49445000290870667,-0.04538000002503395,0.09380999952554703],[0.15990999341011047,-0.07317999750375748,0.11448000371456146,0.17698000371456146,0.005679999943822622,0.16726000607013702,0.004889999981969595,0.11196999996900558,-0.08189000189304352,0.1545500010251999,0.0436599999666214,-0.07750999927520752,0.12101999670267105,-0.01228999998420477,0.18000000715255737,0.186489999294281,0.0828000009059906],[-0.20302000641822815,0.15512000024318695,0.20705999433994293,-0.005630000028759241,-0.14350000023841858,0.29951000213623047,0.24274000525474548,-0.38183000683784485,0.10170000046491623,-0.1298999935388565,-0.00430000014603138,0.20241999626159668,0.14723999798297882,-0.2593800127506256,0.029829999431967735,-0.14257000386714935,-0.21854999661445618],[0.1445399969816208,-0.26361000537872314,-0.07096999883651733,0.06763000041246414,-0.031700000166893005,0.13574999570846558,-0.13273000717163086,0.2975800037384033,-0.1972000002861023,0.07816000282764435,0.030489999800920486,-0.20263999700546265,-0.06296999752521515,0.4011000096797943,-0.08377999812364578,-0.5022000074386597,-0.02882000058889389],[-0.08852999657392502,0.09072999656200409,0.24264000356197357,0.030139999464154243,0.18925000727176666,0.010780000127851963,-0.17757000029087067,-0.02573000080883503,-0.2642599940299988,-0.08384999632835388,0.053050000220537186,0.08827000111341476,-0.2634199857711792,-0.467960000038147,-0.2027300000190735,-0.08668000251054764,0.3413600027561188],[-0.03734999895095825,-0.26688000559806824,-0.13233999907970428,-0.07671999931335449,-0.10638000071048737,-0.5235599875450134,0.0737600028514862,-0.1603900045156479,0.047189999371767044,0.2486799955368042,0.16044999659061432,0.04521999880671501,-0.03962999954819679,0.025189999490976334,0.11311999708414078,0.3980799913406372,0.1988700032234192],[-0.04498999938368797,-0.2809999883174896,-0.21684999763965607,0.06445000320672989,-0.05429000034928322,-0.010870000347495079,-0.08967000246047974,0.275519996881485,-0.2815999984741211,0.2359600067138672,-0.23202000558376312,0.1177000030875206,0.0005499999970197678,-0.07319000363349915,0.14991000294685364,-0.2766599953174591,0.23566000163555145],[0.16053999960422516,0.2612299919128418,-0.1547500044107437,0.18366000056266785,0.12869000434875488,-0.3083600103855133,0.17870000004768372,0.08128999918699265,0.08629000186920166,0.1321599930524826,0.036720000207424164,-0.15824000537395477,0.008609999902546406,-0.294979989528656,-0.10412999987602234,-0.16200000047683716,0.19415999948978424],[-0.13124999403953552,-0.07671999931335449,0.16019999980926514,-0.1033800020813942,-0.10863000154495239,0.21613000333309174,0.07485999912023544,0.04623999819159508,-0.08498000353574753,-0.05400000140070915,-0.0385500006377697,0.019509999081492424,0.2673400044441223,-0.3689799904823303,0.19076000154018402,0.10254999995231628,-0.35954999923706055],[0.18897999823093414,-0.3344300091266632,-0.0391400009393692,0.04853000119328499,-0.10470999777317047,0.20733000338077545,-0.0832500010728836,-0.06586000323295593,-0.27138999104499817,-0.149959996342659,0.006550000049173832,-0.18786999583244324,0.06088000163435936,-0.05956999957561493,0.19009999930858612,0.11270000040531158,-0.19098000228405],[0.1065400019288063,0.1559399962425232,0.13886000216007233,0.0686199963092804,0.03017999976873398,-0.36070001125335693,-0.09013000130653381,0.41721999645233154,0.06831999868154526,-0.02758999913930893,-0.2213200032711029,-0.12515999376773834,0.13262000679969788,-0.09402000159025192,0.09664999693632126,-0.09093999862670898,0.07580000162124634],[-0.4029799997806549,0.19423000514507294,0.09092000126838684,0.07613000273704529,-0.0035600000992417336,-0.1731400042772293,-0.10305999964475632,0.15178999304771423,0.026920000091195107,0.05178999900817871,0.12669000029563904,0.1740500032901764,0.18583999574184418,0.07101000100374222,0.18761000037193298,0.02834000065922737,0.2950400114059448],[-0.009549999609589577,0.15669000148773193,-0.18258999288082123,0.18615999817848206,-0.09927999973297119,0.0640999972820282,0.06526000052690506,0.16604000329971313,0.2643499970436096,-0.03240000084042549,-0.050269998610019684,-0.05011000111699104,-0.0643400028347969,0.20490999519824982,-0.2028599977493286,-0.32811999320983887,0.15028999745845795],[0.10638999938964844,0.04362000152468681,0.09556999802589417,-0.21254999935626984,-0.09836000204086304,-0.16168999671936035,0.030780000612139702,0.5302199721336365,-0.2047400027513504,0.37713000178337097,0.21139000356197357,-0.0697299987077713,-0.07699999958276749,-0.17333999276161194,0.2962700128555298,0.08547999709844589,-0.22684000432491302],[0.030519999563694,-0.013899999670684338,-0.21371999382972717,-0.029789999127388,0.0634400025010109,-0.28091999888420105,0.1009799987077713,0.12323000282049179,0.19272999465465546,0.13916000723838806,0.07438000291585922,-0.04778999835252762,0.0748400017619133,0.1143999993801117,-0.26058000326156616,0.15782000124454498,-0.2440200001001358],[0.20059999823570251,0.028589999303221703,-0.031599998474121094,-0.0070500001311302185,0.15836000442504883,-0.12047000229358673,0.13966000080108643,-0.362280011177063,0.06283000111579895,0.12875999510288239,0.049639999866485596,0.04831999912858009,0.20996999740600586,0.01217000000178814,0.03621000051498413,0.07373999804258347,0.549809992313385],[0.024700000882148743,-0.30928000807762146,0.08206000179052353,-0.048829998821020126,0.10937000066041946,-0.06390000134706497,-0.14512999355793,-0.09748999774456024,-0.010660000145435333,0.14824999868869781,0.04721999913454056,-0.030540000647306442,0.1399800032377243,-0.2331099957227707,0.126010000705719,0.2265699952840805,-0.1546500027179718],[0.00977999996393919,-0.1633400022983551,0.07811000198125839,-0.10450000315904617,-0.01063000038266182,-0.17820000648498535,0.04747999832034111,0.10976999998092651,-0.318589985370636,0.034960001707077026,-0.04913000017404556,-0.08946000039577484,-0.21056999266147614,-0.10068000108003616,-0.09021999686956406,0.2663300037384033,0.01954999938607216],[-0.2523899972438812,0.3430500030517578,-0.02607000060379505,0.00949000008404255,-0.10845000296831131,0.11247000098228455,0.07336000353097916,0.3918200135231018,0.20608000457286835,0.007639999967068434,0.21674999594688416,0.06872999668121338,0.07534000277519226,0.11670999974012375,-0.1765899956226349,-0.26089000701904297,-0.03644999861717224],[0.25393998622894287,-0.10745999962091446,-0.01217000000178814,0.07108999788761139,-0.03060000017285347,-0.14726999402046204,0.19553999602794647,-0.07407999783754349,0.19205999374389648,0.11344999819993973,0.039409998804330826,0.034170001745224,-0.07425999641418457,0.15001000463962555,0.047850001603364944,0.41315001249313354,0.3518199920654297],[0.0660799965262413,0.2654600143432617,-0.14879000186920166,0.1518400013446808,0.047589998692274094,0.12123999744653702,-0.13027000427246094,0.12746000289916992,0.0935399979352951,-0.38881000876426697,-0.15345999598503113,-0.02816000021994114,-0.05919000133872032,0.29686999320983887,-0.023070000112056732,-0.1597999930381775,0.09239999949932098],[0.023479999974370003,-0.11151000112295151,0.13050000369548798,-0.2080399990081787,-0.03344999998807907,-0.061489999294281006,-0.10689999908208847,-0.11744999885559082,-0.29232001304626465,-0.009820000268518925,0.10875000059604645,0.3942300081253052,0.06694000214338303,-0.1679999977350235,0.2184000015258789,0.13761000335216522,-0.12816999852657318],[-0.10216999799013138,0.08392000198364258,0.20959000289440155,0.08378999680280685,-0.3080599904060364,0.25095999240875244,0.15918000042438507,0.23510999977588654,0.12363000214099884,-0.1856600046157837,-0.14268000423908234,-0.065420001745224,0.23792999982833862,-0.1197500005364418,-0.24217000603675842,0.19214999675750732,-0.17420999705791473],[-0.19790999591350555,0.3372800052165985,0.03680000081658363,0.10589999705553055,0.09466999769210815,0.0666700005531311,0.17619000375270844,0.05756000056862831,-0.05067000165581703,-0.2472199946641922,0.01133000012487173,0.012509999796748161,-0.004900000058114529,0.04230999946594238,-0.16740000247955322,0.342960000038147,-0.13106000423431396],[0.023569999262690544,0.0524899996817112,-0.39746999740600586,-0.098860003054142,0.0757799968123436,-0.26506999135017395,0.1578499972820282,0.02769000083208084,0.13143999874591827,-0.19489000737667084,-0.06662999838590622,-0.0653500035405159,0.04806999862194061,-0.005659999791532755,-0.2858400046825409,0.20032000541687012,-0.024320000782608986],[0.16373999416828156,-0.05536000058054924,0.09209000319242477,-0.06750000268220901,0.0060800001956522465,-0.020160000771284103,0.2098200023174286,0.00203999993391335,-0.05455999821424484,-0.3060399889945984,-0.2644299864768982,-0.3260200023651123,0.26438000798225403,-0.0422700010240078,-0.09960000216960907,0.1890600025653839,0.023329999297857285],[-0.02287999913096428,-0.19843000173568726,-0.024800000712275505,-0.091839998960495,0.060169998556375504,-0.20702999830245972,0.15026000142097473,-0.150969997048378,-0.2077299952507019,0.29315999150276184,0.004029999952763319,0.20923000574111938,-0.06785999983549118,-0.24034999310970306,0.2806900143623352,0.14680999517440796,0.14700999855995178],[-0.39566999673843384,-0.22845999896526337,-0.15473000705242157,-0.07979000359773636,-0.09793999791145325,0.10109999775886536,-0.023029999807476997,-0.3033899962902069,-0.11796999722719193,0.0922200009226799,-0.3838199973106384,-0.10058999806642532,0.009159999899566174,-0.1874600052833557,0.12064000219106674,-0.21875999867916107,0.007849999703466892],[0.21543000638484955,-0.07035999745130539,0.020400000736117363,0.09933999925851822,-0.2662700116634369,-0.012179999612271786,-0.2889400124549866,0.3161199986934662,0.18357999622821808,0.004310000222176313,0.08568000048398972,0.18046000599861145,0.07413999736309052,-0.17173999547958374,-0.1446000039577484,0.132860004901886,0.2328999936580658],[0.1164499968290329,-0.23987999558448792,-0.04554000124335289,-0.029519999399781227,-0.011389999650418758,-0.05877000093460083,-0.48938000202178955,0.11305999755859375,-0.18573999404907227,0.08653999865055084,-0.19130000472068787,-0.13173000514507294,-0.1425199955701828,0.15636999905109406,0.00798999983817339,0.06350000202655792,-0.18740999698638916],[0.02379000000655651,0.11587999761104584,-0.18942999839782715,0.0007200000109151006,0.22898000478744507,-0.30171000957489014,0.2639400064945221,0.24440999329090118,-0.16398000717163086,0.25213998556137085,0.11851999908685684,-0.03945999965071678,0.012919999659061432,-0.009019999764859676,-0.017260000109672546,-0.04337000101804733,0.33972999453544617],[-0.14973999559879303,0.14237000048160553,-0.06740999966859818,-0.2551800012588501,0.10740000009536743,0.008940000087022781,-0.02387000061571598,0.015289999544620514,0.21729999780654907,-0.37536999583244324,0.131850004196167,0.05215999856591225,-0.033479999750852585,-0.21945999562740326,0.06565999984741211,0.00107999995816499,0.2849999964237213],[0.0177800003439188,-0.13590000569820404,-0.0406000018119812,-0.16322000324726105,0.3115899860858917,-0.03602999821305275,-0.0005499999970197678,0.10063999891281128,-0.1329299956560135,-0.23345999419689178,-0.13868999481201172,0.010769999586045742,-0.24052000045776367,0.17326000332832336,-0.18840999901294708,0.07997000217437744,0.486380010843277],[-0.07357999682426453,0.028540000319480896,-0.025839999318122864,0.0034099998883903027,-0.47266000509262085,0.09645000100135803,0.13749000430107117,-0.14242999255657196,0.17110000550746918,-0.10485000163316727,0.028149999678134918,-0.2590700089931488,0.009759999811649323,-0.3135699927806854,-0.11751999706029892,0.01761999912559986,-0.05152000114321709],[-0.2748900055885315,0.002219999907538295,-0.12814000248908997,-0.0624300017952919,0.04791000112891197,0.12727999687194824,-0.020400000736117363,0.4262399971485138,0.2722899913787842,-0.15573999285697937,0.05342999845743179,-0.1703999936580658,-0.10102000087499619,0.07539000362157822,-0.17757999897003174,0.0855100005865097,0.06559000164270401],[-0.0154600003734231,0.1779700070619583,0.26315999031066895,-0.365449994802475,0.06814999878406525,-0.08274000138044357,0.11285000294446945,0.19065000116825104,0.145579993724823,-0.03483999893069267,-0.16541999578475952,0.3450999855995178,-0.37092000246047974,-0.01964999921619892,-0.1174900010228157,0.10513000190258026,-0.18703000247478485],[0.05356999859213829,-0.4453299939632416,0.037289999425411224,-0.24089999496936798,0.07586999982595444,-0.04422000050544739,-0.17190000414848328,-0.14673000574111938,-0.25644999742507935,0.10595999658107758,-0.2982099950313568,-0.08449999988079071,-0.2472900003194809,-0.17685000598430634,-0.18660999834537506,0.046890001744031906,-0.02841999940574169],[-0.08055999875068665,-0.007600000128149986,-0.05820000171661377,0.14157000184059143,0.1060900017619133,-0.07931999862194061,-0.13022999465465546,-0.38611000776290894,0.10192999988794327,-0.14956000447273254,-0.1418900042772293,-0.04190000146627426,-0.1787099987268448,0.48037999868392944,-0.12846000492572784,-0.06588000059127808,0.39030998945236206],[-0.12178999930620193,0.2429399937391281,-0.08162999898195267,0.28477001190185547,0.16996000707149506,0.25777000188827515,0.08694999665021896,0.19890999794006348,0.21651999652385712,-0.005189999938011169,-0.009600000455975533,-0.08477000147104263,-0.008150000125169754,0.10644999891519547,0.08288999646902084,-0.020479999482631683,0.27911999821662903],[0.14982999861240387,0.09483999758958817,0.002950000111013651,0.13636000454425812,-0.06009000167250633,0.27838999032974243,0.16000999510288239,-0.20361000299453735,-0.1522199958562851,0.26513001322746277,0.033900000154972076,-0.06036999821662903,0.005270000081509352,-0.1766500025987625,0.0805400013923645,-0.25310999155044556,0.06233999878168106],[-0.07964999973773956,0.16795000433921814,0.10887999832630157,0.04690000042319298,0.1389400064945221,-0.015879999846220016,0.10617999732494354,-0.20771999657154083,-0.1400499939918518,-0.12166000157594681,-0.1665000021457672,-0.06921999901533127,0.034290000796318054,0.06965000182390213,0.338919997215271,-0.7127699851989746,-0.15477000176906586],[0.20441000163555145,0.09255000203847885,0.03943999856710434,0.24324999749660492,0.010169999673962593,0.29054000973701477,0.008910000324249268,-0.3169899880886078,-0.04769999906420708,0.12077999860048294,0.042830001562833786,0.023989999666810036,0.11665000021457672,-0.20586000382900238,0.05452999845147133,-0.05400000140070915,-0.1447400003671646],[-0.13808999955654144,0.29267001152038574,-0.013279999606311321,-0.2677600085735321,0.11958999931812286,-0.07586999982595444,0.41416001319885254,0.20645999908447266,0.07017000019550323,0.04780999943614006,0.04927000030875206,-0.016119999811053276,-0.04278000071644783,-0.08316999673843384,-0.258760005235672,-0.04839000105857849,-0.16339999437332153],[-0.30651000142097473,-0.09066999703645706,-0.0867300033569336,0.0853400006890297,-0.026559999212622643,-0.16280999779701233,-0.06575000286102295,0.284170001745224,-0.09980999678373337,-0.179299995303154,-0.16783000528812408,0.020740000531077385,-0.03068000078201294,-0.22419999539852142,-0.13694000244140625,0.31306999921798706,0.25332000851631165],[-0.20919999480247498,-0.034779999405145645,-0.10373000055551529,-0.2573300004005432,0.008070000447332859,-0.12173999845981598,-0.15065999329090118,0.09030000120401382,-0.05737999826669693,0.14178000390529633,0.08162999898195267,-0.017920000478625298,-0.2715199887752533,0.1462399959564209,-0.10834000259637833,0.3558200001716614,-0.12655000388622284],[0.04732999950647354,0.1308099925518036,-0.19401000440120697,0.21660999953746796,-0.13124999403953552,-0.0940999984741211,-0.09649000316858292,0.18036000430583954,-0.08653999865055084,0.11502999812364578,0.08060000091791153,0.22949999570846558,-0.1530500054359436,-0.3785800039768219,-0.021800000220537186,0.0603800006210804,0.06632000207901001],[-0.1531600058078766,0.029969999566674232,-0.24991999566555023,-0.25687000155448914,0.08239000290632248,-0.03596000000834465,0.2343199998140335,-0.133760005235672,0.3044399917125702,0.1572200059890747,-0.1964700073003769,-0.09565000236034393,0.08598999679088593,0.26120999455451965,-0.26065999269485474,0.3352000117301941,-0.02758999913930893],[0.05000000074505806,-0.08032000064849854,0.017669999971985817,-0.06418000161647797,0.06678999960422516,0.07016000151634216,-0.19072000682353973,0.09058000147342682,-0.1935800015926361,0.10749000310897827,-0.3345000147819519,-0.4271000027656555,0.13728000223636627,-0.20806999504566193,-0.35249000787734985,0.15049999952316284,-0.1927500069141388],[-0.18946999311447144,0.03513000160455704,0.14781999588012695,-0.16402000188827515,-0.03102000057697296,0.11959999799728394,-0.16726000607013702,-0.0384799987077713,0.07654000073671341,0.12557999789714813,-0.11388000100851059,-0.2352599948644638,0.17885999381542206,-0.07514999806880951,-0.13437999784946442,-0.04566999897360802,-0.3381499946117401],[0.00800000037997961,-0.12019000202417374,0.07402999699115753,0.1321299970149994,-0.0859299972653389,-0.37092000246047974,0.22236000001430511,-0.18851999938488007,-0.18267999589443207,-0.28518998622894287,0.11892999708652496,-0.08051999658346176,0.2951200008392334,-0.30094999074935913,0.06533999741077423,0.18025000393390656,-0.31571999192237854],[0.01286999974399805,-0.10271000117063522,-0.03488000109791756,-0.20261000096797943,0.06853000074625015,-0.21288999915122986,-0.1759900003671646,0.2926799952983856,0.05460000038146973,0.183569997549057,0.0678199976682663,-0.0722699984908104,0.14087000489234924,0.35163000226020813,-0.05928000062704086,0.5034099817276001,0.33528000116348267],[-0.10975000262260437,0.2257699966430664,-0.04242999851703644,0.10012000054121017,0.16226999461650848,0.18402999639511108,-0.012280000373721123,0.10777000337839127,0.290800005197525,-0.14080999791622162,0.044690001755952835,0.02703999914228916,-0.1869799941778183,-0.03711000084877014,0.0007600000244565308,0.33114001154899597,-0.1717499941587448],[0.25468000769615173,0.3946099877357483,-0.06353999674320221,0.03723999857902527,-0.20034000277519226,-0.09523999691009521,0.18844999372959137,-0.11625999957323074,0.26868000626564026,0.06731999665498734,0.10346999764442444,0.03895999863743782,0.21025000512599945,0.24824999272823334,0.04642000049352646,-0.19623999297618866,0.04284999892115593],[-0.07579000294208527,0.2296600043773651,-0.3137199878692627,-0.1309400051832199,0.13547000288963318,0.10495000332593918,-0.035989999771118164,-0.2941499948501587,0.20890000462532043,-0.30230000615119934,0.15137000381946564,0.07998999953269958,0.037370000034570694,-0.02426999993622303,0.02046000026166439,-0.23592999577522278,-0.22925999760627747],[-0.06599000096321106,-0.21589000523090363,0.057029999792575836,-0.11636999994516373,-0.16384999454021454,-0.07583999633789062,-0.0839100033044815,0.15368999540805817,-0.1617099940776825,0.06717000156641006,-0.34275999665260315,-0.2744300067424774,0.09086000174283981,-0.18852999806404114,-0.12143000215291977,-0.07240000367164612,-0.48458999395370483],[0.06176000088453293,0.4134399890899658,-0.2975099980831146,0.1686200052499771,-0.07992000132799149,-0.16649000346660614,0.1535000056028366,-0.11253999918699265,0.01063000038266182,0.044130001217126846,-0.04738999903202057,-0.07446999847888947,-0.07009000331163406,-0.24437999725341797,-0.17611999809741974,-0.17468999326229095,0.2516799867153168],[0.04706000164151192,-0.04625999927520752,-0.0736600011587143,-0.028689999133348465,-0.2067199945449829,-0.14681999385356903,0.3158400058746338,0.07427000254392624,-0.12717999517917633,-0.456059992313385,-0.03395000100135803,-0.03832999989390373,-0.015130000188946724,0.0860700011253357,0.10367999970912933,-0.45917001366615295,0.13436999917030334],[-0.1363299936056137,0.13270999491214752,0.02232999913394451,-0.1391099989414215,-0.10847999900579453,0.24491000175476074,-0.0010900000343099236,0.06577000021934509,-0.26903000473976135,-0.13529999554157257,0.024879999458789825,-0.15612000226974487,0.005419999826699495,0.03692999854683876,0.0737999975681305,-0.1199600026011467,-0.08081000298261642],[0.23958000540733337,0.1527400016784668,0.10544999688863754,0.02873999997973442,0.07460000365972519,-0.13203999400138855,-0.10182999819517136,0.3178499937057495,0.010119999758899212,0.2356799989938736,-0.0572500005364418,-0.03903999924659729,0.3056100010871887,0.05835999920964241,-0.11343000084161758,0.2769100069999695,0.10345999896526337],[0.2961300015449524,-0.3077400028705597,-0.18102000653743744,-0.1367799937725067,0.1929900050163269,0.048250000923871994,-0.04665999859571457,0.031060000881552696,-0.08117999881505966,-0.037370000034570694,0.10369999706745148,0.2796500027179718,-0.06943000108003616,0.0839499980211258,-0.013199999928474426,-0.13460999727249146,-0.05366000160574913],[-0.25975000858306885,0.17229999601840973,0.01923999935388565,0.0471699982881546,0.04408000037074089,0.3850800096988678,-0.04774999991059303,-0.26170000433921814,0.07655999809503555,0.005900000222027302,0.3267099857330322,0.30915001034736633,0.011839999817311764,-0.14618000388145447,0.23562000691890717,-0.10288000106811523,0.19794000685214996],[-0.11597999930381775,0.01281999982893467,-0.0058200000785291195,-0.18813000619411469,0.08253999799489975,0.3381099998950958,0.042419999837875366,-0.039650000631809235,0.2504099905490875,0.31762999296188354,0.24651999771595,-0.017820000648498535,0.11042000353336334,-0.09781000018119812,0.014820000156760216,0.1987600028514862,0.08877000212669373],[-0.006029999814927578,-0.26829999685287476,-0.046220000833272934,-0.018050000071525574,-0.019179999828338623,0.048650000244379044,-0.19941000640392303,0.027790000662207603,0.24507999420166016,0.10785999894142151,0.1436299979686737,0.15676000714302063,-0.06609000265598297,0.30261000990867615,-0.07864999771118164,0.03849999979138374,-0.25885000824928284],[-0.24537000060081482,-0.061159998178482056,-0.4403499960899353,0.07855000346899033,0.2031800001859665,0.03562000021338463,0.21437999606132507,0.27507999539375305,-0.2778800129890442,-0.08216000348329544,-0.08743000030517578,-0.011669999919831753,-0.24269999563694,0.23728999495506287,-0.057420000433921814,-0.06691999733448029,0.01962999999523163],[0.4483200013637543,0.18341000378131866,-0.07785999774932861,0.11852999776601791,0.2270199954509735,0.06612999737262726,-0.10329999774694443,-0.1960500031709671,-0.022870000451803207,0.1298699975013733,0.16455000638961792,0.18174999952316284,-0.2348800003528595,0.19261999428272247,0.1635199934244156,0.095660001039505,0.36427000164985657],[-0.3283500075340271,-0.09425999969244003,-0.028629999607801437,0.08935000002384186,-0.07724999636411667,-0.14534999430179596,-0.21250000596046448,-0.16660000383853912,-0.28352001309394836,-0.2619900107383728,-0.02019999921321869,0.15729999542236328,-0.13898000121116638,-0.4854399859905243,0.23393000662326813,-0.24646000564098358,0.14692999422550201],[0.1340000033378601,-0.0723000019788742,0.08292999863624573,0.06824000179767609,0.0009200000204145908,0.10599999874830246,0.006140000186860561,-0.24358999729156494,-0.213809996843338,0.3537600040435791,0.10950999706983566,0.02133999951183796,-0.0019099999917671084,0.10843999683856964,0.18727999925613403,-0.03206999972462654,0.019379999488592148],[-0.10683999955654144,-0.12371999770402908,0.20866000652313232,0.08681000024080276,0.16584999859333038,-0.030629999935626984,-0.2513900101184845,-0.027799999341368675,0.18242000043392181,-0.22493000328540802,0.12532000243663788,0.08344999700784683,-0.0059899999760091305,0.08940000087022781,0.34828999638557434,-0.16222000122070312,0.08324000239372253],[0.0022299999836832285,-0.12078999727964401,-0.0551999993622303,-0.46129998564720154,0.18955999612808228,0.09008999913930893,0.09745000302791595,0.19474999606609344,-0.1806900054216385,-0.15248000621795654,-0.1516599953174591,-0.004629999864846468,-0.07349000126123428,0.1727299988269806,0.0003100000030826777,-0.21330000460147858,0.11260999739170074],[0.38082998991012573,0.07075999677181244,-0.07887999713420868,0.11618000268936157,0.2593199908733368,-0.09371999651193619,0.08990000188350677,0.2846300005912781,-0.023240000009536743,0.08442000299692154,-0.18558000028133392,-0.10832999646663666,0.0731000006198883,0.2335900068283081,-0.09470999985933304,0.020309999585151672,-0.052469998598098755],[0.29405999183654785,-0.24769000709056854,0.11085999757051468,0.09049999713897705,0.21806000173091888,-0.26563000679016113,-0.029899999499320984,-0.25988999009132385,0.01624000072479248,-0.20047999918460846,-0.16292999684810638,0.2043199986219406,-0.2645600140094757,-0.23301999270915985,0.09540999680757523,-0.12462999671697617,0.1747799962759018],[0.10502000153064728,-0.3333500027656555,-0.08172000199556351,0.008129999972879887,0.2793099880218506,-0.17260999977588654,0.10019999742507935,-0.0022100000642240047,0.41701000928878784,0.06350000202655792,0.30188998579978943,-0.2010200023651123,0.40999001264572144,0.027499999850988388,0.3400000035762787,0.12828999757766724,-0.05756999924778938],[0.25582000613212585,-0.02442999929189682,0.1467999964952469,0.26881998777389526,-0.07481999695301056,0.013690000399947166,0.12150000035762787,0.14565999805927277,-0.0551300011575222,0.053630001842975616,-0.07156000286340714,-0.23210999369621277,0.15142999589443207,0.2003600001335144,-0.4258599877357483,0.01355000026524067,0.02761000022292137],[0.2493000030517578,-0.05452999845147133,0.07785999774932861,0.15780000388622284,0.08483999967575073,0.2329999953508377,-0.03638000041246414,0.167820006608963,-0.035599999129772186,0.009460000321269035,-0.22089999914169312,-0.16810999810695648,0.24886000156402588,-0.01860000006854534,-0.047940000891685486,-0.12630000710487366,-0.23567000031471252],[0.06216999888420105,0.12308000028133392,0.16248999536037445,0.24492999911308289,0.04473999887704849,0.08574999868869781,0.014150000177323818,0.27772998809814453,0.1367499977350235,0.09143999963998795,-0.2384900003671646,-0.13551999628543854,-0.015429999679327011,0.33814001083374023,-0.1427599936723709,0.12533000111579895,0.16532999277114868],[-0.1970600038766861,-0.10909999907016754,0.16684000194072723,-0.2600800096988678,0.015300000086426735,-0.04579000174999237,0.0648299977183342,-0.11375000327825546,-0.17669999599456787,0.003229999914765358,-0.05412999913096428,0.1381399929523468,0.08975999802350998,-0.22988000512123108,0.5485699772834778,-0.4866200089454651,-0.02116999961435795],[0.22575999796390533,0.05135999992489815,-0.13896000385284424,0.07299000024795532,-0.15629999339580536,-0.0588500015437603,0.05245999991893768,-0.17175999283790588,0.010029999539256096,-0.18780000507831573,-0.017820000648498535,0.0866599977016449,-0.22352999448776245,-0.15233999490737915,-0.22662000358104706,-0.028589999303221703,0.2292100042104721],[0.011909999884665012,0.2980499863624573,-0.1676899939775467,0.1904599964618683,-0.04473000019788742,0.14598999917507172,0.009399999864399433,-0.12250000238418579,0.25676000118255615,0.027009999379515648,0.24009999632835388,0.00558000011369586,0.1907700002193451,0.057760000228881836,0.19720999896526337,-0.055640000849962234,0.2136099934577942],[0.19098000228405,-0.15392999351024628,0.018540000542998314,0.004449999891221523,-0.29681000113487244,0.03616999834775925,0.05189000070095062,-0.19523000717163086,-0.11642999947071075,-0.08573000133037567,0.1366100013256073,0.15160000324249268,0.059849999845027924,0.0004900000058114529,0.12699000537395477,0.32892999053001404,0.17327000200748444],[-0.11050000041723251,0.09876000136137009,0.11400999873876572,-0.05610999837517738,0.08302000164985657,0.20337000489234924,0.009700000286102295,0.1953900009393692,0.058329999446868896,0.047850001603364944,0.03683000057935715,0.11078999936580658,0.14258000254631042,0.37584999203681946,-0.16732999682426453,0.46007001399993896,-0.27270999550819397],[0.04706000164151192,-0.15081000328063965,0.022460000589489937,-0.11700999736785889,-0.19912999868392944,0.17600999772548676,-0.3505600094795227,-0.3553900122642517,0.1081399992108345,-0.09578999876976013,-0.0004799999878741801,0.08620999753475189,-0.03807999938726425,0.10544999688863754,0.17806999385356903,0.017729999497532845,0.15512000024318695],[-0.10200999677181244,0.1818300038576126,0.052960000932216644,0.1477299928665161,-0.15676000714302063,0.1575700044631958,0.06353999674320221,0.04315999895334244,-0.05536000058054924,0.15931999683380127,0.06273999810218811,0.0649000033736229,-0.3293299973011017,-0.05234000086784363,-0.23874999582767487,0.03192000091075897,-0.42083001136779785]],"b":[-0.10958000272512436,0.1973699927330017,-0.2262900024652481,0.21320000290870667,-0.08027999848127365,-0.05933000147342682,0.1059499979019165,-0.007910000160336494,0.04718000069260597,-0.0055599999614059925,-0.14188000559806824,0.2227099984884262,-0.1482899934053421,-0.16684000194072723,-0.20090000331401825,0.01484999991953373,-0.1433899998664856,-0.10986000299453735,0.010649999603629112,0.0030400000978261232,-0.046140000224113464,0.0998699963092804,0.1037599965929985,0.10392999649047852,-0.11561000347137451,-0.004860000219196081,-0.02879999950528145,0.14959999918937683,0.05713000148534775,-0.1738400012254715,0.20237000286579132,0.11760000139474869,-0.04091000184416771,-0.19502000510692596,-0.039159998297691345,0.21170000731945038,-0.07756999880075455,-0.016049999743700027,-0.07027000188827515,0.22182999551296234,0.18542000651359558,-0.04960000142455101,-0.07964999973773956,0.08776000142097473,0.08182000368833542,0.09962999820709229,0.2823300063610077,-0.031780000776052475,0.25867000222206116,-0.05187999829649925,-0.1871899962425232,0.19984999299049377,-0.10863000154495239,0.039090000092983246,0.23948000371456146,-0.06616999953985214,0.28532999753952026,-0.001129999989643693,-0.15929000079631805,-0.07607000321149826,-0.16167999804019928,-0.2523399889469147,-0.23216000199317932,-0.12035000324249268,0.17223000526428223,0.026079999282956123,0.08758000284433365,0.05019000172615051,-0.24121999740600586,-0.04493999853730202,0.08477000147104263,0.05959999933838844,-0.32510998845100403,0.343860000371933,-0.14077000319957733,0.08921000361442566,-0.03897000104188919,-0.0734499990940094,-0.27417001128196716,0.02920999936759472,-0.023479999974370003,-0.1137700006365776,0.24358999729156494,0.13926999270915985,-0.19101999700069427,-0.12508000433444977,0.009159999899566174,0.1976500004529953,0.1466200053691864,0.30017998814582825,-0.07079000025987625,0.11789999902248383,0.07633999735116959,-0.07714000344276428,0.29058000445365906,0.21932999789714813,-0.046890001744031906,-0.11542999744415283,0.04901000112295151,-0.16569000482559204,0.017090000212192535,0.06996999680995941,0.14528000354766846,-0.10389000177383423,-0.14985999464988708,0.3649199903011322,0.04462999850511551,-0.13508999347686768,0.02295999974012375,-0.34768998622894287,-0.0816200003027916,-0.056040000170469284,0.2711600065231323,-0.06194999814033508,0.02978000044822693,0.060019999742507935,-0.10795000195503235,0.14427000284194946,0.14167000353336334,0.07581999897956848,0.07580000162124634,0.03901999816298485,-0.09526000171899796,-0.2752799987792969,-0.12711000442504883,0.123089998960495,0.04772000014781952,0.16122999787330627,0.07795999944210052,0.09927000105381012,-0.16549000144004822,-0.013050000183284283,-0.0864500030875206,-0.10566999763250351,-0.14449000358581543,-0.30956000089645386,-0.07844000309705734,-0.25648999214172363,-0.08797000348567963,0.06684999912977219,0.019850000739097595,-0.03017999976873398,-0.04938000068068504,-0.010350000113248825,-0.13471999764442444,0.11721000075340271,-0.24932999908924103,-0.11195000261068344,0.08985999971628189,-0.10147999972105026,-0.06763000041246414,-0.08315999805927277,-0.1621199995279312,-0.20857000350952148,-0.017799999564886093,0.0856499969959259,-0.11875999718904495,-0.01590999960899353,-0.04983000084757805,0.014329999685287476,-0.06533999741077423,-0.148389995098114,-0.04597000032663345,0.12456999719142914,-0.1143300011754036,-0.06644999980926514,0.06913000345230103,-0.05829000100493431,-0.034929998219013214,-0.03367000073194504,-0.07976999878883362,-0.06881999969482422,0.029079999774694443,0.11156000196933746,0.017109999433159828,-0.12217999994754791,-0.15613999962806702,-0.134770005941391,-0.24156999588012695,-0.017139999195933342,0.06880000233650208,0.08986999839544296,0.05545999854803085,0.15575000643730164,-0.05810999870300293,-0.19032999873161316,-0.13819999992847443,0.09175000339746475,0.18014000356197357,0.28080999851226807,0.1992100030183792,-0.010370000265538692,-0.10005000233650208,0.3037799894809723,-0.07726000249385834,-0.03830000013113022,-0.12127000093460083,-0.2125599980354309,-0.17015999555587769,-0.06249000132083893,0.1428699940443039,-0.04280000180006027,-0.15584999322891235,0.09520000219345093,-0.12307000160217285,0.04603999853134155,0.015180000104010105,-0.028629999607801437,-0.16311000287532806,0.03229999914765358,0.10869000107049942,-0.19540999829769135,-0.03466000035405159,-0.10344000160694122,0.032180000096559525,-0.11957000195980072,-0.07683999836444855,-0.15676000714302063,-0.021900000050663948,-0.16060000658035278,0.07079999893903732,0.0954200029373169,-0.03189000114798546,-0.13134999573230743,-0.04969999939203262,-0.08862999826669693,-0.04027000069618225,0.09040000289678574,0.06202999874949455,-0.1763100028038025,-0.13957999646663666,-0.24682000279426575,-0.05655999854207039,0.29750001430511475,0.10959000140428543,-0.09922000020742416,-0.06406000256538391,0.22957000136375427,0.1866299957036972,-0.10290999710559845,-0.11620999872684479,-0.16912999749183655,0.10136999934911728,0.2198999971151352,-0.00044999999227002263,0.3372400104999542,0.021870000287890434,-0.046939998865127563,-0.09950999915599823,0.04513999819755554,-0.07069999724626541,0.04154999926686287,-0.07541999965906143,-0.065870001912117,0.0473800003528595,-0.32328000664711],"act":"tanh","in":17,"out":256},{"w":[[0.08698000013828278,-0.07840000092983246,0.05006000027060509,0.07954999804496765,0.044860001653432846,0.07077000290155411,-0.04977000132203102,0.08246999979019165,0.0715399980545044,0.09278000146150589,0.1598999947309494,-0.030880000442266464,0.005530000198632479,-0.05967000126838684,-0.04944000020623207,-0.10869999974966049,0.10509999841451645,-0.07778000086545944,0.059379998594522476,-0.16701999306678772,-0.04410000145435333,0.05527999997138977,-0.12728999555110931,0.1159299984574318,0.10181999951601028,0.1430100053548813,-0.031780000776052475,-0.13089999556541443,0.05838000029325485,0.12466999888420105,-0.05846000090241432,0.07917000353336334,0.023479999974370003,0.12498000264167786,0.05826999992132187,0.05112000182271004,0.18769000470638275,-0.07700999826192856,-0.041930001229047775,0.18140999972820282,-0.10588999837636948,0.0832199975848198,0.010639999993145466,-0.01730000041425228,0.12789000570774078,0.03613999858498573,0.03694000095129013,-0.03880999982357025,0.05761000141501427,-0.14342999458312988,0.24449999630451202,-0.028379999101161957,0.0809599980711937,-0.11328999698162079,0.12272000312805176,-0.07498999685049057,0.031150000169873238,-0.06595999747514725,-0.0753600001335144,-0.017030000686645508,-0.05139999836683273,-0.011009999550879002,0.050700001418590546,0.0941699966788292,-0.0688600018620491,-0.007579999975860119,0.08590999990701675,0.008200000040233135,0.07167000323534012,0.00041000000783242285,0.12454000115394592,-0.08261000365018845,-0.13912999629974365,-0.12716999650001526,0.04222000017762184,-0.2301200032234192,-0.09489999711513519,0.007069999817758799,-0.017640000209212303,0.07141000032424927,0.16270999610424042,-0.07997000217437744,-0.1385200023651123,0.04173000156879425,-4.999999873689376e-05,-0.08525999635457993,-0.1208299994468689,0.10198000073432922,-0.06988000124692917,0.028550000861287117,0.1640699952840805,-0.007240000180900097,-0.1838800013065338,-0.1500300019979477,0.16366000473499298,0.035509999841451645,-0.03514000028371811,0.19923000037670135,0.05984000116586685,0.07971999794244766,0.11920999735593796,0.018810000270605087,0.09036000072956085,0.030799999833106995,0.11088000237941742,0.06154999881982803,-0.030319999903440475,0.04579000174999237,-0.04721999913454056,-0.09608999639749527,0.04523000121116638,0.09055999666452408,0.031849998980760574,0.006779999937862158,-0.1062299981713295,0.21270999312400818,0.03319000080227852,0.05274999886751175,-0.010259999893605709,-0.09500999748706818,0.013340000063180923,-0.026319999247789383,0.08676999807357788,0.01892000064253807,0.018710000440478325,0.11862000077962875,0.1579899936914444,-0.12044999748468399,0.04225999861955643,0.11754000186920166,0.07553000003099442,-0.07390999794006348,-0.19283999502658844,-0.040780000388622284,-0.1456499993801117,-0.07135000079870224,0.12196999788284302,0.02677999995648861,-0.00039000000106170774,0.11087000370025635,-0.06193999946117401,-0.02662000060081482,-0.05914999917149544,0.0044200001284480095,-0.09779000282287598,0.07283999770879745,-0.009859999641776085,0.052719999104738235,-0.03644999861717224,-0.021379999816417694,0.12479999661445618,-0.04997999966144562,0.0005799999926239252,-0.0627100020647049,0.017400000244379044,-0.13211999833583832,0.01996999979019165,0.061569999903440475,-0.2541100084781647,0.07116000354290009,-0.10216999799013138,0.04044000059366226,-0.10153000056743622,0.003650000086054206,-0.018519999459385872,0.014120000414550304,0.08201999962329865,-0.0691400021314621,0.058329999446868896,0.05059000104665756,-0.11800000071525574,0.028279999271035194,0.0016400000313296914,-0.009800000116229057,