{"env_id":"Walker2d-v5","model_xml":"walker2d_v5.xml","obs_dim":17,"act_dim":6,"nq":9,"nv":9,"nu":6,"frame_skip":4,"timestep":0.002,"dt":0.008,"action_low":[-1.0,-1.0,-1.0,-1.0,-1.0,-1.0],"action_high":[1.0,1.0,1.0,1.0,1.0,1.0],"obs_components":[{"kind":"qpos","start":1,"clip":null},{"kind":"qvel","start":0,"clip":[-10.0,10.0]}],"needs_rne":false,"init_qpos":[0.0,1.25,0.0,0.0,0.0,0.0,0.0,0.0,0.0],"init_qvel":[0.0,0.0,0.0,0.0,0.0,0.0,0.0,0.0,0.0],"reset_noise_scale":0.005,"healthy":{"terminate_when_unhealthy":true,"z_index":1,"z_range":[0.8,2.0],"angle_index":2,"angle_range":[-1.0,1.0],"state_range":null},"obs_labels":["rootz pos","rooty pos","thigh_joint pos","leg_joint pos","foot_joint pos","thigh_left_joint pos","leg_left_joint pos","foot_left_joint pos","rootx vel","rootz vel","rooty vel","thigh_joint vel","leg_joint vel","foot_joint vel","thigh_left_joint vel","leg_left_joint vel","foot_left_joint vel"],"action_labels":["thigh_joint","leg_joint","foot_joint","thigh_left_joint","leg_left_joint","foot_left_joint"],"normalization":{"mean":[1.1573656797409058,-0.35927167534828186,-0.0019235470099374652,-0.06720522046089172,0.5640612244606018,-0.5229047536849976,-0.5251932144165039,0.43026894330978394,0.9615986347198486,-0.028253454715013504,-0.10035274177789688,-0.07366622984409332,-0.11941338330507278,-0.5923702716827393,-0.12470729649066925,-0.13494859635829926,-0.34625300765037537],"var":[0.00256511103361845,0.0379561185836792,0.005563718732446432,0.021589547395706177,0.18914614617824554,0.09538891166448593,0.2974213659763336,0.2254619598388672,1.05385160446167,0.36031901836395264,12.20692253112793,13.716721534729004,21.276607513427734,50.01861572265625,35.46415710449219,53.100704193115234,53.089237213134766],"epsilon":1e-08,"clip_obs":10.0},"policy_onnx":"walker2d__ppo_walker2d_3M_s2__final.onnx","policy_net":{"input_dim":17,"layers":[{"w":[[0.10575000196695328,-0.03167999908328056,0.16423000395298004,-0.09064999967813492,0.000590000010561198,-0.2109300047159195,0.08923999965190887,0.06088000163435936,-0.04391999915242195,-0.11670999974012375,0.11704999953508377,-0.03053000010550022,0.14517000317573547,-0.334850013256073,-0.08326999843120575,0.13093000650405884,0.21390999853610992],[0.31518998742103577,0.022859999909996986,-0.26315999031066895,-0.07434999942779541,-0.33452001214027405,0.35738998651504517,0.01348000019788742,0.04052000120282173,-0.02954000048339367,0.06880000233650208,0.018629999831318855,0.23113000392913818,-0.09561999887228012,-0.013740000315010548,-0.0763000026345253,0.3724299967288971,-0.08925999701023102],[-0.1315699964761734,0.11415000259876251,-0.11575999855995178,-0.0970500037074089,-0.11636000126600266,-0.058639999479055405,0.1314699947834015,0.07707999646663666,0.24977999925613403,0.03198999911546707,-0.10808999836444855,0.06949999928474426,-0.26965999603271484,-0.1936900019645691,-0.023029999807476997,0.21782000362873077,0.14900000393390656],[0.22240999341011047,-0.1875,0.055649999529123306,0.03209000080823898,-0.05054999887943268,0.10113999992609024,0.20664000511169434,0.1655299961566925,-0.10129000246524811,0.029659999534487724,-0.019670000299811363,0.1441899985074997,0.4158700108528137,0.09864000231027603,-0.14475999772548676,0.1733500063419342,0.18192000687122345],[-0.11404000222682953,0.08731000125408173,0.17362000048160553,0.15252000093460083,0.2226399928331375,0.09560000151395798,-0.06911999732255936,0.3074899911880493,-0.13539999723434448,0.13742999732494354,-0.023989999666810036,-0.07953000068664551,0.15760000050067902,0.08703000098466873,-0.06171000003814697,-0.015250000171363354,0.03671000152826309],[0.4096300005912781,-0.09605000168085098,-0.6403899788856506,-0.07099000364542007,0.0458500012755394,0.13362999260425568,0.182219997048378,-0.17050999402999878,-0.11445999890565872,-0.150409996509552,-0.1981000006198883,-0.3055199980735779,0.21699999272823334,0.07993999868631363,0.17104999721050262,0.008550000376999378,-0.09679999947547913],[-0.3621000051498413,-0.09882000088691711,-0.35479000210762024,-0.3274100124835968,-0.052379999309778214,-0.19871999323368073,-0.03125999867916107,-0.005030000116676092,0.03836999833583832,-0.04247000068426132,0.018640000373125076,-0.09675999730825424,0.2299100011587143,-0.121629998087883,0.27445000410079956,-0.05161000043153763,0.011479999870061874],[0.0798100009560585,-0.09546999633312225,0.3801800012588501,-0.08815000206232071,0.24491000175476074,-0.21130000054836273,0.2465900033712387,0.08773999661207199,-0.0922200009226799,-0.26513999700546265,0.16791999340057373,0.06378000229597092,0.10576000064611435,0.009680000133812428,-0.12217999994754791,0.12882000207901,0.26429998874664307],[0.03784999996423721,-0.1207600012421608,0.31505000591278076,0.09444999694824219,0.16795000433921814,0.33667999505996704,-0.07294999808073044,-0.10445000231266022,-0.17531000077724457,-0.1475600004196167,0.08721999824047089,0.15988999605178833,0.08671999722719193,0.0200399998575449,0.13015000522136688,0.17732000350952148,-0.12502999603748322],[-0.5571399927139282,-0.12156999856233597,0.11971999704837799,0.03550000116229057,-0.37490999698638916,-0.03821999952197075,-0.11263000220060349,0.09161999821662903,0.20611999928951263,-0.011529999785125256,-0.08438999950885773,0.10356999933719635,-0.0819299966096878,0.0575999990105629,-0.04042999818921089,-0.0847800001502037,0.24053999781608582],[-0.2563999891281128,0.3205699920654297,-0.0368800014257431,0.026410000398755074,0.03813999891281128,0.023000000044703484,0.1820800006389618,-0.039739999920129776,0.02507999911904335,0.10786999762058258,0.11472000181674957,0.08101999759674072,0.18241000175476074,-0.03765000030398369,-0.19183999300003052,0.31038999557495117,0.16152000427246094],[-0.39520999789237976,-0.06932000070810318,0.16642999649047852,0.305400013923645,-0.23423999547958374,-0.1766200065612793,-0.18807999789714813,-0.10228999704122543,-0.053849998861551285,-0.18357999622821808,-0.0020200000144541264,-0.12623000144958496,-0.3791300058364868,0.05521000176668167,0.13606999814510345,0.005640000104904175,-0.07079999893903732],[-0.3594000041484833,0.23467999696731567,0.07100000232458115,0.3236199915409088,0.2123900055885315,0.08953999727964401,-0.16809000074863434,-0.13617999851703644,-0.13274000585079193,0.024550000205636024,-0.06164000183343887,-0.1301400065422058,0.008460000157356262,-0.00535999983549118,0.0023799999617040157,0.14262999594211578,0.054099999368190765],[-0.2764900028705597,-0.15070000290870667,0.004519999958574772,-0.06898000091314316,-0.10334999859333038,-0.26728999614715576,0.25738000869750977,-0.09949000179767609,0.013740000315010548,-0.23352999985218048,-0.15987999737262726,-0.05632000043988228,-0.26930001378059387,-0.09369000047445297,-0.21916000545024872,0.17207999527454376,0.23946000635623932],[0.4997900128364563,-0.27706998586654663,0.09623999893665314,-0.018400000408291817,0.09917999804019928,0.2247599959373474,-0.23364000022411346,0.1678600013256073,-0.05866000056266785,-0.045499999076128006,0.09670999646186829,-0.07682999968528748,0.24838000535964966,-0.08323000371456146,0.2862899899482727,0.014329999685287476,-0.14037999510765076],[0.10918000340461731,-0.34485000371932983,-0.2888199985027313,0.18152999877929688,-0.18019999563694,0.005530000198632479,-0.21525000035762787,-0.25589999556541443,-0.15399999916553497,0.058720000088214874,-0.18140999972820282,-0.0983399972319603,0.002400000113993883,0.23680999875068665,0.1741500049829483,0.005369999911636114,-0.02298000082373619],[0.3299500048160553,-0.09702999889850616,0.07020000368356705,0.05570000037550926,-0.2373100072145462,0.11277999728918076,0.16388000547885895,-0.3083600103855133,-0.17976999282836914,0.0035500000230968,-0.18549999594688416,-0.10970000177621841,0.2424899935722351,0.12658999860286713,-0.19279000163078308,0.16410000622272491,-0.21439999341964722],[-0.27590999007225037,0.0722000002861023,0.38036999106407166,0.2131199985742569,0.053849998861551285,0.08389999717473984,0.07648000121116638,0.09025000035762787,0.07389000058174133,0.005369999911636114,-0.20800000429153442,-0.11841999739408493,-0.27941998839378357,0.17564000189304352,-0.16933000087738037,-0.25529998540878296,-0.38117000460624695],[0.0530100017786026,0.09763000160455704,-0.12042000144720078,-0.17448000609874725,-0.039420001208782196,-0.2463199943304062,-0.2538999915122986,0.1694599986076355,-0.1688700020313263,-0.2955099940299988,-0.008170000277459621,-0.054659999907016754,0.1267399936914444,-0.35578998923301697,0.10745000094175339,0.07562000304460526,0.23346999287605286],[-0.22457000613212585,0.1584099978208542,0.022099999710917473,0.24201999604701996,-0.26669999957084656,-0.1953199952840805,0.0400100015103817,0.14534999430179596,0.28801000118255615,0.09138999879360199,0.3369700014591217,-0.19199000298976898,0.19787999987602234,0.0272000003606081,0.1063700020313263,-0.22352999448776245,-0.16332000494003296],[0.00880999956279993,0.0406700000166893,-0.019920000806450844,0.19495999813079834,-0.20733000338077545,0.19801999628543854,0.11090999841690063,-0.03344999998807907,0.08116000145673752,0.0950699970126152,-0.16824999451637268,0.019379999488592148,-0.19117000699043274,0.45993998646736145,-0.24628999829292297,0.09617000073194504,0.2491600066423416],[-0.11627999693155289,-0.026850000023841858,0.10711000114679337,-0.31492000818252563,-0.01995999924838543,-0.022789999842643738,-0.01655999943614006,0.22134000062942505,-0.040219999849796295,-0.029330000281333923,-0.2778100073337555,0.16076000034809113,-0.18367999792099,0.34549999237060547,-0.0815500020980835,-0.12952999770641327,-0.3379800021648407],[0.15528999269008636,-0.13761000335216522,-0.07446999847888947,0.2887200117111206,-0.278439998626709,-0.15321999788284302,0.2320600003004074,-0.03407000005245209,0.2743600010871887,0.12770000100135803,-0.04202999919652939,0.13415999710559845,-0.03254000097513199,-0.30017000436782837,0.18915000557899475,0.00892999954521656,-0.09820999950170517],[-0.23844000697135925,-0.22474999725818634,-0.36807000637054443,0.23111000657081604,0.13112999498844147,-0.3255099952220917,0.2590300142765045,-0.041600000113248825,0.22654999792575836,-0.03099999949336052,0.13181999325752258,0.02969999983906746,0.2945599853992462,0.12625999748706818,-0.22513000667095184,-0.017090000212192535,0.2803399860858917],[-0.12693999707698822,0.052069999277591705,-0.49108999967575073,-0.09106999635696411,0.03550000116229057,-0.522819995880127,0.0017500000540167093,-0.13905000686645508,-0.18866999447345734,-0.041019998490810394,-0.008980000391602516,-0.17407000064849854,0.15446999669075012,-0.20395000278949738,0.12901000678539276,-0.06814000010490417,-0.2090499997138977],[0.23916000127792358,0.011620000004768372,0.3228299915790558,-0.07742000371217728,0.17340999841690063,0.23545999825000763,-0.4046599864959717,0.07152000069618225,-0.10662999749183655,0.29886001348495483,0.03892999887466431,0.2722800076007843,0.24140000343322754,-0.2372400015592575,0.10656999796628952,-0.026729999110102654,-0.01785000041127205],[0.07395000010728836,-0.02078000083565712,0.3262999951839447,-0.3694700002670288,-0.32269999384880066,-0.17768999934196472,0.11964999884366989,-0.06964000314474106,0.08850999921560287,-0.08918000012636185,0.1161699965596199,0.04709000140428543,-0.03240999951958656,-0.4195399880409241,-0.08019000291824341,-0.120899997651577,0.020740000531077385],[0.07159999758005142,-0.13776999711990356,0.14827999472618103,0.06443999707698822,0.17496000230312347,0.06705000251531601,-0.2448199987411499,-0.19256000220775604,0.07232999801635742,0.27827998995780945,0.06909999996423721,0.007770000025629997,-0.05714999884366989,0.18528999388217926,0.280460000038147,-0.12687000632286072,-0.43790000677108765],[-0.0019399999873712659,-0.2220499962568283,0.048500001430511475,0.29728999733924866,0.23518000543117523,0.009069999679923058,0.05076000094413757,0.12067999690771103,0.4314199984073639,0.17336000502109528,0.29978999495506287,0.09747999906539917,-0.028999999165534973,0.0027799999807029963,0.17233000695705414,-0.2827799916267395,0.13248999416828156],[0.3322100043296814,0.05155999958515167,0.032680001109838486,-0.3659000098705292,-0.024730000644922256,0.16547000408172607,0.10512000322341919,0.0735199972987175,0.041999999433755875,0.04140999913215637,-0.15669000148773193,-0.5369399785995483,0.035179998725652695,-0.027939999476075172,-0.1054999977350235,0.05728000029921532,-0.29008999466896057],[-0.130840003490448,-0.004040000028908253,-0.13875000178813934,-0.31463998556137085,-0.33529001474380493,0.02297000028192997,-0.10012000054121017,-0.05217999964952469,0.17284999787807465,0.15987999737262726,-0.022840000689029694,-0.23773999512195587,0.18116000294685364,-0.01819000020623207,-0.25141000747680664,-0.054099999368190765,-0.06791999936103821],[0.2830899953842163,-0.0933300033211708,-0.3834500014781952,0.04803000018000603,-0.21191999316215515,0.26923999190330505,-0.13136999309062958,0.054099999368190765,-0.1135300025343895,0.13792000710964203,-0.07418999820947647,-0.10894999653100967,0.27428001165390015,0.29829999804496765,0.11505000293254852,0.04560999944806099,-0.019829999655485153],[0.10881000012159348,-0.016750000417232513,0.15658000111579895,-0.31299999356269836,0.09385000169277191,0.3436500132083893,0.1727599948644638,0.049970000982284546,0.02995000034570694,0.11475999653339386,0.022770000621676445,0.207179993391037,0.0980599969625473,-0.08355999737977982,0.0015300000086426735,0.09025999903678894,-0.09776999801397324],[0.3421199917793274,-0.047129999846220016,-0.29905998706817627,0.09342999756336212,-0.08557000011205673,-0.32019999623298645,-0.03652000054717064,-0.188960000872612,0.33792999386787415,0.10034000128507614,0.0976099967956543,-0.22476999461650848,-0.01039000041782856,-0.2491600066423416,0.03742999956011772,0.07269000262022018,-0.19832000136375427],[0.11066000163555145,0.36191999912261963,-0.17367999255657196,-0.22622999548912048,0.2750900089740753,0.0025100000202655792,-0.1832900047302246,-0.01432000007480383,-0.2914299964904785,0.0888499990105629,0.2272000014781952,0.2474299967288971,0.1780499964952469,-0.03254000097513199,0.18598000705242157,-0.025310000404715538,-0.12191999703645706],[0.14306999742984772,-0.22121000289916992,-0.1844100058078766,-0.11672999709844589,-0.12490999698638916,0.067610003054142,-0.020679999142885208,-0.08369000256061554,-0.36184999346733093,-0.2484399974346161,0.0016599999507889152,0.03616999834775925,0.36427998542785645,-0.1003900021314621,0.14176000654697418,-0.11167000234127045,0.20755000412464142],[-0.4120599925518036,0.3022400140762329,-0.08167999982833862,-0.01727999933063984,0.10525999963283539,-0.07096000015735626,0.07952000200748444,-0.029789999127388,0.01647000014781952,0.43766000866889954,-0.06168999895453453,0.12783999741077423,-0.1255899965763092,-0.10570000112056732,0.03818000108003616,-0.11494000256061554,-0.011420000344514847],[0.0919099971652031,-0.13876000046730042,0.044860001653432846,0.1732800006866455,0.2547700107097626,-0.04324999824166298,0.018929999321699142,-0.01614999957382679,0.01962999999523163,0.16242000460624695,-0.16915999352931976,-0.7755600214004517,0.17800000309944153,0.21246999502182007,0.0218299999833107,-0.03550000116229057,-0.1596899926662445],[0.09882999956607819,0.01656999997794628,0.2531000077724457,0.18153999745845795,-0.08183000236749649,0.2067199945449829,-0.05415999889373779,0.15845000743865967,0.10254000127315521,0.18433000147342682,0.36761000752449036,0.3829900026321411,-0.05471000075340271,0.058889999985694885,0.03463999927043915,0.04803000018000603,0.14169999957084656],[0.14416000247001648,-0.1800599992275238,-0.16965000331401825,0.4474000036716461,0.1779700070619583,-0.07591000199317932,-0.10939999669790268,-0.010689999908208847,0.23955999314785004,0.1780499964952469,-0.054420001804828644,-0.17539000511169434,0.14591999351978302,-0.025860000401735306,0.08253999799489975,-0.17542000114917755,-0.045820001512765884],[-0.2909199893474579,0.11582999676465988,-0.23784999549388885,-0.07914000004529953,0.08775000274181366,0.13714000582695007,-0.07807999849319458,-0.03596999868750572,0.05144000053405762,0.5140399932861328,-0.07502999901771545,0.06662999838590622,0.01623000018298626,0.21597999334335327,0.18127000331878662,-0.02538999915122986,-0.2413100004196167],[-0.14339999854564667,-0.16812999546527863,-0.30393001437187195,0.024289999157190323,-0.016349999234080315,0.15053999423980713,-0.040539998561143875,0.09378000348806381,-0.3681600093841553,-0.041430000215768814,-0.13289999961853027,-0.1151600033044815,-0.3569999933242798,0.39994001388549805,0.02060999907553196,-0.08596000075340271,0.37018001079559326],[-0.05914999917149544,0.08066999912261963,-0.0866599977016449,0.13890999555587769,0.05113999918103218,-0.2146099954843521,-0.05110999941825867,-0.10796000063419342,-0.1866600066423416,0.10108000040054321,0.11277999728918076,-0.20613999664783478,0.36761999130249023,0.03773000091314316,0.14509999752044678,-0.1933099925518036,-0.40838000178337097],[0.15721000730991364,-0.3271700143814087,-0.05177000164985657,-0.019999999552965164,-0.25977998971939087,-0.07463999837636948,0.38242998719215393,-0.18036000430583954,0.09717000275850296,-0.008539999835193157,0.01923999935388565,-0.09684000164270401,-0.19447000324726105,0.019950000569224358,0.08653999865055084,0.09662999957799911,0.17667999863624573],[-0.304749995470047,0.24065999686717987,0.25014999508857727,0.028379999101161957,-0.23362000286579132,0.18503999710083008,0.0773100033402443,-0.17321999371051788,-0.016690000891685486,0.06446000188589096,0.021649999544024467,0.11522000283002853,0.21830999851226807,0.2741200029850006,-0.2958100140094757,0.26798000931739807,0.1363999992609024],[-0.04811999946832657,-0.030489999800920486,-0.02321000024676323,0.009209999814629555,0.3958500027656555,-0.051500000059604645,0.04673999920487404,-0.08906999975442886,-0.14850999414920807,0.3268499970436096,-0.14803999662399292,-0.23469999432563782,0.051249999552965164,-0.11475999653339386,0.1999099999666214,0.2949199974536896,-0.2832599878311157],[-0.07867000252008438,-0.1805499941110611,-0.25123998522758484,0.1872600018978119,-0.21689000725746155,-0.2726899981498718,-0.022280000150203705,0.17508000135421753,0.20313000679016113,-0.22651000320911407,-0.044599998742341995,0.06378000229597092,-0.04693000018596649,-0.24899999797344208,-0.08659999817609787,0.25220000743865967,-0.27772000432014465],[0.14336000382900238,0.1271200031042099,-0.1639000028371811,-0.4887300133705139,-0.005429999902844429,0.1354299932718277,-0.12508000433444977,-0.3158999979496002,-0.1893800050020218,0.07371000200510025,0.12947000563144684,0.11801999807357788,-0.08128000050783157,-0.03133999928832054,0.2973499894142151,0.11275000125169754,-0.0919400006532669],[0.31929001212120056,-0.10935000330209732,-0.3205200135707855,0.08496999740600586,0.12269999831914902,0.07750000059604645,-0.36542999744415283,0.07810000330209732,-0.06363999843597412,-0.35954999923706055,-0.11574000120162964,0.03539999946951866,-0.1128000020980835,-0.07035999745130539,-0.17985999584197998,0.21998000144958496,-0.13597999513149261],[0.1063700020313263,-0.2689700126647949,0.12851999700069427,0.1060900017619133,-0.37255001068115234,-0.01295000035315752,-0.10604000091552734,0.2189899981021881,-0.29203000664711,-0.04579000174999237,-0.058570001274347305,0.12244000285863876,-0.31387001276016235,0.16902999579906464,0.3519600033760071,-0.10586000233888626,0.1574299931526184],[0.33761000633239746,-0.04137999936938286,0.20350000262260437,-0.15098999440670013,0.19144000113010406,-0.09777999669313431,-0.003759999992325902,0.12115000188350677,-0.08518999814987183,-0.09023000299930573,-0.2603699862957001,-0.388839989900589,0.17685000598430634,0.04843999817967415,0.15413999557495117,0.018549999222159386,0.015790000557899475],[-0.2373799979686737,0.05897999927401543,-0.21831999719142914,-0.15091000497341156,0.24344000220298767,0.002420000033453107,-0.07267999649047852,0.0916299968957901,-0.12658999860286713,-0.2380400002002716,0.11613000184297562,-0.011309999972581863,-0.08579999953508377,0.34040001034736633,0.2559800148010254,0.0973299965262413,0.04907999932765961],[-0.19006000459194183,0.06701000034809113,0.2109600007534027,0.4016599953174591,-0.2097499966621399,0.07401999831199646,-0.16630999743938446,0.160180002450943,-0.046870000660419464,-0.4447000026702881,0.20135000348091125,0.11027999967336655,0.21901999413967133,0.23512999713420868,0.1880200058221817,0.12021999806165695,0.05341999977827072],[-0.22088000178337097,0.15905000269412994,-0.3712800145149231,0.10345999896526337,0.04343999922275543,0.0757099986076355,0.3041900098323822,-0.03136000037193298,-0.23526999354362488,-0.17496000230312347,-0.05513999983668327,-0.15275999903678894,-0.09320999681949615,0.03449000045657158,-0.07361999899148941,0.21006999909877777,0.054749999195337296],[0.2006099969148636,0.38967999815940857,0.06095999851822853,0.25369998812675476,0.3871699869632721,0.11010999977588654,0.06224000081419945,0.28940001130104065,0.09440000355243683,-0.16280999779701233,0.013079999946057796,0.1437699943780899,-0.30612000823020935,0.0018500000005587935,0.10044000297784805,0.08776000142097473,-0.23502999544143677],[-0.07778999954462051,-0.03578000143170357,0.17362000048160553,-0.043859999626874924,0.27757999300956726,-0.07022999972105026,-0.042149998247623444,0.062219999730587006,-0.3518899977207184,-0.2939800024032593,-0.12178999930620193,-0.05680999904870987,0.2513900101184845,0.10085000097751617,0.3623799979686737,0.024970000609755516,0.21883000433444977],[0.04656999930739403,-0.17470000684261322,0.15561999380588531,0.04297000169754028,0.027079999446868896,0.06049000099301338,-0.06617999821901321,0.04399000108242035,-0.2897300124168396,0.21539999544620514,0.10175000131130219,0.12848000228405,0.3663100004196167,-0.24139000475406647,-0.11620999872684479,0.02305999957025051,-0.06663999706506729],[0.18688000738620758,0.14193999767303467,0.1945900022983551,0.05581999942660332,-0.2143000066280365,-0.024620000272989273,-0.2237199991941452,-0.056370001286268234,0.07873000204563141,-0.3541100025177002,0.03215000033378601,0.089819997549057,0.08150000125169754,-0.15352000296115875,-0.012430000118911266,-0.1976899951696396,0.3155499994754791],[0.17899000644683838,0.18158000707626343,0.1386300027370453,-0.08250000327825546,0.023490000516176224,-0.06477999687194824,0.09585999697446823,-0.06054000183939934,-0.25727999210357666,-0.310699999332428,0.17454999685287476,0.07716000080108643,0.14499999582767487,0.1486400067806244,0.02882000058889389,-0.20104999840259552,-0.4472599923610687],[-0.014779999852180481,-0.0901700034737587,0.5337600111961365,0.13560999929904938,-0.14117999374866486,0.015530000440776348,-0.28720998764038086,0.040460001677274704,-0.08730000257492065,0.23654000461101532,0.003590000094845891,-0.12076999992132187,-0.022609999403357506,0.2660300135612488,0.33878999948501587,-0.11512000113725662,-0.2996099889278412],[-0.1382099986076355,-0.0076299998909235,-0.06985999643802643,-0.10753999650478363,-0.12035000324249268,-0.19061000645160675,0.3682299852371216,-0.18916000425815582,0.3041200041770935,0.06456000357866287,-0.014440000057220459,0.009109999984502792,-0.16964000463485718,0.1152300015091896,0.242139995098114,-0.34470000863075256,-0.3666999936103821],[0.007069999817758799,-0.22808000445365906,0.14826999604701996,0.28905999660491943,0.009379999712109566,-0.028149999678134918,0.2749600112438202,-0.3693599998950958,-0.03993000090122223,-0.20038999617099762,-0.17175999283790588,-0.1181500032544136,0.10481999814510345,-0.0015800000401213765,-0.020719999447464943,0.05105999857187271,0.2529900074005127],[0.06317999958992004,-0.21910999715328217,-0.1329900026321411,-0.051989998668432236,-0.05829999968409538,0.08042000234127045,0.04992999881505966,0.21859000623226166,0.1440799981355667,-0.02078000083565712,-0.10591000318527222,0.12780000269412994,-0.55281001329422,0.017740000039339066,-0.15803000330924988,-0.40463998913764954,-0.12080000340938568],[0.14593000710010529,-0.14629000425338745,0.24743999540805817,-0.0681999996304512,0.12705999612808228,0.02442000061273575,0.07700999826192856,-0.0730699971318245,-0.1442900002002716,0.16719000041484833,-0.5404999852180481,-0.45548000931739807,0.03175999969244003,0.07857999950647354,-0.23712000250816345,-0.1729699969291687,-0.27226001024246216],[0.03759999945759773,0.04149999842047691,0.02653999999165535,-0.4089899957180023,0.1041100025177002,0.12174999713897705,-0.14869000017642975,0.1453700065612793,-0.2152000069618225,0.2652600109577179,-0.34178000688552856,-0.2966899871826172,0.2613399922847748,-0.024089999496936798,0.09347999840974808,0.062139999121427536,0.16290999948978424],[0.47119998931884766,-0.2353000044822693,0.08436000347137451,0.33496999740600586,-0.18456999957561493,-0.07565999776124954,0.08405999839305878,0.11089999973773956,-0.08914999663829803,0.11316999793052673,-0.247079998254776,-0.19933000206947327,-0.023469999432563782,0.21776999533176422,-0.14057999849319458,0.07666999846696854,-0.014279999770224094],[-0.1415500044822693,-0.048920001834630966,0.3756200075149536,-0.17194999754428864,-0.02824000082910061,0.1304599940776825,-0.14970999956130981,0.18294000625610352,-0.17387999594211578,0.046229999512434006,-0.20798000693321228,-0.11440999805927277,-0.04675000160932541,-0.14924000203609467,0.15929999947547913,-0.016589999198913574,-0.08906999975442886],[0.08676999807357788,0.030579999089241028,0.05200999975204468,0.44266000390052795,0.014430000446736813,0.05414000153541565,-0.10027000308036804,0.25150999426841736,0.13716000318527222,-0.0065899998880922794,-0.011900000274181366,-0.2767600119113922,0.15835000574588776,-0.10454999655485153,0.16809000074863434,-0.1941000074148178,-0.2170799970626831],[0.0731699988245964,0.3452799916267395,-0.35708001255989075,0.033479999750852585,-0.19571000337600708,0.2761499881744385,-0.1694200038909912,-0.13036000728607178,0.3494499921798706,0.05347999930381775,-0.066600002348423,-0.15851999819278717,0.040869999676942825,0.15002000331878662,-0.0142000000923872,-0.10042999684810638,-0.13749000430107117],[-0.28474000096321106,0.08090999722480774,-0.13181999325752258,0.01891000010073185,-0.0538799986243248,-0.1576700061559677,-0.044179998338222504,0.05124000087380409,0.1587499976158142,0.07277999818325043,0.06032000109553337,0.3640199899673462,-0.0640999972820282,0.2692900002002716,-0.14774000644683838,0.42805999517440796,0.0707399994134903],[0.026249999180436134,0.0748400017619133,-0.26594001054763794,-0.036639999598264694,0.18797999620437622,-0.2577899992465973,0.1915999948978424,-0.11705999821424484,-0.23950999975204468,0.1650799959897995,0.04315999895334244,0.05130000039935112,0.052730001509189606,-0.4115299880504608,0.044429998844861984,-0.03084000013768673,0.07918000221252441],[-0.08776000142097473,0.07275000214576721,-0.2698400020599365,-0.373199999332428,-0.06216999888420105,0.16080999374389648,0.08508999645709991,-0.3350299894809723,-0.12783999741077423,-0.07254999876022339,-0.01865999959409237,0.1776600033044815,0.1411300003528595,-0.2315800040960312,-0.1798900067806244,0.22482000291347504,0.047850001603364944],[0.37727999687194824,0.07531999796628952,0.15577000379562378,0.13676999509334564,0.05048999935388565,0.10632000118494034,-0.03268999978899956,0.08629000186920166,0.07829999923706055,0.05113000050187111,0.05875999853014946,-0.029279999434947968,0.4203299880027771,-0.3362100124359131,-0.09701000154018402,-0.0831499993801117,-0.3207400143146515],[0.001769999973475933,0.05542999878525734,-0.016699999570846558,0.35332998633384705,-0.05544999986886978,0.02490999922156334,0.05099000036716461,0.25196999311447144,0.07599999755620956,0.40834999084472656,0.1814199984073639,0.3458099961280823,-0.33618998527526855,0.17035000026226044,-0.08121000230312347,-0.0743900015950203,0.18016000092029572],[-0.3321399986743927,0.0041600000113248825,-0.1813499927520752,0.12633000314235687,-0.11221999675035477,0.032990001142024994,-0.2501400113105774,0.10728000104427338,-0.01143999956548214,-0.1484300047159195,0.18675999343395233,-0.0009599999757483602,-0.04757000133395195,-0.25488001108169556,0.13021999597549438,-0.06984999775886536,-0.026340000331401825],[-0.40751999616622925,0.031780000776052475,-0.04349999874830246,0.0920799970626831,0.09035000205039978,-0.11388000100851059,0.20152999460697174,-0.18258999288082123,0.3499999940395355,-0.13360999524593353,-0.04548000171780586,-0.17531000077724457,0.2958900034427643,0.34544000029563904,0.10317999869585037,0.18758000433444977,-0.04374000057578087],[0.2806600034236908,-0.13811999559402466,0.032710000872612,-0.054260000586509705,0.062369998544454575,0.3978700041770935,-0.10284999758005142,-0.037220001220703125,-0.07620999962091446,-0.15518000721931458,0.18780000507831573,0.32133999466896057,0.2180899977684021,9.999999747378752e-06,-0.02426999993622303,0.08918000012636185,0.019339999184012413],[-0.19939999282360077,0.049619998782873154,0.1754000037908554,0.13431000709533691,0.27028000354766846,0.18759000301361084,-0.007449999917298555,-0.05048000067472458,-0.04778999835252762,0.41102999448776245,0.21964000165462494,0.23385000228881836,0.02466999925673008,0.033890001475811005,0.5288699865341187,-0.2795700132846832,-0.047540001571178436],[-0.33215001225471497,0.2620899975299835,-0.09351000189781189,-0.05488999933004379,0.17942999303340912,-0.09939999878406525,0.07202000170946121,0.15070000290870667,0.08161000162363052,0.08867999911308289,0.18028999865055084,-0.1037599965929985,0.22304999828338623,-0.0855100005865097,0.08505000174045563,0.04493999853730202,0.3616200089454651],[0.10480000078678131,-0.29951998591423035,0.033810000866651535,0.4933899939060211,0.04061000049114227,-0.01498000044375658,0.16943000257015228,-0.1815200001001358,0.21351000666618347,0.11894000321626663,0.07724999636411667,-0.23726999759674072,-0.03452000021934509,0.24009999632835388,0.014469999819993973,-0.26833999156951904,0.16429999470710754],[-0.2632499933242798,-0.0745600014925003,0.002460000105202198,-0.1491899937391281,0.12303999811410904,0.2416200041770935,-0.23907999694347382,0.08115000277757645,0.08608999848365784,-0.16232000291347504,0.05421999841928482,-0.0755700021982193,0.2550399899482727,0.46288999915122986,0.013980000279843807,-0.07756000012159348,-0.3616600036621094],[-0.4311000108718872,-0.14093999564647675,0.007670000195503235,0.19663000106811523,0.0313900001347065,-0.07158999890089035,-0.047919999808073044,-0.06736999750137329,0.27312999963760376,0.4508900046348572,-0.10226999968290329,0.04521999880671501,0.0921500027179718,0.15234999358654022,0.03652999922633171,-0.04157999902963638,0.17410999536514282],[0.09012000262737274,0.20055000483989716,-0.1212100014090538,0.17143000662326813,0.0006300000241026282,-0.14350000023841858,0.14061999320983887,-0.12500999867916107,-0.1452600061893463,0.4408800005912781,0.146479994058609,0.32273998856544495,-0.05724000185728073,-0.35576000809669495,0.2654699981212616,-0.008799999952316284,-0.15839999914169312],[0.0799499973654747,0.04884999990463257,0.1457899957895279,-0.07299000024795532,0.2148900032043457,0.25819000601768494,-0.21116000413894653,0.018489999696612358,-0.29416999220848083,-0.1371700018644333,-0.014430000446736813,-0.10386999696493149,-0.09290999919176102,-0.16530999541282654,0.13367000222206116,0.21836000680923462,-0.5693600177764893],[0.16186000406742096,0.07938999682664871,-0.1570899933576584,-0.18046000599861145,0.19168999791145325,-0.07740999758243561,0.11633999645709991,-0.03638000041246414,0.22001999616622925,0.15432000160217285,-0.027580000460147858,0.1698800027370453,-0.10925000160932541,-0.2758699953556061,0.1990399956703186,0.4792799949645996,-0.12337999790906906],[-0.008670000359416008,0.19943000376224518,0.3412800133228302,0.02631000056862831,0.28633999824523926,0.14459000527858734,0.11361999809741974,-0.17862999439239502,-0.09619999676942825,0.06604000180959702,-0.08399000018835068,-0.0287299994379282,0.1606599986553192,-0.3867799937725067,0.07724999636411667,-0.04628000035881996,0.24492000043392181],[-0.05203000083565712,-0.06327000260353088,-0.006570000201463699,-0.17431999742984772,-0.12183000147342682,0.1270499974489212,-0.0430000014603138,0.36427000164985657,-0.32870998978614807,-0.08899000287055969,-0.20711000263690948,0.08947999775409698,-0.2249699980020523,0.12678000330924988,0.08508999645709991,-0.006049999967217445,-0.3123300075531006],[0.1579200029373169,-0.17733000218868256,-0.2116200029850006,0.0508899986743927,0.013150000013411045,0.15026000142097473,-0.021950000897049904,-0.18557000160217285,-0.11736000329256058,-0.08855000138282776,-0.045979999005794525,0.052960000932216644,0.12415999919176102,-0.11003000289201736,0.17747999727725983,-0.13371999561786652,0.33574000000953674],[-0.014820000156760216,0.05488000065088272,-0.015270000323653221,0.7404599785804749,0.025350000709295273,0.07299000024795532,-0.1810300052165985,-0.06666000187397003,0.04577000066637993,0.2575100064277649,-0.16075000166893005,-0.03200000151991844,0.07878000289201736,0.1453000009059906,0.03573000058531761,-0.011669999919831753,-0.14531999826431274],[0.10457000136375427,-0.029890000820159912,0.22050000727176666,-0.11561000347137451,0.0029299999587237835,0.19847999513149261,-0.32993999123573303,0.062210001051425934,-0.034129999577999115,0.1526300013065338,0.2607499957084656,0.23190000653266907,0.3970099985599518,-0.018969999626278877,0.16822999715805054,0.049570001661777496,-0.1353899985551834],[-0.14419999718666077,0.18400000035762787,0.016109999269247055,0.06327000260353088,0.24065999686717987,0.11495999991893768,0.0756400004029274,-0.3121899962425232,-0.12212000042200089,0.22826999425888062,0.006289999932050705,0.047120001167058945,0.11982999742031097,0.08070000261068344,0.029839999973773956,-0.061879999935626984,0.05561999976634979],[0.18877999484539032,-0.14782999455928802,0.39939001202583313,-0.40709999203681946,0.1303199976682663,-0.12230999767780304,-0.07581999897956848,-0.08907999843358994,0.09066999703645706,0.028750000521540642,0.40992000699043274,0.09268999844789505,-0.24403999745845795,0.23791000247001648,0.2695600092411041,-0.051339998841285706,-0.34474998712539673],[-0.06707999855279922,-0.14927999675273895,-0.1807200014591217,0.1739400029182434,0.048829998821020126,-0.2453400045633316,-0.0710500031709671,0.10560999810695648,-0.19599999487400055,0.3520599901676178,-0.19262999296188354,-0.12982000410556793,0.1919499933719635,-0.013570000417530537,-0.05567000061273575,0.030710000544786453,-0.06930000334978104],[-0.10728000104427338,-0.21511000394821167,-0.09933999925851822,-0.03937000036239624,0.12318000197410583,0.0006600000197067857,-0.09489999711513519,-0.1383100003004074,-0.11613000184297562,-0.06346999853849411,-0.13800999522209167,-0.24783000349998474,-0.0017500000540167093,0.3470599949359894,0.18998999893665314,-0.10266999900341034,-0.29877999424934387],[0.2016499936580658,-0.2781499922275543,0.30702999234199524,0.18374000489711761,-0.08630000054836273,0.00610999995842576,-0.1922300010919571,-0.07462000101804733,-0.261819988489151,-0.02338000014424324,0.07886999845504761,-0.29471999406814575,0.14016999304294586,0.11918999999761581,0.18679000437259674,-0.3756900131702423,-0.1652899980545044],[0.2800599932670593,0.07367999851703644,0.014279999770224094,-0.10738000273704529,-0.041829999536275864,-0.03328000009059906,-0.0027600000612437725,-0.10582000017166138,0.36090999841690063,0.09627000242471695,0.5849999785423279,0.40733999013900757,0.24326999485492706,-0.19535000622272491,0.0812000036239624,0.27421000599861145,-0.01597999967634678],[-0.08011999726295471,0.05259000137448311,-0.3931899964809418,0.13920000195503235,-0.2435699999332428,0.00803999975323677,0.10758999735116959,0.1780499964952469,-0.1486400067806244,-0.21392999589443207,-0.0873199999332428,-0.05345999822020531,-0.04123000055551529,-0.04453999921679497,-0.09418000280857086,0.042010001838207245,0.07693000137805939],[0.05178999900817871,-0.21419000625610352,0.2387399971485138,-0.02101000025868416,-0.10902000218629837,-0.09728000313043594,0.09532000124454498,-0.08743000030517578,0.054010000079870224,-0.027410000562667847,-0.11665999889373779,0.09576000273227692,-4.999999873689376e-05,-0.1459600031375885,-0.06167000159621239,0.10706999897956848,0.0909700021147728],[0.24493999779224396,-0.0692100003361702,0.03604000061750412,0.2031400054693222,0.05778999999165535,-0.06966999918222427,0.10480000078678131,-0.16097000241279602,-0.01827000081539154,0.1702899932861328,0.011699999682605267,-0.21097999811172485,0.3212699890136719,0.06290999799966812,0.14135999977588654,-0.0895100012421608,-0.4605399966239929],[-0.13774999976158142,-0.1701900064945221,0.18007999658584595,0.23075999319553375,-0.052960000932216644,0.10239999741315842,-0.09472999721765518,-0.0019199999514967203,-0.14817999303340912,-0.21186000108718872,0.1845099925994873,-0.17107999324798584,0.08468999713659286,0.2539600133895874,-0.10668999701738358,0.23497000336647034,-0.260699987411499],[0.33228999376296997,0.0783500000834465,-0.13815000653266907,0.06547000259160995,-0.1717499941587448,-0.10159999877214432,0.26260998845100403,-0.030579999089241028,0.03420000150799751,-0.20363999903202057,-0.15139000117778778,0.0955599993467331,0.10729999840259552,-0.24988000094890594,-0.29611000418663025,-0.04675000160932541,0.04157000035047531],[-0.2930600047111511,0.15320000052452087,-0.022840000689029694,0.07028999924659729,0.15289999544620514,-0.006670000031590462,0.06543000042438507,-0.3280099928379059,0.07348000258207321,0.04554000124335289,0.2674799859523773,0.2248699963092804,0.1270499974489212,0.0530100017786026,0.08333999663591385,0.09997999668121338,0.2501400113105774],[-0.332069993019104,0.12093999981880188,-0.14433999359607697,0.36513999104499817,-0.2596699893474579,0.007180000189691782,0.016109999269247055,0.20618000626564026,0.25485000014305115,0.12306000292301178,0.225490003824234,0.08698999881744385,0.18598000705242157,0.059289999306201935,0.2576900124549866,0.23652000725269318,-0.09398999810218811],[-0.024739999324083328,0.1427599936723709,-0.43307000398635864,0.05212000012397766,-0.12101999670267105,-0.021539999172091484,0.13001999258995056,-0.07336000353097916,-0.15584999322891235,0.023509999737143517,-0.17357000708580017,-0.1019200012087822,0.37143999338150024,-0.009519999846816063,-0.22618000209331512,-0.08406999707221985,0.225150004029274],[0.11880999803543091,0.1143300011754036,-0.10933999717235565,0.008050000295042992,0.08104000240564346,-0.30160999298095703,0.057760000228881836,0.04529000073671341,0.21560999751091003,-0.3197900056838989,-0.0982000008225441,0.26012998819351196,-0.17636999487876892,-0.3271099925041199,-0.022180000320076942,-0.09638000279664993,0.07350999861955643],[0.024650000035762787,0.0814099982380867,0.19304999709129333,-0.04554000124335289,0.23103000223636627,0.34775999188423157,-0.14226000010967255,-0.06103000044822693,0.02298000082373619,0.09048999845981598,0.0551300011575222,-0.21480000019073486,0.08041000366210938,-0.3119699954986572,0.2268500030040741,-0.06306999921798706,0.028540000319480896],[-0.07163000106811523,-0.00925000011920929,0.31321999430656433,-0.17621000111103058,-0.05139999836683273,-0.1442199945449829,-0.29203000664711,0.07141999900341034,-0.00698000006377697,-0.17092999815940857,-0.22928999364376068,-0.16167999804019928,-0.37446001172065735,0.34700000286102295,0.10599999874830246,-0.10903000086545944,-0.10993000119924545],[-0.19585999846458435,0.25947999954223633,-0.02628999948501587,0.13036000728607178,0.08350999653339386,-0.2689400017261505,0.32818999886512756,-0.0081599997356534,0.1387300044298172,0.09890999644994736,0.4181700050830841,0.2565099895000458,0.27803000807762146,0.01988999918103218,0.01713000051677227,0.22970999777317047,0.10666000097990036],[0.22113999724388123,-0.03520999848842621,-0.03725000098347664,0.07806999981403351,0.36504000425338745,0.12063000351190567,-0.0362900011241436,0.18206000328063965,0.2274799942970276,-0.04670000076293945,0.02638000063598156,-0.10650999844074249,0.0065100002102553844,-0.4002400040626526,0.05956000089645386,0.11416000127792358,0.08765000104904175],[0.192440003156662,0.18883000314235687,-0.49709001183509827,-0.1909399926662445,-0.4090000092983246,-0.13394999504089355,0.051270000636577606,-0.03784000128507614,0.08126000314950943,0.2749199867248535,-0.11367999762296677,-0.03853999823331833,-0.2329300045967102,-0.026340000331401825,0.0581899993121624,-0.05925999954342842,-0.1523600071668625],[0.1814900040626526,-0.14680999517440796,-0.1623699963092804,-0.22056999802589417,0.026319999247789383,-0.008059999905526638,-0.020589999854564667,-0.05105999857187271,-0.05902000144124031,-0.11040999740362167,-0.20176999270915985,-0.04374999925494194,-0.4038200080394745,0.17874999344348907,-0.1529799997806549,-0.14959000051021576,0.33449000120162964],[0.1061599999666214,-0.030559999868273735,0.23552000522613525,-0.2915099859237671,0.38558998703956604,0.1812800019979477,-0.24338999390602112,-0.0997999981045723,-0.0013200000394135714,0.09052000194787979,-0.016510000452399254,-0.09583000093698502,-0.24946999549865723,-0.15354999899864197,-0.057590000331401825,-0.36994999647140503,-0.23914000391960144],[0.003120000008493662,-0.05851000174880028,0.23162999749183655,0.09527000039815903,0.2756899893283844,0.19609999656677246,-0.008829999715089798,-0.3611299991607666,0.12233000248670578,0.3707900047302246,0.20337000489234924,-0.2372400015592575,-0.22729000449180603,0.14292000234127045,-0.012020000256597996,-0.014390000142157078,-0.250110000371933],[0.1368899941444397,-0.15362000465393066,0.019360000267624855,-0.221670001745224,-0.1933699995279312,-0.12578999996185303,0.09802000224590302,-0.02005000039935112,0.23353999853134155,-0.638450026512146,0.026799999177455902,-0.0735199972987175,-0.20695999264717102,0.09392999857664108,0.08004999905824661,-0.06728000193834305,0.03350000083446503],[-0.0181099995970726,0.33237001299858093,0.09635999798774719,0.28466999530792236,-0.12453000247478485,0.030649999156594276,-0.21127000451087952,-0.17637999355793,-0.05942000076174736,-0.05733000114560127,-0.008179999887943268,-0.3986000120639801,0.2610499858856201,-0.18805000185966492,0.1612900048494339,0.18783000111579895,-0.2678300142288208],[-0.08711999654769897,0.013969999738037586,0.12682999670505524,-0.18870000541210175,-0.24735000729560852,-0.14855000376701355,-0.06902000308036804,0.2596299946308136,0.09668999910354614,-0.17583000659942627,0.033980000764131546,0.1873299926519394,0.15473000705242157,-0.13263000547885895,0.1862100064754486,-0.19651000201702118,0.10689999908208847],[-0.04255999997258186,0.05454999953508377,0.07231000065803528,0.26440998911857605,-0.1019200012087822,0.08775000274181366,0.1677599996328354,-0.08332999795675278,-0.055410001426935196,-0.005090000107884407,0.26743999123573303,0.30160000920295715,0.220210000872612,0.1413400024175644,-0.07972999662160873,0.18578000366687775,-0.27515000104904175],[0.1159299984574318,0.15533000230789185,-0.13231000304222107,0.3715200126171112,0.22181999683380127,-0.16366000473499298,0.06255000084638596,-0.09679000079631805,-0.17194999754428864,-0.09282000362873077,-0.15988999605178833,-0.29899001121520996,0.044530000537633896,0.4152500033378601,-0.06558000296354294,0.1910099983215332,-0.3110100030899048],[-0.5830199718475342,-0.3566800057888031,0.37744998931884766,0.16593000292778015,-0.046709999442100525,-0.05550999939441681,-0.014379999600350857,-0.06106000021100044,-0.0430000014603138,-0.032669998705387115,-0.03505999967455864,0.031530000269412994,-0.1891999989748001,-0.1532299965620041,-0.11356999725103378,0.2053299993276596,-0.2815699875354767],[-0.14997999370098114,-0.005369999911636114,-0.10645999759435654,0.2283799946308136,0.03060000017285347,-0.15651999413967133,-0.08359000086784363,0.04915999993681908,-0.1773100048303604,-0.0451200008392334,-0.1452600061893463,0.05195000022649765,-0.34095999598503113,0.5687500238418579,0.05282999947667122,0.028950000181794167,0.11399000138044357],[-0.2032099962234497,0.1589599996805191,0.21698999404907227,-0.11918999999761581,0.2550300061702728,-0.24221999943256378,0.039250001311302185,-0.0859299972653389,-0.08895000070333481,0.11912000179290771,0.13097000122070312,-0.1042800024151802,0.28148001432418823,-0.37362998723983765,0.12556999921798706,-0.13109000027179718,-0.03587999939918518],[-0.13436000049114227,-0.08862999826669693,0.12494999915361404,-0.2281000018119812,-0.1600400060415268,0.17747999727725983,-0.01737000048160553,0.3517799973487854,0.06774000078439713,0.2479500025510788,0.06539999693632126,0.3476099967956543,0.09139999747276306,-0.355320006608963,0.15544000267982483,-0.10040000081062317,-0.05559999868273735],[0.1565999984741211,-0.27772998809814453,-0.018459999933838844,0.05031999945640564,-0.2729800045490265,0.12609000504016876,0.014109999872744083,-0.01947000063955784,0.02402999997138977,0.0662200003862381,-0.11942999809980392,-0.34132999181747437,-0.09645000100135803,0.14731000363826752,0.25481000542640686,0.1091499999165535,-0.2874700129032135],[0.09871000051498413,-0.24026000499725342,0.15669000148773193,0.039329998195171356,-0.08109000325202942,0.07050999999046326,-0.2825399935245514,0.07395000010728836,-0.2742899954319,0.004389999900013208,-0.3207300007343292,-0.2888199985027313,-0.007550000213086605,0.027149999514222145,0.11248999834060669,-0.2846499979496002,-0.06763000041246414],[-0.060679998248815536,0.01549999974668026,0.009399999864399433,0.0856499969959259,-0.3815000057220459,0.020910000428557396,0.0676800012588501,0.0530799999833107,0.032019998878240585,-0.047690000385046005,0.11292000114917755,0.5187199711799622,-0.05731000006198883,0.09894999861717224,-0.1847500056028366,0.19066999852657318,-0.058469999581575394],[-0.047129999846220016,-0.02060999907553196,-0.3269200026988983,-0.23812000453472137,0.005040000192821026,-0.2885200083255768,0.03158999979496002,0.031449999660253525,0.17015999555587769,-0.3118399977684021,-0.020250000059604645,-0.23163999617099762,-0.03412000089883804,0.1193000003695488,-0.012350000441074371,0.02159000001847744,0.1410199999809265],[0.014550000429153442,0.10414999723434448,-0.3586600124835968,-0.2960599958896637,-0.22067999839782715,0.05129000172019005,-0.05149000138044357,-0.05843000113964081,-0.2446800023317337,-0.2775000035762787,-0.010639999993145466,0.25606998801231384,0.03232000023126602,0.0203699991106987,0.07636000216007233,0.04365000128746033,-0.15800000727176666],[-0.1990399956703186,-0.0408100001513958,-0.24763000011444092,-0.41703000664711,0.11678999662399292,0.04828999936580658,0.024080000817775726,-0.11315999925136566,-0.26833000779151917,-0.09683000296354294,0.149849995970726,0.02281999960541725,-0.14398999512195587,-0.07818999886512756,-0.08794999867677689,-0.11998999863862991,-0.0406000018119812],[-0.11926999688148499,-0.09787999838590622,-0.24640999734401703,-0.3183099925518036,0.22232000529766083,-0.1816300004720688,0.27783000469207764,0.10745000094175339,0.2843799889087677,-0.12227000296115875,-0.09775999933481216,-0.0030900000128895044,-0.06898999959230423,0.09599000215530396,-0.007590000052005053,-0.10045000165700912,0.19634999334812164],[0.1550700068473816,-0.13619999587535858,0.20679999887943268,0.34408000111579895,0.08495000004768372,0.2727000117301941,-0.2016099989414215,-0.057750001549720764,-0.25481000542640686,-0.18192000687122345,0.1487099975347519,0.08602000027894974,0.4314900040626526,0.12710000574588776,0.00887999963015318,0.1757899969816208,0.11093000322580338],[0.05310000106692314,0.035739999264478683,-0.026510000228881836,0.45572999119758606,0.24855999648571014,-0.15699000656604767,-0.27678999304771423,-0.2145099937915802,-0.24506999552249908,0.1919499933719635,-0.045809999108314514,0.17840999364852905,0.12268999963998795,0.06617999821901321,0.2965399920940399,-0.2624799907207489,-0.1098800003528595],[0.018729999661445618,0.15421000123023987,-0.2953700125217438,-0.07401999831199646,-0.042479999363422394,0.3985700011253357,0.11501999944448471,0.21770000457763672,-0.2511399984359741,0.20634999871253967,-0.03260999917984009,0.19668999314308167,0.052319999784231186,0.18118000030517578,-0.041999999433755875,0.17057999968528748,0.39236998558044434],[-0.2800000011920929,-0.3688200116157532,0.18400999903678894,-0.059390000998973846,0.06322000175714493,-0.23684999346733093,-0.08188000321388245,0.0013099999632686377,0.008469999767839909,-0.22301000356674194,0.21267999708652496,0.058139998465776443,0.3160499930381775,-0.0660799965262413,0.04225999861955643,0.2183299958705902,0.22571000456809998],[0.06775999814271927,0.03116000071167946,0.24202999472618103,0.03829000145196915,-0.3994700014591217,-0.17330999672412872,-0.11262000352144241,0.18076999485492706,0.12152999639511108,-0.44565001130104065,0.008969999849796295,0.19333000481128693,-0.06774000078439713,-0.07959999889135361,0.030409999191761017,0.07225000113248825,0.022929999977350235],[0.07838000357151031,-0.031380001455545425,-0.15686999261379242,-0.2097100019454956,-0.128930002450943,0.06945999711751938,0.05364999920129776,-0.23101000487804413,-0.04600999876856804,0.283160001039505,0.12560999393463135,0.34303998947143555,0.06134999915957451,0.06738000363111496,-0.040630001574754715,0.09130000323057175,-0.2624399960041046],[-0.25843000411987305,-0.3462199866771698,0.165910005569458,0.3986000120639801,-0.10033000260591507,-0.03610000014305115,-0.1592099964618683,0.10795000195503235,-0.057089999318122864,0.028550000861287117,-0.04052000120282173,0.09210000187158585,-0.13488000631332397,0.050360001623630524,0.031950000673532486,0.04927000030875206,-0.1027899980545044],[0.02979999966919422,-0.06611999869346619,-0.3163900077342987,0.0024999999441206455,-0.1650400012731552,0.2894099950790405,0.1853400021791458,0.08457999676465988,-0.019600000232458115,0.013039999641478062,0.23702000081539154,0.2668600082397461,0.0740400031208992,-0.13707999885082245,-0.2642799913883209,0.33691999316215515,0.025849999859929085],[-0.13818000257015228,-0.22499999403953552,0.0863099992275238,-0.48982998728752136,0.32986998558044434,0.04010999947786331,-0.23487000167369843,0.3328799903392792,-0.052069999277591705,0.052719999104738235,0.10570000112056732,0.13550999760627747,0.06224999949336052,-0.11799000203609467,-0.2190299928188324,0.21483999490737915,0.11055000126361847],[0.30366000533103943,-0.11692000180482864,0.04357999935746193,0.364080011844635,-0.21651999652385712,-0.05308999866247177,0.019009999930858612,-0.05435999855399132,-0.17116999626159668,0.1930299997329712,0.03274000063538551,-0.32058000564575195,0.12092000246047974,-0.1907300055027008,0.154789999127388,-0.02095000073313713,-0.3849300146102905],[0.0037400000728666782,-0.025259999558329582,-0.013330000452697277,0.10862000286579132,-0.34935998916625977,0.1878499984741211,-0.05691999942064285,-0.07402999699115753,-0.14901000261306763,-0.222680002450943,0.21001000702381134,0.34804001450538635,-0.0009699999936856329,-0.063230000436306,-0.08019000291824341,-0.10636000335216522,-0.20009000599384308],[-0.40623998641967773,0.07525999844074249,0.061889998614788055,0.056790001690387726,0.21069000661373138,-0.09628000110387802,-0.05581999942660332,0.14113999903202057,-0.0060800001956522465,0.06650000065565109,0.07012999802827835,0.03819999843835831,-0.09525000303983688,-0.009460000321269035,0.11035999655723572,-0.1384900063276291,-0.1305299997329712],[-0.4443199932575226,0.21144999563694,-0.13041000068187714,0.2467299997806549,0.21326999366283417,0.026920000091195107,-0.04788000136613846,0.04473999887704849,0.021640000864863396,0.36221998929977417,-0.02143999934196472,-0.19293999671936035,0.014050000347197056,0.37171000242233276,0.20363999903202057,0.16089999675750732,-0.28933000564575195],[0.017750000581145287,0.0946199968457222,0.20527000725269318,0.33928999304771423,-0.09640999883413315,0.0379600003361702,-0.0831800028681755,-0.050680000334978104,-0.34946998953819275,0.04845999926328659,-0.21270999312400818,0.009730000048875809,0.02727000042796135,-0.08854000270366669,-0.09808000177145004,-0.19644999504089355,0.5838299989700317],[-0.08511999994516373,0.3659000098705292,0.09109999984502792,0.03009999915957451,0.43268999457359314,0.16777999699115753,-0.1970600038766861,0.3405500054359436,0.04072999954223633,0.04318000003695488,0.1944199949502945,0.07428000122308731,-0.01575000025331974,0.09917999804019928,-0.17722000181674957,0.02961999922990799,-0.2525300085544586],[0.33796998858451843,-0.24076999723911285,0.08688999712467194,0.08263999968767166,-0.31773000955581665,0.09076999872922897,0.3487299978733063,0.17249999940395355,0.07784000039100647,-0.21176999807357788,-0.08050999790430069,0.17337000370025635,0.06032999977469444,0.36155998706817627,0.06905999779701233,-0.047200001776218414,-0.06151999905705452],[0.06151999905705452,-0.25659000873565674,0.056689999997615814,0.009560000151395798,-0.02785000018775463,-0.005940000060945749,-0.1761700063943863,0.08408000320196152,0.16583000123500824,0.040789999067783356,0.05008000135421753,-0.10655000060796738,0.21584999561309814,-0.3458299934864044,-0.16176000237464905,0.17997999489307404,-0.25582000613212585],[-0.04393000155687332,0.16133999824523926,-0.39173999428749084,0.02410000003874302,-0.32229000329971313,0.03238999843597412,0.16739000380039215,0.2890399992465973,0.35806000232696533,-0.20689000189304352,0.03784999996423721,0.06610000133514404,-0.20862999558448792,-0.014929999597370625,-0.23175999522209167,0.15772999823093414,0.15177999436855316],[-0.1640699952840805,0.21018999814987183,0.015780000016093254,-0.10196000337600708,0.07693000137805939,0.09094999730587006,0.1543699949979782,-0.0537399984896183,0.011060000397264957,-0.33228999376296997,-0.20479999482631683,-0.26510000228881836,-0.19937999546527863,-0.3787800073623657,-0.1698099970817566,0.12623000144958496,0.46581000089645386],[0.18848000466823578,0.2392899990081787,0.04495000094175339,0.3148399889469147,0.20469999313354492,0.22502000629901886,-0.07709000259637833,0.024940000846982002,-0.25429001450538635,0.1742199957370758,0.0760900005698204,-0.1610500067472458,0.08741000294685364,-0.05697000026702881,0.026650000363588333,-0.047600001096725464,-0.06036999821662903],[0.0575300008058548,0.12526999413967133,0.2904199957847595,0.16606000065803528,0.2353699952363968,0.23064999282360077,-0.032579999417066574,0.03183000162243843,-0.14986999332904816,0.0429299995303154,0.2239300012588501,-0.18057000637054443,0.12110999971628189,-0.12606999278068542,0.2775000035762787,0.04301999881863594,0.2570199966430664],[0.07195000350475311,-0.12794999778270721,0.3173399865627289,-0.04462999850511551,-0.07438000291585922,0.10862000286579132,-0.1472100019454956,-0.014910000376403332,0.06319999694824219,0.3066999912261963,-0.0428600013256073,-0.16181999444961548,-0.125900000333786,0.1953199952840805,0.2069000005722046,-0.08735000342130661,-0.21918000280857086],[0.00674000009894371,-0.063230000436306,0.1840600073337555,0.1930299997329712,-0.09621000289916992,0.09151999652385712,-0.055720001459121704,0.026750000193715096,0.13264000415802002,0.0565200001001358,0.04701999947428703,-0.06040000170469284,0.10823000222444534,-0.3111000061035156,-0.24449999630451202,0.2963699996471405,0.40347999334335327],[0.013170000165700912,-0.017869999632239342,-0.2032099962234497,0.13258999586105347,-0.1563899964094162,-0.09904000163078308,-0.1862500011920929,-0.14193999767303467,0.7848799824714661,0.27298998832702637,0.18650999665260315,-0.19833999872207642,0.07535000145435333,0.03237000107765198,0.17681999504566193,0.13857999444007874,-0.09962999820709229],[-0.00547999981790781,0.1029599979519844,-0.1740799993276596,0.0019600000232458115,0.1017799973487854,0.2140599936246872,-0.32513999938964844,0.057029999792575836,0.050859998911619186,0.3569200038909912,-0.057829998433589935,0.07975000143051147,-0.10113999992609024,0.09757000207901001,0.2519499957561493,-0.21814000606536865,0.11276999861001968],[0.21202999353408813,-0.10914000123739243,0.012559999711811543,0.16459999978542328,0.0704599991440773,-0.21198999881744385,0.025200000032782555,-0.12466000020503998,0.03540999814867973,0.20958000421524048,-0.23348000645637512,-0.13423000276088715,-0.10506000369787216,0.10779999941587448,0.005619999952614307,-0.19440999627113342,-0.2988300025463104],[-0.443340003490448,0.20372000336647034,-0.16761000454425812,0.1353899985551834,0.2333800047636032,0.0029800001066178083,0.07918000221252441,0.053599998354911804,0.26524999737739563,0.0036800000816583633,-0.04698000103235245,0.036240000277757645,-0.15916000306606293,-0.2315800040960312,0.051259998232126236,-0.01947000063955784,0.07287999987602234],[0.21438999474048615,-0.1702899932861328,-0.01573999971151352,-0.30726999044418335,0.06015999987721443,0.19179999828338623,-0.21930000185966492,0.2017499953508377,0.13436000049114227,0.10728000104427338,0.20627999305725098,-0.16990000009536743,0.17790000140666962,-0.11964000016450882,-0.0018599999602884054,0.010540000163018703,0.14785000681877136],[0.10611999779939651,-0.17406000196933746,-0.002139999996870756,-0.23047000169754028,-0.12824000418186188,0.08463999629020691,0.07847999781370163,-0.06515999883413315,-0.06396999955177307,-0.0012100000167265534,-0.21889999508857727,0.16167999804019928,-0.4322200119495392,0.19830000400543213,0.030629999935626984,0.09861999750137329,-0.1931699961423874],[0.27553999423980713,-0.34435001015663147,0.18967999517917633,-0.14975999295711517,-0.0005699999746866524,0.031050000339746475,-0.001990000018849969,-0.17583000659942627,0.049469999969005585,0.17051999270915985,0.028139999136328697,-0.10162000358104706,-0.19300000369548798,0.025599999353289604,0.21678000688552856,-0.05837000161409378,0.07627999782562256],[0.16572000086307526,-0.19874000549316406,0.27595001459121704,0.0029299999587237835,-0.18573999404907227,-0.02768000029027462,-0.014820000156760216,0.24808000028133392,-0.2713199853897095,-0.08919999748468399,-0.001970000099390745,0.06351999938488007,0.3242799937725067,-0.026429999619722366,-0.10909999907016754,-0.08536999672651291,0.24533000588417053],[-0.2738099992275238,-0.07551000267267227,0.11941999942064285,-0.4651699960231781,0.024240000173449516,-0.06728000193834305,0.10769999772310257,-0.15352000296115875,-0.02111000008881092,0.027300000190734863,0.08177000284194946,-0.03027000091969967,0.09132000058889389,0.13016000390052795,0.131400004029274,0.07520999759435654,-0.38183000683784485],[0.13911999762058258,-0.14114999771118164,-0.034690000116825104,0.07980000227689743,-0.2700600028038025,0.05073000118136406,0.06201000139117241,-0.047200001776218414,-0.7003800272941589,-0.0979899987578392,-0.4103200137615204,0.05764999985694885,-0.2089499980211258,-0.3203999996185303,-0.16530999541282654,-0.22443999350070953,0.21336999535560608],[0.34922000765800476,-0.06710000336170197,0.04568000137805939,-0.15203000605106354,-0.11749999970197678,0.023070000112056732,-0.1396699994802475,-0.2943199872970581,0.1060900017619133,-0.08189000189304352,0.4118100106716156,0.2984899878501892,-0.08096999675035477,0.015189999714493752,0.1503400057554245,0.08760999888181686,0.13485999405384064],[0.1401199996471405,0.1316699981689453,-0.3294300138950348,0.10808999836444855,0.0021899999119341373,-0.12296999990940094,0.14375999569892883,0.018330000340938568,-0.13325999677181244,-0.043069999665021896,0.07774999737739563,-0.1041800007224083,0.023809999227523804,-0.30366000533103943,-0.1170400008559227,-0.1926800012588501,-0.011420000344514847],[-0.17935000360012054,0.13175000250339508,0.27660998702049255,-0.12769000232219696,-0.13183000683784485,0.15423999726772308,0.40762001276016235,-0.3301199972629547,0.16162000596523285,0.23713000118732452,-0.06196000054478645,-0.12838999927043915,0.38222000002861023,0.03953000158071518,0.18398000299930573,0.05201999843120575,0.14489999413490295],[0.07237999886274338,-0.41196000576019287,-0.0413299985229969,0.011060000397264957,-0.19538000226020813,0.0014400000218302011,0.15762999653816223,-0.14234000444412231,0.262939989566803,0.1833599954843521,-0.14856000244617462,-0.17840999364852905,-0.12152999639511108,-0.0619099996984005,0.14645999670028687,-0.15082000195980072,0.02297000028192997],[0.307559996843338,0.007410000078380108,0.2536900043487549,0.07631999999284744,0.5684999823570251,0.3048200011253357,0.0754299983382225,-0.23176999390125275,-0.10678999871015549,-0.23420999944210052,-0.011950000189244747,0.10440000146627426,0.1514900028705597,0.044759999960660934,0.09087999910116196,-0.10621999949216843,0.016140000894665718],[-0.3289799988269806,0.13624000549316406,-0.33362001180648804,0.23954999446868896,-0.003269999986514449,-0.18118000030517578,0.10915999859571457,0.017969999462366104,0.08613999933004379,-0.07023999840021133,-0.1619199961423874,-0.018799999728798866,-0.15824000537395477,0.46935999393463135,-0.19368000328540802,-0.08195000141859055,-0.00033999999868683517],[0.04814000055193901,-0.13847999274730682,0.02556000091135502,-0.12407000362873077,-0.3416999876499176,-0.10640999674797058,-0.1228799968957901,0.006029999814927578,-0.027739999815821648,-0.3584800064563751,-0.04552999883890152,0.01269999984651804,-0.030980000272393227,-0.5720900297164917,-0.11344999819993973,0.05104999989271164,0.24119000136852264],[-0.2372799962759018,0.07018999755382538,-0.13517999649047852,-0.17316000163555145,0.18300999701023102,-0.16695000231266022,-0.1249300017952919,0.18458999693393707,0.14871999621391296,0.1148499995470047,0.022830000147223473,-0.41290000081062317,-0.014000000432133675,0.3050000071525574,-0.12238000333309174,0.08517999947071075,-0.024700000882148743],[0.1272200047969818,0.09008999913930893,0.04481999948620796,0.03215999901294708,-0.24817000329494476,-0.15592999756336212,0.1094600036740303,0.02735999971628189,0.003969999961555004,0.07304000109434128,0.006029999814927578,0.1296599954366684,-0.02311999909579754,-0.14618000388145447,-0.318230003118515,0.09701000154018402,0.2669300138950348],[0.20322999358177185,0.011239999905228615,-0.0063599999994039536,0.15892000496387482,-0.029920000582933426,-0.09940999746322632,0.010689999908208847,-0.04681999981403351,-0.14433999359607697,-0.002369999885559082,0.2954300045967102,1.0310900211334229,-0.07721000164747238,-0.35343998670578003,0.10478000342845917,0.05435999855399132,0.01336000021547079],[0.27625998854637146,-0.09718000143766403,-0.1418900042772293,-0.17445999383926392,-0.1551000028848648,-0.020059999078512192,0.061739999800920486,-0.04264000058174133,0.20236000418663025,-0.38784998655319214,0.008960000239312649,0.02882000058889389,-0.04430000111460686,-0.10416000336408615,0.036809999495744705,-0.012260000221431255,0.0066200001165270805],[-0.11655999720096588,-0.058309998363256454,-0.48030000925064087,0.16697999835014343,0.15992000699043274,0.05350999906659126,-0.1180500015616417,-0.0737299993634224,-0.07958000153303146,0.25029000639915466,-0.14361999928951263,-0.09414000064134598,-0.4467099905014038,0.05240999907255173,0.0623599998652935,0.022770000621676445,0.14055000245571136],[-0.11196999996900558,-0.12128999829292297,-0.23296000063419342,-0.271230012178421,0.08860000222921371,-0.21439999341964722,0.18041999638080597,-0.1102600023150444,-0.22673000395298004,0.2017900049686432,0.09821999818086624,-0.01640000008046627,-0.19754000008106232,-0.30121999979019165,0.1764799952507019,-0.05090000107884407,-0.16006000339984894],[0.13234999775886536,-0.21703000366687775,-0.04726000130176544,0.08822000026702881,-0.2774200141429901,0.10001000016927719,0.29934000968933105,-0.2592700123786926,-0.0072200000286102295,0.13099999725818634,0.07688000053167343,0.014329999685287476,0.02281000092625618,0.034779999405145645,0.009920000098645687,0.19644999504089355,-0.16189999878406525],[0.05006999894976616,0.031120000407099724,0.10045000165700912,-0.05322999879717827,-0.3722200095653534,-0.1314699947834015,0.043060000985860825,0.1864600032567978,0.1199600026011467,-0.15211999416351318,0.045979999005794525,0.04196000099182129,0.05553999915719032,-0.4522700011730194,-0.0692799985408783,-0.0763700008392334,0.21865999698638916],[-0.335099995136261,0.018069999292492867,-0.26385000348091125,0.20952999591827393,-0.11339999735355377,0.20903000235557556,0.014619999565184116,0.17418000102043152,-0.020509999245405197,0.007720000110566616,0.005799999926239252,-0.16062000393867493,0.36660000681877136,0.03144000098109245,-0.18807999789714813,0.13413000106811523,0.1907999962568283],[-0.05189000070095062,-0.1036200001835823,-0.39515000581741333,-0.013450000435113907,-0.5099899768829346,-0.13116000592708588,0.26754000782966614,0.030489999800920486,-0.055149998515844345,0.07969000190496445,-0.09120000153779984,0.0845400020480156,0.10633999854326248,-0.08122000098228455,0.019929999485611916,0.08631999790668488,0.14045000076293945],[0.08540000021457672,-0.07377000153064728,0.09724999964237213,0.1262899935245514,-0.07900000363588333,-0.22318999469280243,-0.10858999937772751,-0.009820000268518925,0.18852999806404114,-0.2785699963569641,-0.0385500006377697,-0.1476600021123886,0.15906000137329102,0.16685999929904938,-0.08433999866247177,-0.0451200008392334,-0.15380999445915222],[0.10744000226259232,-0.027710000053048134,-0.25780001282691956,-0.2024500072002411,0.05319000035524368,-0.10179000347852707,-0.12996000051498413,0.30702000856399536,0.39041000604629517,-0.054740000516176224,-0.22675000131130219,-0.30695998668670654,-0.2578200101852417,-0.07925000041723251,0.08643999695777893,-0.12263000011444092,0.26245999336242676],[-0.18140999972820282,-0.05403999984264374,-0.2894600033760071,-0.22994999587535858,0.21469999849796295,-0.1571899950504303,0.11163999885320663,-0.056689999997615814,0.08231999725103378,-0.11668000370264053,-0.03767000138759613,-0.35491999983787537,0.06576000154018402,0.1571200042963028,-0.024569999426603317,-0.2029300034046173,0.09873999655246735],[-0.19436000287532806,0.07248000055551529,0.0014100000262260437,-0.289029985666275,0.10103999823331833,-0.32455000281333923,0.11582999676465988,0.050119999796152115,0.16348999738693237,0.19547000527381897,0.03206000104546547,0.0075599998235702515,0.3259899914264679,-0.04287999868392944,-0.16389000415802002,0.09341000020503998,0.020360000431537628],[-0.21560999751091003,0.3888300061225891,-0.07726000249385834,-0.06392999738454819,-0.1564899981021881,-0.187049999833107,0.046379998326301575,0.05460000038146973,0.21630999445915222,-0.06953000277280807,0.02280000038444996,0.19201000034809113,-0.14575999975204468,0.2059900015592575,-0.20845000445842743,0.18606999516487122,0.17701999843120575],[-0.22125999629497528,0.29089000821113586,-0.1993200033903122,0.14594000577926636,0.26263999938964844,-0.11210999637842178,-0.04682999849319458,0.020640000700950623,0.37713000178337097,0.13398000597953796,0.032839998602867126,-0.09109000116586685,-0.14815999567508698,0.2592099905014038,-0.2172199934720993,0.1326099932193756,0.00610999995842576],[0.423799991607666,-0.08013000339269638,0.11198999732732773,-0.2571299970149994,0.07628999650478363,0.10036999732255936,0.031690001487731934,-0.19638000428676605,0.12176000326871872,-0.009390000253915787,-0.09156999737024307,-0.1511099934577942,-0.24369999766349792,-0.2271600067615509,0.02386000007390976,-0.10648000240325928,0.049389999359846115],[-0.05050000175833702,-0.05778999999165535,-0.14573000371456146,-0.29025998711586,0.0049299998208880424,0.07931999862194061,-0.08282999694347382,-0.06866999715566635,-0.19248999655246735,-0.405460000038147,-0.055879998952150345,0.14409999549388885,0.3576900064945221,-0.12581999599933624,-0.2522999942302704,0.3091199994087219,0.08902999758720398],[0.023439999669790268,-0.2494100034236908,-0.04159000143408775,0.12953999638557434,-0.09729000180959702,-0.12880000472068787,0.060440000146627426,-0.1565299928188324,-0.06360000371932983,-0.05276000127196312,0.05149000138044357,0.03728000074625015,-0.14583000540733337,-0.005009999964386225,0.0845400020480156,-0.07309000194072723,-0.20171000063419342],[0.05542999878525734,0.26958000659942627,-0.044840000569820404,-0.08562999963760376,0.19043000042438507,-0.03790000081062317,-0.17066000401973724,-0.0478999987244606,0.19975000619888306,0.1019200012087822,0.17795999348163605,-0.06162000074982643,0.08342999964952469,0.1346299946308136,-0.06654000282287598,0.5199300050735474,0.3081899881362915],[0.34018000960350037,-0.02498999983072281,0.14630000293254852,0.1748500019311905,0.14934000372886658,0.22030000388622284,-0.3313100039958954,0.1793999969959259,-0.0747700035572052,-0.0931600034236908,0.01988000050187111,-0.14406000077724457,0.20649999380111694,-0.1060200035572052,-0.11753000319004059,-0.0024999999441206455,-0.06616999953985214],[-0.013880000449717045,0.16904999315738678,0.23286999762058258,0.07581999897956848,0.35795000195503235,0.05758000165224075,-0.06143999844789505,0.058090001344680786,-0.144679993391037,-0.007120000198483467,-0.043549999594688416,-0.042399998754262924,0.2615799903869629,0.10264000296592712,0.06559000164270401,0.14328999817371368,0.012129999697208405],[-0.21478000283241272,0.3225499987602234,0.09774000197649002,0.2812100052833557,0.04795999825000763,-0.012149999849498272,-0.02645999938249588,0.10143999755382538,0.21185000240802765,-0.07370000332593918,0.2242400050163269,-0.04098999872803688,0.2175700068473816,0.10869000107049942,-0.1252100020647049,-0.009879999794065952,-0.0684100016951561],[0.15394000709056854,-0.03477000072598457,0.43595999479293823,-0.10608000308275223,-0.18000000715255737,0.290039986371994,-0.06134999915957451,0.052560001611709595,-0.03280999884009361,-0.0514799989759922,0.003379999892786145,-0.07750999927520752,0.06032000109553337,-0.17574000358581543,0.09318999946117401,-0.08513999730348587,-0.026399999856948853],[0.4876300096511841,0.003809999907389283,0.07281000167131424,0.30421000719070435,-0.0833199992775917,0.03714999929070473,0.038440000265836716,-0.1095300018787384,0.19047999382019043,-0.07325000315904617,-0.07314000278711319,0.12560999393463135,-0.0037299999967217445,0.09497000277042389,0.001230000052601099,0.21827000379562378,-0.1503099948167801],[-0.061719998717308044,0.2786499857902527,-0.1944199949502945,0.1310099959373474,-0.19112999737262726,-0.1573600023984909,-0.07179000228643417,-0.04878000169992447,-0.032930001616477966,0.02046000026166439,-0.16440999507904053,0.018389999866485596,-0.023110000416636467,0.0954200029373169,-0.02995000034570694,-0.20058999955654144,-0.1704999953508377],[0.1974100023508072,-0.29624998569488525,-0.06661999970674515,0.34681999683380127,-0.13422000408172607,0.14448000490665436,-0.014639999717473984,0.03207999840378761,-0.08703000098466873,-0.08590000122785568,0.12381000071763992,0.13393999636173248,-0.0034199999645352364,0.20092999935150146,0.2191700041294098,0.008270000107586384,-0.09685999900102615],[-0.26146000623703003,0.18413999676704407,-0.02112000063061714,-0.03290000185370445,0.12183000147342682,-0.1230200007557869,-0.011250000447034836,-0.08720000088214874,-0.06066000089049339,0.12564000487327576,0.19025999307632446,-0.02782999910414219,0.1541299968957901,-0.20360000431537628,-0.15943999588489532,0.10401000082492828,0.3677400052547455],[-0.122809998691082,-0.0681300014257431,-0.1970600038766861,0.18272000551223755,-0.11789999902248383,-0.0936100035905838,-0.183119997382164,0.04479999840259552,0.06306000053882599,-0.29241999983787537,0.002309999894350767,0.1584099978208542,-0.1704300045967102,0.17994999885559082,-0.2747099995613098,0.12664000689983368,-0.1677200049161911],[-0.14473000168800354,0.062049999833106995,-0.3434399962425232,-0.06210999935865402,0.09663999825716019,-0.022679999470710754,0.07625000178813934,0.09407000243663788,0.15230000019073486,-0.047370001673698425,-0.12489999830722809,0.19888000190258026,-0.09130000323057175,-0.5709099769592285,-0.0635799989104271,-0.10293000191450119,0.29701000452041626],[-0.12331999838352203,-0.030820000916719437,-0.06656999886035919,0.11877000331878662,0.296640008687973,-0.15349000692367554,-0.017149999737739563,0.09843999892473221,0.14563000202178955,0.1544100046157837,-0.11225999891757965,-0.3328000009059906,0.21913999319076538,-0.19637000560760498,0.14425000548362732,0.05280999839305878,0.2899099886417389],[-0.27320000529289246,0.052799999713897705,-0.2780500054359436,-0.2202800065279007,0.22253000736236572,0.0793600007891655,0.10001000016927719,0.05293000116944313,-0.03420000150799751,0.02311999909579754,-0.09668999910354614,-0.005710000172257423,-0.09132000058889389,-0.16513000428676605,0.013659999705851078,0.02807999961078167,-0.13976000249385834],[0.15321999788284302,-0.1417199969291687,0.13479000329971313,-0.1577800065279007,0.01841999962925911,-0.02184000052511692,-0.14610999822616577,0.0019399999873712659,-0.23728999495506287,0.15773999691009521,-0.2473199963569641,0.013100000098347664,0.11903999745845795,-0.15193000435829163,-0.10055000334978104,-0.24831999838352203,-0.11038000136613846],[-0.17937999963760376,-0.0195700004696846,0.03832999989390373,-0.008679999969899654,-0.024890000000596046,0.15320000052452087,-0.12191999703645706,-0.10154999792575836,0.17725999653339386,-0.17030000686645508,-0.380950003862381,-0.2648400068283081,-0.21040000021457672,0.2794399857521057,0.015850000083446503,-0.12374000251293182,-0.23607000708580017],[-0.017680000513792038,-0.06915000081062317,-0.009809999726712704,0.271369993686676,0.10960999876260757,0.0502999983727932,-0.09105999767780304,-0.20632000267505646,0.03540999814867973,0.05640000104904175,0.24241000413894653,-0.08714000135660172,0.5650200247764587,-0.23181000351905823,0.04639999940991402,0.043219998478889465,0.22210000455379486],[-0.18222999572753906,-0.04755999892950058,0.13526999950408936,-0.33476999402046204,0.01923999935388565,0.01662999950349331,0.10073000192642212,0.24087999761104584,0.481689989566803,0.27375999093055725,0.15871000289916992,0.13078999519348145,0.0012100000167265534,0.18772000074386597,-0.04743000119924545,-0.2024500072002411,-0.21708999574184418],[0.026760000735521317,0.1434600055217743,0.01962999999523163,-0.044039998203516006,0.10113000124692917,0.12358000129461288,-0.2559800148010254,0.02834000065922737,-0.12941999733448029,-0.1407099962234497,0.05601000040769577,0.10642000287771225,0.47558000683784485,-0.2798599898815155,-0.04098999872803688,0.12634000182151794,-0.05335000157356262],[-0.4102199971675873,0.21373000741004944,0.06391999870538712,-0.3014400005340576,-0.014360000379383564,0.08402000367641449,0.0005000000237487257,-0.025450000539422035,-0.07727000117301941,-0.1396699994802475,0.12159000337123871,0.029850000515580177,-0.06682000309228897,-0.0047599999234080315,0.18066999316215515,0.17715999484062195,0.0931600034236908],[-0.007689999882131815,0.2343199998140335,0.13134999573230743,-0.12421999871730804,-0.09290000051259995,-0.23378999531269073,-0.0838100016117096,0.1357399970293045,0.1630599945783615,0.33684998750686646,-0.14681999385356903,-0.036400001496076584,-0.3124000132083893,0.2812899947166443,0.15556000173091888,-0.012539999559521675,0.02256999909877777],[-0.09200000017881393,-0.09634999930858612,-0.24626000225543976,-0.0848499983549118,0.08087000250816345,0.06941000372171402,-0.07086999714374542,-0.03767000138759613,0.24800999462604523,0.460999995470047,0.34191998839378357,0.018640000373125076,0.27838000655174255,-0.2184000015258789,-0.07214000076055527,-0.02810000069439411,-9.999999747378752e-06],[-0.24292999505996704,0.3594000041484833,0.14260999858379364,-0.28711000084877014,0.4690600037574768,0.012090000323951244,-0.16301000118255615,0.16947999596595764,-0.10547000169754028,0.02572000026702881,-0.07535000145435333,-0.03982999920845032,0.003949999809265137,0.04171999916434288,0.006889999844133854,0.0628800019621849,0.006539999973028898],[-0.3289799988269806,0.12137000262737274,0.06673000007867813,-0.10008999705314636,0.2502500116825104,0.03443999961018562,-0.031860001385211945,-0.010610000230371952,-0.22281000018119812,-0.2718900144100189,-0.10935000330209732,0.1491899937391281,-0.1229500025510788,-0.19120000302791595,0.06722000241279602,-0.03058999963104725,0.3063800036907196],[0.23955999314785004,-0.0081599997356534,-0.06549999862909317,0.06965000182390213,-0.0572500005364418,-0.12773999571800232,0.22492000460624695,-0.13853000104427338,0.11495999991893768,0.27226999402046204,-0.010700000450015068,-0.215829998254776,-0.3350600004196167,-0.1742600053548813,-0.07596000283956528,0.030169999226927757,-0.18901999294757843],[-0.10950999706983566,0.023409999907016754,0.24194000661373138,0.0028699999675154686,0.03767000138759613,0.2216300070285797,0.2201700061559677,0.08126000314950943,-0.2871600091457367,-0.06498000025749207,-0.08206000179052353,-0.04061000049114227,0.06678999960422516,-0.04506000131368637,0.0954200029373169,0.06328000128269196,-0.03344999998807907],[0.127470001578331,-0.40529000759124756,0.1189500018954277,0.05990999937057495,-0.2409999966621399,-0.03742000088095665,-0.010209999978542328,-0.12588000297546387,0.2536099851131439,-0.1007699966430664,-0.02449999935925007,-0.122359998524189,0.06773000210523605,0.05406000092625618,0.0384100005030632,0.18625999987125397,0.20229999721050262],[0.10982999950647354,-0.19245000183582306,0.3668400049209595,0.15963000059127808,0.15839000046253204,0.017000000923871994,-0.24225999414920807,0.06831999868154526,0.011090000160038471,-0.04194999858736992,-0.011959999799728394,-0.010370000265538692,-0.06639000028371811,0.16912999749183655,0.012059999629855156,-0.0076500000432133675,-0.36403998732566833],[0.47968000173568726,0.09645000100135803,0.16283999383449554,0.11619000136852264,0.3438299894332886,-0.013460000045597553,0.3505699932575226,-0.17285999655723572,0.07769999653100967,-0.08968000113964081,0.22418999671936035,0.13685999810695648,-0.01768999919295311,-0.024819999933242798,0.15404999256134033,-0.24484999477863312,-0.01971999928355217],[-0.10093999654054642,0.07810000330209732,0.08549000322818756,0.005830000154674053,0.17964999377727509,-0.3458299934864044,-0.037300001829862595,0.002139999996870756,-0.2188200056552887,-0.2414100021123886,-0.2206999957561493,-0.24615000188350677,0.0006399999838322401,-0.009170000441372395,0.04805999994277954,-0.26118001341819763,0.1314300000667572],[0.15680000185966492,-0.2554199993610382,0.2669999897480011,0.05412000045180321,-0.20878000557422638,-0.22096000611782074,0.39326000213623047,-0.0384100005030632,0.09342999756336212,-0.5019800066947937,0.042890001088380814,-0.12530000507831573,-0.14119000732898712,0.041749998927116394,-0.10870999842882156,-0.0567299984395504,0.021849999204277992],[-0.19968999922275543,-0.0325700007379055,0.2762399911880493,-0.2371699959039688,0.08128000050783157,-0.12726999819278717,0.04692000150680542,0.05313999950885773,0.11269000172615051,-0.16759000718593597,0.0036800000816583633,0.09728000313043594,-0.13853999972343445,-0.1155799999833107,-0.19779999554157257,0.1290300041437149,0.09013000130653381],[-0.2285500019788742,0.10075999796390533,0.2967900037765503,0.06397999823093414,0.3106200098991394,-0.3285999894142151,0.10086999833583832,-0.11702000349760056,-0.0027099999133497477,-0.5675299763679504,0.0815500020980835,-0.09928999841213226,0.05682000145316124,0.01972999982535839,-0.13555000722408295,0.14090999960899353,0.43094998598098755],[0.013179999776184559,0.07806999981403351,-0.01744999922811985,-0.3997099995613098,0.11537999659776688,-0.1443600058555603,0.2006099969148636,0.16656999289989471,0.10910999774932861,0.27775999903678894,-0.00506999995559454,0.35319000482559204,-0.1706400066614151,0.15773999691009521,0.1642799973487854,-0.31029000878334045,0.1091499999165535],[-0.011920000426471233,-0.24018999934196472,-0.08099000155925751,-0.023819999769330025,-0.07203999906778336,-0.10108000040054321,0.0733100026845932,0.09009999781847,0.009139999747276306,-0.19580000638961792,0.26155999302864075,0.08218999952077866,0.305400013923645,-0.14993999898433685,-0.02701999992132187,-0.11174999922513962,0.01384000014513731],[0.26614001393318176,0.20621000230312347,-0.14774000644683838,-0.07333999872207642,-0.17175999283790588,0.01372000016272068,0.22164000570774078,-0.10978999733924866,0.18482999503612518,-0.18671999871730804,-0.03838000074028969,0.05136999860405922,0.1253499984741211,-0.24917000532150269,-0.06998000293970108,0.007670000195503235,0.4350399971008301],[0.10734999924898148,-0.20736999809741974,0.10927999764680862,0.05660000070929527,-0.2509799897670746,0.02905000001192093,-0.15568000078201294,-0.12133999913930893,-0.11495999991893768,-0.08370999991893768,0.007530000060796738,0.006570000201463699,-0.12605999410152435,0.1813499927520752,0.33017000555992126,-0.15851999819278717,-0.24137000739574432],[-0.14441999793052673,-0.01882000081241131,-0.4931800067424774,0.15439000725746155,-0.24887000024318695,0.063230000436306,-0.09698999673128128,0.2495100051164627,-0.09803000092506409,0.18177999556064606,0.00925000011920929,-0.019290000200271606,-0.021560000255703926,-0.4884600043296814,-0.002730000065639615,-0.22276000678539276,0.03288000077009201],[-0.3567099869251251,0.14083999395370483,-0.11918000131845474,-0.09662999957799911,0.08510000258684158,-0.13916000723838806,0.2313700020313263,0.056620001792907715,0.29666000604629517,0.15117000043392181,0.22881999611854553,0.0002099999983329326,0.0843299999833107,-0.09164000302553177,0.028880000114440918,0.06260000169277191,0.23082000017166138],[0.18905000388622284,-0.11438000202178955,0.09628000110387802,0.06560000032186508,0.14372000098228455,0.11557000130414963,-0.23894000053405762,0.020179999992251396,0.12347999960184097,-0.13660000264644623,-0.193900004029274,-0.20893000066280365,0.3412800133228302,-0.014910000376403332,-0.029160000383853912,0.020390000194311142,0.010610000230371952],[0.11711999773979187,-0.04438000172376633,-0.209539994597435,0.35936999320983887,-0.16933000087738037,-0.15964999794960022,0.10373000055551529,0.046069998294115067,-0.06648000329732895,0.33063000440597534,-0.08624999970197678,-0.1624000072479248,-0.17855000495910645,0.007819999940693378,-0.0755700021982193,0.18161000311374664,-0.1738400012254715],[-0.15668000280857086,0.22155000269412994,-0.1821500062942505,-0.29339998960494995,0.32295000553131104,0.11221999675035477,-0.07406000047922134,-0.12826000154018402,0.028519999235868454,0.1362600028514862,-0.10277000069618225,0.047589998692274094,-0.23718999326229095,0.01737000048160553,0.16561999917030334,0.07958000153303146,-0.12166000157594681],[0.2506999969482422,-0.03441999852657318,0.15288999676704407,0.12771999835968018,-0.1930299997329712,-0.05282000079751015,-0.17568999528884888,0.25108999013900757,0.018079999834299088,-0.26037999987602234,0.15711000561714172,-0.030069999396800995,-0.025200000032782555,-0.2882100045681,-0.040460001677274704,0.15037000179290771,-0.12303999811410904],[0.11029999703168869,-0.09398999810218811,0.4319100081920624,-0.4106900095939636,0.2558700144290924,-0.008310000412166119,0.01752999983727932,-0.044679999351501465,-0.1242000013589859,-0.10779000073671341,0.1042800024151802,0.027249999344348907,-0.25314000248908997,-0.16167999804019928,0.13884000480175018,0.12120000272989273,-0.08495999872684479],[0.0964599996805191,-0.06851000338792801,0.0873199999332428,-0.3385699987411499,-0.01752999983727932,-0.019200000911951065,0.09780000150203705,0.01358999963849783,-0.2364799976348877,-0.05240999907255173,-0.027699999511241913,-0.2058899998664856,0.1740500032901764,-0.1993200033903122,0.028449999168515205,0.31029999256134033,0.06723000109195709],[-0.04932999983429909,0.38231998682022095,0.23553000390529633,-0.2551499903202057,-0.04715999960899353,-0.15076999366283417,-0.15807999670505524,-0.12031000107526779,-0.10632000118494034,0.013220000080764294,-0.10244999825954437,0.18188999593257904,-0.18603000044822693,0.10916999727487564,0.08341000229120255,0.055390000343322754,-0.3603000044822693],[0.3789699971675873,0.04899999871850014,-0.02744000032544136,0.13676999509334564,-0.03700000047683716,-0.11253999918699265,0.14493000507354736,-0.10943999886512756,-0.043540000915527344,0.05435999855399132,0.03796999901533127,0.4943099915981293,-0.3595300018787384,0.02240999974310398,-0.032999999821186066,-0.006070000119507313,0.06961999833583832],[0.0786300003528595,0.40511998534202576,0.152319997549057,0.05821000039577484,-0.16832000017166138,0.06851000338792801,0.36871999502182007,0.07979000359773636,-0.3778800070285797,-0.28213000297546387,-0.17010000348091125,0.1423799991607666,-0.3456299901008606,-0.08208999782800674,-0.01006999984383583,-0.001560000004246831,-0.08897999674081802],[-0.2601200044155121,0.3022400140762329,0.09889999777078629,-0.19972999393939972,-9.999999747378752e-06,-0.08133000135421753,-0.1932699978351593,-0.15782999992370605,0.3447299897670746,-0.11186999827623367,0.019440000876784325,0.02150999940931797,-0.20521000027656555,0.2581399977207184,0.12966999411582947,0.1863500028848648,0.03458999842405319],[0.13123999536037445,0.01834000088274479,0.042810000479221344,0.048820000141859055,-0.2425300031900406,-0.15127000212669373,0.3086000084877014,0.3066299855709076,0.07624000310897827,-0.008139999583363533,-0.04800000041723251,0.04966999962925911,-0.048500001430511475,0.30882999300956726,0.03990999981760979,-0.12707999348640442,0.06131000071763992],[-0.12331999838352203,-0.23512999713420868,-0.17539000511169434,0.1839500069618225,0.13050000369548798,0.22089999914169312,-0.08696000277996063,0.318450003862381,0.04162000119686127,0.3161500096321106,0.054740000516176224,-0.02369000017642975,0.07485999912023544,-0.056060001254081726,0.11224000155925751,-0.08664999902248383,0.04588000103831291],[0.1837099939584732,-0.21398000419139862,0.25738000869750977,-0.04645000025629997,-0.31690001487731934,0.09657000005245209,0.04098999872803688,-0.11664000153541565,0.03787999972701073,0.04699999839067459,0.006370000075548887,0.40658000111579895,-0.1691100001335144,-0.09641999751329422,0.08985999971628189,-0.026830000802874565,0.10236000269651413],[-0.35093000531196594,0.10649000108242035,-0.3437800109386444,-0.18886999785900116,0.28999999165534973,0.2939299941062927,0.21713000535964966,-0.04521999880671501,0.09669999778270721,0.18001000583171844,-0.16896000504493713,-0.020160000771284103,0.025119999423623085,-0.07503999769687653,-0.029489999637007713,-0.10681000351905823,-0.32875001430511475],[0.034460000693798065,-0.15535999834537506,0.10823000222444534,0.20608000457286835,0.189860001206398,-0.0357699990272522,0.03756999969482422,0.3664399981498718,0.05657000094652176,-0.007089999970048666,-0.2858799993991852,-0.19596999883651733,-0.2419700026512146,-0.2725900113582611,-0.11685000360012054,-0.012760000303387642,-0.17361000180244446],[-0.15987999737262726,0.08110000193119049,-0.18347999453544617,0.05034000054001808,0.39621999859809875,-0.01721999980509281,-0.06063999980688095,-0.12296000123023987,0.16915999352931976,0.0393499992787838,-0.01995999924838543,-0.28909000754356384,-0.12358000129461288,0.2520799934864044,0.16681000590324402,-0.21797999739646912,-0.16050000488758087],[-0.21152999997138977,0.18988999724388123,-0.18174999952316284,0.002319999970495701,-0.03815999999642372,-0.14546999335289001,0.02029000036418438,0.1374800056219101,0.046220000833272934,-0.15228000283241272,0.34953999519348145,0.3929600119590759,0.14690999686717987,-0.08755999803543091,0.07626000046730042,0.025760000571608543,0.5232099890708923],[-0.20723000168800354,0.04267000034451485,0.09398999810218811,0.036660000681877136,-0.07706999778747559,0.2727000117301941,-0.013539999723434448,-0.1082099974155426,-0.10379999876022339,-0.0748400017619133,-0.33083000779151917,-0.45372000336647034,0.5905500054359436,-0.2115200012922287,-0.25137999653816223,0.2056100070476532,-0.21076999604701996],[-0.41345998644828796,0.16057999432086945,-0.16161000728607178,-0.09831999987363815,0.23454999923706055,-0.1680999994277954,-0.03338000178337097,0.04478999972343445,-0.057750001549720764,0.05548999831080437,-0.21482999622821808,-0.14080999791622162,0.1064700037240982,-0.10286000370979309,-0.1411599963903427,-0.19132000207901,0.0361500009894371],[-0.038120001554489136,0.25964999198913574,0.1795099973678589,0.5024600028991699,-0.3581700026988983,0.19259999692440033,-0.310479998588562,-0.10587000101804733,-0.0596500001847744,-0.07982999831438065,-0.1408900022506714,0.15101000666618347,-0.07678999751806259,0.0811299979686737,0.06915999948978424,0.06266000121831894,-0.004269999917596579],[-0.33816999197006226,-0.13731999695301056,-0.00343000004068017,0.03971000015735626,-0.28512001037597656,0.1976500004529953,-0.04915999993681908,0.052379999309778214,0.07765000313520432,0.29905998706817627,0.23190000653266907,0.17813000082969666,0.11501999944448471,0.011529999785125256,-0.0629199966788292,-0.06970000267028809,-0.014709999784827232],[-0.16132000088691711,-0.014770000241696835,-0.23913000524044037,-0.1007699966430664,-0.19152000546455383,-0.1447400003671646,-0.13198000192642212,0.025510000064969063,0.19169999659061432,-0.5539900064468384,-0.08560000360012054,-0.07920999825000763,0.15581999719142914,0.42792001366615295,-0.03238999843597412,0.018470000475645065,0.13517999649047852],[0.16562999784946442,0.056940000504255295,0.08449999988079071,0.16277000308036804,0.011830000206828117,-0.13433000445365906,0.06370999664068222,0.03412000089883804,-0.1842000037431717,0.19092999398708344,-0.22039000689983368,-0.05189000070095062,-0.06588999927043915,0.24772000312805176,-0.08880999684333801,0.19505999982357025,-0.22104999423027039],[0.08739999681711197,-0.05981000140309334,0.28497999906539917,0.20042000710964203,-0.11743000149726868,-0.016529999673366547,0.09059000015258789,-0.09363000094890594,-0.1016400009393692,0.42805999517440796,-0.030899999663233757,-0.07812999933958054,0.14850999414920807,0.07126999646425247,0.1981000006198883,-0.05009999871253967,0.006769999861717224],[0.1222900003194809,-0.1775200068950653,0.11358000338077545,0.019670000299811363,0.04297000169754028,0.2204200029373169,-0.2711699903011322,-0.2509100139141083,0.2892799973487854,0.14338000118732452,0.20761999487876892,0.15780000388622284,0.07400000095367432,-0.009069999679923058,0.14256000518798828,-0.07791999727487564,0.2564300000667572],[-0.027950000017881393,0.24212999641895294,-0.03123999945819378,-0.4005799889564514,-0.0951400026679039,0.11247000098228455,-0.17678000032901764,-0.04025999829173088,-0.05810999870300293,-0.005659999791532755,-0.06624999642372131,-0.21187999844551086,-0.1939699947834015,-0.5047699809074402,-0.03554999828338623,0.06870999932289124,0.2863900065422058],[-0.050030000507831573,0.1164499968290329,-0.09663999825716019,0.06671000272035599,-0.17518000304698944,0.0867300033569336,-0.15958000719547272,-0.0892300009727478,-0.2851400077342987,-0.26353999972343445,0.02135000005364418,0.25720998644828796,-0.3241899907588959,0.040070001035928726,0.08872999995946884,0.05384000018239021,0.14920000731945038],[-0.05821000039577484,-0.0014100000262260437,0.3006899952888489,0.21615000069141388,0.032839998602867126,0.13079999387264252,-0.14722999930381775,0.026440000161528587,0.1652500033378601,0.19438999891281128,0.09822999686002731,-0.11027999967336655,0.013389999978244305,0.02060999907553196,0.23713000118732452,0.06985999643802643,0.5318400263786316],[-0.20643000304698944,-0.13490000367164612,0.047929998487234116,-0.16943000257015228,-0.20054000616073608,0.14455999433994293,-0.092739999294281,-0.036329999566078186,-0.02631000056862831,-0.23512999713420868,0.19099999964237213,0.2569499909877777,0.2340400069952011,0.16694000363349915,0.07918000221252441,0.15943999588489532,0.005260000005364418],[-0.12355999648571014,-0.15547999739646912,-0.05691999942064285,0.023320000618696213,0.21408000588417053,-0.0013299999991431832,0.03606000170111656,-0.22605000436306,-0.41892001032829285,0.16957999765872955,-0.06775999814271927,0.06897000223398209,0.008200000040233135,0.3417699933052063,0.15392999351024628,-0.33574000000953674,-0.22054000198841095]],"b":[0.005450000055134296,-0.029589999467134476,-0.14316999912261963,-0.09604000300168991,-0.25832000374794006,0.16865000128746033,-0.08959999680519104,0.3193399906158447,-0.1638299971818924,0.11620000004768372,-0.10740000009536743,0.14920000731945038,-0.1131099984049797,-0.1827400028705597,-0.0022899999748915434,-0.1234700009226799,0.0957999974489212,-0.09125000238418579,-0.09889999777078629,-0.009829999879002571,0.13106000423431396,0.18533000349998474,0.21441000699996948,-0.011300000362098217,-0.03282000124454498,0.17235000431537628,-0.03678999841213226,0.15123000741004944,-0.12143000215291977,0.0751900002360344,0.30910998582839966,0.31470999121665955,0.1558299958705902,0.06054000183939934,-0.05992000177502632,-0.1369599997997284,0.1578799933195114,0.04458000138401985,-0.12599000334739685,-0.034609999507665634,0.20880000293254852,-0.12010999768972397,-0.018619999289512634,-0.18121999502182007,-0.15703999996185303,0.06476999819278717,0.1478399932384491,-0.06908000260591507,-0.1838800013065338,-0.08292999863624573,-0.17792999744415283,-0.04707999899983406,-0.1016400009393692,0.028219999745488167,-0.08846999704837799,-0.1965699940919876,0.25387001037597656,-0.10159000009298325,-0.04326000064611435,-0.010470000095665455,-0.2892000079154968,-0.12856000661849976,0.16664999723434448,-0.11632999777793884,0.15950000286102295,-0.01205000001937151,0.08664000034332275,-0.2101300060749054,0.17037999629974365,-0.035339999943971634,-0.03573000058531761,0.09985999763011932,0.12272000312805176,-0.04707999899983406,0.07997000217437744,-0.12826000154018402,0.1846799999475479,0.14757999777793884,-0.07102999836206436,0.10401000082492828,-0.001979999942705035,0.0,-0.02686000056564808,-0.09147000312805176,-0.07697000354528427,-0.19043999910354614,0.20332999527454376,-0.16787000000476837,0.05559999868273735,0.004730000160634518,-0.1960500031709671,0.013930000364780426,0.38420000672340393,-0.09354999661445618,0.009639999829232693,0.037709999829530716,0.15355999767780304,0.26124000549316406,0.13022999465465546,-0.2917200028896332,-0.13794000446796417,-0.1701900064945221,0.21507999300956726,0.07134000211954117,-0.22134999930858612,-0.11642999947071075,0.07587999850511551,-0.005770000163465738,-0.09656000137329102,0.21201999485492706,0.06328999996185303,-0.15237000584602356,-0.02947000041604042,-0.14539000391960144,-0.15714000165462494,0.1845400035381317,-0.27689000964164734,0.014779999852180481,0.3169499933719635,-0.07001999765634537,0.03513000160455704,0.20747999846935272,0.020670000463724136,0.11845000088214874,0.12204000353813171,0.12822000682353973,0.07260999828577042,0.13051000237464905,0.20092999935150146,0.07543999701738358,0.2542000114917755,0.02322000078856945,-0.07221999764442444,-0.023959999904036522,0.057029999792575836,0.32124000787734985,-0.006969999987632036,0.2258400022983551,-0.034359999001026154,-0.30230000615119934,0.16715000569820404,0.05902000144124031,0.19054000079631805,0.04969999939203262,-0.08066999912261963,-0.01931999996304512,-0.1120000034570694,-0.09640000015497208,-0.22572000324726105,-0.2906999886035919,-0.1826000064611435,-0.10512000322341919,0.20047999918460846,0.032349999994039536,0.26921001076698303,-0.023809999227523804,0.20919999480247498,0.07613000273704529,-0.19561000168323517,-0.03327000141143799,-0.14700999855995178,-0.07018999755382538,0.08383999764919281,-0.004999999888241291,-0.18456000089645386,-0.1911800056695938,-0.058400001376867294,-0.08157999813556671,-0.05992000177502632,0.17510999739170074,-0.2536799907684326,0.009820000268518925,0.005119999870657921,0.2925899922847748,-0.052149999886751175,-0.19824999570846558,-0.19734999537467957,-0.07906000316143036,-0.27406999468803406,0.24905000627040863,0.10760000348091125,0.12679000198841095,0.04919999837875366,0.06772000342607498,0.07175000011920929,-0.14534999430179596,0.0729999989271164,0.2682499885559082,-0.06310000270605087,-0.02696000039577484,-0.1628900021314621,-0.2162500023841858,-0.3399600088596344,0.0681999996304512,0.28812000155448914,-0.13405999541282654,-0.08400999754667282,0.22551999986171722,0.06729999929666519,-0.05722000077366829,0.2615799903869629,0.1615699976682663,-0.0037799999117851257,-0.1450600028038025,0.14248999953269958,0.07020000368356705,-0.2335599958896637,0.16569000482559204,0.2754400074481964,-0.09961999952793121,-0.0702499970793724,-0.13101999461650848,-0.34332001209259033,-0.2565299868583679,0.07687000185251236,-0.06360000371932983,0.2755500078201294,0.010350000113248825,-0.19516000151634216,0.15745000541210175,0.10311000049114227,0.2160699963569641,-0.10503000020980835,-0.0729999989271164,-0.16707000136375427,-0.14157000184059143,0.20492999255657196,0.03181000053882599,-0.19668999314308167,-0.11721999943256378,-0.14869999885559082,-0.1941000074148178,-0.007980000227689743,-0.02394000068306923,0.08545000106096268,0.1740500032901764,-0.24406999349594116,-0.127470001578331,0.0057299998588860035,0.09989999979734421,-0.0887800008058548,-0.10807999968528748,-0.20128999650478363,-0.01621999964118004,0.1090800017118454,-0.13901999592781067,-0.20085999369621277,-0.18745000660419464,-0.295740008354187,-0.2019599974155426,0.31266000866889954,0.15498000383377075,-0.07423999905586243,-0.07859999686479568,-0.21960000693798065,0.041019998490810394],"act":"tanh","in":17,"out":256},{"w":[[0.05900999903678894,0.011620000004768372,0.040860000997781754,-0.03558000177145004,-0.028839999809861183,-0.14000999927520752,-0.13505999743938446,0.2273399978876114,-0.0794999971985817,-0.03206000104546547,-0.11658000200986862,-0.027720000594854355,-0.12982000410556793,0.0053400001488626,0.08727999776601791,-0.043949998915195465,-0.08659999817609787,0.1846199929714203,-0.1435600072145462,-0.013120000250637531,0.008630000054836273,0.27048999071121216,-0.027899999171495438,0.03305999934673309,-0.1606599986553192,0.0031999999191612005,0.022140000015497208,-0.07993000000715256,-0.25916001200675964,0.11545000225305557,0.0666700005531311,0.0006300000241026282,0.023320000618696213,-0.08685000240802765,-0.11557000130414963,-0.06272999942302704,-0.021970000118017197,-0.054409999400377274,-0.10029999911785126,-0.2502399981021881,0.10260000079870224,-0.07152000069618225,-0.25936999917030334,0.06831000000238419,-0.10943000018596649,-0.07659000158309937,0.13237999379634857,0.0019099999917671084,-0.09030000120401382,0.06272000074386597,-0.06891000270843506,-0.13165000081062317,0.11761999875307083,0.08489000052213669,-0.002570000011473894,-0.013559999875724316,0.05741000175476074,-0.00018000000272877514,0.00965999998152256,-0.008170000277459621,-0.2121099978685379,-0.20121000707149506,0.11351999640464783,-0.1290999948978424,-0.003220000071451068,0.12777000665664673,0.1789799928665161,-0.281360000371933,-0.08169999718666077,0.25551000237464905,-0.09246999770402908,0.22065000236034393,0.04791000112891197,0.2973099946975708,-0.066880002617836,-0.14187000691890717,0.04910999909043312,0.05892999842762947,-0.14813999831676483,0.026179999113082886,-0.17659999430179596,-0.08436000347137451,-0.19357000291347504,0.007899999618530273,-0.15397000312805176,0.061409998685121536,0.11007999628782272,-0.25091999769210815,-0.053700000047683716,-0.025690000504255295,-0.09331999719142914,-0.006140000186860561,0.036400001496076584,-0.07385999709367752,0.12568999826908112,-0.15793000161647797,0.04780999943614006,0.23646999895572662,-0.2483000010251999,-0.013919999822974205,-0.1492599993944168,-0.21411000192165375,0.005900000222027302,-0.17075000703334808,-0.29262998700141907,-0.12372999638319016,0.0904499962925911,0.14632999897003174,0.1344199925661087,-0.04024000093340874,0.1810699999332428,-0.14531999826431274,-0.08876000344753265,-0.11855000257492065,-0.07631000131368637,0.07264000177383423,-0.09792999923229218,-0.12001000344753265,0.06858000159263611,0.03951000049710274,0.008940000087022781,0.1095300018787384,0.09268999844789505,-0.17574000358581543,0.05094999819993973,-0.165460005402565,-0.029529999941587448,0.11486999690532684,-0.10480999946594238,-0.09977000206708908,0.027130000293254852,0.1031000018119812,0.17753000557422638,0.15432000160217285,0.057100001722574234,0.10471999645233154,-0.018780000507831573,0.30087000131607056,-0.08010999858379364,-0.08927000313997269,0.11981000006198883,0.017669999971985817,0.1789799928665161,0.1717199981212616,-0.01706000044941902,0.03440000116825104,0.047609999775886536,-0.05778999999165535,-0.12443999946117401,-0.04851999878883362,-0.05034999921917915,0.2420700043439865,-0.0529399998486042,-0.20740999281406403,0.01549999974668026,-0.24563999474048615,-0.06063000112771988,0.06492999941110611,-0.12648999691009521,0.02792000025510788,0.09354999661445618,-0.12349999696016312,0.07253000140190125,-0.08993999660015106,-0.23734000325202942,-0.01680999994277954,-0.15851999819278717,-0.03508999943733215,-0.051569998264312744,0.1405699998140335,0.1607300043106079,0.08319000154733658,-0.06626000255346298,0.054010000079870224,0.020729999989271164,0.01621999964118004,