{"env_id":"Walker2d-v5","model_xml":"walker2d_v5.xml","obs_dim":17,"act_dim":6,"nq":9,"nv":9,"nu":6,"frame_skip":4,"timestep":0.002,"dt":0.008,"action_low":[-1.0,-1.0,-1.0,-1.0,-1.0,-1.0],"action_high":[1.0,1.0,1.0,1.0,1.0,1.0],"obs_components":[{"kind":"qpos","start":1,"clip":null},{"kind":"qvel","start":0,"clip":[-10.0,10.0]}],"needs_rne":false,"init_qpos":[0.0,1.25,0.0,0.0,0.0,0.0,0.0,0.0,0.0],"init_qvel":[0.0,0.0,0.0,0.0,0.0,0.0,0.0,0.0,0.0],"reset_noise_scale":0.005,"healthy":{"terminate_when_unhealthy":true,"z_index":1,"z_range":[0.8,2.0],"angle_index":2,"angle_range":[-1.0,1.0],"state_range":null},"obs_labels":["rootz pos","rooty pos","thigh_joint pos","leg_joint pos","foot_joint pos","thigh_left_joint pos","leg_left_joint pos","foot_left_joint pos","rootx vel","rootz vel","rooty vel","thigh_joint vel","leg_joint vel","foot_joint vel","thigh_left_joint vel","leg_left_joint vel","foot_left_joint vel"],"action_labels":["thigh_joint","leg_joint","foot_joint","thigh_left_joint","leg_left_joint","foot_left_joint"],"normalization":{"mean":[1.153679370880127,-0.35900065302848816,-0.37524399161338806,-0.4117051362991333,0.5120429396629333,0.0024694912135601044,-0.07090115547180176,0.7106214761734009,0.5921187996864319,-0.047650691121816635,-0.1459798961877823,-0.07792890816926956,-0.12425220012664795,0.007647148799151182,-0.12026897072792053,-0.14663073420524597,-0.2639632225036621],"var":[0.0017871271120384336,0.045027147978544235,0.07830040901899338,0.1688327044248581,0.09040817618370056,0.009023526683449745,0.03388288989663124,0.07008428126573563,0.6188102960586548,0.19029051065444946,11.191835403442383,28.461822509765625,38.390235900878906,57.838043212890625,12.536541938781738,25.07440757751465,32.42094421386719],"epsilon":1e-08,"clip_obs":10.0},"policy_onnx":"walker2d__ppo_walker2d_run1__best.onnx","policy_net":{"input_dim":17,"layers":[{"w":[[-0.19723999500274658,0.08995000272989273,-0.03392000123858452,0.2440599948167801,-0.10770999640226364,-0.001129999989643693,-0.1622599959373474,0.07846000045537949,0.28786998987197876,0.04077000170946121,0.06009000167250633,0.03305000066757202,-0.0920799970626831,0.14681999385356903,0.026009999215602875,-0.22834999859333038,-0.006850000005215406],[-0.09794999659061432,-0.3326900005340576,0.08465000241994858,-0.10554999858140945,0.09064999967813492,-0.12456999719142914,-0.0008800000068731606,0.051339998841285706,-0.09414999932050705,0.11913000047206879,0.012190000154078007,0.05651000142097473,0.09286999702453613,-0.19850000739097595,0.03468000143766403,0.1375499963760376,0.06949000060558319],[-0.19415999948978424,-0.07525999844074249,-0.031220000237226486,0.25593000650405884,-0.12947000563144684,-0.022630000486969948,0.25488999485969543,-0.00267999991774559,-0.04196000099182129,0.1583700031042099,-0.061089999973773956,0.013030000030994415,0.13312000036239624,0.06046000123023987,0.14674000442028046,0.17000000178813934,0.0945499986410141],[0.035509999841451645,-0.1603900045156479,-0.006659999955445528,0.13134999573230743,-0.11958000063896179,0.3072499930858612,-0.17866000533103943,-0.07485000044107437,0.021970000118017197,0.07936999946832657,0.09589000046253204,0.17949999868869781,0.09769000113010406,-0.18643000721931458,0.012000000104308128,0.05415999889373779,-0.029239999130368233],[-0.0559299997985363,-0.13526000082492828,0.10789000242948532,0.1344500035047531,-0.07535000145435333,0.00863999966531992,0.1005999967455864,0.007849999703466892,-0.22282999753952026,-0.1225999966263771,-0.028610000386834145,0.11913999915122986,0.0333699993789196,-0.08647999912500381,0.011900000274181366,0.01834999956190586,-0.19357000291347504],[-0.018489999696612358,0.04467000067234039,-0.11568000167608261,-0.023310000076889992,-0.1424500048160553,-0.03508000075817108,0.24435999989509583,0.03158000111579895,0.25725001096725464,0.06278999894857407,-0.0019199999514967203,-0.11039000004529953,0.1908400058746338,0.043299999088048935,-0.11668000370264053,-0.2815999984741211,0.16106000542640686],[0.011009999550879002,0.19519999623298645,-0.05511000007390976,0.1502400040626526,-0.07336000353097916,0.0034099998883903027,0.010979999788105488,-0.08827000111341476,0.016519999131560326,0.2334900051355362,0.17976999282836914,0.13032999634742737,-0.07317999750375748,0.033730000257492065,-0.06588000059127808,0.1251399964094162,0.06513000279664993],[0.02116999961435795,0.05390999838709831,-0.02676999941468239,-0.00872000027447939,-0.0463699996471405,-0.01063000038266182,-0.008249999955296516,0.2063799947500229,-0.04619000107049942,-0.0327799990773201,0.13576999306678772,-0.026359999552369118,0.06923999637365341,0.20186999440193176,0.4008199870586395,-0.1325100064277649,0.13503000140190125],[0.2924399971961975,-0.17782999575138092,-0.06599999964237213,0.10600999742746353,-0.012260000221431255,0.07492999732494354,0.08991999924182892,0.07159999758005142,-0.192330002784729,0.11421000212430954,-0.0284000001847744,0.13700999319553375,-0.06953000277280807,-0.04056999832391739,0.0004900000058114529,-0.07631000131368637,0.14393000304698944],[-0.04343999922275543,-0.14203999936580658,0.018050000071525574,-0.039650000631809235,0.07096999883651733,0.04605000093579292,-0.010900000110268593,-0.18931999802589417,0.2425599992275238,-0.09608999639749527,-0.029489999637007713,0.04072999954223633,0.039500001817941666,0.05406999960541725,0.24122999608516693,0.1498900055885315,-0.1857299953699112],[0.0938899964094162,0.2052599936723709,0.028389999642968178,-0.04112999886274338,0.07610999792814255,-0.05378999933600426,0.11315999925136566,-0.021080000326037407,0.17734000086784363,-0.17155000567436218,-0.04458000138401985,-0.04259999841451645,-0.02638999931514263,0.08286000043153763,-0.027219999581575394,-0.2205599993467331,-0.1042499989271164],[-0.08543000370264053,0.31099000573158264,-0.00016999999934341758,-0.05785999819636345,0.30101001262664795,-0.06469999998807907,-0.00547999981790781,0.04408000037074089,0.05806000158190727,0.04774999991059303,-0.008700000122189522,-0.02848000079393387,0.036159999668598175,0.1487099975347519,-0.011029999703168869,0.06538999825716019,-0.05928000062704086],[0.024159999564290047,-0.16583000123500824,-0.031530000269412994,-0.09933999925851822,0.027070000767707825,-0.07914000004529953,-0.07742000371217728,0.13460999727249146,-0.029890000820159912,-0.20205000042915344,0.04405000060796738,-0.015410000458359718,-0.015350000001490116,0.009750000201165676,0.005549999885261059,-0.013690000399947166,-0.1373099982738495],[-0.0028200000524520874,0.1475600004196167,-0.03053000010550022,-0.0101500004529953,-0.15248000621795654,-0.001509999972768128,-0.12598000466823578,0.10999000072479248,0.19162000715732574,-0.12806999683380127,0.02346000075340271,-0.2289000004529953,-0.14541999995708466,-0.17765000462532043,0.10860999673604965,0.01080000028014183,-0.07383999973535538],[-0.014650000259280205,-0.12050999701023102,-0.05251000076532364,-0.17354999482631683,-0.22002999484539032,-0.02923000045120716,0.12230999767780304,-0.1453700065612793,-0.09425999969244003,0.2515000104904175,0.09257999807596207,0.01575000025331974,0.043049998581409454,-0.017139999195933342,0.18743999302387238,-0.0908999964594841,-0.0500200018286705],[-0.19141000509262085,0.10956999659538269,-0.015130000188946724,0.11330000311136246,-0.1882600039243698,0.095660001039505,0.08358000218868256,-0.14215999841690063,0.10801000148057938,-0.020309999585151672,0.025779999792575836,-0.13726000487804413,-0.024049999192357063,0.19404000043869019,-0.11552999913692474,-0.08979000151157379,0.27562999725341797],[-0.17081999778747559,0.14308999478816986,0.11535999923944473,-0.18698999285697937,0.07801000028848648,0.019610000774264336,-0.0509600006043911,0.009689999744296074,-0.27588000893592834,0.08618000149726868,-0.09370999783277512,0.12902000546455383,-0.1412999927997589,-0.23447999358177185,-0.07782000303268433,0.0173799991607666,0.05979999899864197],[0.07687000185251236,-0.026979999616742134,-0.04092999920248985,-0.04822999984025955,0.08123999834060669,-0.018290000036358833,-0.01566999964416027,0.008550000376999378,-0.05285000056028366,0.003169999923557043,-0.05460000038146973,-0.193340003490448,0.0864500030875206,-0.1762399971485138,0.033580001443624496,0.03500000014901161,0.04950999841094017],[0.03302999958395958,0.0038300000596791506,0.2026599943637848,0.05753999948501587,-0.10225000232458115,0.07350999861955643,0.004230000078678131,0.11877000331878662,0.04050000011920929,0.03313999995589256,0.005979999899864197,-0.010479999706149101,0.06609000265598297,0.09066999703645706,0.09762000292539597,-0.1228799968957901,0.17271000146865845],[0.1415500044822693,0.01727999933063984,0.0030900000128895044,0.10424000024795532,0.10107000172138214,0.04718000069260597,0.15600000321865082,0.318450003862381,0.008419999852776527,-0.045329999178647995,0.04774999991059303,-0.10392999649047852,0.16915999352931976,0.21403999626636505,-0.0030400000978261232,0.13075000047683716,-0.07151000201702118],[0.11710000038146973,0.13434000313282013,-0.0941699966788292,0.08285000175237656,0.11022000014781952,0.06738000363111496,0.04390000179409981,0.165460005402565,-0.011889999732375145,0.03285999968647957,0.21421000361442566,0.048820000141859055,0.1781499981880188,-0.1425500065088272,0.0866599977016449,-0.16012999415397644,-0.0644799992442131],[0.031060000881552696,0.014109999872744083,-0.22931000590324402,-0.090829998254776,-0.05916000157594681,0.267300009727478,-0.0695900022983551,-0.061230000108480453,0.08807999640703201,0.1014999970793724,0.18026000261306763,0.07086999714374542,0.06154999881982803,0.10952000319957733,0.17580999433994293,0.1709900051355362,-0.21845999360084534],[-0.19413000345230103,-0.0003499999875202775,-0.06859000027179718,-0.23054000735282898,-0.01759999990463257,0.16461999714374542,0.224590003490448,-0.11683999747037888,-0.06784000247716904,0.024639999493956566,-0.017829999327659607,-0.06004000082612038,-0.1150600016117096,0.03791999816894531,-0.19053000211715698,-0.005919999908655882,-0.2207999974489212],[0.09798000007867813,0.13339999318122864,0.05496000126004219,-0.08953999727964401,-0.016349999234080315,-0.18761000037193298,0.0608999989926815,0.16218000650405884,-0.06442999839782715,0.14815999567508698,0.04148000106215477,0.035509999841451645,-0.004490000195801258,-0.18674999475479126,0.16922999918460846,0.021299999207258224,0.13200999796390533],[-0.029200000688433647,-0.02339000068604946,-0.0017000000225380063,0.01988000050187111,0.2369299978017807,0.08370000123977661,0.14636999368667603,0.1123799979686737,0.17726999521255493,-0.22971999645233154,-0.1975799947977066,0.07671999931335449,-0.16952000558376312,0.007000000216066837,-0.09006000310182571,-0.03784000128507614,-0.03457000106573105],[-0.23270000517368317,0.11942999809980392,-0.11607000231742859,0.062460001558065414,-0.18821999430656433,0.16279999911785126,0.08876000344753265,-0.07479999959468842,0.08716999739408493,0.2006399929523468,0.2219099998474121,0.184579998254776,0.02522999979555607,0.015990000218153,-0.0508899986743927,-0.05406999960541725,0.07034999877214432],[-0.017500000074505806,0.22211000323295593,0.2073799967765808,0.15302999317646027,0.03109000064432621,0.07152999937534332,0.1952899992465973,0.08566000312566757,0.04788000136613846,0.10309000313282013,0.01931999996304512,0.10401000082492828,0.06893999874591827,-0.08653999865055084,-0.1229500025510788,-0.15459999442100525,-0.2809300124645233],[-0.15365000069141388,-0.2701700031757355,0.1102600023150444,-0.06900999695062637,0.0037899999879300594,-0.2538999915122986,-0.2093600034713745,0.10967999696731567,-0.04998999834060669,0.3305099904537201,0.10757999867200851,0.16099999845027924,-0.019819999113678932,-0.05835000053048134,0.0002500000118743628,0.1462700068950653,-0.12472999840974808],[-0.02751999907195568,0.03164999932050705,0.13961000740528107,0.13570000231266022,-0.09223999828100204,0.07321999967098236,0.09916000068187714,-0.022539999336004257,-0.158270001411438,-0.16459999978542328,0.03203999996185303,0.0075599998235702515,-0.1877399981021881,0.0641700029373169,-0.02613000012934208,-0.08139000087976456,-0.2756200134754181],[0.005419999826699495,-0.0934000015258789,0.19162000715732574,-0.030249999836087227,-0.10108000040054321,-0.008469999767839909,0.10605999827384949,-0.25505998730659485,0.053300000727176666,0.06327000260353088,-0.0024500000290572643,0.19972999393939972,-0.030700000002980232,-0.1535699963569641,0.12714000046253204,-0.06122000142931938,-0.04453999921679497],[-0.2552100121974945,-0.11307000368833542,0.13380999863147736,-0.12394999712705612,-0.07390999794006348,-0.07158000022172928,0.3076300024986267,0.08416000008583069,-0.23810000717639923,0.252020001411438,0.012310000136494637,0.12160000205039978,0.1592099964618683,-0.06498000025749207,0.04696999862790108,0.14214999973773956,-0.07742000371217728],[-0.08674000203609467,-0.04343999922275543,0.09113000333309174,0.29903000593185425,-0.07231000065803528,-0.17640000581741333,-0.0081599997356534,0.15737999975681305,-0.035339999943971634,-0.3062700033187866,-0.10877999663352966,-0.08031000196933746,-0.08938000351190567,-0.006810000166296959,0.0264699999243021,-0.15252000093460083,-0.07135999947786331],[0.22228999435901642,0.08889000117778778,0.024949999526143074,-0.1537099927663803,-0.02387000061571598,0.13141000270843506,-0.050609998404979706,0.15771999955177307,0.15142999589443207,-0.05973000079393387,-0.2935900092124939,-0.019680000841617584,-0.12404000014066696,-0.03874000161886215,-0.028699999675154686,-0.1179800033569336,-0.028759999200701714],[-0.0340999998152256,0.2660900056362152,0.15931999683380127,-0.18433000147342682,0.13398000597953796,-0.1967500001192093,0.03537999838590622,0.090549997985363,-0.09692999720573425,0.024460000917315483,0.23698000609874725,-0.11546000093221664,0.005950000137090683,-0.007829999551177025,-0.05251999944448471,-0.06825000047683716,0.011169999837875366],[-0.08737999945878983,0.23902000486850739,-0.1593800038099289,0.031599998474121094,-0.03999999910593033,-0.09465000033378601,0.1951500028371811,-0.016750000417232513,0.21895000338554382,0.08869999647140503,-0.13394999504089355,-0.06272999942302704,0.10023000091314316,0.08928000181913376,0.01128000020980835,-0.22372999787330627,0.07180000096559525],[0.13247999548912048,0.10699000209569931,0.1350499987602234,-0.05477000027894974,0.16054999828338623,0.38666999340057373,0.176829993724823,0.017629999667406082,-0.03781000152230263,0.049570001661777496,-0.03612999990582466,-0.04165000095963478,-0.08685000240802765,-0.10458999872207642,0.05536000058054924,0.01972999982535839,0.06795000284910202],[0.05908000096678734,-0.1234000027179718,-0.044780001044273376,0.08478999882936478,-0.041510000824928284,0.08885999768972397,-0.126010000705719,0.1512400060892105,0.04806999862194061,-0.1859399974346161,0.11043000221252441,0.21990999579429626,-0.031279999762773514,-0.046640001237392426,-0.11384999752044678,-0.09459000080823898,-0.08692999929189682],[0.050859998911619186,-0.24445000290870667,-0.1319900006055832,-0.09326999634504318,0.014100000262260437,-0.18716999888420105,0.052889999002218246,-0.03880000114440918,-0.16313999891281128,-0.12500999867916107,0.015780000016093254,0.0478999987244606,-0.0744900032877922,-0.02662999927997589,0.1405699998140335,0.11732999980449677,-0.055319998413324356],[-0.10130999982357025,0.31297001242637634,-0.17252999544143677,0.01217000000178814,-0.1610099971294403,-0.08382000029087067,0.07231999933719635,-0.12682999670505524,0.20764000713825226,-0.20689000189304352,0.14337000250816345,-0.10498999804258347,0.056449998170137405,-0.022940000519156456,-0.09363000094890594,0.15315000712871552,-0.24156999588012695],[-0.05733000114560127,0.14855000376701355,0.13592000305652618,0.06859999895095825,0.24018999934196472,-0.03192000091075897,-0.11349000036716461,0.14417999982833862,-0.12633000314235687,0.08827000111341476,0.1762399971485138,0.06880000233650208,-0.13997000455856323,0.025369999930262566,0.22624999284744263,-0.18916000425815582,0.14723999798297882],[0.11461000144481659,-0.10769999772310257,-0.1184300035238266,-0.05009999871253967,0.022299999371170998,0.2527100145816803,0.08511000126600266,0.06412000209093094,0.12189999967813492,-0.0975399985909462,0.12426000088453293,0.019220000132918358,0.03884999826550484,-0.1558700054883957,-0.007379999849945307,0.2007800042629242,-0.1212100014090538],[0.27922001481056213,-0.037859998643398285,0.05490000173449516,-0.013450000435113907,-0.0177800003439188,-0.006889999844133854,0.18774999678134918,0.2165900021791458,0.08869999647140503,-0.20812000334262848,0.05177000164985657,0.019039999693632126,0.08557000011205673,-0.2066500037908554,-0.02102999947965145,0.12275999784469604,-0.054999999701976776],[-0.01640000008046627,0.014039999805390835,-0.058309998363256454,-0.04916999861598015,0.269430011510849,0.20996999740600586,0.03914999961853027,0.15493999421596527,0.0027199999894946814,-0.03765999898314476,0.02532999962568283,0.0012600000482052565,-0.18497000634670258,0.07802999764680862,0.037220001220703125,-0.32422998547554016,-0.061069998890161514],[-0.11902999877929688,0.08589000254869461,-0.039090000092983246,-0.067610003054142,0.164000004529953,0.037039998918771744,-0.1485700011253357,0.19563999772071838,0.17868000268936157,-0.07818999886512756,0.030969999730587006,-0.0906900018453598,0.00865000020712614,0.07547999918460846,0.17410999536514282,-0.04329000040888786,0.04340000078082085],[0.19845999777317047,-0.1089399978518486,-0.14598999917507172,-0.0826599970459938,-0.022760000079870224,0.007770000025629997,-0.160630002617836,0.13910000026226044,0.07348000258207321,0.0826599970459938,0.12459000200033188,-0.13154000043869019,0.033479999750852585,-0.18546999990940094,0.09006000310182571,0.20767000317573547,-0.005859999917447567],[0.22513000667095184,-0.17497999966144562,0.08174999803304672,-0.01940000057220459,0.29455000162124634,-0.036410000175237656,0.06610000133514404,0.10512000322341919,-0.022129999473690987,-0.08026999980211258,0.07750000059604645,0.0932300016283989,0.10931999981403351,-0.0595100000500679,0.03751000016927719,0.1476600021123886,0.12570999562740326],[0.03282000124454498,0.10326000303030014,0.09480000287294388,-0.022509999573230743,0.21850000321865082,0.12976999580860138,-0.02345000021159649,-0.05079999938607216,0.10067000240087509,-0.10909999907016754,0.13394999504089355,0.031929999589920044,0.3206399977207184,0.08026999980211258,-0.06216000020503998,0.17454999685287476,0.03468000143766403],[0.15113000571727753,0.005619999952614307,0.06129999831318855,0.05254000052809715,0.135670006275177,0.1919099986553192,-0.15046000480651855,-0.035440001636743546,-0.0807500034570694,0.02102999947965145,0.09621000289916992,0.13564999401569366,0.04984999820590019,0.15657000243663788,0.018239999189972878,0.18955999612808228,-0.13217000663280487],[0.0435199998319149,0.20840999484062195,0.2809399962425232,0.09628999978303909,0.2457599937915802,-0.06259000301361084,-0.002839999971911311,0.0030900000128895044,-0.009979999624192715,0.0835999995470047,-0.03620000183582306,0.05356999859213829,-0.16825999319553375,0.13707999885082245,-0.09055999666452408,0.026440000161528587,0.10219000279903412],[0.012360000051558018,0.010900000110268593,0.023029999807476997,-0.12570999562740326,0.11130999773740768,0.0552700012922287,-0.054990001022815704,-0.05353999882936478,0.07699999958276749,0.27305999398231506,0.0419900007545948,-0.14351999759674072,0.23728999495506287,-0.04262999817728996,-0.08429999649524689,0.033900000154972076,0.06889999657869339],[-0.23510999977588654,-0.23892000317573547,0.012749999761581421,-0.0014400000218302011,0.044840000569820404,-0.13997000455856323,-0.08844999969005585,0.16404999792575836,0.014589999802410603,0.08178000152111053,-0.033569999039173126,-0.009569999761879444,-0.07473000138998032,0.1067499965429306,0.0025500000920146704,-0.3036699891090393,0.025769999250769615],[0.15193000435829163,-0.22341999411582947,-0.1151600033044815,-0.03536999970674515,-0.0850600004196167,-0.049949999898672104,-0.07885999977588654,-0.06257999688386917,-0.19413000345230103,-0.13026000559329987,-0.06464000046253204,0.10925000160932541,0.01322999969124794,-0.2808699905872345,-0.025119999423623085,0.023739999160170555,-0.06112999841570854],[-0.16369999945163727,0.007089999970048666,0.031599998474121094,-0.012980000115931034,0.057509999722242355,-0.04324999824166298,0.27423998713493347,0.04893999919295311,-0.03525000065565109,-0.04385000094771385,-0.19107000529766083,0.0071000000461936,-0.3399899899959564,0.024550000205636024,-0.2013700008392334,0.12876999378204346,-0.0392099991440773],[-0.3221000134944916,-0.07249999791383743,0.03668000176548958,0.11439000070095062,-0.0210999995470047,-0.08814000338315964,-0.0950699970126152,-0.03790000081062317,0.004730000160634518,0.21603000164031982,-0.03378999978303909,-0.03844999894499779,0.07930999994277954,0.046300001442432404,-0.030300000682473183,-0.15448999404907227,0.30138999223709106],[-0.0014299999456852674,-0.04230999946594238,0.18164999783039093,-0.025669999420642853,0.027149999514222145,0.14985999464988708,-0.043469998985528946,0.07103999704122543,-0.17654000222682953,-0.22276000678539276,0.12274999916553497,-0.04441000148653984,-0.07940000295639038,0.16516999900341034,0.05414000153541565,-0.10446000099182129,-0.04713999852538109],[0.03443000093102455,-0.012029999867081642,0.03920000046491623,0.20965999364852905,0.23371000587940216,0.2029999941587448,-0.11174999922513962,-0.03533000126481056,-0.03034999966621399,0.06295999884605408,-0.16827000677585602,-0.21376000344753265,-0.143669992685318,-0.0385500006377697,0.0033100000582635403,-0.03894000127911568,0.09531000256538391],[0.2083200067281723,-0.23196999728679657,-0.19126999378204346,-0.08566000312566757,-0.3268199861049652,-0.20663000643253326,-0.09808000177145004,0.1454399973154068,0.11672999709844589,0.10792999714612961,-0.062150001525878906,-0.031029999256134033,0.016589999198913574,0.09491000324487686,-0.04543999955058098,0.08952999860048294,0.042149998247623444],[-0.095940001308918,0.11368999630212784,-0.12449999898672104,-0.1720699965953827,0.15129999816417694,-0.014759999699890614,0.08549000322818756,-0.07124999910593033,-0.046390000730752945,-0.024800000712275505,0.019600000232458115,0.063960000872612,-0.10051999986171722,-0.06139000132679939,-0.05939999967813492,0.186489999294281,-0.21852999925613403],[-0.014700000174343586,0.1627500057220459,-0.09883999824523926,-0.13940000534057617,-0.0007099999929778278,-0.20116999745368958,-0.14417000114917755,-0.16947999596595764,0.14610999822616577,-0.03818000108003616,-0.08997999876737595,-0.14650000631809235,-0.136680006980896,-0.09759999811649323,0.13224999606609344,-0.10909000039100647,-0.033580001443624496],[0.08541999757289886,0.013559999875724316,0.11264999955892563,0.003800000064074993,0.026440000161528587,0.2128400057554245,0.18196000158786774,-0.04912000149488449,0.14833000302314758,-0.18609000742435455,0.08555000275373459,-0.15147000551223755,-0.08837000280618668,-0.26003000140190125,0.27726998925209045,-0.044509999454021454,-0.032430000603199005],[0.33820000290870667,-0.042089998722076416,-0.08011999726295471,0.08535999804735184,-0.10234999656677246,0.09239999949932098,-0.12929999828338623,-0.10224000364542007,-0.0016299999551847577,0.10938999801874161,-0.12791000306606293,-0.05593999847769737,0.0908999964594841,-0.10266000032424927,-0.14104999601840973,-0.07281000167131424,-0.07795000076293945],[-0.019169999286532402,-0.0225600004196167,0.014569999650120735,-0.047600001096725464,-0.10159000009298325,0.02452000044286251,-0.19890999794006348,0.0688600018620491,-0.08862999826669693,0.3298799991607666,-0.09673000127077103,-0.156700000166893,-0.2428400069475174,-0.10726000368595123,-0.13359999656677246,0.001339999958872795,-0.16252000629901886],[-0.12090999633073807,-0.029009999707341194,-0.0884300023317337,-0.08278000354766846,0.2490299940109253,0.1757200062274933,-0.05536999925971031,-0.07179000228643417,-0.09115000069141388,0.005439999978989363,0.09827999770641327,0.08663000166416168,0.07581000030040741,0.2403700053691864,0.22458000481128693,-0.06257999688386917,-0.011599999852478504],[-0.08686999976634979,0.049970000982284546,-0.2004999965429306,0.032510001212358475,-0.20880000293254852,-0.18449999392032623,0.07428000122308731,-0.01844000071287155,0.12015999853610992,0.12116999924182892,-0.08699999749660492,-0.10424000024795532,-0.018789999186992645,-0.32221999764442444,-0.08278000354766846,0.04944000020623207,0.11168999969959259],[0.2114199995994568,0.12647999823093414,-0.024250000715255737,-0.1595499962568283,0.027130000293254852,-0.007170000113546848,-0.04597000032663345,-0.2928299903869629,0.2355400025844574,0.22890999913215637,-0.059790000319480896,0.11743000149726868,0.10444000363349915,-0.004670000169426203,-0.11824999749660492,0.005830000154674053,0.1036200001835823],[-0.25745001435279846,0.14328999817371368,0.05229000002145767,-0.13078999519348145,0.026170000433921814,-0.0033199999015778303,-0.13504000008106232,0.0406700000166893,-0.003169999923557043,-0.04177999868988991,0.08568999916315079,-0.008740000426769257,-0.06894999742507935,0.06668999791145325,-0.21908999979496002,0.14196999371051788,0.02434000000357628],[0.043800000101327896,-0.010239999741315842,0.11393000185489655,-0.09769000113010406,0.08050999790430069,0.2641499936580658,-0.09362000226974487,0.16556000709533691,-0.03920000046491623,0.019770000129938126,0.00853000022470951,-0.11235000193119049,-0.06202000007033348,0.08201000094413757,0.21302999556064606,-0.03553999960422516,0.2626500129699707],[0.03077000007033348,-0.059220001101493835,0.09611999988555908,0.15931999683380127,0.07891000062227249,-0.1285099983215332,-0.02126000076532364,-0.03593999892473221,0.1907999962568283,0.11400000005960464,-0.04597000032663345,-0.0478999987244606,-0.04932999983429909,-0.20791000127792358,-0.1346299946308136,0.00039999998989515007,0.19109000265598297],[-0.06916999816894531,0.13151000440120697,0.1722400039434433,-0.05375999957323074,0.056129999458789825,0.06069000065326691,0.006949999835342169,-0.12375999987125397,0.013700000010430813,-0.08838000148534775,0.10790000110864639,0.25025999546051025,0.12586000561714172,-0.033160001039505005,0.024310000240802765,0.047200001776218414,-0.24129000306129456],[0.03891000151634216,-0.051819998770952225,-0.03441999852657318,-0.13571999967098236,0.037790000438690186,-0.07733999937772751,-0.21295000612735748,0.025860000401735306,0.2646400034427643,-0.00877000018954277,0.1361600011587143,-0.08196000009775162,-0.23114000260829926,-0.019300000742077827,0.2224700003862381,0.06772000342607498,-0.11389999836683273],[0.00839999970048666,-0.1913899928331375,-0.08083999902009964,0.06857000291347504,-0.08817999809980392,-0.195250004529953,0.1414799988269806,0.0421300008893013,0.08653999865055084,0.006899999920278788,-0.16690999269485474,-0.2139499932527542,-0.22217999398708344,0.019139999523758888,-0.1442600041627884,0.007799999788403511,0.18640999495983124],[0.07446999847888947,-0.15011000633239746,0.13830000162124634,0.18456999957561493,0.03029000014066696,0.07766000181436539,-0.06207000091671944,0.011979999952018261,0.04521000012755394,0.01621999964118004,0.06032999977469444,0.044599998742341995,0.30928000807762146,-0.04918999969959259,0.05277999863028526,0.08382999897003174,-0.11489000171422958],[-0.19027000665664673,-0.13393999636173248,0.1668899953365326,0.03355000168085098,-0.09759999811649323,-0.19553999602794647,0.15892000496387482,-0.1276099979877472,0.03621000051498413,0.16089999675750732,-0.09284000098705292,0.0035000001080334187,0.11093000322580338,-0.09074000269174576,-0.0502999983727932,0.06898999959230423,-0.05706999823451042],[0.020800000056624413,0.19482000172138214,-0.17166000604629517,0.04377000033855438,7.999999797903001e-05,0.05751999840140343,-0.18237000703811646,-0.04225999861955643,0.35137999057769775,0.14055000245571136,0.034790001809597015,-0.17767000198364258,-0.22675999999046326,-0.019209999591112137,0.07902999967336655,-0.04365000128746033,0.09483999758958817],[-0.25014999508857727,0.15964999794960022,0.12841999530792236,-0.07327999919652939,-0.035259999334812164,-0.0034600000362843275,0.1133200004696846,0.03517000004649162,0.05251000076532364,-0.06556999683380127,-0.03725000098347664,-0.149399995803833,0.0842600017786026,0.12946000695228577,-0.2577599883079529,-0.008310000412166119,0.002360000042244792],[0.0938899964094162,-0.06870000064373016,-0.1063700020313263,0.038920000195503235,-0.007160000037401915,0.0006000000284984708,0.31018000841140747,-0.02850000001490116,-0.08631999790668488,-0.08602000027894974,0.013899999670684338,-0.2536199986934662,-0.08861999958753586,0.11072000116109848,-0.3418099880218506,0.2392600029706955,-0.01078999973833561],[0.061159998178482056,-0.2115900069475174,0.12347999960184097,0.06384000182151794,-0.13036000728607178,0.2482299953699112,0.06453000009059906,-0.0437299981713295,-0.013199999928474426,0.027969999238848686,-0.08196999877691269,0.1726199984550476,-0.1588200032711029,0.05449000000953674,0.40494999289512634,-0.19845999777317047,-0.130840003490448],[0.03466000035405159,-0.14996999502182007,-0.1204100027680397,-0.1360899955034256,0.23767000436782837,-0.04464999958872795,0.12228000164031982,-0.005909999832510948,0.1843000054359436,-0.025040000677108765,0.019829999655485153,0.023080000653862953,-0.03382999822497368,0.10125000029802322,-0.12657999992370605,-0.03336000069975853,0.1188800036907196],[0.143669992685318,-0.08460000157356262,0.007120000198483467,-0.09246999770402908,-0.02800999954342842,-0.1870100051164627,-0.2717899978160858,-0.027699999511241913,-0.1427599936723709,-0.13866999745368958,0.033160001039505005,0.09935999661684036,-0.07665999978780746,-0.00394000019878149,-0.005710000172257423,0.03373999893665314,-0.13631999492645264],[0.03135000169277191,-0.019950000569224358,-0.015030000358819962,-0.02222999930381775,-0.018780000507831573,-0.12970000505447388,-0.02199999988079071,0.15830999612808228,-0.2741299867630005,0.08279000222682953,0.09853000193834305,0.10063999891281128,-0.18074999749660492,0.1069599986076355,-0.022840000689029694,-0.11793000251054764,-0.13178999722003937],[0.2719799876213074,0.03962999954819679,-0.01923000067472458,-0.1188800036907196,0.14569999277591705,0.15684999525547028,-0.01664000004529953,0.022390000522136688,-0.13418999314308167,-0.18523000180721283,-0.12075000256299973,0.09398999810218811,0.059859998524188995,-0.04878000169992447,0.04365000128746033,-0.21401000022888184,0.008569999597966671],[0.12487000226974487,0.05753999948501587,0.00646999990567565,-0.0500900000333786,-0.08134999871253967,0.13502000272274017,-0.1554100066423416,-0.06780999898910522,0.246069997549057,-0.007860000245273113,-0.10664000362157822,0.06539999693632126,-0.1263200044631958,0.044429998844861984,0.0573199987411499,0.14712999761104584,0.1793700009584427],[0.07965999841690063,-0.06167000159621239,0.21071000397205353,0.1044199988245964,0.05480000004172325,0.37031999230384827,0.03903999924659729,-0.124269999563694,0.12896999716758728,-0.10491999983787537,-0.12872999906539917,0.21557000279426575,-0.09079000353813171,0.13989000022411346,0.2067600041627884,-0.08578000217676163,-0.08429999649524689],[0.11451999843120575,0.16718000173568726,-0.02222999930381775,-0.024650000035762787,0.01600000075995922,0.08098000288009644,-0.024529999122023582,0.17493000626564026,0.11676999926567078,0.03407999873161316,0.14824999868869781,-0.20569999516010284,0.157260000705719,-0.027639999985694885,-0.002460000105202198,-0.26037999987602234,-0.0392099991440773],[0.2018599957227707,-0.03350000083446503,0.16601000726222992,0.13920000195503235,0.14484000205993652,0.08348999917507172,-0.13537000119686127,-0.0902400016784668,-0.08045999705791473,-0.097680002450943,0.0297200009226799,0.19292999804019928,-0.025030000135302544,0.18373000621795654,0.1745699942111969,0.04351000115275383,-0.1106100007891655],[-0.03954999893903732,-0.06241999939084053,-0.2626799941062927,-0.03215999901294708,0.10340999811887741,0.04258999973535538,-0.14279000461101532,-0.026820000261068344,0.026280000805854797,-0.21873000264167786,-0.05764999985694885,-0.1272599995136261,-0.05366000160574913,-0.0829399973154068,-0.2143000066280365,0.14826999604701996,0.20444999635219574],[0.13041000068187714,-0.30250000953674316,0.05821999907493591,-0.11055999994277954,-0.12437999993562698,0.3119100034236908,-0.03979000076651573,-0.04723000153899193,-7.999999797903001e-05,-0.0011899999808520079,-0.010569999925792217,0.12619000673294067,0.03765999898314476,-0.09335999935865402,0.0855799987912178,-0.07092999666929245,0.005799999926239252],[0.08060000091791153,-0.04334000125527382,0.01375999953597784,0.10439000278711319,0.11146000027656555,-0.06464999914169312,0.22265000641345978,-0.06414999812841415,-0.03889000043272972,-0.01348000019788742,0.12750999629497528,-0.08333999663591385,-0.06696999818086624,0.25898000597953796,-0.14731000363826752,0.020080000162124634,-0.19061000645160675],[-0.1025099977850914,-0.05764000117778778,0.05384000018239021,-0.013969999738037586,0.16886000335216522,0.07782000303268433,-0.31310001015663147,-0.06712999939918518,-0.11646000295877457,-0.0776199996471405,0.024410000070929527,-0.04332000017166138,-0.20853999257087708,0.05144999921321869,0.014700000174343586,0.06260000169277191,-0.15131999552249908],[0.05931999906897545,0.0384799987077713,-0.23191000521183014,0.025140000507235527,-0.0634400025010109,0.05217999964952469,-0.21055999398231506,-0.07353000342845917,0.3522300124168396,0.11761999875307083,0.04250999912619591,-0.11411000043153763,0.20441000163555145,-0.18762999773025513,0.04050999879837036,-0.01384000014513731,-0.10943000018596649],[-0.02053000032901764,-0.06892000138759613,-0.11202999949455261,0.11821000277996063,-0.11003000289201736,0.13289999961853027,0.006810000166296959,0.024240000173449516,-0.16088999807834625,0.1565999984741211,-0.08003000169992447,-0.2430499941110611,-0.1726900041103363,0.03254999965429306,-0.3449699878692627,0.18706999719142914,-0.0015800000401213765],[0.06475000083446503,0.10372000187635422,0.21252000331878662,0.08189000189304352,0.06662999838590622,0.09325999766588211,0.024210000410676003,0.07047999650239944,0.05906999856233597,-0.17874999344348907,-0.1893099993467331,0.09655000269412994,-0.040219999849796295,-0.10242000222206116,0.051569998264312744,-0.02703999914228916,-0.05209000036120415],[0.05031000077724457,-0.06756000220775604,0.19674000144004822,-7.000000186963007e-05,-0.16378000378608704,-0.04864000156521797,0.054659999907016754,-0.05364999920129776,-0.2301899939775467,0.24563999474048615,0.0892300009727478,0.20125000178813934,0.21250000596046448,-0.13527999818325043,0.002529999939724803,0.13987000286579132,0.22678999602794647],[0.09775999933481216,0.1176299974322319,-0.14431999623775482,0.09410999715328217,0.018149999901652336,-0.15666000545024872,0.001120000029914081,-0.13346999883651733,0.17082999646663666,0.1791599988937378,0.021199999377131462,-0.16312000155448914,-0.006969999987632036,0.04042999818921089,0.06154000014066696,-0.10155999660491943,-0.12058000266551971],[0.14565999805927277,-0.06701000034809113,0.0759200006723404,-0.10598000138998032,-0.04185999929904938,0.14357000589370728,0.06364999711513519,-0.3247700035572052,0.018959999084472656,-0.11963000148534775,0.1726199984550476,0.03787999972701073,-0.21042999625205994,0.12596000730991364,0.10189999639987946,-0.1903499960899353,-0.05869999900460243],[-0.00795000046491623,0.07457999885082245,-0.12926000356674194,0.08935000002384186,-0.19909000396728516,-0.04941000044345856,0.13290999829769135,0.061230000108480453,0.09585999697446823,0.15133999288082123,-0.020659999921917915,-0.10371000319719315,0.01858000084757805,-0.29203000664711,-0.06627999991178513,-0.023499999195337296,0.08899000287055969],[-0.12415000051259995,-0.15505999326705933,-0.2373500019311905,0.09572000056505203,-0.1487399935722351,-0.08736000210046768,0.1592400074005127,-0.03424999862909317,-0.1740799993276596,0.19746999442577362,-0.03556999936699867,-0.08647000044584274,-0.06916999816894531,-0.13152000308036804,-0.07450000196695328,0.14966000616550446,-0.12791000306606293],[0.027799999341368675,-0.12183000147342682,-0.006889999844133854,-0.052310001105070114,0.056699998676776886,0.07862000167369843,0.02522999979555607,-0.003329999977722764,-0.048670001327991486,-0.27948999404907227,-0.22085000574588776,-0.0364999994635582,-0.17128999531269073,-0.34286001324653625,-0.02087000012397766,0.08145999908447266,-0.0412600003182888],[0.009050000458955765,-0.05592000111937523,-0.2405499964952469,-0.1015700027346611,0.3190099895000458,-0.04269000142812729,-0.12605999410152435,-0.0778999999165535,0.031780000776052475,0.2144699990749359,-0.004980000201612711,-0.19780999422073364,0.23725000023841858,0.092739999294281,-0.24180999398231506,-0.014560000039637089,-0.02329999953508377],[0.18585999310016632,-0.009449999779462814,-0.15700000524520874,-0.018149999901652336,0.10083000361919403,0.09790000319480896,0.3358300030231476,0.16744999587535858,0.13774000108242035,0.004370000213384628,0.04230000078678131,0.08543000370264053,0.2160400003194809,0.043710000813007355,0.00646999990567565,0.010119999758899212,0.014159999787807465],[0.26962000131607056,-0.25602999329566956,0.011599999852478504,0.06714999675750732,-0.16683000326156616,-0.1092899963259697,-0.3365499973297119,-0.08969999849796295,0.19439999759197235,-0.0002500000118743628,0.10767000168561935,0.02865999937057495,0.10797999799251556,0.10954000055789948,-0.06543999910354614,-0.13050000369548798,-0.11827000230550766],[-0.04008999839425087,0.1573300063610077,-0.1378300040960312,0.15759000182151794,-0.11121000349521637,0.00203999993391335,0.18027999997138977,-0.07762999832630157,-0.17007000744342804,0.19600999355316162,0.012350000441074371,0.03923000022768974,-0.08528999984264374,-0.09869000315666199,-0.12178000062704086,0.0034199999645352364,-0.03920000046491623],[-0.1302500069141388,-0.29802998900413513,0.063230000436306,0.023339999839663506,-0.03172999992966652,-0.02687999978661537,0.039900001138448715,-0.12296000123023987,-0.06278999894857407,0.009960000403225422,-0.01090999972075224,-0.05392000079154968,-0.2655099928379059,-0.054669998586177826,0.039730001240968704,0.25742000341415405,-0.1174200028181076],[0.011309999972581863,0.13255999982357025,-0.07468000054359436,0.07186000049114227,-0.054340001195669174,-0.08404000103473663,0.2368600070476532,0.18376000225543976,-0.35554999113082886,-0.050939999520778656,-0.155799999833107,-0.17464999854564667,-0.13636000454425812,-0.20954999327659607,-0.05063999816775322,0.06835000216960907,-0.16652999818325043],[-0.07597000151872635,-0.0723399966955185,0.04320000112056732,-0.2237599939107895,0.10847999900579453,0.02280000038444996,-0.011789999902248383,0.11467999964952469,-0.0989300012588501,0.1854500025510788,0.05748999863862991,0.06241000071167946,-0.0073899999260902405,0.12605999410152435,-0.10531000047922134,0.34264999628067017,-0.16380000114440918],[0.16329999268054962,0.06362999975681305,-0.1833599954843521,0.2826699912548065,-0.04261000081896782,-0.22060999274253845,-0.010219999589025974,-0.10885000228881836,-0.12750999629497528,0.1691499948501587,-0.07433000206947327,-0.02369000017642975,0.12211000174283981,-0.14119000732898712,-0.08138000220060349,0.0500200018286705,0.11023999750614166],[-0.042500000447034836,0.07418999820947647,0.0854400023818016,0.0895100012421608,-0.1238899976015091,0.24345000088214874,0.03505999967455864,-0.11808999627828598,-0.1766500025987625,0.02824999950826168,-0.2822999954223633,-0.20461000502109528,0.028769999742507935,-0.30654001235961914,-0.2318599969148636,0.06207000091671944,-0.07069999724626541],[0.02054000087082386,0.054919999092817307,0.1741199940443039,-0.1724800020456314,0.19629999995231628,0.0362199991941452,0.065870001912117,-0.023910000920295715,0.01590999960899353,-0.02394000068306923,-0.1745000034570694,-0.07191000133752823,0.04958000034093857,-0.08371999859809875,-0.021929999813437462,0.18400000035762787,0.018160000443458557],[0.03381999954581261,0.05527999997138977,0.011979999952018261,-0.13627000153064728,-0.06922999769449234,0.012400000356137753,0.034290000796318054,-0.11962000280618668,-0.08329000324010849,-0.30430999398231506,-0.04016000032424927,0.1275700032711029,-0.05559999868273735,0.024460000917315483,0.1558299958705902,-0.00033000000985339284,-0.15399999916553497],[-0.13469000160694122,-0.2597000002861023,0.1046999990940094,-0.08910000324249268,0.1483599990606308,0.04154999926686287,0.03531999886035919,-0.2244500070810318,0.03753000125288963,-0.0052200001664459705,0.2023400068283081,0.04563000053167343,0.001970000099390745,-0.024979999288916588,0.18110999464988708,-0.03922000154852867,-0.03272999823093414],[0.015650000423192978,0.10518000274896622,0.0016499999910593033,0.06925000250339508,-0.10492999851703644,0.1002499982714653,-0.14811000227928162,-0.16258999705314636,-0.29269999265670776,0.39302998781204224,-0.006169999949634075,0.13346999883651733,-0.02483000047504902,0.016380000859498978,-0.22078999876976013,0.20850999653339386,-0.18272000551223755],[-0.1926099956035614,0.11181999742984772,-0.08247999846935272,-0.016100000590085983,-0.05033000186085701,0.1198199987411499,-0.2015099972486496,-0.025869999080896378,0.01672999933362007,0.007269999943673611,-0.04297000169754028,-0.087459996342659,0.0625,0.04800000041723251,0.01662999950349331,0.03677000105381012,0.26759999990463257],[-0.17354999482631683,0.09763000160455704,-3.9999998989515007e-05,-0.25817999243736267,-0.1877399981021881,-0.1352500021457672,0.01752999983727932,-0.014279999770224094,0.12008000165224075,0.018330000340938568,0.15171000361442566,-0.018519999459385872,0.010830000042915344,-0.285180002450943,-0.15039999783039093,0.1586499959230423,-0.04732999950647354],[-0.04244999960064888,-0.07046999782323837,0.1680700033903122,0.029920000582933426,0.0941300019621849,0.10829000174999237,0.17323000729084015,0.1240599974989891,-0.21315999329090118,-0.005770000163465738,0.06700000166893005,0.03508000075817108,0.09963999688625336,-0.05237000063061714,-0.030640000477433205,0.05674000084400177,-0.2669599950313568],[0.10753999650478363,0.02652999944984913,0.14431999623775482,-0.05716000124812126,0.20106999576091766,0.04280000180006027,-0.04791000112891197,0.22594000399112701,-0.056620001792907715,-0.11467000097036362,0.10621999949216843,0.06274999678134918,0.10292000323534012,-0.018449999392032623,0.06684999912977219,-0.06913000345230103,-0.035110000520944595],[0.020260000601410866,0.30834999680519104,-0.13229000568389893,0.08500999957323074,0.06294000148773193,-0.037220001220703125,-0.040219999849796295,0.17423999309539795,-0.1276399940252304,-0.02686000056564808,0.015209999866783619,-0.12364000082015991,0.0070500001311302185,0.08393999934196472,0.16690999269485474,-0.0982699990272522,-0.013290000148117542],[0.09066999703645706,-0.1599700003862381,-0.0494999997317791,-0.11148999631404877,-0.19019000232219696,0.06397999823093414,-0.20287999510765076,-0.08389999717473984,0.13202999532222748,-0.12436000257730484,-0.1096699982881546,0.001129999989643693,-0.05860000103712082,0.004679999779909849,0.09571000188589096,-0.07011999934911728,-0.021330000832676888],[-0.04899999871850014,-0.07536999881267548,-0.08183000236749649,0.04724999889731407,-0.023159999400377274,0.044780001044273376,0.09869000315666199,0.12247999757528305,-0.19472000002861023,-0.04030999913811684,0.21640999615192413,0.15535999834537506,0.16981999576091766,0.08450999855995178,0.16324999928474426,0.029659999534487724,0.24570000171661377],[0.07466000318527222,0.014580000191926956,-0.2324099987745285,0.1186399981379509,0.06648000329732895,0.05581999942660332,0.1740799993276596,0.07669000327587128,-0.2178100049495697,0.0004299999854993075,0.046890001744031906,0.0029100000392645597,0.020500000566244125,0.12059000134468079,0.15579000115394592,-0.08643999695777893,0.007379999849945307],[0.01759999990463257,-0.0239499993622303,-0.06902000308036804,0.13065999746322632,0.07558000087738037,-0.20688000321388245,-0.026110000908374786,0.007530000060796738,-0.013269999995827675,0.2433999925851822,0.1102600023150444,-0.1280599981546402,0.2691099941730499,0.09223999828100204,-0.21457000076770782,-0.011219999752938747,0.2336599975824356],[-0.16128000617027283,-0.08573000133037567,0.22472000122070312,0.07186999917030334,-0.09274999797344208,-0.02696000039577484,-0.012249999679625034,0.009840000420808792,-0.08113999664783478,0.01647000014781952,-0.05113000050187111,0.10474999994039536,0.01803000085055828,-0.06521999835968018,-0.008349999785423279,0.021700000390410423,0.21452000737190247],[0.0871099978685379,0.18332000076770782,0.049800001084804535,-0.24100999534130096,-0.0024399999529123306,0.10022000223398209,-0.05934000015258789,0.07993999868631363,-0.011350000277161598,-0.05624999850988388,-0.19226999580860138,-0.18042999505996704,0.03533000126481056,-0.05372000113129616,-0.1597999930381775,-0.0239499993622303,-0.036309998482465744],[-0.050050001591444016,0.10200999677181244,-0.14900000393390656,-0.04605000093579292,-0.23890000581741333,-0.21400000154972076,-0.12773999571800232,-0.01143999956548214,0.12022999674081802,0.18355999886989594,0.0002500000118743628,0.04642999917268753,0.02725999988615513,-0.026660000905394554,-0.0032500000670552254,-0.0822099968791008,-0.0685499981045723],[0.012190000154078007,-0.035509999841451645,-0.019209999591112137,-0.04600000008940697,0.05455999821424484,0.05764000117778778,0.10210999846458435,-0.05330999940633774,-0.16202999651432037,-0.24092000722885132,0.0392800010740757,-0.05964000150561333,0.019360000267624855,-0.1561100035905838,0.11648000031709671,0.09273000061511993,0.0727899968624115],[-0.03220000118017197,0.018719999119639397,0.02442999929189682,-0.08719000220298767,-0.020910000428557396,0.1656000018119812,-0.15285000205039978,0.136570006608963,0.22859999537467957,0.1974799931049347,0.08568999916315079,0.00343999988399446,-0.15487000346183777,0.11705999821424484,0.10315000265836716,-0.051739998161792755,0.00546000013127923],[-0.07494000345468521,0.12210000306367874,-0.08296000212430954,0.12427999824285507,0.04901000112295151,0.049630001187324524,0.03633999824523926,0.09374000132083893,-0.045419998466968536,-0.14122000336647034,-0.2641499936580658,0.10034000128507614,-0.16007000207901,0.034359999001026154,-0.08482000231742859,-0.07447999715805054,-0.11264000087976456],[0.11788000166416168,-0.021159999072551727,-0.04238000139594078,-0.04848000034689903,0.35060998797416687,0.04089000076055527,0.049869999289512634,-0.09431000053882599,-0.2404100000858307,-0.23260000348091125,0.1716099977493286,-0.0073899999260902405,0.2003300040960312,0.18427999317646027,-0.014739999547600746,0.16881999373435974,-0.09303999692201614],[-0.037050001323223114,0.020360000431537628,-0.04625000059604645,0.027049999684095383,0.23594999313354492,-0.04472000151872635,0.04360000044107437,0.124719999730587,-0.05153999850153923,-0.09690000116825104,-0.037700001150369644,0.03217000141739845,-0.0502300001680851,-0.007780000101774931,-0.26524001359939575,0.10540000349283218,-0.09983000159263611],[0.1696300059556961,0.13617999851703644,-0.06797000020742416,-0.07061000168323517,-0.0031399999279528856,0.17479999363422394,-0.06446000188589096,0.10862000286579132,0.18418000638484955,-0.16674000024795532,-0.01680999994277954,-0.042729999870061874,-0.025140000507235527,-0.11598999798297882,0.21371999382972717,-0.23702000081539154,0.0936100035905838],[-0.020069999620318413,-0.12993000447750092,-0.2267100065946579,0.09877000004053116,-0.11744000017642975,-0.20152999460697174,0.23757000267505646,-0.08291999995708466,-0.15129999816417694,-0.07361999899148941,0.13359999656677246,-0.15310999751091003,0.04757000133395195,0.18493999540805817,0.13646000623703003,-0.07195000350475311,0.043060000985860825],[0.1031700000166893,-0.06877999752759933,-0.16304999589920044,-0.05297999829053879,0.19979000091552734,0.16392000019550323,-0.15051999688148499,-0.01621999964118004,-0.033309999853372574,0.12272000312805176,0.15810999274253845,0.2005700021982193,0.04108000174164772,-0.04648999869823456,0.14620999991893768,0.05217000097036362,-0.04332999885082245],[-0.17705999314785004,0.05310999974608421,-0.041770000010728836,0.0320499986410141,0.14350000023841858,-0.1005299985408783,0.0674699991941452,-0.24943000078201294,-0.20090000331401825,-0.06007000058889389,-0.03826000168919563,0.0466499999165535,0.06448999792337418,0.24868999421596527,0.18791000545024872,-0.14591999351978302,-0.022290000692009926],[-0.11765000224113464,0.15945999324321747,0.0147299999371171,0.20020000636577606,-0.0007099999929778278,0.0177800003439188,-0.00546000013127923,-0.09341000020503998,-0.1152999997138977,0.13790999352931976,0.20542000234127045,-0.02914999984204769,0.136230006814003,0.023159999400377274,0.019990000873804092,0.18061000108718872,0.013050000183284283],[-0.007379999849945307,0.09226000308990479,-0.1088000014424324,-0.15372000634670258,0.09882000088691711,-0.030409999191761017,0.39879000186920166,0.11396999657154083,0.1347000002861023,0.050519999116659164,-0.01785000041127205,0.005260000005364418,0.07936999946832657,0.041680000722408295,-0.034290000796318054,-0.008940000087022781,-0.08008000254631042],[-0.15428000688552856,0.02287999913096428,-0.16637000441551208,0.009329999797046185,-0.048829998821020126,-0.0005699999746866524,0.24120000004768372,-0.09418000280857086,0.05768999829888344,0.13877999782562256,0.08064000308513641,-0.02012999914586544,0.037379998713731766,-0.1852799952030182,-0.08546999841928482,-0.15947000682353973,0.14305000007152557],[0.11088000237941742,-0.07282999902963638,-0.010110000148415565,-0.07236000150442123,-0.04597000032663345,0.0808899998664856,-0.20994000136852264,0.020309999585151672,0.14003999531269073,0.06238999962806702,-0.026890000328421593,0.122809998691082,-0.12700000405311584,0.02995000034570694,0.0923599973320961,-0.06825000047683716,0.017740000039339066],[-0.01018999982625246,0.1573999971151352,0.04839000105857849,0.09988000243902206,0.010049999691545963,-0.09899000078439713,0.07333999872207642,0.10220000147819519,0.15560999512672424,0.08031000196933746,0.03167000040411949,-0.23173999786376953,0.11732999980449677,-0.19377000629901886,-0.03571999818086624,-0.04743000119924545,-0.13335999846458435],[0.10538999736309052,0.0670199990272522,0.07188999652862549,0.06185000017285347,-0.08495999872684479,-0.1596599966287613,0.22479000687599182,0.0053400001488626,0.11699999868869781,0.2503800094127655,0.13659000396728516,-0.10989999771118164,-0.03181999921798706,0.16042999923229218,0.04521000012755394,0.08975999802350998,-0.0636100023984909],[0.09414000064134598,0.012059999629855156,-0.04219000041484833,0.07722000032663345,-0.05974999815225601,0.09348999708890915,0.08348999917507172,0.07948999851942062,-0.11006999760866165,0.1371700018644333,-0.05350000038743019,0.009990000165998936,0.18398000299930573,-0.05894000083208084,0.024170000106096268,-0.18187999725341797,-0.13824999332427979],[0.06315000355243683,0.008190000429749489,0.20122000575065613,-0.29256999492645264,0.1448500007390976,0.052299998700618744,0.005770000163465738,-0.10134000331163406,0.2349800020456314,0.0730300024151802,0.04854999855160713,0.1035899966955185,-0.022099999710917473,-0.1414099931716919,0.06599999964237213,0.029920000582933426,-0.28314998745918274],[-0.043299999088048935,0.13422000408172607,-0.06858000159263611,-0.04422999918460846,0.18982000648975372,-0.0983399972319603,-0.0032099999953061342,-0.0002099999983329326,0.011119999922811985,0.1565299928188324,0.05347000062465668,0.0030700000934302807,0.03310000151395798,0.040059998631477356,0.22654999792575836,-0.018330000340938568,0.03733000159263611],[0.11901000142097473,0.029500000178813934,0.02078999951481819,-0.07620999962091446,-0.1692499965429306,0.03474999964237213,0.14587000012397766,0.08274000138044357,-0.1737000048160553,0.1400499939918518,0.18108999729156494,0.17159000039100647,-0.20712000131607056,-0.12414000183343887,-0.04633999988436699,0.05919000133872032,-0.12370000034570694],[-0.0036100000143051147,-0.06716000288724899,-0.039329998195171356,0.14403000473976135,0.057429999113082886,-0.008559999987483025,0.18914000689983368,-0.1693899929523468,-0.125560000538826,-0.030750000849366188,-0.06453999876976013,-0.063510000705719,-0.028230000287294388,0.2437800019979477,0.16708000004291534,-0.21541999280452728,-0.007899999618530273],[-0.12167999893426895,0.12745000422000885,-0.15448999404907227,-0.00033999999868683517,0.10882999747991562,-0.01119999960064888,-0.21125000715255737,0.12882000207901,0.20834000408649445,0.06876000016927719,-0.062470000237226486,-0.15334999561309814,0.097680002450943,0.047120001167058945,0.2589400112628937,-0.0856499969959259,0.05776999890804291],[0.25648000836372375,0.15835000574588776,-0.13291999697685242,0.03426000103354454,-0.006209999788552523,-0.2404700070619583,0.0568000003695488,-0.045979999005794525,-0.13794000446796417,0.03513000160455704,-0.11118999868631363,-0.03175000101327896,0.06266000121831894,0.1944900006055832,-0.4336000084877014,0.19269999861717224,0.04994000121951103],[-0.02181999944150448,0.026660000905394554,0.2354699969291687,0.04245999827980995,0.03316999971866608,0.09731999784708023,-0.014650000259280205,0.14650000631809235,-0.11146999895572662,-0.08901000022888184,0.024779999628663063,0.04565000161528587,0.004490000195801258,-0.03821000084280968,-0.14503000676631927,-0.09720999747514725,-0.15914000570774078],[0.20085999369621277,-0.09241999685764313,-0.07371000200510025,-0.04121999815106392,0.14038999378681183,-0.16947999596595764,-0.0019099999917671084,-0.08983000367879868,0.03974999859929085,-0.08618000149726868,-0.012539999559521675,0.02879999950528145,-0.1708800047636032,0.008779999800026417,-0.11548999696969986,0.11760000139474869,0.05414000153541565],[-0.10875999927520752,-0.1291400045156479,0.0024900001008063555,-0.05793000012636185,-0.097850002348423,0.13038000464439392,0.08023999631404877,-0.033309999853372574,-0.10090000182390213,-0.2232300043106079,0.2767699956893921,-0.01769999973475933,-0.10513000190258026,-0.2281399965286255,0.015569999814033508,-0.03353000059723854,-0.039159998297691345],[-0.10604000091552734,0.02314000017940998,0.03798000141978264,-0.0674699991941452,0.07033000141382217,0.11105000227689743,0.22551000118255615,0.040049999952316284,-0.33684998750686646,0.046300001442432404,0.03912999853491783,0.1596599966287613,0.06250999867916107,-0.08212000131607056,0.017069999128580093,-0.01334999967366457,0.11161000281572342],[0.19965000450611115,-0.15252000093460083,-0.032349999994039536,-0.044769998639822006,0.14278000593185425,0.02087000012397766,0.020719999447464943,-0.1408499926328659,-0.004679999779909849,0.4134399890899658,-0.015490000136196613,0.056449998170137405,0.08285000175237656,0.03931000083684921,-0.01648000068962574,0.004310000222176313,-0.1336899995803833],[-0.015329999849200249,0.07962000370025635,-0.12891000509262085,0.05587000027298927,-0.058150000870227814,0.034949999302625656,0.01858999952673912,0.1362600028514862,0.20720000565052032,-0.0044200001284480095,0.29965001344680786,0.0860000029206276,-0.006070000119507313,-0.03361000120639801,0.1252100020647049,-0.058389998972415924,0.10634999722242355],[0.16550999879837036,0.03373999893665314,0.10399000346660614,-0.0182499997317791,0.0007900000200606883,-0.06616999953985214,-0.15870000422000885,0.22145000100135803,-0.0013299999991431832,0.19088000059127808,-0.08450999855995178,-0.003530000103637576,-0.015259999781847,0.05561000108718872,-0.03872000053524971,-0.10566999763250351,0.08477000147104263],[0.19120000302791595,0.06667999923229218,0.14063000679016113,0.07560999691486359,0.21014000475406647,-0.09408000111579895,-0.130280002951622,-0.019050000235438347,-0.08844000101089478,-0.040130000561475754,-0.017179999500513077,0.07354000210762024,0.04763999953866005,0.0625699982047081,0.19514000415802002,0.1563200056552887,-0.10171999782323837],[-0.037629999220371246,-0.009479999542236328,-0.20938000082969666,0.07215999811887741,-0.06463000178337097,-0.051739998161792755,0.19734999537467957,-0.185589998960495,-0.020069999620318413,-0.07852999866008759,-0.2025900036096573,0.12883999943733215,-0.024080000817775726,-0.18644000589847565,-0.13214999437332153,0.02735999971628189,-0.11492999643087387],[0.022609999403357506,0.07340999692678452,0.07520999759435654,-0.07573000341653824,-0.1325799971818924,-0.021570000797510147,-0.16061000525951385,-0.014840000309050083,0.007939999923110008,0.0005099999834783375,0.034690000116825104,0.1286499947309494,0.12553000450134277,-0.213469997048378,-0.21431000530719757,0.1772100031375885,-0.01600000075995922],[-0.018489999696612358,-0.03596000000834465,0.008369999937713146,-0.21709999442100525,0.17075000703334808,-0.07334999740123749,-0.15320999920368195,0.004220000002533197,-0.0871099978685379,-0.08309999853372574,-0.06598000228404999,-0.10474999994039536,0.1014299988746643,0.06196000054478645,-0.1881600022315979,0.11535999923944473,0.15660999715328217],[-0.03102000057697296,0.07280000299215317,0.06249000132083893,0.0813400000333786,-0.0017099999822676182,0.1345299929380417,0.08376999944448471,-0.07267999649047852,-0.14455999433994293,0.11344999819993973,0.03195999935269356,0.08626999706029892,0.06819000095129013,-0.2527100145816803,0.065870001912117,-0.015030000358819962,0.1599700003862381],[-0.041689999401569366,0.05135999992489815,0.030389999970793724,0.05917999893426895,-0.127020001411438,-0.2049500048160553,-0.03286999836564064,0.015069999732077122,-0.06499999761581421,0.19199000298976898,-0.09448999911546707,-0.22095000743865967,0.03488000109791756,-0.1066100001335144,-0.22222000360488892,-0.06784000247716904,0.07412000000476837],[-0.08793000131845474,-0.11949999630451202,-0.16126999258995056,0.054999999701976776,-0.17615999281406403,-0.06633999943733215,-0.0957299992442131,0.1494700014591217,0.22968000173568726,0.19758999347686768,0.15275000035762787,-0.04847000166773796,0.08092000335454941,0.13469000160694122,-0.0056500001810491085,-0.12532000243663788,0.18619999289512634],[0.003980000037699938,0.1408199965953827,0.1060200035572052,0.07887999713420868,0.056049998849630356,-0.2681199908256531,0.05129000172019005,0.17716999351978302,-0.1144300028681755,0.1147800013422966,0.03336000069975853,0.015949999913573265,0.15230999886989594,0.11951000243425369,0.08425000309944153,-0.034869998693466187,-0.12120000272989273],[-0.0017600000137463212,0.0036200000904500484,0.13335999846458435,0.06661000102758408,0.060679998248815536,-0.009970000013709068,0.027799999341368675,0.11307000368833542,0.0557899996638298,0.061069998890161514,-0.041510000824928284,-0.09168999642133713,0.10738000273704529,0.17688000202178955,-0.1027199998497963,0.014770000241696835,0.12863999605178833],[-0.12127000093460083,-0.06575000286102295,-0.11896000057458878,-0.11383000016212463,0.0829399973154068,-0.07434000074863434,0.03655000030994415,0.18841999769210815,0.21799999475479126,-0.1673399955034256,0.00016999999934341758,0.1876000016927719,-0.00018000000272877514,0.1109199970960617,-0.06437999755144119,-0.01867000013589859,0.14496999979019165],[-0.1860000044107437,-0.09926000237464905,-0.12950000166893005,0.026969999074935913,0.0662899985909462,0.12020000070333481,0.08590999990701675,-0.061719998717308044,-0.02677999995648861,-0.3294700086116791,0.05816999822854996,-0.09909000247716904,0.0037799999117851257,-0.0794299989938736,0.07530000060796738,-0.07637999951839447,0.06729999929666519],[-0.008299999870359898,-0.026590000838041306,-0.11584000289440155,0.019460000097751617,-0.005950000137090683,-0.3474400043487549,0.09763000160455704,-0.001979999942705035,0.05446000024676323,0.3079400062561035,-0.09188000112771988,0.1061599999666214,0.0057299998588860035,-0.12574000656604767,0.03043000027537346,0.12004999816417694,0.12021999806165695],[0.15570999681949615,-0.08495999872684479,0.20413999259471893,-0.06120000034570694,0.06673000007867813,0.15028999745845795,0.024730000644922256,0.04820000007748604,-0.04816000163555145,-0.05494999885559082,0.16896000504493713,0.20389999449253082,0.19117000699043274,-0.13885000348091125,-0.008290000259876251,0.010449999943375587,-0.034359999001026154],[-0.14812999963760376,0.12289000302553177,0.02717999927699566,0.0027799999807029963,-0.05570000037550926,-0.03985000029206276,0.05076000094413757,-0.10769999772310257,0.04149999842047691,0.3667699992656708,-0.06656999886035919,0.03858000040054321,-0.009800000116229057,0.12936000525951385,-0.07272999733686447,-0.0544699989259243,0.028950000181794167],[-0.04187000170350075,-0.0774800032377243,-0.07269000262022018,-0.1492300033569336,0.03288000077009201,0.18233999609947205,0.13123999536037445,-0.20669999718666077,0.1288899928331375,-0.02281000092625618,-0.08635000139474869,0.15626999735832214,-0.12318000197410583,0.007600000128149986,-0.016179999336600304,-0.09230999648571014,0.10670000314712524],[0.23533999919891357,-0.1314699947834015,0.043299999088048935,0.07276999950408936,-0.11522000283002853,0.3008599877357483,-0.1586800068616867,-0.13673999905586243,-0.04303999990224838,0.09055999666452408,0.10300000011920929,-0.007569999899715185,0.1693200021982193,-0.20816999673843384,-0.05584000051021576,0.05973000079393387,0.18137000501155853],[0.385560005903244,-0.30445998907089233,-0.054499998688697815,-0.09059999883174896,-0.0851999968290329,0.13394999504089355,-0.03162999823689461,-0.01931999996304512,-0.14850999414920807,0.16850000619888306,-0.09971000254154205,0.059369999915361404,0.1393599957227707,0.10845000296831131,0.0715399980545044,0.2935599982738495,0.17619000375270844],[-0.16523000597953796,0.17237000167369843,0.03539000079035759,0.10203000158071518,-0.23118999600410461,-0.0961500033736229,-0.0858599990606308,0.017650000751018524,0.10805000364780426,0.13308000564575195,0.18705999851226807,-0.054179999977350235,0.11324000358581543,-0.0695199966430664,-0.06627000123262405,-0.09081000089645386,0.09369000047445297],[0.05926999822258949,0.2054699957370758,-0.09511999785900116,0.06457000225782394,-0.024870000779628754,-0.03277000039815903,-0.26888999342918396,-0.11531999707221985,0.015209999866783619,0.10497000068426132,0.022199999541044235,-0.012749999761581421,-0.07135000079870224,-0.06431999802589417,0.14834000170230865,-0.18580999970436096,-0.15600000321865082],[-0.024329999461770058,0.09006000310182571,-0.05714999884366989,0.08872000128030777,0.05104999989271164,0.06666000187397003,0.3041599988937378,-0.1713400036096573,0.27862998843193054,-0.09096000343561172,0.10386999696493149,0.15862999856472015,-0.04701999947428703,0.0880500003695488,-0.09876000136137009,-0.02947000041604042,0.10080999881029129],[-0.23433999717235565,-0.024949999526143074,0.20106999576091766,-0.22540000081062317,0.02452000044286251,0.004170000087469816,-0.028750000521540642,-0.08434999734163284,-0.18538999557495117,0.09828999638557434,-0.15910999476909637,-0.006430000066757202,-0.10388000309467316,0.10006000101566315,-0.11816000193357468,0.18232999742031097,0.1033800020813942],[-0.051330000162124634,0.051569998264312744,-0.0349700003862381,-0.21803000569343567,0.11040999740362167,-0.22853000462055206,-0.1373399943113327,0.11906000226736069,0.18166999518871307,0.02971000038087368,-0.15726999938488007,0.012419999577105045,-0.3020099997520447,-0.06548000127077103,0.04854999855160713,-0.15961000323295593,-0.1434600055217743],[-0.057110000401735306,0.14393000304698944,-0.1408199965953827,-0.029689999297261238,-0.12228000164031982,-0.10798999667167664,0.09707999974489212,0.07840000092983246,0.0800900012254715,0.21021999418735504,-0.004619999788701534,-0.15880000591278076,0.01217000000178814,-0.2262900024652481,-0.13600000739097595,-0.058959998190402985,0.3085300028324127],[-0.24483999609947205,0.08867000043392181,-0.06047999858856201,-0.09160000085830688,0.1383800059556961,-0.0027199999894946814,0.21932999789714813,-0.018060000613331795,-0.14514000713825226,-0.13673999905586243,0.1159299984574318,0.2152400016784668,-0.10717999935150146,0.11490000039339066,0.16418999433517456,-0.04134000092744827,0.04980999976396561],[0.02824999950826168,-0.22156000137329102,0.08298999816179276,0.0717099979519844,0.045499999076128006,0.1759600043296814,0.10062000155448914,-0.09864000231027603,-0.004230000078678131,-0.07653000205755234,0.06167000159621239,-0.061739999800920486,-0.0857900008559227,-0.039069999009370804,0.006610000040382147,0.11111000180244446,-0.22152000665664673],[0.23186999559402466,-0.0011899999808520079,-0.19508999586105347,-0.07648999989032745,-0.09866999834775925,-0.006310000084340572,-0.2603999972343445,-0.05071999877691269,0.19318999350070953,0.16394999623298645,0.24435000121593475,0.046720001846551895,0.17112000286579132,0.21673999726772308,0.01375999953597784,-0.027149999514222145,-0.05197000131011009],[-0.05324000120162964,-0.05719999969005585,0.41225001215934753,-0.025779999792575836,-0.0667399987578392,0.04510999843478203,-0.2391899973154068,-0.04699999839067459,0.1451999992132187,0.12867000699043274,-0.041749998927116394,-0.13175000250339508,0.06289999932050705,-0.10074000060558319,-0.03784999996423721,0.06445000320672989,-0.07232999801635742],[-0.012280000373721123,-0.052639998495578766,0.16249999403953552,-0.11685000360012054,-0.09230999648571014,-0.022120000794529915,0.012319999746978283,0.16574999690055847,-0.10174000263214111,-0.06953000277280807,0.17657999694347382,0.26179999113082886,0.07180000096559525,-0.21135999262332916,-0.03626000136137009,0.020029999315738678,0.2234099954366684],[0.019099999219179153,0.25088998675346375,-0.029270000755786896,0.01592000015079975,-0.018859999254345894,0.06385999917984009,-0.025380000472068787,0.151419997215271,-0.17649999260902405,0.12796999514102936,-0.018130000680685043,0.053599998354911804,0.07840000092983246,-0.006670000031590462,-0.0998699963092804,0.08059000223875046,0.07563000172376633],[-0.12193000316619873,0.07814999669790268,0.15133999288082123,0.09978000074625015,0.1748500019311905,-0.051739998161792755,0.14103999733924866,0.0907600000500679,0.08797000348567963,0.16021999716758728,0.23712000250816345,-0.09092999994754791,-0.07344000041484833,0.08416999876499176,-0.13892999291419983,-0.1764799952507019,-0.008440000005066395],[-0.04566999897360802,-0.2653299868106842,0.16750000417232513,-0.06187000125646591,-0.020029999315738678,0.17667999863624573,-0.061149999499320984,0.12127000093460083,-0.0363599993288517,0.20286999642848969,-0.11533000320196152,-0.019850000739097595,0.1005999967455864,0.00019999999494757503,0.14008000493049622,0.05107999965548515,0.2539899945259094],[-0.07771000266075134,0.07834000140428543,0.15153999626636505,-0.0031900000758469105,-0.20927999913692474,0.023469999432563782,-0.19612999260425568,0.008259999565780163,-0.157710000872612,0.03937000036239624,0.050200000405311584,0.16297000646591187,-0.04749000072479248,-0.27998998761177063,-0.029039999470114708,-0.039000000804662704,-0.22366000711917877],[-0.1430799961090088,-0.023970000445842743,-0.08258000016212463,0.06503999978303909,0.08137000352144241,0.1475600004196167,0.10324999690055847,-0.016950000077486038,-0.035909999161958694,0.2184399962425232,-0.03869999945163727,0.047970000654459,-0.11967000365257263,0.07372000068426132,-0.07128000259399414,-0.09989000111818314,0.09849999845027924],[0.09955000132322311,0.05378999933600426,0.02645000070333481,0.144679993391037,-0.015239999629557133,0.10217999666929245,0.011309999972581863,-0.1103999987244606,-0.18737000226974487,0.006599999964237213,0.07304000109434128,-0.04238000139594078,0.21287000179290771,0.032249998301267624,-0.23542000353336334,0.04707999899983406,-0.014949999749660492],[0.08011999726295471,-0.08974000066518784,0.07113999873399734,-0.10740000009536743,-0.19836999475955963,0.23003999888896942,0.11648000031709671,-0.010110000148415565,0.23612000048160553,0.0787699967622757,-0.036990001797676086,0.10808999836444855,0.0444599986076355,0.039969999343156815,-0.12224999815225601,-0.07746999710798264,0.07154999673366547],[-0.09216000139713287,0.00041000000783242285,0.011420000344514847,0.06662999838590622,-0.17414000630378723,0.048889998346567154,0.12921999394893646,-0.01372000016272068,-0.14640000462532043,0.18306000530719757,0.11675000190734863,0.05194000154733658,-0.00039999998989515007,0.024310000240802765,-0.093019999563694,0.0049600000493228436,0.03376999869942665],[0.10965000092983246,-0.0839100033044815,0.026340000331401825,-0.055479999631643295,0.07586000114679337,-0.0309200007468462,-0.24010999500751495,0.07266999781131744,-0.11107999831438065,-0.08901999890804291,-0.00800000037997961,0.03579000011086464,0.1417900025844574,-0.05996000021696091,-0.21494999527931213,-0.018360000103712082,-0.12099000066518784],[0.05172999948263168,-0.023350000381469727,-0.048239998519420624,-0.0018700000364333391,-0.10705000162124634,-0.3475799858570099,-0.1080700010061264,-0.2219800055027008,-0.18188999593257904,-0.0031399999279528856,-0.06335999816656113,0.18478000164031982,-0.13680000603199005,0.027210000902414322,-0.08528000116348267,-0.02319999970495701,-0.198170006275177],[0.058159999549388885,-0.030799999833106995,0.1395999938249588,-0.05536999925971031,-0.1267700046300888,-0.05778000131249428,0.3919700086116791,-0.04715000092983246,-0.09649000316858292,-0.07913000136613846,0.10553000122308731,-0.0007900000200606883,-0.2904300093650818,-0.08799000084400177,0.21433000266551971,-0.2570599913597107,0.2401300072669983],[0.21291999518871307,-0.2429099977016449,-0.20446999371051788,-0.06442999839782715,0.10211999714374542,-0.05482000112533569,-0.049880001693964005,0.2436400055885315,-0.031939998269081116,0.06800000369548798,0.09002000093460083,-0.1348000019788742,0.03668000176548958,-0.015690000727772713,0.013919999822974205,0.27173998951911926,-0.07633999735116959],[-0.1473200023174286,0.10774999856948853,-0.03311999887228012,-0.14486999809741974,-0.17284999787807465,-0.0494999997317791,-0.0031500000040978193,-0.045899998396635056,-0.05364999920129776,0.17558999359607697,0.008829999715089798,-0.004430000204592943,-0.05177000164985657,-0.07332000136375427,-0.005520000122487545,-0.1664000004529953,0.14238999783992767],[0.3085800111293793,-0.06769999861717224,0.042649999260902405,-0.011370000429451466,0.2012699991464615,0.1049100011587143,0.19120000302791595,0.06904000043869019,-0.22009000182151794,-0.0010400000028312206,-0.015629999339580536,-0.04139000177383423,0.23993000388145447,0.047439999878406525,-0.08540000021457672,0.13636000454425812,-0.02314000017940998],[0.18344999849796295,0.1635199934244156,0.06814999878406525,0.2483700066804886,-0.067610003054142,0.0770300030708313,-0.035999998450279236,-0.11241000145673752,0.13864000141620636,0.028769999742507935,-0.08121000230312347,-0.015069999732077122,-0.19662000238895416,-0.2007800042629242,-0.017170000821352005,-0.052639998495578766,-0.001500000013038516],[0.011269999668002129,0.10769999772310257,0.11674000322818756,0.04205000028014183,0.29447999596595764,0.13199999928474426,0.23914000391960144,-0.03491999953985214,0.10655999928712845,0.12736999988555908,-0.04368000105023384,-0.017550000920891762,-0.11896000057458878,0.1114799976348877,-0.16651999950408936,-0.08782999962568283,0.07389000058174133],[0.12154000252485275,-0.1822900027036667,-0.07129000127315521,-0.033250000327825546,0.1956299990415573,0.274260014295578,-0.19436000287532806,0.003949999809265137,-0.10723000019788742,-0.007569999899715185,-0.1145000010728836,0.19237999618053436,0.10491999983787537,0.0035099999513477087,0.09865999966859818,0.07524999976158142,-0.020899999886751175],[-0.15275999903678894,-0.042729999870061874,-0.19732999801635742,-0.25850000977516174,-0.19248999655246735,-0.03553999960422516,-0.013319999910891056,0.15177999436855316,0.08421000093221664,-0.0531499981880188,-0.08923999965190887,0.07202000170946121,-0.0022700000554323196,-0.24866999685764313,-0.11840000003576279,0.14375999569892883,-0.03796999901533127],[-0.013650000095367432,0.06892000138759613,0.004230000078678131,-0.04390000179409981,-0.01867000013589859,0.012450000271201134,-0.09526000171899796,0.12937000393867493,-0.0006600000197067857,0.09599000215530396,0.08299999684095383,0.05682000145316124,0.030220000073313713,-0.017249999567866325,0.15869000554084778,-0.03221999853849411,0.16694000363349915],[-0.0903099998831749,0.001560000004246831,0.14196999371051788,-0.0459199994802475,0.007600000128149986,0.11999999731779099,0.03009999915957451,0.1666799932718277,-0.15497000515460968,0.019260000437498093,-0.022670000791549683,0.0652799978852272,0.08118999749422073,-0.1525299996137619,0.0423399992287159,0.05226999893784523,0.29513999819755554],[0.13955000042915344,-0.19088999927043915,-0.08014000207185745,0.08123999834060669,0.12064000219106674,-0.07187999784946442,-0.1850000023841858,-0.2175700068473816,0.17141999304294586,-0.22187000513076782,0.1915999948978424,-0.1136000007390976,-0.020390000194311142,0.04642999917268753,0.10311000049114227,0.023649999871850014,-0.06843999773263931],[0.04586999863386154,-0.19062000513076782,-0.01107999961823225,0.07360000163316727,-0.1832900047302246,-0.015010000206530094,0.1231599971652031,0.09827999770641327,-0.09634999930858612,0.05132000148296356,0.012509999796748161,0.06567999720573425,-0.011260000057518482,-0.2608700096607208,-0.17580999433994293,0.13955000042915344,-0.1362600028514862],[-0.013419999741017818,0.05347999930381775,0.06711000204086304,0.05590999871492386,0.21755999326705933,0.061500001698732376,0.042890001088380814,0.0662200003862381,0.003010000102221966,0.0038499999791383743,-0.14474999904632568,-0.14147000014781952,0.10582000017166138,0.1603199988603592,-0.0741799995303154,0.25567999482154846,-0.08681999891996384],[-0.043460000306367874,0.02928999997675419,0.24502000212669373,-0.011420000344514847,0.24458999931812286,-0.026510000228881836,-0.09553000330924988,0.06074000149965286,-0.14928999543190002,-0.17073999345302582,-0.05711999908089638,0.011920000426471233,-0.13290999829769135,0.1327199935913086,0.16633999347686768,0.19975000619888306,0.21119999885559082],[-0.26590999960899353,-0.12905000150203705,-0.07924000173807144,0.2594200074672699,-0.07180999964475632,0.053769998252391815,0.14475999772548676,-0.11236999928951263,0.02524000033736229,0.06285999715328217,-0.028920000419020653,0.05077999830245972,0.00977999996393919,0.07498999685049057,-0.10371000319719315,-0.10036999732255936,0.00571999978274107],[-0.07784999907016754,0.11633999645709991,-0.05500999838113785,-0.13030999898910522,0.0243500005453825,-0.18469999730587006,-0.041430000215768814,0.040800001472234726,-0.15279999375343323,-0.021889999508857727,0.1373700052499771,0.033070001751184464,-0.03968999907374382,-0.19513000547885895,-0.02969999983906746,0.18052999675273895,-0.03020000085234642],[-0.20789000391960144,0.026110000908374786,0.11168000102043152,-0.034699998795986176,-0.26590999960899353,-0.13043999671936035,0.12514999508857727,0.04089000076055527,-0.05318000167608261,0.07240000367164612,0.15358999371528625,-0.039500001817941666,0.0008500000112690032,-0.2554599940776825,0.10605999827384949,-0.026809999719262123,0.01671000011265278],[-0.041280001401901245,-0.01080000028014183,0.07118000090122223,-0.09810999780893326,-0.2585200071334839,0.29113999009132385,-0.1465499997138977,0.13102999329566956,-0.17050999402999878,-0.21690000593662262,-0.08438000082969666,0.04602999985218048,-0.10453999787569046,-0.12958000600337982,0.1462399959564209,-0.022110000252723694,-0.3418099880218506],[-0.23180000483989716,-0.056129999458789825,-0.16513000428676605,-0.12419000267982483,-0.2583099901676178,0.060520000755786896,0.12129999697208405,0.07472000271081924,-0.18729999661445618,0.092009998857975,-0.09096000343561172,0.17244000732898712,-0.05716999992728233,-0.03319000080227852,-0.003700000001117587,-0.07846999913454056,0.008170000277459621],[0.1497800052165985,-0.18504999577999115,0.01460999995470047,-0.037039998918771744,-0.02070000022649765,-0.1595900058746338,0.12279000133275986,-0.10215000063180923,-0.05019000172615051,-0.17180000245571136,-0.19860999286174774,-0.3689199984073639,0.11076000332832336,-0.10454999655485153,-0.128370001912117,-0.05536999925971031,-0.07199999690055847],[-0.020679999142885208,0.07096000015735626,0.16795000433921814,-0.04503000155091286,0.07405000180006027,0.03474000096321106,-0.06931000202894211,0.021980000659823418,0.060830000787973404,-0.13781000673770905,0.16820000112056732,0.1983100026845932,0.0719899982213974,0.06577999889850616,0.07627999782562256,-0.05178999900817871,-0.06604000180959702],[-0.27636000514030457,0.13847999274730682,-0.05347000062465668,0.03895999863743782,0.034869998693466187,-0.09640999883413315,-0.06722000241279602,0.08076000213623047,0.12725000083446503,0.0754999965429306,0.001069999998435378,0.048990000039339066,0.30625998973846436,-0.12824000418186188,0.005419999826699495,0.17447000741958618,-0.05967000126838684],[-0.01711999997496605,0.17098000645637512,0.04050000011920929,0.06466999650001526,0.36250999569892883,-0.029479999095201492,0.08549000322818756,0.04287999868392944,0.051739998161792755,0.05229000002145767,0.12988999485969543,0.16884000599384308,0.2372400015592575,0.15276999771595,-0.0861700028181076,-0.0035200000274926424,0.027809999883174896],[0.0006699999794363976,0.21646000444889069,-0.13999000191688538,-0.14951999485492706,0.04092999920248985,-0.047529999166727066,-0.3468399941921234,-0.034460000693798065,0.23323999345302582,-0.08940999954938889,0.15658000111579895,-0.06007999926805496,-0.012020000256597996,-0.19021999835968018,-0.0917700007557869,-0.08562999963760376,-0.06723000109195709],[0.06119000166654587,-0.09634999930858612,-0.0669500008225441,-0.11992000043392181,-0.1641799956560135,-0.21740999817848206,0.31358999013900757,0.17365999519824982,-0.07769999653100967,0.06738000363111496,-0.18543000519275665,0.1052900031208992,-0.1466200053691864,-0.07451000064611435,-0.1646600067615509,0.047449998557567596,-0.01614999957382679],[0.12432000041007996,-0.005760000087320805,-0.07316000014543533,-0.09517999738454819,0.14443999528884888,0.03731999918818474,-0.23646000027656555,0.1227400004863739,-0.1379999965429306,-0.0597199983894825,0.1737000048160553,0.090549997985363,-0.07240000367164612,0.010370000265538692,-0.030060000717639923,-0.11640000343322754,-0.00041000000783242285],[0.050999999046325684,-0.2277200073003769,0.023469999432563782,-0.07927999645471573,-0.4605900049209595,-0.039650000631809235,0.01686999946832657,-0.20945000648498535,-0.11849000304937363,-0.008080000057816505,-0.07009000331163406,0.1131799966096878,-0.323170006275177,-0.08546999841928482,0.013910000212490559,-0.20029999315738678,0.1404300034046173],[-0.15974999964237213,0.12955999374389648,0.11111000180244446,0.09234999865293503,0.1896200031042099,0.10492999851703644,-0.05215999856591225,0.043480001389980316,-0.14903999865055084,0.033890001475811005,-0.026399999856948853,-0.010739999823272228,-0.07891999930143356,0.15815000236034393,0.14042000472545624,-0.19001999497413635,-0.08530999720096588],[0.13580000400543213,-0.03821000084280968,-0.00750999990850687,0.004339999984949827,-0.13529999554157257,0.11158999800682068,0.03784999996423721,-0.050030000507831573,0.1782499998807907,0.1276399940252304,0.0662200003862381,0.11355999857187271,0.0982000008225441,-0.2650800049304962,-0.05528999865055084,0.10760000348091125,0.18133999407291412],[0.015780000016093254,-0.10181999951601028,0.10095000267028809,-0.1672700047492981,-0.10698000341653824,-0.04907999932765961,-0.061489999294281006,0.18967999517917633,-0.06667999923229218,-0.0009500000160187483,-0.05045999959111214,0.13068999350070953,-0.10125000029802322,-0.04633000120520592,-0.10497000068426132,0.32047998905181885,-0.03846000134944916],[-0.06532999873161316,0.18905000388622284,-0.006500000134110451,-0.14862999320030212,-0.18206000328063965,0.12779000401496887,0.28033000230789185,0.12338999658823013,0.3709000051021576,-0.06723999977111816,0.0742499977350235,0.15234999358654022,-0.11123999953269958,0.0076500000432133675,-0.029260000213980675,0.04075000062584877,0.10108000040054321],[0.20913000404834747,-0.11271999776363373,0.1383499950170517,-0.03799000009894371,0.07825999706983566,-0.15853999555110931,-0.14715999364852905,0.1378600001335144,0.05327000096440315,-0.09452000260353088,0.07762999832630157,-0.07944999635219574,0.06078999862074852,0.05460000038146973,0.12669000029563904,0.14860999584197998,0.027780000120401382],[0.096220001578331,0.04554000124335289,-0.16839000582695007,0.05197000131011009,0.014560000039637089,-0.025529999285936356,-0.400299996137619,0.03308999910950661,0.09455999732017517,0.014010000042617321,-0.22894999384880066,0.06560000032186508,-0.04335999861359596,0.11618000268936157,0.0008699999889358878,-0.010119999758899212,-0.07507000118494034],[0.038759998977184296,-0.05829999968409538,0.08872000128030777,-0.10651999711990356,0.0301900003105402,0.09933999925851822,0.10835999995470047,0.08636000007390976,0.09935999661684036,0.0806099995970726,0.1996999979019165,0.1726599931716919,0.07433000206947327,0.09638000279664993,-0.030729999765753746,-0.19801999628543854,0.10322000086307526],[-0.07295999675989151,-0.1133200004696846,-0.12059000134468079,0.16075000166893005,-0.07688000053167343,0.16471000015735626,-0.019039999693632126,-0.06182999908924103,-0.2549299895763397,0.094480000436306,-0.0717800036072731,-0.10135000199079514,0.21456000208854675,0.01307000033557415,0.10311999917030334,-0.18227000534534454,-0.06949000060558319],[-0.05990000069141388,-0.0879800021648407,0.007029999978840351,0.35493001341819763,-0.03773999959230423,0.2220200002193451,-0.055649999529123306,-0.04280000180006027,-0.1837799996137619,0.07884000241756439,0.13057999312877655,0.3013100028038025,0.06577000021934509,-0.10558000206947327,-0.10187000036239624,-0.06312999874353409,0.028960000723600388],[0.12063000351190567,-0.20830999314785004,-0.15779000520706177,0.1615999937057495,0.2599700093269348,-0.08636000007390976,0.06948000192642212,0.07022000104188919,0.15612000226974487,-0.08803000301122665,0.20170000195503235,0.0035500000230968,-0.08608999848365784,-0.03596999868750572,0.015560000203549862,0.006010000128298998,0.0832199975848198],[0.013659999705851078,-0.15919999778270721,0.20438000559806824,-0.1593800038099289,0.2530199885368347,0.27783000469207764,0.0008399999933317304,-0.08560000360012054,-0.13106000423431396,-0.133310005068779,0.01384000014513731,-0.05050000175833702,-0.07908999919891357,0.1491599977016449,0.08517999947071075,-0.15161000192165375,0.0024900001008063555],[-0.27180999517440796,-0.1879200041294098,-0.10388000309467316,-0.02701999992132187,-0.22247999906539917,0.15609000623226166,-0.014010000042617321,-5.999999848427251e-05,0.03027999959886074,0.17545999586582184,-0.1787700057029724,-0.13410000503063202,0.05257999897003174,-0.06261999905109406,-0.05609000101685524,-0.1456799954175949,0.08229999989271164],[-0.03488999977707863,-0.012319999746978283,0.25845998525619507,-0.08226999640464783,0.004230000078678131,0.02418000064790249,-0.22154000401496887,0.1785999983549118,-0.12644000351428986,-0.12666000425815582,-0.11309000104665756,-0.011959999799728394,0.1258399933576584,0.1012599989771843,-0.010160000063478947,-0.0014400000218302011,0.2000499963760376],[-0.24823999404907227,0.051830001175403595,-0.06470999866724014,-0.016860000789165497,-0.06718000024557114,-0.0724399983882904,0.008179999887943268,-0.044690001755952835,0.02954999916255474,0.08003000169992447,-0.1015700027346611,-0.15700000524520874,-0.11654999852180481,0.04926000162959099,0.09557999670505524,0.051010001450777054,0.1512400060892105],[0.07525999844074249,0.0027199999894946814,-0.07241000235080719,0.2601200044155121,0.010830000042915344,0.12883999943733215,0.25014999508857727,-0.19346000254154205,0.0767500028014183,0.0623599998652935,-0.036079999059438705,0.08522000163793564,-0.1448799967765808,-0.1551699936389923,0.1019899994134903,0.05699000135064125,0.03818000108003616],[-0.05575999990105629,0.24737000465393066,0.13051000237464905,-0.18897999823093414,0.1592700034379959,0.027739999815821648,0.07666999846696854,-0.25900998711586,0.12729999423027039,0.057989999651908875,-0.04820000007748604,0.08178000152111053,-0.09686999768018723,-0.0839100033044815,-0.07677000015974045,-0.065870001912117,0.04639999940991402],[-0.15023000538349152,-0.1056400015950203,-0.038100000470876694,-0.19304999709129333,0.02434000000357628,-0.047359999269247055,0.14327000081539154,-0.06164000183343887,-0.04538000002503395,0.10764999687671661,-0.026520000770688057,0.01647000014781952,0.08166000247001648,-0.17285999655723572,0.17156000435352325,0.06157999858260155,-0.14510999619960785],[-0.17288999259471893,0.09589000046253204,0.056540001183748245,0.12462999671697617,0.10750000178813934,-0.18995000422000885,0.2933399975299835,0.06572999805212021,-0.136570006608963,0.004840000066906214,0.04224000126123428,0.19681000709533691,0.09762000292539597,-0.10215000063180923,0.17236000299453735,-0.05184999853372574,0.014419999904930592],[-0.16773000359535217,0.2538900077342987,0.0033199999015778303,0.11152999848127365,-0.026990000158548355,-0.1985500007867813,0.11134999990463257,0.025939999148249626,-0.19152000546455383,0.13194000720977783,0.1347299963235855,-0.06633999943733215,0.09274999797344208,0.012310000136494637,-0.1336899995803833,-0.19625000655651093,-0.08253999799489975],[0.06510999798774719,-0.0030300000216811895,-0.010639999993145466,0.058490000665187836,0.063510000705719,-0.28040000796318054,0.11320000141859055,0.10846000164747238,0.10356999933719635,0.038339998573064804,-0.07071000337600708,0.12427999824285507,-0.06650000065565109,-0.0361500009894371,-0.025110000744462013,-0.16416999697685242,0.15387000143527985],[0.12741999328136444,-0.06023000180721283,0.16933999955654144,0.01370999962091446,-0.24661999940872192,0.1817300021648407,0.0834600031375885,0.0014700000174343586,-0.004600000102072954,0.15655000507831573,0.10284999758005142,-0.16440999507904053,0.16109000146389008,0.017170000821352005,0.11349000036716461,-0.055629998445510864,0.13726000487804413],[0.09843999892473221,0.12173999845981598,-0.2214999943971634,0.26607999205589294,-0.1504400074481964,0.06741999834775925,0.06524000316858292,0.0643400028347969,0.18559999763965607,-0.06741999834775925,0.009469999931752682,-0.07715000212192535,-0.03776000067591667,0.12195999920368195,-0.010490000247955322,-0.10837999731302261,-0.14312000572681427],[0.06323999911546707,-0.09577000141143799,0.20510999858379364,-0.20300999283790588,0.12324000149965286,0.08493000268936157,-0.02312999963760376,0.16922999918460846,-0.06199999898672104,-0.11979000270366669,0.2666099965572357,0.025790000334382057,-0.009259999729692936,0.022549999877810478,0.22865000367164612,-0.14595000445842743,-0.09175000339746475],[0.17461000382900238,-0.19701999425888062,-0.23071999847888947,0.003490000031888485,-0.03212999925017357,-0.07772000133991241,0.09544000029563904,-0.12470000237226486,-0.16689999401569366,-0.1683499962091446,-0.05040999874472618,0.18601000308990479,-0.16458000242710114,-0.0053400001488626,0.15045000612735748,0.1886100023984909,0.039250001311302185],[-0.006920000072568655,0.1765100061893463,0.004900000058114529,-0.16505999863147736,0.24049000442028046,-0.03669999912381172,-0.1959799975156784,0.00046999999904073775,0.009109999984502792,-0.1715800017118454,-0.005859999917447567,0.06699000298976898,-0.032979998737573624,-0.047929998487234116,-0.044840000569820404,-0.09284000098705292,0.18389999866485596],[0.0700799971818924,-0.018400000408291817,0.2771500051021576,0.08028999716043472,0.17798000574111938,-0.1277099996805191,0.0063599999994039536,0.135220006108284,-0.009139999747276306,-0.03084000013768673,0.07599999755620956,-0.11156000196933746,0.08752000331878662,0.22994999587535858,0.0741100013256073,-0.0660799965262413,0.09269999712705612],[-0.042160000652074814,-0.11971999704837799,-0.1139099970459938,0.13589000701904297,-0.16717000305652618,-0.06765999644994736,0.3426100015640259,0.14326000213623047,0.1356399953365326,0.003389999968931079,0.005909999832510948,-0.1448500007390976,-0.009829999879002571,-0.028379999101161957,0.03454999998211861,0.1509000062942505,0.08376000076532364],[0.2025199979543686,0.10326000303030014,-0.03799000009894371,-0.04148999974131584,-0.13942000269889832,-0.2815699875354767,0.2136400043964386,-0.03514000028371811,-0.11153999716043472,-0.23364000022411346,-0.1763100028038025,0.02515999972820282,-0.011429999954998493,0.09728000313043594,-0.07563000172376633,0.15094000101089478,0.03796999901533127],[-0.0013299999991431832,0.017400000244379044,0.08728999644517899,0.03378999978303909,0.31887999176979065,-0.045239999890327454,0.3889999985694885,0.06407000124454498,0.0060800001956522465,0.07735999673604965,-0.015610000118613243,0.0019000000320374966,0.11781000345945358,0.0737600028514862,-0.12138999998569489,0.0004199999966658652,0.07716000080108643],[0.052069999277591705,0.08256000280380249,-0.2043900042772293,0.2422100007534027,0.1932400017976761,-0.05397000163793564,0.002520000096410513,-0.01978999935090542,0.029729999601840973,0.18139000236988068,0.026280000805854797,-0.17409999668598175,-0.13324999809265137,-0.04884999990463257,0.08538000285625458,-0.22644999623298645,-0.09982000291347504],[-0.07328999787569046,-0.167480006814003,-0.19407999515533447,-0.07907000184059143,0.11715999990701675,-0.10558000206947327,0.20634999871253967,-0.07637999951839447,-0.13808999955654144,-0.08677999675273895,0.14059999585151672,0.1364399939775467,-0.13198000192642212,0.09192000329494476,0.07563000172376633,0.11533000320196152,0.09047000110149384],[0.25071999430656433,-0.003229999914765358,-0.1403599977493286,0.12073999643325806,-0.06654000282287598,0.06208999827504158,0.10022000223398209,0.12553000450134277,0.10315000265836716,-0.212909996509552,0.06831000000238419,0.027620000764727592,-0.1331000030040741,0.07227999716997147,0.26883000135421753,-0.2727699875831604,-0.02566000074148178],[0.08539000153541565,-0.1122799962759018,0.009139999747276306,-0.11180999875068665,-0.09777999669313431,0.04473999887704849,-0.35809001326560974,0.08536999672651291,-0.09907999634742737,0.03897000104188919,-0.04337000101804733,-0.013380000367760658,0.14351999759674072,-0.2575800120830536,0.03009999915957451,0.06735000014305115,0.11454000324010849],[-0.31049999594688416,0.1298999935388565,-0.037700001150369644,-0.06911999732255936,-0.021649999544024467,-0.01638999953866005,0.189860001206398,0.13429999351501465,-0.2164199948310852,-0.15086999535560608,0.023979999125003815,-0.06891000270843506,-0.14996999502182007,-0.021959999576210976,0.03936000168323517,-0.03260999917984009,0.03441999852657318],[0.07473000138998032,-0.01947000063955784,-0.06741999834775925,-0.14940999448299408,0.010379999876022339,-0.11022000014781952,-0.1509300023317337,-0.05583000183105469,-0.033799998462200165,0.14546999335289001,-0.03373999893665314,-0.06100999936461449,0.12003999948501587,0.020910000428557396,0.23162999749183655,-0.033080000430345535,0.12099000066518784],[0.14208999276161194,0.10270000249147415,0.0349700003862381,0.18567000329494476,-0.10791999846696854,0.18863999843597412,-0.22890999913215637,0.09138000011444092,0.0314599983394146,-0.11174000054597855,0.1538199931383133,0.12293999642133713,-0.1544100046157837,0.01090999972075224,-0.09036999940872192,0.029920000582933426,-0.0765800029039383],[0.1931000053882599,0.029810000211000443,0.07261999696493149,0.021889999508857727,-0.21473999321460724,-0.025860000401735306,-0.14005999267101288,-0.020679999142885208,0.06678999960422516,-0.11864999681711197,-0.10599000006914139,-0.031539998948574066,-0.001930000027641654,-0.1830500066280365,-0.08647999912500381,-0.1444299966096878,-0.03152000159025192],[0.07022999972105026,-0.06808999925851822,0.10633999854326248,0.0004299999854993075,0.08312000334262848,-0.2037699967622757,-0.024219999089837074,0.122359998524189,-0.20809000730514526,-0.32315000891685486,0.02060999907553196,0.01375999953597784,-0.02047000080347061,0.08196999877691269,-0.12103000283241272,0.19904999434947968,0.0791499987244606],[0.015960000455379486,-0.32475000619888306,-0.08225999772548676,-0.07608000189065933,-0.09266000241041183,-0.06492000073194504,-0.06511999666690826,0.03711999952793121,0.15769000351428986,0.10617999732494354,-0.06860999763011932,-0.15505999326705933,-0.03819999843835831,0.05087999999523163,-0.15839000046253204,0.1325799971818924,0.16586999595165253]],"b":[-0.0976099967956543,0.0210999995470047,-0.056290000677108765,-0.0888499990105629,-0.14523999392986298,0.008860000409185886,-0.09583999961614609,0.13149000704288483,-0.018549999222159386,0.04091000184416771,-0.12065999954938889,-0.012330000288784504,0.19312000274658203,-0.0972599983215332,0.0349700003862381,0.08253999799489975,-0.06603000313043594,0.1869799941778183,-0.1039699986577034,-0.04123999923467636,-0.09491000324487686,0.015110000036656857,0.14751000702381134,0.10615000128746033,-0.08938000351190567,0.04104999825358391,-0.13274000585079193,-0.09211000055074692,-0.02298000082373619,0.09307000041007996,0.003869999898597598,-0.1478700041770935,-0.029510000720620155,0.09485000371932983,0.022140000015497208,0.030239999294281006,-0.04580000042915344,-0.1321299970149994,-0.050680000334978104,0.009979999624192715,-0.07270000129938126,0.1151999980211258,-0.04194999858736992,-0.02809000015258789,0.1665000021457672,-0.05389000102877617,-0.0508200004696846,-0.028370000422000885,-0.11231999844312668,0.004509999882429838,-0.01939000003039837,-0.12291000038385391,0.07581999897956848,-0.1412699967622757,0.1458600014448166,0.05835000053048134,0.10604999959468842,-0.13583000004291534,0.11997999995946884,0.0812700018286705,0.08784999698400497,0.03895999863743782,-0.15841999650001526,0.0697299987077713,-0.08162999898195267,-0.17971999943256378,0.13083000481128693,-0.11967000365257263,0.10459999740123749,-0.06097999960184097,-0.047850001603364944,-0.13136999309062958,0.13030000030994415,0.09382999688386917,0.13631999492645264,0.011839999817311764,0.028349999338388443,0.09341000020503998,-0.15887999534606934,-0.0965299978852272,-0.024170000106096268,0.000590000010561198,0.1579499989748001,-0.15240000188350677,-0.014539999887347221,0.1412300020456314,0.018279999494552612,0.13360999524593353,-0.183119997382164,0.0775500014424324,0.1268399953842163,-0.026559999212622643,0.07891999930143356,0.12935000658035278,0.12105000019073486,-0.005470000207424164,-0.05042999982833862,0.13920000195503235,0.10262999683618546,0.09729000180959702,0.0567299984395504,0.06877999752759933,-0.012810000218451023,0.1773100048303604,-0.17502999305725098,-0.06378000229597092,-0.0941300019621849,0.18081000447273254,0.12231999635696411,0.13513000309467316,0.013039999641478062,-0.15027999877929688,0.15271000564098358,0.10089000314474106,0.1347299963235855,-0.13639000058174133,0.14315000176429749,-0.08984000235795975,-0.1111999973654747,-0.08754999935626984,-0.09611000120639801,0.1498199999332428,0.07091999799013138,0.1462700068950653,0.10238000005483627,0.12331999838352203,0.12751999497413635,-0.10909000039100647,-0.1279599964618683,0.08461999893188477,-0.10272999852895737,-0.08574000000953674,-0.10429999977350235,0.11480999737977982,-0.046709999442100525,-0.14643999934196472,0.13596999645233154,0.004370000213384628,0.14148999750614166,0.0957299992442131,-0.16126999258995056,0.049229998141527176,-0.019169999286532402,0.05917000025510788,-0.14256000518798828,-0.2043599933385849,0.10211999714374542,0.07823999971151352,0.01018999982625246,0.06290999799966812,0.02246999926865101,-0.13815000653266907,-0.15857000648975372,0.03141999989748001,0.1453000009059906,-0.013079999946057796,-0.006370000075548887,0.007679999805986881,0.06797999888658524,-0.08415000140666962,-0.14184999465942383,-0.021640000864863396,0.06464999914169312,0.10441000014543533,0.05414000153541565,0.05584000051021576,-0.1170400008559227,0.01954999938607216,0.09713999927043915,-0.11042000353336334,0.092289999127388,-0.028189999982714653,-0.13702000677585602,0.07485000044107437,0.027470000088214874,-0.015180000104010105,0.13725000619888306,-0.005450000055134296,0.02387000061571598,-0.05502999946475029,-0.17944000661373138,-0.11719000339508057,-0.04332999885082245,-0.04108000174164772,-0.17855000495910645,0.05195000022649765,-0.07013999670743942,-0.033229999244213104,0.09465999901294708,-0.046480000019073486,0.04732000082731247,-0.06469999998807907,-0.18170000612735748,0.10268999636173248,-0.04616999998688698,0.011730000376701355,-0.08562000095844269,-0.019759999588131905,-0.20241999626159668,0.005410000216215849,0.20253999531269073,-0.1236800029873848,-0.12935000658035278,-0.09081000089645386,-0.12469000369310379,0.046870000660419464,0.010759999975562096,-0.0814799964427948,-0.12839999794960022,-0.06247999891638756,0.02727999910712242,-0.0400799997150898,-0.06120999902486801,-0.1025800034403801,0.010610000230371952,0.11666999757289886,0.004399999976158142,0.05283999815583229,-0.007079999893903732,0.054349999874830246,-0.0806799978017807,0.09997999668121338,-0.11919999867677689,-0.16910000145435333,-0.1285099983215332,0.03338000178337097,-0.08369000256061554,0.06400000303983688,0.10576999932527542,-0.15039999783039093,-0.12596000730991364,0.12937000393867493,-0.019859999418258667,0.0514799989759922,0.05347999930381775,0.09546999633312225,-0.11321000009775162,0.1322299987077713,-0.10166999697685242,-0.0858599990606308,0.028230000287294388,-0.05576999858021736,-0.10926000028848648,-0.06069000065326691,-0.023900000378489494,-0.08720000088214874,0.017230000346899033,-0.12499000132083893,-0.006839999929070473,-0.23295000195503235,0.06241999939084053,-0.12786999344825745,0.06638000160455704,-0.10092999786138535,-0.07276999950408936,-0.05964000150561333],"act":"tanh","in":17,"out":256},{"w":[[0.12201999872922897,-0.23271000385284424,-0.0902400016784668,0.03443999961018562,-0.1627800017595291,0.04718000069260597,-0.013980000279843807,0.11492999643087387,-0.027230000123381615,0.20747999846935272,0.0934000015258789,-0.04772999882698059,-0.013559999875724316,-0.009460000321269035,-0.12972000241279602,0.021549999713897705,-0.00761000020429492,0.06137000024318695,-0.009069999679923058,-0.011920000426471233,-0.08801999688148499,-0.027780000120401382,0.07842999696731567,0.11999999731779099,-0.06474000215530396,0.14743000268936157,-0.0012000000569969416,-0.005630000028759241,-0.04854999855160713,-0.04656999930739403,-0.1615999937057495,0.02741999924182892,-0.2376600056886673,-0.0877700001001358,0.0711899995803833,0.16277000308036804,0.10239999741315842,0.07726000249385834,-0.028960000723600388,0.08234000205993652,-0.05364999920129776,-0.23975999653339386,0.008070000447332859,0.2943199872970581,-0.026690000668168068,-0.08573000133037567,-0.240339994430542,0.02993999980390072,0.1853799968957901,-0.09655000269412994,-0.06106000021100044,-0.01631000079214573,-0.11546000093221664,0.07881999760866165,0.05573999881744385,0.10366000235080719,0.055319998413324356,-0.016499999910593033,0.16261999309062958,0.04933999851346016,-0.03229999914765358,0.16131000220775604,-0.05079999938607216,0.018309999257326126,0.007930000312626362,0.03036000020802021,0.023420000448822975,0.0862400010228157,-0.02621999941766262,-0.0021299999207258224,0.0052999998442828655,-0.07232999801635742,-0.029500000178813934,0.04459000006318092,-0.033720001578330994,-0.09792999923229218,0.011459999717772007,0.27052998542785645,0.008860000409185886,0.02628999948501587,0.10327000170946121,-0.08590000122785568,0.038770001381635666,-0.04579000174999237,0.1560799926519394,0.121629998087883,-0.08879999816417694,-0.1280200034379959,0.18497000634670258,-0.10134000331163406,-0.05107999965548515,-0.01988999918103218,-0.29186001420021057,-0.08019000291824341,-0.10429000109434128,-0.019379999488592148,-0.2462099939584732,0.0865899994969368,-0.014560000039637089,-0.11287999898195267,-0.04018000140786171,0.10439000278711319,-0.150859996676445,-0.05618000030517578,-0.13568000495433807,0.10221000015735626,-0.045260000973939896,-0.0029299999587237835,0.040300000458955765,0.05959000065922737,-0.03013000078499317,0.16253000497817993,0.06154000014066696,-0.1170400008559227,-0.061879999935626984,0.23462000489234924,0.03237999975681305,-0.03413999825716019,0.11100000143051147,0.05415999889373779,-0.10062000155448914,0.05480999872088432,0.0061900001019239426,0.05733000114560127,-0.09512999653816223,0.30133000016212463,-0.08815000206232071,-0.03466999903321266,0.13533000648021698,0.02029000036418438,-0.018530000001192093,-0.11005000025033951,-0.061650000512599945,-0.20864999294281006,0.14334000647068024,0.1606599986553192,-0.1617099940776825,-0.01018999982625246,-0.06254000216722488,-0.220210000872612,0.011950000189244747,-0.09850999712944031,