{"env_id":"Walker2d-v5","model_xml":"walker2d_v5.xml","obs_dim":17,"act_dim":6,"nq":9,"nv":9,"nu":6,"frame_skip":4,"timestep":0.002,"dt":0.008,"action_low":[-1.0,-1.0,-1.0,-1.0,-1.0,-1.0],"action_high":[1.0,1.0,1.0,1.0,1.0,1.0],"obs_components":[{"kind":"qpos","start":1,"clip":null},{"kind":"qvel","start":0,"clip":[-10.0,10.0]}],"needs_rne":false,"init_qpos":[0.0,1.25,0.0,0.0,0.0,0.0,0.0,0.0,0.0],"init_qvel":[0.0,0.0,0.0,0.0,0.0,0.0,0.0,0.0,0.0],"reset_noise_scale":0.005,"healthy":{"terminate_when_unhealthy":true,"z_index":1,"z_range":[0.8,2.0],"angle_index":2,"angle_range":[-1.0,1.0],"state_range":null},"obs_labels":["rootz pos","rooty pos","thigh_joint pos","leg_joint pos","foot_joint pos","thigh_left_joint pos","leg_left_joint pos","foot_left_joint pos","rootx vel","rootz vel","rooty vel","thigh_joint vel","leg_joint vel","foot_joint vel","thigh_left_joint vel","leg_left_joint vel","foot_left_joint vel"],"action_labels":["thigh_joint","leg_joint","foot_joint","thigh_left_joint","leg_left_joint","foot_left_joint"],"normalization":{"mean":[1.153679370880127,-0.35900065302848816,-0.37524399161338806,-0.4117051362991333,0.5120429396629333,0.0024694912135601044,-0.07090115547180176,0.7106214761734009,0.5921187996864319,-0.047650691121816635,-0.1459798961877823,-0.07792890816926956,-0.12425220012664795,0.007647148799151182,-0.12026897072792053,-0.14663073420524597,-0.2639632225036621],"var":[0.0017871271120384336,0.045027147978544235,0.07830040901899338,0.1688327044248581,0.09040817618370056,0.009023526683449745,0.03388288989663124,0.07008428126573563,0.6188102960586548,0.19029051065444946,11.191835403442383,28.461822509765625,38.390235900878906,57.838043212890625,12.536541938781738,25.07440757751465,32.42094421386719],"epsilon":1e-08,"clip_obs":10.0},"policy_onnx":"walker2d__ppo_walker2d_run1__final.onnx","policy_net":{"input_dim":17,"layers":[{"w":[[-0.1982399970293045,0.09121000021696091,-0.051089998334646225,0.25964999198913574,-0.0865899994969368,-0.002469999948516488,-0.15509000420570374,0.10978999733924866,0.2986299991607666,0.03522999957203865,0.054990001022815704,0.02622999995946884,-0.08824999630451202,0.1459999978542328,0.021059999242424965,-0.2442999929189682,0.006479999981820583],[-0.08094000071287155,-0.3413200080394745,0.11072999984025955,-0.11643999814987183,0.08445999771356583,-0.12500999867916107,-0.0007999999797903001,0.05584999918937683,-0.10087999701499939,0.12007000297307968,0.020969999954104424,0.055240001529455185,0.08786000311374664,-0.19795000553131104,0.06729000061750412,0.15556000173091888,0.07248000055551529],[-0.2031099945306778,-0.06644000113010406,-0.051350001245737076,0.27393999695777893,-0.1301800012588501,-0.021640000864863396,0.2614000141620636,-0.017139999195933342,-0.03545999899506569,0.18016000092029572,-0.019530000165104866,0.012659999541938305,0.1390099972486496,0.04901000112295151,0.17781999707221985,0.17396000027656555,0.08735000342130661],[0.05412000045180321,-0.16313999891281128,0.01623000018298626,0.1259399950504303,-0.13398000597953796,0.33274000883102417,-0.19291000068187714,-0.04969999939203262,0.014299999922513962,0.08636999875307083,0.12612999975681305,0.2079000025987625,0.09482000023126602,-0.1996999979019165,0.030880000442266464,0.06887000054121017,-0.04960000142455101],[-0.06030000001192093,-0.13752999901771545,0.12590999901294708,0.11688999831676483,-0.07608000189065933,0.005869999993592501,0.09337999671697617,-0.014050000347197056,-0.2364799976348877,-0.14090999960899353,-0.03858000040054321,0.10386999696493149,0.049430001527071,-0.07613000273704529,0.004679999779909849,0.024289999157190323,-0.18932999670505524],[-0.024630000814795494,0.06633999943733215,-0.12024000287055969,-0.04245999827980995,-0.1471399962902069,-0.04276999831199646,0.25547999143600464,0.024900000542402267,0.27869001030921936,0.09159000217914581,0.03058999963104725,-0.1058100014925003,0.2078000009059906,0.031950000673532486,-0.08970999717712402,-0.2967900037765503,0.1619500070810318],[0.013989999890327454,0.1792600005865097,-0.06285999715328217,0.14970999956130981,-0.04490000009536743,0.020999999716877937,0.008150000125169754,-0.1090100035071373,0.02191999927163124,0.26337000727653503,0.2039400041103363,0.11175999790430069,-0.06057000160217285,0.02920999936759472,-0.04794999957084656,0.12931999564170837,0.037629999220371246],[0.0021100000012665987,0.0741799995303154,-0.03189000114798546,-0.014229999855160713,-0.06955999881029129,-0.007689999882131815,-0.007809999864548445,0.2316800057888031,-0.0027699999045580626,-0.0771699994802475,0.14282000064849854,-0.014809999614953995,0.06356000155210495,0.1893099993467331,0.40070998668670654,-0.16839000582695007,0.15230000019073486],[0.3115699887275696,-0.19016000628471375,-0.07490000128746033,0.11355999857187271,-0.025100000202655792,0.06456000357866287,0.060120001435279846,0.06112999841570854,-0.2057799994945526,0.12150000035762787,-0.04510999843478203,0.14094999432563782,-0.09640999883413315,-0.04981999844312668,0.020509999245405197,-0.088189996778965,0.16892999410629272],[-0.034690000116825104,-0.1549299955368042,0.04554999992251396,-0.049389999359846115,0.0806799978017807,0.06808999925851822,0.012590000405907631,-0.19413000345230103,0.26214998960494995,-0.1106100007891655,-0.03240000084042549,0.024800000712275505,0.07786999642848969,0.0638199970126152,0.24177999794483185,0.14176000654697418,-0.1752600073814392],[0.09386000037193298,0.21644000709056854,0.0333699993789196,-0.04159000143408775,0.08285000175237656,-0.0203000009059906,0.09954000264406204,-0.005539999809116125,0.18108999729156494,-0.19513000547885895,-0.06202000007033348,-0.044039998203516006,-0.03142999857664108,0.07647000253200531,-0.05305999889969826,-0.20794999599456787,-0.10587000101804733],[-0.09900999814271927,0.3151400089263916,-0.01432000007480383,-0.05226000025868416,0.3422499895095825,-0.07466000318527222,-0.016850000247359276,0.02013999968767166,0.06736999750137329,0.035679999738931656,-0.010040000081062317,-0.0430000014603138,0.0478300005197525,0.14510999619960785,-0.007799999788403511,0.05631000176072121,-0.05372000113129616],[0.04188000038266182,-0.16704000532627106,-0.005770000163465738,-0.10277999937534332,0.033720001578330994,-0.07968000322580338,-0.06746000051498413,0.14618000388145447,-0.03136000037193298,-0.22985999286174774,0.033980000764131546,-0.020719999447464943,-0.0020600000862032175,-0.0050200000405311584,0.011599999852478504,-0.014519999735057354,-0.14336000382900238],[0.002400000113993883,0.15976999700069427,-0.023679999634623528,-0.003000000026077032,-0.16936999559402466,0.020549999549984932,-0.10944999754428864,0.11772999912500381,0.19235999882221222,-0.14166000485420227,0.005450000055134296,-0.22717000544071198,-0.14372000098228455,-0.20441000163555145,0.07006999850273132,0.02319999970495701,-0.06977000087499619],[0.004720000084489584,-0.12599000334739685,-0.02459000051021576,-0.1954299956560135,-0.2264299988746643,-0.07635000348091125,0.12789000570774078,-0.1348000019788742,-0.10266000032424927,0.2356099933385849,0.09184999763965607,-0.013489999808371067,0.06724999845027924,-0.034210000187158585,0.21633000671863556,-0.10478000342845917,-0.0793600007891655],[-0.20755000412464142,0.1433199942111969,0.016030000522732735,0.08889000117778778,-0.16877000033855438,0.04221000149846077,0.1466899961233139,-0.16610999405384064,0.1143999993801117,-0.010900000110268593,0.011130000464618206,-0.1619199961423874,0.022099999710917473,0.18875999748706818,-0.14640000462532043,-0.11488000303506851,0.27351999282836914],[-0.2028599977493286,0.1378300040960312,0.12156999856233597,-0.1906999945640564,0.09690000116825104,0.009180000051856041,-0.07190000265836716,0.024970000609755516,-0.29791998863220215,0.10002999752759933,-0.11174000054597855,0.12835000455379486,-0.17135000228881836,-0.22008000314235687,-0.09393999725580215,0.03328000009059906,0.03511999920010567],[0.060169998556375504,-0.00279000005684793,-0.039719998836517334,-0.04174000024795532,0.07960999757051468,-0.022140000015497208,-0.0013000000035390258,-0.023989999666810036,-0.07016000151634216,-0.018519999459385872,-0.07902000099420547,-0.19618000090122223,0.07597000151872635,-0.18449999392032623,0.030889999121427536,0.018319999799132347,0.07393000274896622],[0.039969999343156815,0.02068999968469143,0.23557999730110168,0.048579998314380646,-0.0967399999499321,0.07242000102996826,0.007300000172108412,0.10040999948978424,0.03905000165104866,0.043549999594688416,-0.009309999644756317,-0.03536999970674515,0.0941300019621849,0.11495000123977661,0.10159999877214432,-0.1530199944972992,0.16321000456809998],[0.1602099984884262,0.031220000237226486,0.009879999794065952,0.1132500022649765,0.09582000225782394,0.07838000357151031,0.18163999915122986,0.3175399899482727,0.01510000042617321,-0.020759999752044678,0.0458500012755394,-0.0951400026679039,0.16317999362945557,0.23944999277591705,-0.04535999894142151,0.16264000535011292,-0.08933000266551971],[0.12283000349998474,0.13800999522209167,-0.09907999634742737,0.09889999777078629,0.11890999972820282,0.08868999779224396,0.010889999568462372,0.21240000426769257,0.0016799999866634607,0.02360999956727028,0.2740600109100342,0.07665999978780746,0.18206000328063965,-0.13325999677181244,0.11180000007152557,-0.12502999603748322,-0.06464999914169312],[0.05285000056028366,0.003920000046491623,-0.20987999439239502,-0.10090000182390213,-0.04746000096201897,0.28099000453948975,-0.035909999161958694,-0.032249998301267624,0.10482999682426453,0.14393000304698944,0.2154099941253662,0.06395000219345093,0.10233999788761139,0.06413000077009201,0.1819400042295456,0.186599999666214,-0.23214000463485718],[-0.1890300065279007,0.014530000276863575,-0.09130000323057175,-0.2175700068473816,-0.040789999067783356,0.16863000392913818,0.24311000108718872,-0.09113000333309174,-0.08716999739408493,0.032019998878240585,-0.0043299999088048935,-0.050680000334978104,-0.13469000160694122,0.07231999933719635,-0.1949699968099594,0.034279998391866684,-0.2437400072813034],[0.1219400018453598,0.12377999722957611,0.07180999964475632,-0.08059000223875046,-0.0021299999207258224,-0.23217999935150146,0.0420599989593029,0.1738400012254715,-0.07666999846696854,0.13785000145435333,0.04033000022172928,0.03156000003218651,-0.021609999239444733,-0.19863000512123108,0.19641999900341034,-0.0019199999514967203,0.14142000675201416],[-0.0289900004863739,0.009770000353455544,-0.004610000178217888,0.02848999947309494,0.23307999968528748,0.10471999645233154,0.1622299998998642,0.11087000370025635,0.15846000611782074,-0.20427000522613525,-0.2232999950647354,0.08495000004768372,-0.1911199986934662,0.007410000078380108,-0.12853999435901642,-0.04981999844312668,-0.027480000630021095],[-0.23340000212192535,0.1200999990105629,-0.12073999643325806,0.07378999888896942,-0.21007999777793884,0.16840000450611115,0.0951400026679039,-0.007170000113546848,0.09398999810218811,0.19820000231266022,0.2578200101852417,0.1958400011062622,0.008849999867379665,0.017170000821352005,-0.05762999877333641,-0.035029999911785126,0.07225000113248825],[-0.007019999902695417,0.2544400095939636,0.21342000365257263,0.1720300018787384,0.03189000114798546,0.09796000272035599,0.17343999445438385,0.0858599990606308,0.019050000235438347,0.08146999776363373,0.015610000118613243,0.11747000366449356,0.04089000076055527,-0.07704000174999237,-0.13067999482154846,-0.16179999709129333,-0.2863500118255615],[-0.12348999828100204,-0.2849099934101105,0.13582000136375427,-0.06168000027537346,0.024289999157190323,-0.286190003156662,-0.24108999967575073,0.09842000156641006,-0.07021000236272812,0.3654699921607971,0.11603999882936478,0.13898000121116638,0.018489999696612358,-0.10538999736309052,0.03686000034213066,0.13865000009536743,-0.13304999470710754],[-0.025790000334382057,0.03172999992966652,0.16324999928474426,0.1357399970293045,-0.0810599997639656,0.047109998762607574,0.1042499989271164,-0.042819999158382416,-0.1760600060224533,-0.17652000486850739,0.020309999585151672,0.021150000393390656,-0.20257000625133514,0.08715000003576279,-0.020810000598430634,-0.09183000028133392,-0.27713000774383545],[-0.00860000029206276,-0.09624999761581421,0.21225999295711517,-0.03970000147819519,-0.09993000328540802,0.013340000063180923,0.09003999829292297,-0.2615000009536743,0.042750000953674316,0.064970001578331,-0.011629999615252018,0.18994000554084778,-0.026030000299215317,-0.1851699948310852,0.1466200053691864,-0.07067999988794327,-0.051270000636577606],[-0.2552199959754944,-0.11187999695539474,0.13582000136375427,-0.11847999691963196,-0.0767500028014183,-0.09471999853849411,0.29530999064445496,0.08993999660015106,-0.2521199882030487,0.25756001472473145,0.030150000005960464,0.11732999980449677,0.16614000499248505,-0.08169999718666077,0.06922999769449234,0.1527000069618225,-0.09313999861478806],[-0.06722000241279602,-0.03858000040054321,0.07114999741315842,0.3416000008583069,-0.059470001608133316,-0.17782999575138092,-0.03880999982357025,0.13072000443935394,-0.02873999997973442,-0.32811999320983887,-0.12746000289916992,-0.08995000272989273,-0.07717999815940857,-0.011629999615252018,0.02735999971628189,-0.1579499989748001,-0.038189999759197235],[0.21883000433444977,0.08414000272750854,-0.0029800001066178083,-0.13928000628948212,-0.02515999972820282,0.13550999760627747,-0.05634000152349472,0.1573300063610077,0.15181000530719757,-0.06543999910354614,-0.3168199956417084,-0.011669999919831753,-0.13898000121116638,-0.031039999797940254,-0.03508000075817108,-0.12713000178337097,-0.014089999720454216],[-0.017720000818371773,0.29767999053001404,0.15685999393463135,-0.15760000050067902,0.15834000706672668,-0.2343599945306778,0.043719999492168427,0.08793999999761581,-0.12553000450134277,-0.0005799999926239252,0.23806999623775482,-0.11015000194311142,-0.01810000091791153,0.005499999970197678,-0.058889999985694885,-0.06176000088453293,-0.00406000018119812],[-0.09792999923229218,0.25791001319885254,-0.15738999843597412,0.025369999930262566,-0.035610001534223557,-0.10165999829769135,0.21522000432014465,-0.00848000030964613,0.22857999801635742,0.09917999804019928,-0.13001999258995056,-0.06812000274658203,0.0967399999499321,0.10649000108242035,0.019689999520778656,-0.2342199981212616,0.07023999840021133],[0.1253100037574768,0.143669992685318,0.17461000382900238,-0.06932999938726425,0.15166999399662018,0.37973999977111816,0.1720999926328659,-0.010529999621212482,-0.05280999839305878,0.04816000163555145,-0.05009999871253967,-0.035999998450279236,-0.10275000333786011,-0.09081000089645386,0.04250999912619591,0.03370000049471855,0.08693999797105789],[0.08259999752044678,-0.09895999729633331,-0.021709999069571495,0.08829999715089798,-0.051739998161792755,0.14469000697135925,-0.10964000225067139,0.19681000709533691,0.018330000340938568,-0.21286000311374664,0.09092999994754791,0.23781999945640564,-0.03824000060558319,-0.05324000120162964,-0.15107999742031097,-0.09245000034570694,-0.1036899983882904],[0.04228999838232994,-0.25867000222206116,-0.14359000325202942,-0.10930000245571136,-0.016589999198913574,-0.1740099936723709,0.05483999848365784,-0.028669999912381172,-0.1687999963760376,-0.14643000066280365,0.009569999761879444,0.059849999845027924,-0.10819999873638153,-0.031039999797940254,0.11264999955892563,0.1542000025510788,-0.04786999896168709],[-0.0979200005531311,0.32427000999450684,-0.15956999361515045,-0.009940000250935555,-0.17531000077724457,-0.1017099991440773,0.08748000115156174,-0.12110000103712082,0.22203999757766724,-0.1989700049161911,0.17026999592781067,-0.08478999882936478,0.058010000735521317,-0.06061000004410744,-0.11225000023841858,0.16532999277114868,-0.27222999930381775],[-0.06913000345230103,0.16124999523162842,0.12714000046253204,0.07859999686479568,0.2703000009059906,-0.05319000035524368,-0.12785999476909637,0.18783000111579895,-0.13046999275684357,0.10738000273704529,0.17805999517440796,0.06629999727010727,-0.1400199979543686,0.05682000145316124,0.21687999367713928,-0.19438999891281128,0.14767000079154968],[0.09249000251293182,-0.12076999992132187,-0.11642999947071075,-0.03889999911189079,0.019579999148845673,0.3137199878692627,0.05934000015258789,0.09420999884605408,0.11726000159978867,-0.07581000030040741,0.14250999689102173,0.02573000080883503,0.057110000401735306,-0.1975499987602234,-0.0032399999909102917,0.21149000525474548,-0.12274999916553497],[0.3167400062084198,-0.018459999933838844,0.04676000028848648,0.02597999945282936,-0.0392099991440773,0.018880000337958336,0.2262199968099594,0.22378000617027283,0.07242999970912933,-0.22271999716758728,0.051430001854896545,0.026820000261068344,0.07835999876260757,-0.2091200053691864,-0.02542000077664852,0.1368899941444397,-0.06255000084638596],[-0.032510001212358475,0.010850000195205212,-0.09199000149965286,-0.02216999977827072,0.3180600106716156,0.2270199954509735,0.04991000145673752,0.16755999624729156,0.021330000832676888,-0.027089999988675117,0.00023999999393709004,-0.02102999947965145,-0.1802300065755844,0.0638900026679039,0.028440000489354134,-0.3589699864387512,-0.06114000082015991],[-0.1177000030875206,0.10566999763250351,-0.06735999882221222,-0.04690000042319298,0.17542999982833862,0.04156000167131424,-0.15710000693798065,0.20660999417304993,0.18119999766349792,-0.08931999653577805,0.030820000916719437,-0.08782999962568283,0.020320000126957893,0.07514999806880951,0.15651999413967133,-0.030649999156594276,0.06254000216722488],[0.21154999732971191,-0.12601999938488007,-0.17667999863624573,-0.0668099969625473,-0.016780000180006027,0.03458999842405319,-0.1456799954175949,0.18764999508857727,0.07242999970912933,0.08810999989509583,0.1139800027012825,-0.15649999678134918,0.06611999869346619,-0.2205200046300888,0.08269999921321869,0.20633000135421753,-0.008990000002086163],[0.2382200062274933,-0.1684899926185608,0.098580002784729,-0.0261400006711483,0.3005099892616272,-0.045159999281167984,0.03376999869942665,0.1088699996471405,-0.045170001685619354,-0.06313999742269516,0.09675999730825424,0.11184000223875046,0.10106000304222107,-0.019139999523758888,0.037870001047849655,0.18006999790668488,0.12263999879360199],[0.0435199998319149,0.11840000003576279,0.1023000031709671,-0.004459999967366457,0.24638999998569489,0.13377000391483307,-0.01939000003039837,-0.089649997651577,0.08231999725103378,-0.08767999708652496,0.1271899938583374,0.023019999265670776,0.3516699969768524,0.07057999819517136,-0.07980000227689743,0.17944000661373138,0.023919999599456787],[0.16609999537467957,-0.022019999101758003,0.05534999817609787,0.05778999999165535,0.14994999766349792,0.2147199958562851,-0.16708999872207642,-0.05494999885559082,-0.0940999984741211,0.014720000326633453,0.07989999651908875,0.12471000105142593,0.06151000037789345,0.17802999913692474,0.006659999955445528,0.19755999743938446,-0.13075000047683716],[0.02985999919474125,0.1909399926662445,0.2726399898529053,0.08693999797105789,0.2658799886703491,-0.047520000487565994,-0.00860000029206276,0.0010999999940395355,0.000910000002477318,0.08986999839544296,-0.051750000566244125,0.04936999827623367,-0.18950000405311584,0.16832999885082245,-0.11022000014781952,0.017869999632239342,0.09889999777078629],[0.03533000126481056,0.05477999895811081,0.032990001142024994,-0.10471999645233154,0.07481999695301056,0.05274999886751175,-0.051330000162124634,-0.030629999935626984,0.06212000176310539,0.2755900025367737,0.05445000156760216,-0.1691800057888031,0.25464001297950745,-0.03971000015735626,-0.08184000104665756,0.08477000147104263,0.03815999999642372],[-0.253030002117157,-0.24710999429225922,0.005419999826699495,-0.0057299998588860035,0.0514799989759922,-0.11349000036716461,-0.1027199998497963,0.1901099979877472,0.011429999954998493,0.05087000131607056,-0.06603000313043594,-0.015250000171363354,-0.08598999679088593,0.12300000339746475,-0.005520000122487545,-0.3137100040912628,0.03102000057697296],[0.15015999972820282,-0.22984999418258667,-0.11389999836683273,-0.044029999524354935,-0.11495999991893768,-0.06857000291347504,-0.09072999656200409,-0.08384999632835388,-0.21467000246047974,-0.13728000223636627,-0.06458999961614609,0.12745000422000885,-0.006659999955445528,-0.2881700098514557,0.005319999996572733,0.01940000057220459,-0.053040001541376114],[-0.1667799949645996,0.004029999952763319,0.033959999680519104,-0.00215000007301569,0.08906999975442886,-0.058789998292922974,0.24574999511241913,0.033479999750852585,-0.04490000009536743,-0.01018999982625246,-0.23407000303268433,-0.018710000440478325,-0.3605499863624573,0.009610000066459179,-0.25314998626708984,0.11832000315189362,-0.01948999986052513],[-0.33212000131607056,-0.06646999716758728,0.03426999971270561,0.11721000075340271,-0.016850000247359276,-0.09482000023126602,-0.10334999859333038,-0.03584999963641167,-0.0034600000362843275,0.1988299936056137,-0.024800000712275505,-0.04140999913215637,0.0693499967455864,0.07337000221014023,-0.0081599997356534,-0.1595200002193451,0.3118700087070465],[-0.02264999970793724,-0.048590000718832016,0.19964000582695007,-0.03650999814271927,0.03891000151634216,0.17549000680446625,-0.03384000062942505,0.05714000016450882,-0.1718199998140335,-0.24445000290870667,0.12488999962806702,-0.013030000030994415,-0.10734999924898148,0.17767000198364258,0.04751000180840492,-0.09809000045061111,-0.04162000119686127],[0.0414000004529953,-0.010130000300705433,0.014659999869763851,0.23311999440193176,0.2352299988269806,0.20935000479221344,-0.12770000100135803,-0.051920000463724136,-0.03217000141739845,0.03520999848842621,-0.16921000182628632,-0.2096399962902069,-0.1526699960231781,-0.01549999974668026,0.03150999918580055,-0.03773000091314316,0.12033999711275101],[0.22367000579833984,-0.25505998730659485,-0.20352999866008759,-0.09254000335931778,-0.35964998602867126,-0.22585999965667725,-0.09255000203847885,0.1597599983215332,0.1176299974322319,0.08004000037908554,-0.08342000097036362,-0.043540000915527344,0.02985999919474125,0.055229999125003815,-0.0510299988090992,0.03711000084877014,0.08287999778985977],[-0.06684000045061111,0.12785999476909637,-0.10385999828577042,-0.1710599958896637,0.14708000421524048,-0.03465000167489052,0.08032000064849854,-0.05378999933600426,-0.05632000043988228,-0.038600001484155655,0.019780000671744347,0.041600000113248825,-0.08901999890804291,-0.03578000143170357,-0.09138999879360199,0.23574000597000122,-0.2215999960899353],[-0.028720000758767128,0.15278999507427216,-0.10668999701738358,-0.15902000665664673,0.006289999932050705,-0.21448999643325806,-0.1566299945116043,-0.17634999752044678,0.16211000084877014,-0.04723000153899193,-0.09266000241041183,-0.13484999537467957,-0.1425500065088272,-0.11048000305891037,0.13659000396728516,-0.12382999807596207,-0.004379999823868275],[0.07836999744176865,0.037310000509023666,0.120169997215271,0.010420000180602074,0.015560000203549862,0.24638999998569489,0.179189994931221,-0.054430000483989716,0.14237000048160553,-0.18788999319076538,0.08691000193357468,-0.12080000340938568,-0.09450999647378922,-0.2928600013256073,0.3045699894428253,-0.06473000347614288,-0.042569998651742935],[0.3842499852180481,-0.0391400009393692,-0.050999999046325684,0.07903999835252762,-0.12519000470638275,0.08296000212430954,-0.11952999979257584,-0.08440999686717987,0.00215999991632998,0.10135000199079514,-0.143669992685318,-0.09816999733448029,0.12325000017881393,-0.10888999700546265,-0.12355999648571014,-0.1050100028514862,-0.068790003657341],[-0.019269999116659164,-0.06565999984741211,-0.005439999978989363,-0.04004000127315521,-0.09511999785900116,0.0236200001090765,-0.2084999978542328,0.07721000164747238,-0.06503999978303909,0.3371100127696991,-0.11423999816179276,-0.20298999547958374,-0.21907000243663788,-0.14636999368667603,-0.1161699965596199,-0.014340000227093697,-0.14403000473976135],[-0.133310005068779,-0.04236000031232834,-0.06999000161886215,-0.10779000073671341,0.2810100018978119,0.1828799992799759,-0.065700002014637,-0.08800999820232391,-0.08566000312566757,0.011049999855458736,0.09279999881982803,0.08382000029087067,0.09397999942302704,0.2639099955558777,0.1965699940919876,-0.06457000225782394,0.004530000034719706],[-0.11952000111341476,0.04967999830842018,-0.2029699981212616,0.016429999843239784,-0.23507000505924225,-0.17396000027656555,0.09430000185966492,-0.014010000042617321,0.12661999464035034,0.09658999741077423,-0.1095300018787384,-0.12684999406337738,-0.01776999980211258,-0.3626999855041504,-0.09384000301361084,0.036809999495744705,0.10666000097990036],[0.21755999326705933,0.13999000191688538,-0.0067900000140070915,-0.1812800019979477,0.02597000077366829,-0.03353999927639961,-0.04512999951839447,-0.33142000436782837,0.22863000631332397,0.25339001417160034,-0.04843999817967415,0.12481000274419785,0.09430000185966492,-0.00011000000085914508,-0.07810000330209732,0.006169999949634075,0.12010999768972397],[-0.2819800078868866,0.1625099927186966,0.06786999851465225,-0.13699999451637268,0.02314000017940998,0.023099999874830246,-0.13675999641418457,0.05358999967575073,-0.033319998532533646,-0.050039999186992645,0.03564999997615814,-0.021409999579191208,-0.0846100002527237,0.043869998306035995,-0.27035000920295715,0.12286999821662903,0.0021699999924749136],[0.05998999997973442,0.007790000177919865,0.10256999731063843,-0.0910400003194809,0.08327999711036682,0.27976998686790466,-0.09189999848604202,0.19944000244140625,-0.04741999879479408,0.014390000142157078,-0.019460000097751617,-0.1025800034403801,-0.07489000260829926,0.1154400035738945,0.18456000089645386,-0.050680000334978104,0.285180002450943],[0.05477999895811081,-0.06151000037789345,0.1004600003361702,0.16877000033855438,0.09474000334739685,-0.14797000586986542,-0.008870000019669533,-0.03443999961018562,0.17348000407218933,0.1269800066947937,-0.03805999830365181,-0.05468999966979027,-0.0430000014603138,-0.19154000282287598,-0.09653999656438828,-0.004610000178217888,0.18764999508857727],[-0.06347999721765518,0.1534000039100647,0.19593000411987305,-0.042160000652074814,0.04594000056385994,0.1009799987077713,0.004360000137239695,-0.14593000710010529,0.0038499999791383743,-0.1026500016450882,0.11598999798297882,0.2462799996137619,0.13488000631332397,-0.055160000920295715,0.027629999443888664,0.03920000046491623,-0.26061001420021057],[0.030549999326467514,-0.04761999845504761,-0.02879999950528145,-0.1447100043296814,0.049949999898672104,-0.09856999665498734,-0.19654999673366547,0.06456000357866287,0.2801400125026703,-0.019169999286532402,0.1555899977684021,-0.06729999929666519,-0.2217400074005127,-0.013790000230073929,0.2348800003528595,0.06299000233411789,-0.13839000463485718],[0.02597999945282936,-0.19232000410556793,-0.08615999668836594,0.06317000091075897,-0.10452000051736832,-0.20252999663352966,0.15918999910354614,0.0392099991440773,0.08652999997138977,0.020549999549984932,-0.1980700045824051,-0.23729999363422394,-0.22166000306606293,0.01785000041127205,-0.1467600017786026,-0.0009200000204145908,0.19112999737262726],[0.07575999945402145,-0.1589300036430359,0.14781999588012695,0.18195000290870667,0.022870000451803207,0.08010999858379364,-0.095490001142025,-0.006310000084340572,0.039980001747608185,0.04799000173807144,0.08765000104904175,0.03917999938130379,0.33594000339508057,-0.07034999877214432,0.08199000358581543,0.0837400034070015,-0.1305299997329712],[-0.1676499992609024,-0.13244999945163727,0.16220000386238098,0.057110000401735306,-0.11614000052213669,-0.18643000721931458,0.1434600055217743,-0.12563000619411469,0.03133000060915947,0.17488999664783478,-0.06763000041246414,-0.01355000026524067,0.12522999942302704,-0.095210000872612,-0.012319999746978283,0.08640000224113464,-0.053599998354911804],[0.006310000084340572,0.17666000127792358,-0.19637000560760498,0.03953000158071518,0.018869999796152115,0.08167000114917755,-0.18885000050067902,-0.013700000010430813,0.37588998675346375,0.14022000133991241,0.02490999922156334,-0.1770700067281723,-0.23005999624729156,-0.026200000196695328,0.06510999798774719,-0.05265999957919121,0.11354000121355057],[-0.26045000553131104,0.19357000291347504,0.1480800062417984,-0.08634000271558762,-0.040300000458955765,-0.013930000364780426,0.1264999955892563,0.022110000252723694,0.06296999752521515,-0.05956000089645386,-0.028550000861287117,-0.14973999559879303,0.09211999922990799,0.1097399964928627,-0.31018999218940735,0.01030999980866909,0.006899999920278788],[0.09329000115394592,-0.04729999974370003,-0.10739000141620636,0.03499000146985054,0.02070000022649765,-0.049240000545978546,0.36921998858451843,-0.0502999983727932,-0.0976099967956543,-0.0629199966788292,0.004749999847263098,-0.2821899950504303,-0.061719998717308044,0.06875000149011612,-0.3315599858760834,0.21546000242233276,-0.025760000571608543],[0.041680000722408295,-0.2233700007200241,0.12013000249862671,0.041200000792741776,-0.1168299987912178,0.27020999789237976,0.09244000166654587,-0.028519999235868454,0.006539999973028898,0.020080000162124634,-0.068060003221035,0.19014999270439148,-0.16771000623703003,0.04267000034451485,0.43898001313209534,-0.2031400054693222,-0.13054999709129333],[0.04603999853134155,-0.12705999612808228,-0.10056000202894211,-0.11614999920129776,0.2890099883079529,-0.11330000311136246,0.14000000059604645,0.022859999909996986,0.17191000282764435,0.0327799990773201,0.029330000281333923,0.03348999843001366,-0.03655000030994415,0.11437000334262848,-0.0957999974489212,-0.05682000145316124,0.09141000360250473],[0.14813999831676483,-0.09679999947547913,0.003539999946951866,-0.08630000054836273,-0.050999999046325684,-0.19689999520778656,-0.2868399918079376,-0.005830000154674053,-0.1520799994468689,-0.16582000255584717,0.038350000977516174,0.10593999922275543,-0.07218000292778015,-0.018969999626278877,-0.007689999882131815,0.04741000011563301,-0.15261000394821167],[0.01978999935090542,-0.046480000019073486,-0.061799999326467514,-0.017100000753998756,-0.004980000201612711,-0.14233000576496124,-0.013700000010430813,0.19762000441551208,-0.279339998960495,0.019099999219179153,0.08415000140666962,0.09289000183343887,-0.21032999455928802,0.12596000730991364,-0.023280000314116478,-0.12592999637126923,-0.13763000071048737],[0.2393999993801117,0.03525000065565109,-0.00215000007301569,-0.15452000498771667,0.14906999468803406,0.1560799926519394,-0.019349999725818634,-0.009089999832212925,-0.09566999971866608,-0.19696000218391418,-0.11903999745845795,0.1091499999165535,0.05017000064253807,-0.025369999930262566,0.04309999942779541,-0.20821000635623932,0.04067999869585037],[0.09564000368118286,0.04560999944806099,0.0031799999997019768,-0.06646999716758728,-0.11342000216245651,0.15684999525547028,-0.1525299996137619,-0.056859999895095825,0.24602000415325165,0.029410000890493393,-0.11552999913692474,0.08094000071287155,-0.13334999978542328,0.013170000165700912,0.04187000170350075,0.14685000479221344,0.17227999866008759],[0.05615999922156334,-0.07109999656677246,0.22030000388622284,0.09322000294923782,0.07109999656677246,0.37738001346588135,0.06863000243902206,-0.15793000161647797,0.15006999671459198,-0.10016000270843506,-0.12021999806165695,0.23360000550746918,-0.08516000211238861,0.1324699968099594,0.20156000554561615,-0.09038999676704407,-0.09013999998569489],[0.11234000325202942,0.18062999844551086,-0.01858999952673912,-0.022609999403357506,0.01298999972641468,0.09644000232219696,-0.018540000542998314,0.20032000541687012,0.14563000202178955,0.03725000098347664,0.186939999461174,-0.1911800056695938,0.14862999320030212,-0.01964999921619892,-0.0004199999966658652,-0.2432200014591217,-0.03928999975323677],[0.20350000262260437,-0.025790000334382057,0.17644000053405762,0.143669992685318,0.1390399932861328,0.094480000436306,-0.13072000443935394,-0.10955999791622162,-0.09358000010251999,-0.10169000178575516,0.03017999976873398,0.21261000633239746,-0.035270001739263535,0.21081000566482544,0.16401000320911407,0.038520000874996185,-0.11371999979019165],[-0.027410000562667847,-0.07445000112056732,-0.2788600027561188,-0.03305000066757202,0.09408000111579895,0.04910000041127205,-0.15734000504016876,-0.03799999877810478,0.05468999966979027,-0.17739999294281006,-0.04523000121116638,-0.1288599967956543,-0.01728999987244606,-0.08862999826669693,-0.1887200027704239,0.14860999584197998,0.22922000288963318],[0.14404000341892242,-0.30851998925209045,0.07733999937772751,-0.10249000042676926,-0.11399000138044357,0.31832998991012573,-0.03387000039219856,-0.04287000000476837,-0.004860000219196081,0.0006900000153109431,-0.0038799999747425318,0.13144999742507935,0.052379999309778214,-0.10251999646425247,0.11011999845504761,-0.0656299963593483,-0.00044999999227002263],[0.0735199972987175,-0.05380000174045563,-0.008419999852776527,0.11253999918699265,0.10470999777317047,-0.060430001467466354,0.25102999806404114,-0.04932999983429909,-0.030249999836087227,-0.018619999289512634,0.16229000687599182,-0.05942999944090843,-0.10524000227451324,0.29962000250816345,-0.16944000124931335,0.06324999779462814,-0.20812000334262848],[-0.1003900021314621,-0.05234000086784363,0.05355000123381615,-0.020519999787211418,0.13982999324798584,0.13956999778747559,-0.3181599974632263,-0.06902000308036804,-0.13627000153064728,-0.10572999715805054,-0.0031300000846385956,-0.03578000143170357,-0.2256300002336502,0.06808999925851822,0.0003800000122282654,0.0653500035405159,-0.13447999954223633],[0.056449998170137405,0.06827999651432037,-0.21347999572753906,0.017149999737739563,-0.05508999899029732,0.050930000841617584,-0.20701999962329865,-0.05964000150561333,0.35885000228881836,0.11061999946832657,0.07051999866962433,-0.10452999919652939,0.23196999728679657,-0.20489999651908875,0.047860000282526016,-0.013679999858140945,-0.08540000021457672],[-0.002420000033453107,-0.08722999691963196,-0.12703000009059906,0.12773999571800232,-0.08495000004768372,0.11004000157117844,-0.003650000086054206,-0.023979999125003815,-0.16551999747753143,0.17358000576496124,-0.1129399985074997,-0.27445998787879944,-0.14008000493049622,0.02402999997138977,-0.36777999997138977,0.19753000140190125,0.014589999802410603],[0.05747999995946884,0.10083000361919403,0.2227800041437149,0.09415999799966812,0.07727000117301941,0.12570999562740326,0.0031999999191612005,0.03753000125288963,0.050700001418590546,-0.1736000031232834,-0.23249000310897827,0.08149000257253647,-0.02841999940574169,-0.11760000139474869,0.031279999762773514,-0.046890001744031906,-0.057270001620054245],[0.06317999958992004,-0.06728000193834305,0.22353999316692352,-0.008960000239312649,-0.18094000220298767,-0.055980000644922256,0.059579998254776,-0.05477000027894974,-0.24796000123023987,0.227510005235672,0.08434999734163284,0.20042000710964203,0.21211999654769897,-0.12150999903678894,0.0027000000700354576,0.14258000254631042,0.22787000238895416],[0.09825000166893005,0.12568999826908112,-0.1413400024175644,0.07971999794244766,0.011420000344514847,-0.15087999403476715,0.005200000014156103,-0.12937000393867493,0.19329999387264252,0.18379999697208405,0.05081000179052353,-0.1530500054359436,-0.006659999955445528,0.05544999986886978,0.07395999878644943,-0.0946900025010109,-0.1304599940776825],[0.1554500013589859,-0.06847000122070312,0.08682999759912491,-0.12882000207901,-0.0565899983048439,0.15341000258922577,0.07030999660491943,-0.34033000469207764,0.025930000469088554,-0.14007000625133514,0.17083999514579773,0.03951999917626381,-0.21246999502182007,0.12883999943733215,0.11681000143289566,-0.19537000358104706,-0.0370200015604496],[-0.0032500000670552254,0.0699400007724762,-0.1473200023174286,0.09271000325679779,-0.20796999335289001,-0.06604000180959702,0.11434999853372574,0.07998999953269958,0.09713999927043915,0.17941999435424805,-0.010180000215768814,-0.13404999673366547,0.04174000024795532,-0.3142099976539612,-0.033560000360012054,-0.0333000011742115,0.07373999804258347],[-0.08536999672651291,-0.1372700035572052,-0.220210000872612,0.10736999660730362,-0.17278000712394714,-0.09882000088691711,0.17184999585151672,-0.029270000755786896,-0.2004300057888031,0.19585999846458435,-0.025949999690055847,-0.09706000238656998,-0.0784899964928627,-0.13446000218391418,-0.07129000127315521,0.16234000027179718,-0.15735000371932983],[0.020090000703930855,-0.124549999833107,0.007240000180900097,-0.0604499988257885,0.046069998294115067,0.08263999968767166,0.028939999639987946,0.0066200001165270805,-0.038100000470876694,-0.29613998532295227,-0.22593000531196594,-0.03485000133514404,-0.16909000277519226,-0.36434999108314514,-0.016009999439120293,0.0858599990606308,-0.030640000477433205],[-0.023649999871850014,-0.08490999788045883,-0.2571200132369995,-0.11140000075101852,0.3177199959754944,-0.023579999804496765,-0.14589999616146088,-0.09144999831914902,0.0611100010573864,0.2140900045633316,0.000750000006519258,-0.19377000629901886,0.2460000067949295,0.16029000282287598,-0.2418999969959259,0.037450000643730164,0.024650000035762787],[0.19471000134944916,0.012889999896287918,-0.1951500028371811,0.013969999738037586,0.13822999596595764,0.11287999898195267,0.35220998525619507,0.211899995803833,0.12736999988555908,0.0327799990773201,0.04910000041127205,0.07677000015974045,0.2115900069475174,0.06266000121831894,-0.003819999983534217,0.005169999785721302,-0.020519999787211418],[0.2746100127696991,-0.2809399962425232,0.016860000789165497,0.057920001447200775,-0.17556999623775482,-0.08748000115156174,-0.2925899922847748,-0.0436599999666214,0.23723000288009644,-0.005789999850094318,0.14226000010967255,0.0210999995470047,0.1561499983072281,0.1099499985575676,-0.03395000100135803,-0.14398999512195587,-0.14390000700950623],[-0.0537399984896183,0.1512800008058548,-0.1487099975347519,0.14775000512599945,-0.11201000213623047,0.005049999803304672,0.2154500037431717,-0.04755999892950058,-0.1652500033378601,0.2037000060081482,0.022430000826716423,0.04039999842643738,-0.12063000351190567,-0.09260000288486481,-0.11608999967575073,-0.0016499999910593033,-0.041430000215768814],[-0.14088000357151031,-0.31321999430656433,0.07099000364542007,0.008290000259876251,-0.06735000014305115,-0.043219998478889465,0.04399000108242035,-0.09836000204086304,-0.07751999795436859,0.0022899999748915434,-0.00686000008136034,-0.03881999850273132,-0.2701199948787689,-0.07428999990224838,0.05768999829888344,0.2726700007915497,-0.12156999856233597],[0.017100000753998756,0.13773000240325928,-0.07101000100374222,0.0711899995803833,-0.05279000103473663,-0.11975999921560287,0.22116999328136444,0.15686999261379242,-0.35447999835014343,-0.02938999980688095,-0.18062999844551086,-0.18526999652385712,-0.1377200037240982,-0.2246900051832199,-0.07061000168323517,0.049139998853206635,-0.17847999930381775],[-0.07682999968528748,-0.0908999964594841,0.03840000182390213,-0.2200399935245514,0.14050999283790588,0.05940999835729599,-0.005309999920427799,0.11394999921321869,-0.11670999974012375,0.17583000659942627,0.020349999889731407,0.03691999986767769,-0.0008299999753944576,0.10864000022411346,-0.1334500014781952,0.3602199852466583,-0.1750900000333786],[0.18344999849796295,0.06164000183343887,-0.18535999953746796,0.2837199866771698,-0.022989999502897263,-0.2777999937534332,-0.03765000030398369,-0.1401900053024292,-0.1376899927854538,0.1935099959373474,-0.06661000102758408,-0.03012000024318695,0.13630999624729156,-0.1540299952030182,-0.06654000282287598,0.04157999902963638,0.11650999635457993],[-0.05917999893426895,0.06358999758958817,0.05099000036716461,0.10251999646425247,-0.14830000698566437,0.22192999720573425,0.03757999837398529,-0.1513500064611435,-0.17587000131607056,0.02742999978363514,-0.28804999589920044,-0.2073100060224533,0.030319999903440475,-0.30900999903678894,-0.24077999591827393,0.09092999994754791,-0.11196000128984451],[0.01205000001937151,0.053210001438856125,0.1854500025510788,-0.17490999400615692,0.21303999423980713,0.00171999994199723,0.05494999885559082,-0.07045000046491623,0.01850000023841858,0.029510000720620155,-0.1563500016927719,-0.06385000050067902,0.05449000000953674,-0.08070000261068344,0.014770000241696835,0.16699999570846558,-0.006670000031590462],[0.02256999909877777,0.03894000127911568,0.010590000078082085,-0.1412000060081482,-0.07342000305652618,0.017009999603033066,0.05680999904870987,-0.10812000185251236,-0.07174000144004822,-0.3321099877357483,-0.04125000163912773,0.14124000072479248,-0.06774000078439713,0.034690000116825104,0.1510699987411499,-0.0013899999903514981,-0.1404300034046173],[-0.08557000011205673,-0.2328599989414215,0.15171000361442566,-0.08816000074148178,0.1846199929714203,0.06866999715566635,0.03613999858498573,-0.21097999811172485,0.008750000037252903,-0.0076299998909235,0.1885800063610077,0.03996000066399574,0.01802000030875206,-0.02305999957025051,0.2079399973154068,-0.05322999879717827,-0.05375999957323074],[0.02565000019967556,0.07010000199079514,0.012509999796748161,0.05014000087976456,-0.10510999709367752,0.08335000276565552,-0.16921000182628632,-0.19106000661849976,-0.29159000515937805,0.4196999967098236,-0.00848000030964613,0.11415000259876251,-0.010010000318288803,0.03020000085234642,-0.2366199940443039,0.2391200065612793,-0.15544000267982483],[-0.2242099940776825,0.09519000351428986,-0.09903000295162201,-0.018950000405311584,-0.05854000151157379,0.11687000095844269,-0.24609999358654022,-0.015560000203549862,0.028020000085234642,0.016039999201893806,-0.046879999339580536,-0.08786000311374664,0.06797999888658524,0.0685499981045723,-0.020589999854564667,0.07304000109434128,0.2852500081062317],[-0.17044000327587128,0.07264000177383423,0.0013099999632686377,-0.25501999258995056,-0.20340999960899353,-0.15649999678134918,0.0021200000774115324,-0.027499999850988388,0.12494999915361404,0.021940000355243683,0.161530002951622,-0.01802000030875206,0.02937999926507473,-0.3279600143432617,-0.12723000347614288,0.14900000393390656,-0.044199999421834946],[-0.02985999919474125,-0.06669999659061432,0.16543999314308167,0.04416000097990036,0.09638000279664993,0.1071700006723404,0.15637999773025513,0.11231999844312668,-0.2227499932050705,-0.006339999847114086,0.052230000495910645,0.014179999940097332,0.1174200028181076,-0.08275999873876572,-0.021560000255703926,0.04580000042915344,-0.28641998767852783],[0.14024999737739563,0.05180000141263008,0.13147999346256256,-0.016039999201893806,0.20970000326633453,0.037780001759529114,-0.05302000045776367,0.23906999826431274,-0.059459999203681946,-0.12172999978065491,0.13872000575065613,0.07101000100374222,0.1023000031709671,-0.012640000320971012,0.11155000329017639,-0.06277000159025192,-0.039090000092983246],[0.0040699997916817665,0.32673999667167664,-0.14038999378681183,0.07361000031232834,0.07808999717235565,-0.042100001126527786,-0.04774999991059303,0.15978999435901642,-0.13071000576019287,-0.060180000960826874,0.0012499999720603228,-0.12176000326871872,-0.0019000000320374966,0.10384999960660934,0.14733000099658966,-0.10975000262260437,0.004989999812096357],[0.07968000322580338,-0.18178999423980713,-0.04035999998450279,-0.12720000743865967,-0.19224999845027924,0.08319000154733658,-0.18248000741004944,-0.07830999791622162,0.1680999994277954,-0.13806000351905823,-0.1131099984049797,0.006089999806135893,-0.038120001554489136,-0.03232000023126602,0.0952799990773201,-0.0849900022149086,-0.005590000189840794],[-0.03984000161290169,-0.06649000197649002,-0.06644999980926514,0.04366999864578247,-0.010230000130832195,0.04244000092148781,0.09296000003814697,0.09937000274658203,-0.2044599950313568,-0.018650000914931297,0.22791999578475952,0.15343999862670898,0.1736699938774109,0.08138000220060349,0.17685000598430634,0.021369999274611473,0.25718000531196594],[0.059369999915361404,0.01566999964416027,-0.2640799880027771,0.14121000468730927,0.06682000309228897,0.05009999871253967,0.17946000397205353,0.0784199982881546,-0.22059999406337738,-0.0070500001311302185,0.018149999901652336,-0.028310000896453857,0.0022899999748915434,0.1373099982738495,0.10397999733686447,-0.08596000075340271,0.017820000648498535],[0.03694000095129013,-0.007009999826550484,-0.0643099993467331,0.1329600065946579,0.07836999744176865,-0.2275400012731552,-0.02710000053048134,0.0011899999808520079,-0.022749999538064003,0.24935999512672424,0.1229500025510788,-0.1399099975824356,0.2812899947166443,0.12519000470638275,-0.2101300060749054,-0.00039999998989515007,0.2273699939250946],[-0.1463399976491928,-0.09285999834537506,0.25666001439094543,0.05764999985694885,-0.12470000237226486,-0.043540000915527344,-0.02864000014960766,-0.02085999958217144,-0.11394000053405762,0.01013999991118908,-0.07142999768257141,0.11727000027894974,-0.005009999964386225,-0.05544000118970871,0.0094200000166893,-7.999999797903001e-05,0.2153400033712387],[0.09257999807596207,0.19112999737262726,0.053849998861551285,-0.2337999939918518,-0.04997999966144562,0.06027999892830849,-0.06341999769210815,0.07582999765872955,-0.017400000244379044,-0.05846000090241432,-0.20059999823570251,-0.17851999402046204,0.026259999722242355,-0.01874000020325184,-0.16309000551700592,-0.005909999832510948,-0.009429999627172947],[-0.036240000277757645,0.08938000351190567,-0.13779999315738678,-0.06353999674320221,-0.23677000403404236,-0.24052999913692474,-0.15376000106334686,-0.011350000277161598,0.13615000247955322,0.2024500072002411,0.02995000034570694,0.04772999882698059,0.041999999433755875,-0.05961000174283981,0.022700000554323196,-0.08895999938249588,-0.07301999628543854],[0.00750999990850687,-0.03150000050663948,0.010970000177621841,-0.07981999963521957,0.039889998733997345,0.05829999968409538,0.11796999722719193,-0.066600002348423,-0.158160001039505,-0.2729699909687042,0.039820000529289246,-0.053530000150203705,0.03508000075817108,-0.1427599936723709,0.11745999753475189,0.08732999861240387,0.10412999987602234],[-0.04490000009536743,0.027170000597834587,0.01775999926030636,-0.0910400003194809,-0.0015300000086426735,0.16592000424861908,-0.16391000151634216,0.15309999883174896,0.22649000585079193,0.23350000381469727,0.10717999935150146,0.022700000554323196,-0.16012999415397644,0.10772000253200531,0.1344199925661087,-0.09187000244855881,-0.019029999151825905],[-0.10115999728441238,0.12140999734401703,-0.11146000027656555,0.11747000366449356,0.06312000006437302,0.06202000007033348,0.057590000331401825,0.08323000371456146,-0.035420000553131104,-0.13710999488830566,-0.28325000405311584,0.10186000168323517,-0.15649999678134918,0.03564000129699707,-0.123259998857975,-0.08211000263690948,-0.09818000346422195],[0.1369899958372116,-0.004170000087469816,-0.042729999870061874,-0.03353999927639961,0.34898000955581665,0.05593999847769737,0.07062000036239624,-0.10610999912023544,-0.2515900135040283,-0.24318000674247742,0.17990000545978546,0.006099999882280827,0.1944500058889389,0.2018200010061264,-0.005059999879449606,0.1700499951839447,-0.08938000351190567],[-0.06492000073194504,0.014010000042617321,-0.06352999806404114,0.027739999815821648,0.2597000002861023,-0.028689999133348465,0.016589999198913574,0.07993000000715256,-0.056529998779296875,-0.08183000236749649,-0.06196000054478645,0.031190000474452972,-0.06063999980688095,-0.013199999928474426,-0.31014999747276306,0.12666000425815582,-0.08838000148534775],[0.15504999458789825,0.1333799958229065,-0.0720599964261055,-0.08444999903440475,-0.010590000078082085,0.18893000483512878,-0.0694499984383583,0.11924000084400177,0.20931999385356903,-0.16929000616073608,-0.012179999612271786,-0.026850000023841858,-0.02556999959051609,-0.10107000172138214,0.2259099930524826,-0.24666999280452728,0.10533999651670456],[-0.04414999857544899,-0.13578000664710999,-0.23315000534057617,0.07868000119924545,-0.13494999706745148,-0.2211499959230423,0.23916999995708466,-0.10124000161886215,-0.12884999811649323,-0.0843999981880188,0.11811000108718872,-0.17076000571250916,0.051669999957084656,0.19298000633716583,0.08523999899625778,-0.07698000222444534,0.029670000076293945],[0.12767000496387482,-0.0966000035405159,-0.18369999527931213,-0.032760001718997955,0.21965999901294708,0.20326000452041626,-0.19878000020980835,0.026399999856948853,-0.052310001105070114,0.13199999928474426,0.17430999875068665,0.18827000260353088,0.07272999733686447,-0.04089999943971634,0.1636199951171875,0.07591000199317932,-0.05617000162601471],[-0.18368999660015106,0.06604000180959702,-0.023930000141263008,0.018640000373125076,0.13565999269485474,-0.13471999764442444,0.0517599992454052,-0.2873600125312805,-0.19426000118255615,-0.06588999927043915,-0.028589999303221703,0.05335000157356262,0.06971000134944916,0.2812800109386444,0.18967999517917633,-0.13471999764442444,-0.0016799999866634607],[-0.12263000011444092,0.16227999329566956,0.006500000134110451,0.2018900066614151,-0.006240000016987324,0.017890000715851784,-0.01776999980211258,-0.0946199968457222,-0.1296900063753128,0.14774000644683838,0.22109000384807587,-0.030990000814199448,0.13527999818325043,0.0378899984061718,0.016119999811053276,0.19776999950408936,0.004559999797493219],[-0.011339999735355377,0.09522999823093414,-0.08833999931812286,-0.17569999396800995,0.13885000348091125,-0.03537999838590622,0.41075000166893005,0.11597000062465668,0.14313000440597534,0.07272999733686447,0.010769999586045742,0.023669999092817307,0.07772000133991241,0.07470999658107758,-0.04969999939203262,0.025629999116063118,-0.0830800011754036],[-0.1675799936056137,0.012559999711811543,-0.18172000348567963,-0.006240000016987324,-0.04682999849319458,-0.037209998816251755,0.2461400032043457,-0.08150999993085861,0.06411000341176987,0.16323000192642212,0.0855100005865097,-0.04912000149488449,0.04546000063419342,-0.1799200028181076,-0.06586000323295593,-0.18472999334335327,0.14045000076293945],[0.10487999767065048,-0.07043000310659409,0.005690000019967556,-0.09465000033378601,-0.056439999490976334,0.10188999772071838,-0.20961999893188477,0.05364999920129776,0.13580000400543213,0.09921000152826309,-0.005570000037550926,0.14982999861240387,-0.13312000036239624,0.007860000245273113,0.10350999981164932,-0.0701799988746643,0.005869999993592501],[-0.03375000134110451,0.1667100042104721,0.04194999858736992,0.10813000053167343,0.01655999943614006,-0.10497000068426132,0.09337999671697617,0.10722000151872635,0.1843400001525879,0.08908999711275101,0.06970000267028809,-0.25056999921798706,0.15934999287128448,-0.18242000043392181,-0.00471000000834465,-0.07353000342845917,-0.1510699987411499],[0.13157999515533447,0.062460001558065414,0.06492000073194504,0.06429000198841095,-0.08081000298261642,-0.17257000505924225,0.24753999710083008,0.019260000437498093,0.12818999588489532,0.23051999509334564,0.16539999842643738,-0.09821999818086624,-0.060499999672174454,0.16103999316692352,0.024529999122023582,0.12450999766588211,-0.09139999747276306],[0.10200999677181244,0.015990000218153,-0.051669999957084656,0.10576000064611435,-0.049070000648498535,0.037790000438690186,0.08425000309944153,0.07384999841451645,-0.12337999790906906,0.1286499947309494,-0.05513999983668327,-0.01083999965339899,0.20833000540733337,-0.07806000113487244,0.0427899993956089,-0.20200000703334808,-0.1416199952363968],[0.057590000331401825,0.012649999931454659,0.2218800038099289,-0.2744700014591217,0.13007999956607819,0.05869000032544136,0.020479999482631683,-0.07864999771118164,0.22187000513076782,0.04808000102639198,0.027879999950528145,0.0885699987411499,-0.011730000376701355,-0.1474200040102005,0.048420000821352005,0.02703000046312809,-0.29649001359939575],[-0.050360001623630524,0.14297999441623688,-0.06821999698877335,-0.037539999932050705,0.18318000435829163,-0.10322999954223633,-0.038270000368356705,0.038419999182224274,0.0007399999885819852,0.17059999704360962,0.08160000294446945,0.026650000363588333,0.0030900000128895044,0.09915000200271606,0.24637000262737274,0.0008900000248104334,0.0616299994289875],[0.12546999752521515,0.021050000563263893,-0.009050000458955765,-0.06814000010490417,-0.18216000497341156,0.03974999859929085,0.18145999312400818,0.11366000026464462,-0.1714800000190735,0.16518999636173248,0.1960500031709671,0.15253999829292297,-0.20047999918460846,-0.18129000067710876,-0.05270000174641609,0.04540000110864639,-0.1757500022649765],[-0.020080000162124634,-0.059050001204013824,-0.047520000487565994,0.136680006980896,0.07457000017166138,-0.031230000779032707,0.19846999645233154,-0.19399000704288483,-0.10639999806880951,-0.043790001422166824,-0.08902999758720398,-0.07581000030040741,-0.03150999918580055,0.28567999601364136,0.12020999938249588,-0.2117599993944168,0.03488999977707863],[-0.1174200028181076,0.1543000042438507,-0.1623699963092804,0.00571999978274107,0.11111000180244446,0.0011399999493733048,-0.20518000423908234,0.16710999608039856,0.210099995136261,0.05195000022649765,-0.07197999954223633,-0.15255999565124512,0.10366000235080719,0.07519999891519547,0.24934999644756317,-0.09453999996185303,0.04156000167131424],[0.26899001002311707,0.1660899966955185,-0.15902000665664673,0.05153999850153923,0.01745999976992607,-0.27542001008987427,0.0894400030374527,-0.027000000700354576,-0.14350000023841858,0.02879999950528145,-0.10631000250577927,-0.04692000150680542,0.05716999992728233,0.1879899948835373,-0.4262700080871582,0.19899000227451324,0.0502300001680851],[-0.023900000378489494,0.05138999968767166,0.27504000067710876,0.04453999921679497,0.006810000166296959,0.09527000039815903,-0.03384999930858612,0.1104699969291687,-0.10293000191450119,-0.0922200009226799,0.030009999871253967,0.03919000178575516,0.005119999870657921,-0.037950001657009125,-0.1419299989938736,-0.0997299998998642,-0.15734000504016876],[0.2209700047969818,-0.0952799990773201,-0.09369000047445297,-0.0377499982714653,0.16255000233650208,-0.1958799958229065,0.005330000072717667,-0.08807999640703201,0.019670000299811363,-0.05280999839305878,-0.02694999985396862,0.0328500010073185,-0.179189994931221,0.012009999714791775,-0.12127000093460083,0.09279000014066696,0.018880000337958336],[-0.12699000537395477,-0.13640999794006348,0.00812000036239624,-0.06418000161647797,-0.11732999980449677,0.11479000002145767,0.08683999627828598,-0.020729999989271164,-0.10113000124692917,-0.21637000143527985,0.28477001190185547,-0.015610000118613243,-0.09210000187158585,-0.24462999403476715,0.013670000247657299,-0.035590000450611115,-0.044840000569820404],[-0.11483000218868256,0.03378000110387802,0.03781000152230263,-0.07434999942779541,0.07897999882698059,0.10211999714374542,0.23074999451637268,0.04909000173211098,-0.3412100076675415,0.0494999997317791,0.0364999994635582,0.1468600034713745,0.055890001356601715,-0.08450999855995178,0.006949999835342169,0.0029800001066178083,0.10255999863147736],[0.22492000460624695,-0.17720000445842743,-0.0221599992364645,-0.055330000817775726,0.1893099993467331,0.02264999970793724,0.03317999839782715,-0.12996000051498413,0.0038399999029934406,0.4302699863910675,0.018719999119639397,0.05014000087976456,0.09275999665260315,0.05307000130414963,0.03847000002861023,0.03229000046849251,-0.14079000055789948],[0.0004600000102072954,0.0740400031208992,-0.16083000600337982,0.0663599967956543,-0.03466999903321266,0.07124999910593033,0.017340000718832016,0.19594000279903412,0.20353999733924866,-0.0011899999808520079,0.353549987077713,0.12824000418186188,-0.034929998219013214,-0.04510999843478203,0.1287499964237213,-0.03167000040411949,0.10023000091314316],[0.1765500009059906,0.05483999848365784,0.10127999633550644,-0.017319999635219574,0.010320000350475311,-0.06481000036001205,-0.16432000696659088,0.20622000098228455,0.0008699999889358878,0.20618000626564026,-0.09786000102758408,-0.014259999617934227,-0.03245000168681145,0.04456999897956848,-0.015519999898970127,-0.1458600014448166,0.07810000330209732],[0.17282000184059143,0.06616000086069107,0.16425000131130219,0.062460001558065414,0.21544000506401062,-0.06645999848842621,-0.14219999313354492,-0.039340000599622726,-0.09391000121831894,-0.0774800032377243,-0.025450000539422035,0.0711899995803833,0.05617000162601471,0.09741000086069107,0.2097100019454956,0.13853999972343445,-0.11180999875068665],[-0.039239998906850815,0.00044999999227002263,-0.20184999704360962,0.07407999783754349,-0.08669999986886978,-0.05784999951720238,0.19343000650405884,-0.18827000260353088,-0.05691999942064285,-0.07101999968290329,-0.2359199970960617,0.1302099972963333,-0.04707000032067299,-0.19151000678539276,-0.13906000554561615,0.007369999773800373,-0.11581999808549881],[0.03203999996185303,0.055709999054670334,0.07394000142812729,-0.06270000338554382,-0.13726000487804413,-0.015709999948740005,-0.1677899956703186,-0.014790000393986702,-0.003160000080242753,0.03606000170111656,0.07587999850511551,0.14598999917507172,0.13190999627113342,-0.24129000306129456,-0.16437000036239624,0.1728300005197525,-0.04117000102996826],[-0.04546000063419342,-0.030570000410079956,-0.026419999077916145,-0.1828099936246872,0.1332399994134903,-0.0707399994134903,-0.14640000462532043,0.011180000379681587,-0.09204000234603882,-0.12120000272989273,-0.09076999872922897,-0.12443999946117401,0.10770999640226364,0.0715700015425682,-0.20184999704360962,0.10095000267028809,0.21922999620437622],[-0.03432999923825264,0.06831999868154526,0.06842000037431717,0.08146999776363373,0.00812000036239624,0.13323000073432922,0.0705299973487854,-0.06780000030994415,-0.15615999698638916,0.09115999937057495,0.022989999502897263,0.050999999046325684,0.09546999633312225,-0.24666999280452728,0.08278000354766846,-0.03367000073194504,0.18059000372886658],[-0.08229000121355057,0.052639998495578766,0.03237000107765198,0.048239998519420624,-0.1462700068950653,-0.23030999302864075,-0.01834000088274479,0.015479999594390392,-0.06830000132322311,0.19742999970912933,-0.1222200021147728,-0.2457599937915802,0.039250001311302185,-0.10299000144004822,-0.21841999888420105,-0.08501999825239182,0.037459999322891235],[-0.07968000322580338,-0.11804000288248062,-0.17143000662326813,0.05756999924778938,-0.1714800000190735,-0.06956999748945236,-0.08420000225305557,0.16637000441551208,0.2560499906539917,0.2271299958229065,0.17605000734329224,-0.06757999956607819,0.09871000051498413,0.10576999932527542,0.001610000035725534,-0.12951000034809113,0.18558000028133392],[0.008100000210106373,0.15629999339580536,0.10299000144004822,0.08641000092029572,0.07050999999046326,-0.2836500108242035,0.02993999980390072,0.1642100065946579,-0.124269999563694,0.09458000212907791,0.03880000114440918,0.005499999970197678,0.15769000351428986,0.13944999873638153,0.07086999714374542,-0.023000000044703484,-0.1369899958372116],[-0.011780000291764736,0.014550000429153442,0.15004000067710876,0.06614000350236893,0.09335000067949295,-0.0002800000074785203,0.03826000168919563,0.10708999633789062,0.05149000138044357,0.06904000043869019,-0.0560000017285347,-0.10691999644041061,0.1034500002861023,0.21184000372886658,-0.12286999821662903,0.00901000015437603,0.11242000013589859],[-0.12381000071763992,-0.04667000100016594,-0.08893000334501266,-0.12644000351428986,0.10350000113248825,-0.07988999783992767,0.037859998643398285,0.23228000104427338,0.19958999752998352,-0.1414099931716919,-0.013269999995827675,0.1917800009250641,-0.00930000003427267,0.12009000033140182,-0.11586999893188477,0.01090999972075224,0.14509999752044678],[-0.21344999969005585,-0.09589999914169312,-0.1448799967765808,0.040150001645088196,0.05087000131607056,0.10275000333786011,0.06694000214338303,-0.06537000089883804,-0.030540000647306442,-0.354559987783432,0.05525999888777733,-0.07951000332832336,-0.0015699999639764428,-0.08522000163793564,0.06950999796390533,-0.0825200006365776,0.09076999872922897],[-0.005150000099092722,-0.046640001237392426,-0.11807999759912491,0.01551000028848648,0.013539999723434448,-0.3947399854660034,0.08106999844312668,-0.01145000010728836,0.06659000366926193,0.343860000371933,-0.06415999680757523,0.09927000105381012,0.011119999922811985,-0.14579999446868896,0.051580000668764114,0.122809998691082,0.12039999663829803],[0.1680299937725067,-0.08935000002384186,0.207179993391037,-0.049619998782873154,0.05423999950289726,0.20134000480175018,0.0017000000225380063,0.05249999836087227,-0.054919999092817307,-0.046480000019073486,0.19673000276088715,0.21583999693393707,0.19085000455379486,-0.151309996843338,0.017960000783205032,0.02418999932706356,-0.027969999238848686],[-0.12997999787330627,0.13925999402999878,0.03985000029206276,-0.005909999832510948,-0.04458000138401985,-0.063680000603199,0.05776999890804291,-0.11824999749660492,0.034540001302957535,0.4179700016975403,-0.07276000082492828,0.035349998623132706,-0.028850000351667404,0.13301999866962433,-0.08997999876737595,-0.04648999869823456,0.006049999967217445],[-0.04047999903559685,-0.07840000092983246,-0.061400000005960464,-0.17387999594211578,0.05852000042796135,0.1639299988746643,0.1273300051689148,-0.20678000152111053,0.11031000316143036,-0.0011099999537691474,-0.11213000118732452,0.16227999329566956,-0.14226999878883362,-0.014109999872744083,-0.034370001405477524,-0.08305999636650085,0.11080999672412872],[0.24617999792099,-0.13282999396324158,0.032189998775720596,0.0970500037074089,-0.13535000383853912,0.302700012922287,-0.14236000180244446,-0.10459999740123749,-0.05017999932169914,0.08761999756097794,0.13850000500679016,0.0025400000158697367,0.186599999666214,-0.20794999599456787,-0.01761999912559986,0.07645999640226364,0.18252000212669373],[0.3952699899673462,-0.3076300024986267,-0.0385500006377697,-0.09715999662876129,-0.09143000096082687,0.1174200028181076,-0.021460000425577164,-0.03796999901533127,-0.15990999341011047,0.18984000384807587,-0.11140000075101852,0.060910001397132874,0.13932999968528748,0.09634999930858612,0.0784899964928627,0.27921000123023987,0.16430999338626862],[-0.15330000221729279,0.17961999773979187,0.025140000507235527,0.11072999984025955,-0.24831999838352203,-0.08528000116348267,-0.11626999825239182,0.03488000109791756,0.09673000127077103,0.13086000084877014,0.23104000091552734,-0.027400000020861626,0.0898900032043457,-0.05285000056028366,-0.045079998672008514,-0.07197000086307526,0.10114999860525131],[0.05081000179052353,0.18584999442100525,-0.1120700016617775,0.07421000301837921,-0.024809999391436577,-0.020999999716877937,-0.29346999526023865,-0.08844000101089478,0.02459000051021576,0.10426999628543854,0.02775000035762787,-0.019659999758005142,-0.050939999520778656,-0.05699000135064125,0.15498000383377075,-0.18422000110149384,-0.16017000377178192],[-0.010440000332891941,0.10822000354528427,-0.04893000051379204,0.087459996342659,0.051649998873472214,0.03776000067591667,0.3242399990558624,-0.16919000446796417,0.2797900140285492,-0.06272999942302704,0.11781000345945358,0.16103999316692352,-0.050269998610019684,0.08207999914884567,-0.10241000354290009,-0.03027000091969967,0.08055999875068665],[-0.25780001282691956,-0.033629998564720154,0.20449000597000122,-0.24771000444889069,0.0321200005710125,0.0007699999841861427,-0.012480000033974648,-0.0700799971818924,-0.19253000617027283,0.05889999866485596,-0.19582000374794006,-0.020810000598430634,-0.11500000208616257,0.12490999698638916,-0.15604999661445618,0.19767999649047852,0.09115000069141388],[-0.06531000137329102,0.044110000133514404,-0.04148999974131584,-0.2245199978351593,0.12567999958992004,-0.24447999894618988,-0.1534699946641922,0.13898000121116638,0.18932999670505524,0.027899999171495438,-0.1872899979352951,0.01018999982625246,-0.32144999504089355,-0.07049000263214111,0.0213600005954504,-0.16741999983787537,-0.1418900042772293],[-0.049890000373125076,0.1535699963569641,-0.13829000294208527,-0.02493000030517578,-0.12644000351428986,-0.16387000679969788,0.08820000290870667,0.07212000340223312,0.059689998626708984,0.26146000623703003,0.01155999954789877,-0.15794000029563904,0.01133000012487173,-0.226610004901886,-0.09770999848842621,-0.06644999980926514,0.30790001153945923],[-0.22479000687599182,0.08889999985694885,-0.07212000340223312,-0.08107999712228775,0.16056999564170837,-0.026340000331401825,0.20726999640464783,-0.022670000791549683,-0.14966000616550446,-0.12278000265359879,0.1028200015425682,0.20351000130176544,-0.11891999840736389,0.1236800029873848,0.13951000571250916,-0.05121999979019165,0.07940000295639038],[0.0294599998742342,-0.25130999088287354,0.07900000363588333,0.07122000306844711,0.07425999641418457,0.2185100018978119,0.09978000074625015,-0.08886999636888504,-0.003370000049471855,-0.06617999821901321,0.07458999752998352,-0.051430001854896545,-0.07186000049114227,-0.044429998844861984,0.010300000198185444,0.14785000681877136,-0.2196899950504303],[0.22795000672340393,-0.020419999957084656,-0.20013999938964844,-0.0917700007557869,-0.10035999864339828,0.016209999099373817,-0.24939000606536865,-0.02047000080347061,0.22427000105381012,0.16561000049114227,0.2543100118637085,0.03764000162482262,0.19444000720977783,0.22256000339984894,-0.005779999773949385,-0.018449999392032623,-0.06595999747514725],[-0.05406000092625618,-0.06272999942302704,0.41234999895095825,-0.009100000374019146,-0.11125999689102173,0.0723700001835823,-0.24642999470233917,-0.03474999964237213,0.13256999850273132,0.10768000036478043,-0.041269998997449875,-0.12308000028133392,0.055959999561309814,-0.11647000163793564,0.0030499999411404133,0.060600001364946365,-0.12394999712705612],[0.0083600003272295,-0.06078999862074852,0.17459000647068024,-0.10516999661922455,-0.07851999998092651,-0.022590000182390213,-0.00039999998989515007,0.1807200014591217,-0.12752999365329742,-0.0628499984741211,0.16078999638557434,0.2535899877548218,0.07267999649047852,-0.2246599942445755,-0.032280001789331436,0.011939999647438526,0.2276100069284439],[-0.008129999972879887,0.27379000186920166,-0.03864999860525131,0.013089999556541443,-0.023280000314116478,0.0862400010228157,-0.0617000013589859,0.1410900056362152,-0.18577000498771667,0.16840000450611115,-0.01295000035315752,0.048829998821020126,0.07669000327587128,0.02711999975144863,-0.11919999867677689,0.0872500017285347,0.08719000220298767],[-0.11952999979257584,0.08279000222682953,0.13503000140190125,0.12093999981880188,0.1875700056552887,-0.045809999108314514,0.11764000356197357,0.10815999656915665,0.09504000097513199,0.16648000478744507,0.25033000111579895,-0.09408000111579895,-0.08641999959945679,0.11249999701976776,-0.13741999864578247,-0.1729000061750412,0.006829999852925539],[-0.05014000087976456,-0.2768299877643585,0.16810999810695648,-0.06145999953150749,-0.01573999971151352,0.162990003824234,-0.07175999879837036,0.11851999908685684,-0.04859999939799309,0.21549999713897705,-0.12886999547481537,-0.03229000046849251,0.1118599995970726,-0.0021200000774115324,0.14643000066280365,0.05781000107526779,0.2451000064611435],[-0.07556000351905823,0.06948000192642212,0.1813099980354309,-0.01706000044941902,-0.22018000483512878,0.06898999959230423,-0.2116899937391281,-0.011529999785125256,-0.15343999862670898,0.007290000095963478,0.04837999865412712,0.13822999596595764,-0.025860000401735306,-0.32552000880241394,0.008899999782443047,-0.07126999646425247,-0.23481999337673187],[-0.15275000035762787,-0.03010999970138073,-0.09904000163078308,0.06218999996781349,0.10535000264644623,0.15102000534534454,0.09601999819278717,-0.016459999606013298,-0.02905000001192093,0.25293999910354614,-0.04360999912023544,0.040150001645088196,-0.1278200000524521,0.10433000326156616,-0.08434999734163284,-0.07997000217437744,0.10605999827384949],[0.10224000364542007,0.06526999920606613,0.04055999964475632,0.12193000316619873,-0.00419999985024333,0.09713999927043915,0.04025999829173088,-0.15524999797344208,-0.18442000448703766,0.015200000256299973,0.08581999689340591,-0.04777999967336655,0.22477999329566956,0.049059998244047165,-0.26047998666763306,0.05816999822854996,-0.01933000050485134],[0.08408000320196152,-0.09664999693632126,0.09131000190973282,-0.12104000151157379,-0.18951000273227692,0.22330999374389648,0.13458000123500824,-0.013179999776184559,0.2592799961566925,0.1175599992275238,-0.03068000078201294,0.08983000367879868,0.062199998646974564,0.0040799998678267,-0.10441000014543533,-0.09036000072956085,0.07774999737739563],[-0.10471999645233154,-0.023240000009536743,-0.005450000055134296,0.06575000286102295,-0.16538000106811523,0.04580000042915344,0.13781000673770905,-0.015440000221133232,-0.1554100066423416,0.21227000653743744,0.12217000126838684,0.04608999937772751,-0.00546000013127923,0.026820000261068344,-0.09305000305175781,0.01075000036507845,0.019169999286532402],[0.11924000084400177,-0.0839100033044815,0.0802299976348877,-0.07644999772310257,0.07401999831199646,-0.01924999989569187,-0.24860000610351562,0.05502999946475029,-0.1043500006198883,-0.1076899990439415,-0.021239999681711197,0.023889999836683273,0.17476999759674072,-0.02621999941766262,-0.2254199981689453,-0.006070000119507313,-0.09339000284671783],[0.04083999991416931,-0.04597000032663345,-0.05527999997138977,-0.002839999971911311,-0.06307999789714813,-0.3659999966621399,-0.06528999656438828,-0.22288000583648682,-0.17071999609470367,-0.020409999415278435,-0.07267999649047852,0.1743900030851364,-0.1607699990272522,0.036559998989105225,-0.09887000173330307,-0.04769999906420708,-0.22759999334812164],[0.05974999815225601,-0.03787999972701073,0.12358999997377396,-0.054409999400377274,-0.10261999815702438,-0.0574599988758564,0.40189000964164734,-0.046560000628232956,-0.11274000257253647,-0.05666999891400337,0.0816899985074997,0.002319999970495701,-0.31273001432418823,-0.0768899992108345,0.2326200008392334,-0.2928900122642517,0.2107899934053421],[0.24705000221729279,-0.2713499963283539,-0.21833999454975128,-0.04513999819755554,0.14529000222682953,-0.06981000304222107,-0.06265000253915787,0.23241999745368958,-0.03102000057697296,0.07252000272274017,0.08677999675273895,-0.15408000349998474,0.057179998606443405,-0.021950000897049904,0.03277000039815903,0.2730500102043152,-0.05054999887943268],[-0.1598999947309494,0.12206000089645386,-0.026590000838041306,-0.16460999846458435,-0.20021000504493713,-0.06063000112771988,-0.020260000601410866,-0.03277000039815903,-0.04721999913454056,0.16898000240325928,0.011130000464618206,0.0009699999936856329,-0.06971000134944916,-0.08138000220060349,-0.028860000893473625,-0.17419999837875366,0.16759000718593597],[0.3195599913597107,-0.05973000079393387,0.03243999928236008,0.0028699999675154686,0.2067600041627884,0.0951400026679039,0.23292000591754913,0.06160999834537506,-0.21749000251293182,-0.0003000000142492354,-0.0018599999602884054,-0.03589000180363655,0.22689999639987946,0.0768899992108345,-0.09192000329494476,0.16301000118255615,-0.032010000199079514],[0.19888000190258026,0.1690099984407425,0.06712999939918518,0.2699500024318695,-0.11774999648332596,0.08882000297307968,-0.041280001401901245,-0.11151000112295151,0.13992999494075775,0.002300000051036477,-0.07393000274896622,-0.011140000075101852,-0.19419999420642853,-0.1907700002193451,-0.011789999902248383,-0.05352000147104263,-0.011210000142455101],[0.0333699993789196,0.12223999947309494,0.11100000143051147,0.05852999910712242,0.3277600109577179,0.1421000063419342,0.26232999563217163,-0.049630001187324524,0.09735000133514404,0.11834000051021576,-0.0619099996984005,-0.027799999341368675,-0.1328199952840805,0.12947000563144684,-0.165010005235672,-0.0950699970126152,0.100040003657341],[0.12449000030755997,-0.1815599948167801,-0.06598000228404999,-0.027729999274015427,0.1573600023984909,0.300929993391037,-0.23697000741958618,-0.004360000137239695,-0.12269999831914902,-0.010520000010728836,-0.10649000108242035,0.20985999703407288,0.10166999697685242,0.013729999773204327,0.10937999933958054,0.09113000333309174,-0.011309999972581863],[-0.13255000114440918,-0.05583000183105469,-0.2076999992132187,-0.2337999939918518,-0.21955999732017517,-0.05119000002741814,-0.012520000338554382,0.1590300053358078,0.059539999812841415,-0.06699000298976898,-0.10995999723672867,0.06305000185966492,-0.006940000224858522,-0.29583001136779785,-0.12876999378204346,0.14791999757289886,-0.027529999613761902],[-0.028860000893473625,0.07619000226259232,-0.03579999879002571,-0.02370999939739704,-0.026119999587535858,0.04332000017166138,-0.11984000355005264,0.1680299937725067,-0.022630000486969948,0.10823000222444534,0.07850000262260437,0.06176000088453293,0.0009699999936856329,-0.04870999976992607,0.14966000616550446,-0.047129999846220016,0.17500999569892883],[-0.08771000057458878,-0.0008299999753944576,0.14675000309944153,-0.034060001373291016,0.006829999852925539,0.1286800056695938,0.0028800000436604023,0.16032999753952026,-0.16031000018119812,0.012369999662041664,-0.0488400012254715,0.03463999927043915,0.087459996342659,-0.16767999529838562,0.03452000021934509,0.02346000075340271,0.3292500078678131],[0.1585099995136261,-0.18852999806404114,-0.09138999879360199,0.10356000065803528,0.13468000292778015,-0.07853999733924866,-0.1595499962568283,-0.23613999783992767,0.18424999713897705,-0.2139900028705597,0.19099999964237213,-0.10136000066995621,-0.008779999800026417,0.020560000091791153,0.10182999819517136,0.0029899999499320984,-0.07626999914646149],[0.05696000158786774,-0.19489000737667084,-0.0030300000216811895,0.07210999727249146,-0.2033900022506714,-0.012959999963641167,0.1238899976015091,0.124269999563694,-0.1139099970459938,0.05008000135421753,0.030880000442266464,0.0568699985742569,-0.0014199999859556556,-0.2839699983596802,-0.1490200012922287,0.14437000453472137,-0.15101000666618347],[-0.00698000006377697,0.06080000102519989,0.058469999581575394,0.0712599977850914,0.2015399932861328,0.06503000110387802,0.05130999907851219,0.07818999886512756,0.017410000786185265,-0.013439999893307686,-0.135110005736351,-0.14895999431610107,0.12075000256299973,0.17869000136852264,-0.11088000237941742,0.30292001366615295,-0.09678000211715698],[-0.05040999874472618,0.03302000090479851,0.24849000573158264,-0.010809999890625477,0.2726899981498718,-0.034170001745224,-0.10233999788761139,0.05350999906659126,-0.17197999358177185,-0.17639000713825226,-0.09070999920368195,0.0035699999425560236,-0.11799000203609467,0.15707999467849731,0.13603000342845917,0.1982399970293045,0.20715999603271484],[-0.275160014629364,-0.13812999427318573,-0.08545999974012375,0.2602100074291229,-0.06425999850034714,0.08173999935388565,0.16120000183582306,-0.10808999836444855,0.03398999944329262,0.07361000031232834,-0.03210999816656113,0.0522800013422966,-0.0017099999822676182,0.095210000872612,-0.12328000366687775,-0.07662999629974365,0.015639999881386757],[-0.06874000281095505,0.11591999977827072,-0.051589999347925186,-0.11868999898433685,0.03173999860882759,-0.2282000035047531,-0.07179000228643417,0.061650000512599945,-0.1717499941587448,-0.01054999977350235,0.1529799997806549,0.03579000011086464,-0.036649998277425766,-0.19604000449180603,-0.020679999142885208,0.18038000166416168,-0.06831999868154526],[-0.21470999717712402,0.027939999476075172,0.10645999759435654,-0.03999999910593033,-0.28053998947143555,-0.150859996676445,0.12635000050067902,0.05375999957323074,-0.06447000056505203,0.08596999943256378,0.19025999307632446,-0.01996999979019165,-0.02938999980688095,-0.27274999022483826,0.1117900013923645,-0.004900000058114529,0.007000000216066837],[-0.06136000156402588,-0.026079999282956123,0.07338999956846237,-0.10081999748945236,-0.25854000449180603,0.3289400041103363,-0.14569999277591705,0.12951000034809113,-0.1721699982881546,-0.24849000573158264,-0.09747999906539917,0.04834999889135361,-0.09599000215530396,-0.15320999920368195,0.14922000467777252,-0.03677000105381012,-0.3451499938964844],[-0.22304999828338623,-0.07709000259637833,-0.17629000544548035,-0.13603000342845917,-0.2691200077533722,0.04558999836444855,0.0822800025343895,0.08130999654531479,-0.1992499977350235,0.09083999693393707,-0.10616999864578247,0.16452999413013458,-0.07596000283956528,-0.03568999841809273,-0.0364300012588501,-0.06923999637365341,0.027820000424981117],[0.1409599930047989,-0.2267100065946579,-0.006459999829530716,-0.034790001809597015,-0.012529999949038029,-0.15157000720500946,0.13388000428676605,-0.130280002951622,-0.023329999297857285,-0.186039999127388,-0.21886000037193298,-0.4045400023460388,0.14167000353336334,-0.08410000056028366,-0.13117000460624695,-0.048969998955726624,-0.06302999705076218],[-0.010479999706149101,0.08224000036716461,0.1606599986553192,-0.02370999939739704,0.05040000006556511,0.061250001192092896,-0.07795000076293945,0.0509600006043911,0.05641999840736389,-0.13269999623298645,0.1756100058555603,0.23222999274730682,0.05124000087380409,0.0407399982213974,0.07450000196695328,-0.06457000225782394,-0.07468999922275543],[-0.2660199999809265,0.15038999915122986,-0.04050999879837036,0.07295999675989151,0.03669000044465065,-0.05770999938249588,-0.08104000240564346,0.11984000355005264,0.12336000055074692,0.06696999818086624,0.01891000010073185,0.029999999329447746,0.3345699906349182,-0.14711999893188477,0.002300000051036477,0.20799000561237335,-0.02314000017940998],[-0.019349999725818634,0.18192000687122345,0.03928999975323677,0.07175000011920929,0.3913800120353699,-0.038419999182224274,0.04405000060796738,0.02215000055730343,0.04145999997854233,0.07472000271081924,0.13627000153064728,0.15220999717712402,0.25898998975753784,0.18916000425815582,-0.07161000370979309,-0.008589999750256538,0.04075000062584877],[-0.00443999981507659,0.22292999923229218,-0.14271999895572662,-0.14382000267505646,0.04397999867796898,-0.026739999651908875,-0.36364999413490295,-0.011239999905228615,0.24198000133037567,-0.09279999881982803,0.16152000427246094,-0.07088000327348709,0.012120000086724758,-0.20712000131607056,-0.09194999933242798,-0.09324999898672104,-0.08337999880313873],[0.0894400030374527,-0.10718999803066254,-0.07408999651670456,-0.11274000257253647,-0.17946000397205353,-0.21236999332904816,0.3178899884223938,0.20344999432563782,-0.07953999936580658,0.050700001418590546,-0.1797800064086914,0.11133000254631042,-0.17393000423908234,-0.07788000255823135,-0.1677599996328354,0.0770300030708313,0.009750000201165676],[0.14490999281406403,-0.020109999924898148,-0.0823500007390976,-0.08917000144720078,0.14770999550819397,0.053630001842975616,-0.2643600106239319,0.16413000226020813,-0.14132000505924225,-0.08083000034093857,0.14347000420093536,0.09748999774456024,-0.09649000316858292,-0.006020000204443932,-0.059390000998973846,-0.12234999984502792,0.052629999816417694],[0.04165000095963478,-0.24706999957561493,0.001500000013038516,-0.07863999903202057,-0.46401000022888184,-0.030969999730587006,0.017349999397993088,-0.2033499926328659,-0.13087999820709229,0.017249999567866325,-0.08387000113725662,0.11603999882936478,-0.33869999647140503,-0.08297999948263168,0.011090000160038471,-0.21056999266147614,0.15812000632286072],[-0.17520000040531158,0.1514499932527542,0.10136999934911728,0.09821999818086624,0.23241999745368958,0.11856000125408173,-0.04625999927520752,0.06404999643564224,-0.15557000041007996,0.03139999881386757,-0.033969998359680176,-0.002460000105202198,-0.1036899983882904,0.17528000473976135,0.1151299998164177,-0.16708999872207642,-0.1075500026345253],[0.14545999467372894,-0.05821999907493591,-0.021390000358223915,0.029670000076293945,-0.14722999930381775,0.08038999885320663,0.029920000582933426,-0.0377499982714653,0.1717900037765503,0.148389995098114,0.10420999675989151,0.11462999880313873,0.11045999825000763,-0.31251001358032227,-0.003710000077262521,0.09859000146389008,0.15914000570774078],[0.030319999903440475,-0.10588999837636948,0.11584000289440155,-0.18807999789714813,-0.08866000175476074,-0.037450000643730164,-0.05254000052809715,0.20362000167369843,-0.095940001308918,-0.029009999707341194,-0.08129999786615372,0.12467999756336212,-0.11322999745607376,-0.056060001254081726,-0.12285999953746796,0.3316499888896942,-0.0579800009727478],[-0.05437999963760376,0.20205999910831451,0.0071299998089671135,-0.16430999338626862,-0.16690999269485474,0.09588000178337097,0.28073999285697937,0.13624000549316406,0.36750999093055725,-0.04907999932765961,0.07531999796628952,0.16029000282287598,-0.1312599927186966,-0.0062500000931322575,-0.06915999948978424,0.07116000354290009,0.11969000101089478],[0.20037999749183655,-0.11886999756097794,0.14846999943256378,-0.048700001090765,0.10550999641418457,-0.1550700068473816,-0.14484000205993652,0.13721999526023865,0.05308999866247177,-0.07412999868392944,0.06763999909162521,-0.08090999722480774,0.08951999992132187,0.06157999858260155,0.11395999789237976,0.1409599930047989,0.003269999986514449],[0.0784199982881546,0.008790000341832638,-0.20935000479221344,0.07142999768257141,0.0215000007301569,0.029829999431967735,-0.42552998661994934,0.038750000298023224,0.1058100014925003,0.017190000042319298,-0.25707998871803284,0.055470000952482224,-0.033319998532533646,0.12250000238418579,-0.0023399998899549246,-0.012360000051558018,-0.06458000093698502],[0.0203000009059906,-0.052639998495578766,0.09199000149965286,-0.10847000032663345,0.04642000049352646,0.09928999841213226,0.09012000262737274,0.10868000239133835,0.09307000041007996,0.08859000355005264,0.22035999596118927,0.16703000664710999,0.07340999692678452,0.11686000227928162,-0.02435999922454357,-0.20426000654697418,0.10012000054121017],[-0.0731000006198883,-0.11193999648094177,-0.12931999564170837,0.17948000133037567,-0.1076899990439415,0.16313999891281128,-0.05260000005364418,-0.09341000020503998,-0.2559700012207031,0.04732999950647354,-0.0530799999833107,-0.10649999976158142,0.23034000396728516,0.01972999982535839,0.11485999822616577,-0.19550000131130219,-0.02628999948501587],[-0.07515999674797058,-0.11027999967336655,-0.02087000012397766,0.36805999279022217,-0.03637000173330307,0.2501299977302551,-0.05291999876499176,-0.02858000062406063,-0.17872999608516693,0.06374000012874603,0.1506900042295456,0.30059999227523804,0.06408999860286713,-0.10055000334978104,-0.09465999901294708,-0.04422000050544739,0.05195999890565872],[0.13845999538898468,-0.18749000132083893,-0.18556000292301178,0.17805999517440796,0.24467000365257263,-0.055330000817775726,0.06848999857902527,0.12955999374389648,0.1530500054359436,-0.0863099992275238,0.22193999588489532,0.010520000010728836,-0.10958000272512436,-0.015769999474287033,-0.0007699999841861427,0.03936000168323517,0.0838100016117096],[-0.01063000038266182,-0.15421000123023987,0.20396000146865845,-0.157260000705719,0.25088000297546387,0.2855600118637085,0.010250000283122063,-0.10565000027418137,-0.14381000399589539,-0.158270001411438,-0.00546000013127923,-0.01307000033557415,-0.11625999957323074,0.1784300059080124,0.07886999845504761,-0.17264999449253082,0.008569999597966671],[-0.283050000667572,-0.1906300038099289,-0.08445999771356583,-0.05852000042796135,-0.22463999688625336,0.12971000373363495,-0.0008200000156648457,-0.006690000183880329,0.05716000124812126,0.2090499997138977,-0.14233000576496124,-0.12814000248908997,0.06251999735832214,-0.05868000164628029,-0.027410000562667847,-0.1268399953842163,0.10147999972105026],[-0.031950000673532486,-0.0017900000093504786,0.27241000533103943,-0.06584999710321426,-0.02411000058054924,0.006240000016987324,-0.2815200090408325,0.19357000291347504,-0.15484000742435455,-0.11218000203371048,-0.1123099997639656,-0.007960000075399876,0.12904000282287598,0.12822000682353973,-0.004120000172406435,0.009239999577403069,0.2099599987268448],[-0.3043000102043152,0.051350001245737076,-0.07859999686479568,-0.031190000474452972,-0.05959000065922737,-0.08596999943256378,0.008320000022649765,-0.047269999980926514,0.04061000049114227,0.09819000214338303,-0.12122000008821487,-0.1640699952840805,-0.12370000034570694,0.054910000413656235,0.06468000262975693,0.05685000121593475,0.16357000172138214],[0.0907600000500679,-0.013899999670684338,-0.11389999836683273,0.28158000111579895,0.03280999884009361,0.1354600042104721,0.2471199929714203,-0.1663299947977066,0.07276000082492828,0.10657999664545059,-0.06259000301361084,0.05412999913096428,-0.13583000004291534,-0.15875999629497528,0.09351000189781189,0.03152000159025192,0.0287299994379282],[-0.05333000048995018,0.26061001420021057,0.144679993391037,-0.19674000144004822,0.1585800051689148,-0.010280000045895576,0.07248000055551529,-0.299780011177063,0.1169700026512146,0.07304999977350235,-0.046459998935461044,0.08014000207185745,-0.09685000032186508,-0.07552000135183334,-0.07350999861955643,-0.07489000260829926,0.059579998254776],[-0.14139999449253082,-0.0894400030374527,-0.02410000003874302,-0.18595999479293823,0.00022000000171829015,-0.056279998272657394,0.12820999324321747,-0.046300001442432404,-0.05660000070929527,0.11932999640703201,-0.02290000021457672,-0.001769999973475933,0.09517999738454819,-0.1800599992275238,0.18581999838352203,0.07181999832391739,-0.13832999765872955],[-0.15762999653816223,0.1117200031876564,0.04586999863386154,0.13981999456882477,0.11089999973773956,-0.2152400016784668,0.2838599979877472,0.09218999743461609,-0.16256999969482422,-0.006949999835342169,0.031230000779032707,0.20539000630378723,0.05821000039577484,-0.09957999736070633,0.1470700055360794,-0.03384000062942505,-0.004040000028908253],[-0.1647000014781952,0.27441999316215515,-0.007590000052005053,0.12640999257564545,-0.007499999832361937,-0.24014000594615936,0.12109000235795975,0.02434000000357628,-0.18289999663829803,0.12838999927043915,0.1457200050354004,-0.08455999940633774,0.09437000006437302,0.03246000036597252,-0.14106999337673187,-0.20056000351905823,-0.09848000109195709],[0.0887100026011467,0.009349999949336052,-0.03853999823331833,0.06725999712944031,0.11568000167608261,-0.28595998883247375,0.11496999859809875,0.1289999932050705,0.0774800032377243,0.052400000393390656,-0.09013000130653381,0.1111999973654747,-0.10186000168323517,-0.0022100000642240047,-0.004579999949783087,-0.21362000703811646,0.16030000150203705],[0.12851999700069427,-0.0694499984383583,0.18268999457359314,0.008410000242292881,-0.2622700035572052,0.1858000010251999,0.0938899964094162,-0.006500000134110451,-0.001120000029914081,0.14258000254631042,0.10920999944210052,-0.16171999275684357,0.1620199978351593,0.014800000004470348,0.12439999729394913,-0.053599998354911804,0.1372399926185608],[0.08420000225305557,0.13432000577449799,-0.21286000311374664,0.24895000457763672,-0.1396999955177307,0.08750999718904495,0.08026000112295151,0.07710999995470047,0.2009200006723404,-0.05344000086188316,0.019179999828338623,-0.06633999943733215,-0.040369998663663864,0.12856000661849976,-0.03384999930858612,-0.09173999726772308,-0.15195000171661377],[0.05014999955892563,-0.09784000366926193,0.19343000650405884,-0.18581999838352203,0.09926000237464905,0.08350999653339386,-0.012489999644458294,0.2029999941587448,-0.04230999946594238,-0.1131799966096878,0.2994399964809418,0.031220000237226486,0.0043299999088048935,0.024550000205636024,0.26104000210762024,-0.1324000060558319,-0.08563999831676483],[0.1594499945640564,-0.22548000514507294,-0.24887999892234802,-0.02119000069797039,-0.05428000167012215,-0.06864000111818314,0.09192000329494476,-0.12883999943733215,-0.16162000596523285,-0.15053999423980713,-0.04343000054359436,0.22339999675750732,-0.1976500004529953,-0.04397999867796898,0.14184999465942383,0.19968000054359436,0.026419999077916145],[-0.01551000028848648,0.19457000494003296,0.004840000066906214,-0.17313000559806824,0.2549299895763397,-0.03333999961614609,-0.20015999674797058,-0.001069999998435378,-0.007860000245273113,-0.1761700063943863,-0.033969998359680176,0.06498999893665314,-0.04932999983429909,-0.021539999172091484,-0.06187000125646591,-0.11648000031709671,0.20058999955654144],[0.07012999802827835,-0.008949999697506428,0.2798199951648712,0.09556999802589417,0.1986899971961975,-0.11894000321626663,-0.0034000000450760126,0.12675000727176666,-0.018389999866485596,-0.04831000044941902,0.07027000188827515,-0.1035500019788742,0.0729300007224083,0.2736999988555908,0.08596999943256378,-0.06953000277280807,0.10498999804258347],[-0.030869999900460243,-0.10046999901533127,-0.11862999945878983,0.13887999951839447,-0.19565999507904053,-0.05843999981880188,0.3768700063228607,0.16259999573230743,0.1369200050830841,0.005410000216215849,0.013389999978244305,-0.15373000502586365,-0.002050000010058284,-0.03849999979138374,0.04022999852895737,0.1475600004196167,0.09837999939918518],[0.18485000729560852,0.06383000314235687,-0.07088000327348709,-0.04222000017762184,-0.12970000505447388,-0.2607499957084656,0.23693999648094177,-0.0701799988746643,-0.09189999848604202,-0.2525300085544586,-0.2089499980211258,0.022199999541044235,-0.046799998730421066,0.1060900017619133,-0.11654999852180481,0.14815999567508698,0.029999999329447746],[0.0065299998968839645,0.03407999873161316,0.09188999980688095,0.041120000183582306,0.3437899947166443,-0.06287000328302383,0.39583998918533325,0.06071000173687935,-0.008129999972879887,0.08023999631404877,-0.02710999920964241,-0.01792999915778637,0.11288999766111374,0.08156000077724457,-0.12003999948501587,-0.0005200000014156103,0.07143999636173248],[0.03438999876379967,0.06355000287294388,-0.247979998588562,0.2468699961900711,0.19261999428272247,-0.057829998433589935,-0.023569999262690544,-0.02816000021994114,0.0478999987244606,0.1579499989748001,0.029789999127388,-0.16982999444007874,-0.15129999816417694,-0.035190001130104065,0.09480000287294388,-0.22754999995231628,-0.06762000173330307],[-0.08099000155925751,-0.1796099990606308,-0.20868000388145447,-0.09131000190973282,0.13109000027179718,-0.12188000231981277,0.19794000685214996,-0.08376000076532364,-0.14871999621391296,-0.0392099991440773,0.1362600028514862,0.14342999458312988,-0.15072999894618988,0.0973299965262413,0.08348999917507172,0.10238000005483627,0.06801000237464905],[0.2602899968624115,0.00913000013679266,-0.1308699995279312,0.10790000110864639,-0.04795999825000763,0.05818000063300133,0.11503999680280685,0.15706999599933624,0.10312999784946442,-0.21559999883174896,0.07551000267267227,0.04010000079870224,-0.13503000140190125,0.1019200012087822,0.25734999775886536,-0.2793099880218506,-0.04527999833226204],[0.0809599980711937,-0.12522000074386597,0.030139999464154243,-0.12701000273227692,-0.1399099975824356,0.016589999198913574,-0.3916099965572357,0.0684100016951561,-0.0994499996304512,0.007240000180900097,-0.02175999991595745,0.017230000346899033,0.13474999368190765,-0.2704299986362457,0.0716399997472763,0.0800200030207634,0.14605000615119934],[-0.320250004529953,0.14342999458312988,-0.03175000101327896,-0.0734499990940094,-0.03798000141978264,-0.05293000116944313,0.16068999469280243,0.10805000364780426,-0.21353000402450562,-0.1246199980378151,0.0017999999690800905,-0.07315000146627426,-0.1801300048828125,-0.02630000002682209,-0.01360000018030405,-0.03891000151634216,0.043469998985528946],[0.11776000261306763,0.002369999885559082,-0.023070000112056732,-0.16266000270843506,0.005830000154674053,-0.1839500069618225,-0.21547000110149384,-0.0906900018453598,-0.05561999976634979,0.15489999949932098,-0.03432999923825264,-0.06465999782085419,0.13524000346660614,0.0207700002938509,0.2729400098323822,-0.06516999751329422,0.09113000333309174],[0.13673000037670135,0.07332000136375427,0.035360001027584076,0.19017000496387482,-0.09087000042200089,0.2101600021123886,-0.2145799994468689,0.08803000301122665,0.036729998886585236,-0.11633999645709991,0.16957999765872955,0.14664000272750854,-0.16725000739097595,0.010859999805688858,-0.09194999933242798,0.04859999939799309,-0.06814000010490417],[0.22164000570774078,0.02790999971330166,0.08218999952077866,0.02995000034570694,-0.2597000002861023,-0.016990000382065773,-0.13592000305652618,0.004310000222176313,0.08807999640703201,-0.1451600044965744,-0.08648999780416489,-0.02638999931514263,0.0019099999917671084,-0.1677899956703186,-0.06312999874353409,-0.1296200007200241,-0.006219999864697456],[0.05395999923348427,-0.0961500033736229,0.07948999851942062,0.0067900000140070915,0.10033000260591507,-0.1447400003671646,-0.03889999911189079,0.06196000054478645,-0.20159000158309937,-0.3465000092983246,0.00989999994635582,0.02864000014960766,-0.06021000072360039,0.0861700028181076,-0.15128999948501587,0.2171500027179718,0.10063000023365021],[0.019600000232458115,-0.3386499881744385,-0.10882999747991562,-0.06729000061750412,-0.12939999997615814,-0.05705999955534935,-0.0731699988245964,0.04950999841094017,0.17223000526428223,0.09299000352621078,-0.09102000296115875,-0.19467000663280487,0.003650000086054206,0.03449999913573265,-0.18703000247478485,0.14854000508785248,0.1896599978208542]],"b":[-0.10728999972343445,0.029980000108480453,-0.057909999042749405,-0.08037000149488449,-0.14930999279022217,0.012889999896287918,-0.09440000355243683,0.15425999462604523,-0.010099999606609344,0.038520000874996185,-0.11642999947071075,0.00046999999904073775,0.21279999613761902,-0.12992000579833984,0.04157000035047531,0.08410999923944473,-0.07348000258207321,0.18783000111579895,-0.10898000001907349,-0.0451899990439415,-0.08691000193357468,0.005059999879449606,0.10429000109434128,0.11554999649524689,-0.10080999881029129,0.041120000183582306,-0.15479999780654907,-0.09999000281095505,-0.02043999917805195,0.11039000004529953,-0.003869999898597598,-0.14729000627994537,-0.029510000720620155,0.08681000024080276,0.024129999801516533,0.015370000153779984,-0.05513999983668327,-0.127020001411438,-0.042330000549554825,-0.006779999937862158,-0.05998999997973442,0.11326000094413757,-0.030540000647306442,-0.035590000450611115,0.1717199981212616,-0.037209998816251755,-0.05615999922156334,-0.009519999846816063,-0.0982000008225441,-0.02810000069439411,-0.014410000294446945,-0.13495999574661255,0.06981000304222107,-0.15919999778270721,0.16346000134944916,0.018559999763965607,0.11467000097036362,-0.1522900015115738,0.13041000068187714,0.07383999973535538,0.07289999723434448,0.05697000026702881,-0.15865999460220337,0.07700999826192856,-0.10244999825954437,-0.21577000617980957,0.133760005235672,-0.12391000241041183,0.11520999670028687,-0.06377000361680984,-0.07030999660491943,-0.12167999893426895,0.12148000299930573,0.10571999847888947,0.11693000048398972,-0.02572000026702881,0.04537000134587288,0.09181000292301178,-0.16773000359535217,-0.10757999867200851,-0.013779999688267708,-0.02019999921321869,0.16368000209331512,-0.16516999900341034,-0.004540000110864639,0.1536799967288971,0.022360000759363174,0.16620999574661255,-0.19705000519752502,0.06486999988555908,0.12273000180721283,-0.022040000185370445,0.0768200010061264,0.14577999711036682,0.12896999716758728,-0.004679999779909849,-0.09498000144958496,0.1494400054216385,0.10070999711751938,0.10401000082492828,0.09070000052452087,0.08049999922513962,-0.01858000084757805,0.18030999600887299,-0.19099999964237213,-0.07495000213384628,-0.11324000358581543,0.17928999662399292,0.13343000411987305,0.15265999734401703,0.021980000659823418,-0.1775899976491928,0.16711999475955963,0.11668000370264053,0.1347299963235855,-0.13700999319553375,0.16436000168323517,-0.09106999635696411,-0.11457999795675278,-0.088639996945858,-0.09318000078201294,0.1499200016260147,0.08246999979019165,0.16836999356746674,0.09904000163078308,0.13500000536441803,0.13259999454021454,-0.12529000639915466,-0.12710000574588776,0.11984000355005264,-0.09444999694824219,-0.088189996778965,-0.1098800003528595,0.14169000089168549,-0.05415999889373779,-0.1428000032901764,0.13906000554561615,0.004889999981969595,0.1439799964427948,0.09985999763011932,-0.17011000216007233,0.044759999960660934,-0.010379999876022339,0.07073000073432922,-0.16798000037670135,-0.2018200010061264,0.10458000004291534,0.0833199992775917,0.017109999433159828,0.0973299965262413,0.04357999935746193,-0.155349999666214,-0.1301400065422058,0.02937999926507473,0.14213000237941742,-0.045510001480579376,0.007590000052005053,-0.002139999996870756,0.05826999992132187,-0.09105999767780304,-0.15518000721931458,-0.02166000008583069,0.05389999970793724,0.12845000624656677,0.06377000361680984,0.03423000127077103,-0.09742999821901321,0.008820000104606152,0.10254000127315521,-0.11456000059843063,0.09475000202655792,-0.049320001155138016,-0.15902000665664673,0.0817900002002716,-0.0002500000118743628,-0.01955999992787838,0.16387000679969788,0.011760000139474869,0.03313000127673149,-0.06046999990940094,-0.19808000326156616,-0.1205499991774559,-0.048829998821020126,-0.038019999861717224,-0.18389999866485596,0.05129000172019005,-0.06808999925851822,-0.02741999924182892,0.12234999984502792,-0.03077000007033348,0.06560000032186508,-0.06330999732017517,-0.20496000349521637,0.10633999854326248,-0.05761000141501427,0.0013699999544769526,-0.10304000228643417,-0.04529000073671341,-0.19910000264644623,0.01001999992877245,0.20732000470161438,-0.12922999262809753,-0.14611999690532684,-0.07416000217199326,-0.13279999792575836,0.056529998779296875,-0.004370000213384628,-0.09324000030755997,-0.15331999957561493,-0.06663999706506729,0.04868000000715256,-0.05482000112533569,-0.054090000689029694,-0.1172500029206276,0.0069599999114871025,0.14030000567436218,-0.0026700000744313,0.07292000204324722,-0.0007600000244565308,0.05062999948859215,-0.09224999696016312,0.1250399947166443,-0.11880999803543091,-0.1515900045633316,-0.14000000059604645,0.05942000076174736,-0.08985999971628189,0.062300000339746475,0.10074999928474426,-0.15740999579429626,-0.15080000460147858,0.1410599946975708,-0.045889999717473984,0.035280000418424606,0.06500999629497528,0.10407999902963638,-0.0936800017952919,0.13046999275684357,-0.1103999987244606,-0.1090800017118454,0.05293000116944313,-0.0682699978351593,-0.10255999863147736,-0.08128999918699265,0.005549999885261059,-0.09371999651193619,0.048889998346567154,-0.11305999755859375,-0.006000000052154064,-0.2632499933242798,0.035599999129772186,-0.14484000205993652,0.10243000090122223,-0.096390001475811,-0.05502000078558922,-0.0739699974656105],"act":"tanh","in":17,"out":256},{"w":[[0.14709000289440155,-0.23438000679016113,-0.08115000277757645,0.008539999835193157,-0.18310999870300293,0.061230000108480453,-0.013120000250637531,0.14514000713825226,-0.03571999818086624,0.2135699987411499,0.10241000354290009,-0.04751000180840492,-0.01576000079512596,-0.0053400001488626,-0.14774000644683838,0.07862000167369843,0.0032399999909102917,0.05270000174641609,0.0019399999873712659,-0.01875000074505806,-0.10506000369787216,-0.04704999923706055,0.0877700001001358,0.1157900020480156,-0.026799999177455902,0.15796999633312225,-0.028279999271035194,-0.039000000804662704,-0.07086999714374542,-0.049720000475645065,-0.17940999567508698,0.025779999792575836,-0.23475000262260437,-0.10307999700307846,0.0880500003695488,0.1574700027704239,0.1158600002527237,0.08309999853372574,-0.024800000712275505,0.08707000315189362,-0.044929999858140945,-0.2337699979543686,0.01205000001937151,0.3184800148010254,-0.032510001212358475,-0.07186999917030334,-0.2272000014781952,0.010010000318288803,0.1890999972820282,-0.10825999826192856,-0.04969000071287155,-0.032019998878240585,-0.09221000224351883,0.098860003054142,0.05277999863028526,0.09025000035762787,0.05573999881744385,-0.02469000034034252,0.15897999703884125,0.05696000158786774,-0.06609000265598297,0.12276999652385712,-0.05122999846935272,0.025590000674128532,0.0027000000700354576,0.046620000153779984,0.04025999829173088,0.09926000237464905,-0.04382000118494034,-0.005160000175237656,0.04197999835014343,-0.11105000227689743,-0.041370000690221786,0.06584999710321426,0.00011000000085914508,-0.08566000312566757,-0.006279999855905771,0.28913000226020813,-0.008369999937713146,0.008799999952316284,0.1014299988746643,-0.05569000169634819,0.03101000003516674,-0.052570000290870667,0.13767999410629272,0.14776000380516052,-0.09232000261545181,-0.14365999400615692,0.17586000263690948,-0.10541000217199326,-0.0644799992442131,-0.020099999383091927,-0.30382999777793884,-0.10068999975919724,-0.1022299975156784,-0.02167000062763691,-0.26260998845100403,0.09363000094890594,-0.025760000571608543,-0.10328999906778336,-0.0560699999332428,0.09100999683141708,-0.15234999358654022,-0.08754999935626984,-0.14565999805927277,0.08409000188112259,-0.07558000087738037,-0.006149999797344208,0.041099999099969864,0.06300999969244003,-0.05962999910116196,0.19470000267028809,0.07767999917268753,-0.1639299988746643,-0.07259000092744827,0.22434000670909882,0.03881999850273132,0.009410000406205654,0.10142000019550323,0.04701999947428703,-0.08117999881505966,0.05251000076532364,-0.009569999761879444,0.07597000151872635,-0.09013000130653381,0.3028300106525421,-0.10140000283718109,-0.03012000024318695,0.1513800024986267,0.021409999579191208,-0.061250001192092896,-0.12229999899864197,-0.07925000041723251,-0.19606000185012817,0.16175000369548798,0.16290000081062317,-0.18129999935626984,-0.025340000167489052,-0.09651999920606613,-0.22967000305652618,0.0029700000304728746,-0.10496000200510025,0.05443999916315079,