{"env_id":"Walker2d-v5","model_xml":"walker2d_v5.xml","obs_dim":17,"act_dim":6,"nq":9,"nv":9,"nu":6,"frame_skip":4,"timestep":0.002,"dt":0.008,"action_low":[-1.0,-1.0,-1.0,-1.0,-1.0,-1.0],"action_high":[1.0,1.0,1.0,1.0,1.0,1.0],"obs_components":[{"kind":"qpos","start":1,"clip":null},{"kind":"qvel","start":0,"clip":[-10.0,10.0]}],"needs_rne":false,"init_qpos":[0.0,1.25,0.0,0.0,0.0,0.0,0.0,0.0,0.0],"init_qvel":[0.0,0.0,0.0,0.0,0.0,0.0,0.0,0.0,0.0],"reset_noise_scale":0.005,"healthy":{"terminate_when_unhealthy":true,"z_index":1,"z_range":[0.8,2.0],"angle_index":2,"angle_range":[-1.0,1.0],"state_range":null},"obs_labels":["rootz pos","rooty pos","thigh_joint pos","leg_joint pos","foot_joint pos","thigh_left_joint pos","leg_left_joint pos","foot_left_joint pos","rootx vel","rootz vel","rooty vel","thigh_joint vel","leg_joint vel","foot_joint vel","thigh_left_joint vel","leg_left_joint vel","foot_left_joint vel"],"action_labels":["thigh_joint","leg_joint","foot_joint","thigh_left_joint","leg_left_joint","foot_left_joint"],"normalization":{"mean":[1.1981948614120483,-0.3317967355251312,-0.1776154339313507,-0.22455723583698273,0.1711304634809494,-0.06121526658535004,-0.46575242280960083,0.1530015468597412,-0.9170662760734558,-0.7945180535316467,-3.073147773742676,-1.243247389793396,-2.4298670291900635,0.6746410727500916,-0.2815169095993042,-3.9902493953704834,0.41369935870170593],"var":[0.005463693290948868,0.08811848610639572,0.05801958963274956,0.16729065775871277,0.2424573451280594,0.02709374390542507,0.3321549594402313,0.23388947546482086,0.5171826481819153,1.546621322631836,22.066333770751953,28.44351577758789,25.255735397338867,46.46244430541992,26.16058921813965,28.00187110900879,58.12696075439453],"epsilon":0.0,"clip_obs":1000000.0},"policy_onnx":"walker2d__lr_cmp_none__best.onnx","policy_net":{"input_dim":17,"layers":[{"w":[[-0.33006998896598816,0.31992000341415405,-0.2170500010251999,-0.2910799980163574,0.2590399980545044,0.19800999760627747,-0.019920000806450844,0.2292499989271164,0.017009999603033066,-0.2412700057029724,-0.26236000657081604,-0.051989998668432236,-0.07980000227689743,-0.21196000277996063,0.2698499858379364,-0.40143999457359314,0.11168999969959259],[-0.2396100014448166,0.0251499991863966,0.003000000026077032,0.4105899930000305,0.2286199927330017,0.032519999891519547,-0.3236500024795532,0.12099000066518784,0.20262999832630157,0.4009299874305725,-0.25727999210357666,-0.034779999405145645,-0.28606000542640686,-0.38850998878479004,0.3169800043106079,0.11650999635457993,-0.13841000199317932],[-0.38738998770713806,-0.19160999357700348,0.05761000141501427,0.11939000338315964,0.28446000814437866,0.33048999309539795,0.38273999094963074,-0.37803998589515686,-0.18084000051021576,-0.08549000322818756,-0.15994000434875488,0.2790699899196625,0.3430100083351135,0.21834999322891235,0.27605000138282776,0.21717999875545502,-0.03009999915957451],[0.2106499969959259,0.2998400032520294,-0.25115999579429626,0.4325000047683716,-0.21581000089645386,-0.2968499958515167,-0.3377799987792969,0.04334000125527382,0.4227699935436249,-0.02319999970495701,-0.24946999549865723,-0.11412999778985977,-0.21751999855041504,-0.39730000495910645,-0.25534000992774963,-0.290800005197525,0.2349800020456314],[-0.313510000705719,-0.09972000122070312,0.41826000809669495,0.2618499994277954,-0.22165000438690186,0.16027000546455383,-0.3005000054836273,0.2823599874973297,-0.40296000242233276,0.3082599937915802,0.22273999452590942,-0.26368001103401184,-0.03466999903321266,0.35822001099586487,-0.09978999942541122,0.13297000527381897,-0.07532999664545059],[0.3442299962043762,-0.21866999566555023,-0.11743000149726868,0.10473000258207321,-0.29280000925064087,0.15584999322891235,0.38909998536109924,-0.09650000184774399,-0.024170000106096268,-0.20531000196933746,0.3703700006008148,0.23899999260902405,-0.06763000041246414,0.11760000139474869,-0.1615699976682663,-0.2628900110721588,0.36987999081611633],[-0.10583999752998352,-0.03830999881029129,0.2940700054168701,-0.12741999328136444,-0.2987399995326996,-0.08421000093221664,0.32196998596191406,-0.26405999064445496,0.06814000010490417,-0.37443000078201294,0.288129985332489,-0.11518999934196472,0.17687000334262848,-0.28887999057769775,-0.0619099996984005,-0.38580000400543213,-0.08590000122785568],[-0.26789000630378723,0.4221999943256378,-0.2167000025510788,-0.1811400055885315,0.0681999996304512,0.06218000128865242,-0.25788000226020813,-0.3165700137615204,0.1463100016117096,-0.1226700022816658,0.2881399989128113,0.25940001010894775,-0.08905000239610672,0.2215999960899353,0.08952999860048294,-0.3249799907207489,-0.07959999889135361],[-0.0005699999746866524,0.30726999044418335,-0.08675999939441681,0.1480800062417984,0.08698999881744385,-0.11601000279188156,-0.30928999185562134,0.3409099876880646,0.09412000328302383,-0.06452000141143799,0.009309999644756317,0.26111000776290894,-0.04475000128149986,-0.33232998847961426,0.13062000274658203,0.23215000331401825,-0.17535999417304993],[0.14621999859809875,0.3805600106716156,-0.18456999957561493,-0.1536100059747696,0.2839300036430359,0.13699999451637268,-0.18129999935626984,0.15379999577999115,0.17741000652313232,0.25769999623298645,0.1861400008201599,0.12098000198602676,-0.3811500072479248,-0.060180000960826874,0.3124600052833557,-0.07977999746799469,0.18862999975681305],[-0.38999998569488525,-0.391539990901947,0.2619200050830841,-0.39925000071525574,-0.17338000237941742,0.28238001465797424,0.22033999860286713,-0.1579200029373169,-0.3134300112724304,-0.39570000767707825,0.11648000031709671,-0.3862900137901306,-0.018200000748038292,-0.2871699929237366,-0.06106000021100044,0.04879000037908554,-0.1479800045490265],[0.0833199992775917,-0.03706999868154526,0.06797999888658524,0.3640899956226349,0.10785999894142151,0.0058200000785291195,-0.06244000047445297,-0.3040800094604492,0.03220000118017197,-0.051169998943805695,-0.12184000015258789,-0.13773000240325928,0.0734499990940094,0.31373000144958496,0.14087000489234924,0.3559100031852722,-0.39873000979423523],[-0.38778001070022583,-0.4108099937438965,0.37619999051094055,-0.26080000400543213,0.3138900101184845,-0.2535099983215332,-0.012360000051558018,0.16500000655651093,-0.2117599993944168,-0.18918000161647797,0.3560900092124939,0.26669999957084656,-0.3928300142288208,0.06792999804019928,-0.10389000177383423,0.09250999987125397,-0.33386000990867615],[-0.253930002450943,-0.0415400005877018,-0.36577001214027405,0.4263800084590912,0.22753000259399414,-0.2131900042295456,0.3365899920463562,0.009039999917149544,-0.09398999810218811,-0.38666999340057373,-0.2429399937391281,-0.32034000754356384,0.3095499873161316,0.28453001379966736,-0.2169100046157837,0.15036000311374664,-0.06908000260591507],[0.2734200060367584,-0.1775200068950653,-0.02741999924182892,0.03852999955415726,0.054420001804828644,0.16805000603199005,-0.29284000396728516,0.24884000420570374,0.3196899890899658,-0.1630599945783615,0.3523100018501282,0.39386001229286194,0.4097500145435333,0.08921000361442566,0.24276000261306763,-0.20521000027656555,0.07188999652862549],[-0.3559899926185608,0.005590000189840794,0.2797999978065491,0.1646600067615509,0.2763200104236603,0.10103999823331833,0.3308500051498413,0.2228900045156479,-0.12073999643325806,0.01030999980866909,0.10897000133991241,0.12578000128269196,0.20250000059604645,-0.1012599989771843,-0.3696100115776062,-0.040860000997781754,-0.32113000750541687],[0.3677999973297119,0.36169999837875366,0.2506999969482422,-0.24522000551223755,0.07084000110626221,-0.29750001430511475,-0.3695000112056732,-0.10226999968290329,0.13274000585079193,0.34654998779296875,0.40070998668670654,-0.1830500066280365,-0.2303999960422516,0.3966600000858307,-0.19732999801635742,-0.0723399966955185,-0.144119992852211],[-0.1190899983048439,0.008430000394582748,-0.0013899999903514981,-0.19241000711917877,0.0714699998497963,-0.2581300139427185,-0.33063000440597534,-0.3492799997329712,0.15045000612735748,0.37185001373291016,-0.12313999980688095,0.2994399964809418,-0.2407200038433075,0.02353999949991703,-0.2056100070476532,0.4011000096797943,-0.03681999817490578],[0.3586699962615967,-0.12801000475883484,-0.21028000116348267,-0.30208998918533325,0.042890001088380814,0.37882000207901,-0.22543999552726746,-0.25655001401901245,0.1238899976015091,0.05012999847531319,0.34182000160217285,-0.22804999351501465,-0.4175199866294861,-0.0997299998998642,0.10738000273704529,-0.16245999932289124,-0.4089600145816803],[-0.01217000000178814,-0.16956999897956848,0.12706999480724335,0.10789000242948532,0.16101999580860138,0.290039986371994,-0.3480600118637085,-0.20738999545574188,0.23337000608444214,-0.17268000543117523,-0.0037700000684708357,0.3392300009727478,-0.05719999969005585,-0.021229999139904976,-0.37136000394821167,0.009180000051856041,0.09737999737262726],[0.20903000235557556,-0.046209998428821564,-0.403439998626709,-0.2976599931716919,0.17069000005722046,0.3402799963951111,-0.35899999737739563,0.15123000741004944,-0.1706800013780594,0.03621000051498413,0.27476000785827637,0.2276500016450882,0.21323999762535095,0.24431000649929047,-0.26697999238967896,0.003490000031888485,-0.03846000134944916],[-0.09392999857664108,-0.1139099970459938,0.19266000390052795,-0.05358000099658966,-0.21546000242233276,-0.20862999558448792,0.016690000891685486,-0.04320000112056732,-0.013860000297427177,-0.13247999548912048,0.2090499997138977,-0.3952699899673462,-0.3249799907207489,-0.4027999937534332,0.3870700001716614,-0.35394999384880066,-0.3792000114917755],[0.13073000311851501,-0.045899998396635056,-0.04740000143647194,0.2255299985408783,-0.2357500046491623,-0.4199100136756897,-0.27720001339912415,-0.021159999072551727,-0.25181999802589417,-0.10300000011920929,-0.21515999734401703,-0.3321399986743927,-0.36155998706817627,-0.12449999898672104,-0.3672800064086914,-0.17420999705791473,-0.1689399927854538],[-0.29111000895500183,-0.29041001200675964,-0.362419992685318,-0.40042999386787415,0.28516000509262085,-0.28185999393463135,-0.03719000145792961,-0.0761599987745285,0.19345000386238098,-0.07801999896764755,0.06260000169277191,0.33379998803138733,-0.14962999522686005,-0.023579999804496765,0.12371999770402908,0.30485999584198,-0.210999995470047],[0.40400001406669617,0.008349999785423279,-0.22803999483585358,0.21661999821662903,-0.3351300060749054,-0.00013000000035390258,-0.19699999690055847,-0.1709199994802475,0.3896600008010864,-0.2907100021839142,-0.18509000539779663,0.2844800055027008,-0.34887000918388367,0.10870999842882156,0.09346000105142593,-0.28918999433517456,-0.013819999992847443],[0.18890999257564545,-0.14297999441623688,0.20848000049591064,-0.3840399980545044,0.15046000480651855,-0.05590000003576279,-0.26695001125335693,-0.28009000420570374,0.301800012588501,0.09888999909162521,0.4003300070762634,-0.35874998569488525,0.4109500050544739,-0.33285000920295715,-0.20860999822616577,0.29100000858306885,0.1171099990606308],[0.41065001487731934,-0.09048999845981598,0.05254000052809715,-0.09881000220775604,-0.10664000362157822,0.24075999855995178,-0.03240999951958656,-0.27601999044418335,0.053040001541376114,-0.20476000010967255,0.4105199873447418,-0.06911999732255936,-0.4036099910736084,-0.3940899968147278,-0.033410001546144485,-0.08472000062465668,0.10226000100374222],[-0.018540000542998314,-0.06465999782085419,0.08399999886751175,0.33476999402046204,-0.21581000089645386,0.31856000423431396,0.1998399943113327,0.3661099970340729,-0.14866000413894653,0.14585000276565552,0.06908000260591507,-0.2875800132751465,0.2723099887371063,-0.1552100032567978,-0.3329800069332123,0.3472599983215332,-0.2509799897670746],[-0.276529997587204,0.38613998889923096,-0.162650004029274,0.26447999477386475,0.09307999908924103,0.39478999376296997,0.249099999666214,0.05758000165224075,-0.3892799913883209,-0.12976999580860138,-0.1533699929714203,0.06442999839782715,0.096220001578331,0.03150999918580055,0.21306000649929047,-0.2737799882888794,0.2549799978733063],[-0.021150000393390656,-0.1119299978017807,0.0442500002682209,0.3723199963569641,0.21309000253677368,0.13909000158309937,-0.004610000178217888,0.394540011882782,0.03550000116229057,0.20271000266075134,0.3070699870586395,-0.2527799904346466,-0.39517998695373535,0.1128000020980835,-0.15049999952316284,0.2252199947834015,-0.08388999849557877],[0.006670000031590462,0.2526400089263916,-0.3416700065135956,-0.35506999492645264,0.21480999886989594,-0.1473200023174286,-0.0028299998957663774,-0.28878000378608704,0.04280000180006027,-0.13590000569820404,0.10806000232696533,-0.36368000507354736,0.1321599930524826,0.31898000836372375,-0.1720300018787384,0.20140999555587769,-0.15240000188350677],[0.3344300091266632,0.0524899996817112,-0.09432999789714813,0.18403999507427216,-0.32475998997688293,0.2357500046491623,0.1716800034046173,-0.3024600148200989,0.4099400043487549,-0.14264999330043793,0.37220001220703125,-0.3721599876880646,-0.024070000275969505,-0.1896200031042099,-0.24326999485492706,-0.031530000269412994,0.3370800018310547]],"b":[-0.001339999958872795,-0.000910000002477318,-0.010300000198185444,0.022849999368190765,0.014259999617934227,0.019579999148845673,0.008899999782443047,0.015930000692605972,0.023819999769330025,0.0004400000034365803,-0.0060800001956522465,-0.014419999904930592,-0.0030700000934302807,0.023089999333024025,0.005549999885261059,-0.0004400000034365803,0.012649999931454659,-0.01671000011265278,0.012670000083744526,-0.005710000172257423,-0.020840000361204147,0.01140000019222498,0.012959999963641167,0.0008299999753944576,0.0005099999834783375,-0.001970000099390745,0.018459999933838844,-0.019060000777244568,0.007089999970048666,0.013489999808371067,0.002940000034868717,0.02387000061571598],"act":"silu","in":17,"out":32},{"w":[[0.20385999977588654,-0.21593999862670898,-0.07782000303268433,0.13369999825954437,-0.17453999817371368,0.2352299988269806,-0.2051199972629547,-0.24726000428199768,0.21612000465393066,0.015790000557899475,-0.18643000721931458,-0.2544499933719635,-0.29100000858306885,-0.20348000526428223,-0.0047599999234080315,0.1834699958562851,-0.12530000507831573,0.10785999894142151,-0.26530998945236206,0.27059000730514526,0.02768000029027462,0.06930000334978104,0.02889999933540821,-0.24313999712467194,0.27153000235557556,0.13176000118255615,-0.008229999803006649,0.17824000120162964,0.005150000099092722,0.05266999825835228,0.02404000051319599,0.18675999343395233],[-0.21414999663829803,-0.25088998675346375,-0.09390000253915787,0.2144400030374527,0.11649999767541885,0.1439100056886673,-0.28876999020576477,0.10100000351667404,-0.10135000199079514,0.2039099931716919,-0.11991000175476074,0.01245999988168478,0.16814999282360077,0.07370000332593918,0.2889299988746643,-0.153779998421669,0.13388000428676605,-0.2651500105857849,-0.10312999784946442,0.001500000013038516,0.30351999402046204,0.07752999663352966,-0.17340999841690063,-0.18074999749660492,0.22808000445365906,0.26243001222610474,0.03999000042676926,-0.04623999819159508,-0.14575999975204468,-0.15107999742031097,0.27939000725746155,0.14119000732898712],[-0.2847900092601776,0.2918899953365326,-0.09013999998569489,-0.18758000433444977,0.032519999891519547,0.018549999222159386,-0.02078999951481819,0.14012999832630157,0.24492999911308289,-0.11461000144481659,0.2563999891281128,0.30840998888015747,-0.24527999758720398,0.17050999402999878,0.2070000022649765,0.26232001185417175,-0.1598300039768219,-0.09331999719142914,0.15842999517917633,-0.1960500031709671,-0.15343999862670898,0.12007000297307968,0.2533800005912781,-0.10662999749183655,0.011900000274181366,0.19146999716758728,-0.2624100148677826,0.29576998949050903,-0.15542000532150269,0.18578000366687775,0.24305999279022217,0.23436999320983887],[0.15008999407291412,0.27557000517845154,-0.003909999970346689,-0.24323000013828278,-0.009290000423789024,0.1658799946308136,0.16182999312877655,-0.092289999127388,-0.13207000494003296,0.2257000058889389,0.19109000265598297,0.2147199958562851,0.2255299985408783,-0.07326000183820724,0.2143000066280365,-0.21171000599861145,-0.16641999781131744,0.18425999581813812,0.036660000681877136,-0.003060000017285347,0.13872000575065613,0.1959500014781952,-0.21807000041007996,-0.16378000378608704,-0.25464001297950745,0.09290000051259995,-0.013330000452697277,0.0838799998164177,0.23319999873638153,0.28529998660087585,0.036809999495744705,-0.2597000002861023],[0.10877999663352966,0.03166000172495842,-0.010089999996125698,-0.2089499980211258,0.29291999340057373,-0.206169992685318,0.02442999929189682,-0.13416999578475952,-0.25817999243736267,-0.23847000300884247,0.2767300009727478,-0.09211999922990799,0.022140000015497208,0.21125000715255737,0.04806999862194061,0.31266000866889954,0.0832199975848198,0.26655998826026917,0.186599999666214,-0.21714000403881073,0.22732000052928925,-0.0723700001835823,0.24943000078201294,0.12816999852657318,-0.3078700006008148,0.03125,-0.14940999448299408,0.05578000098466873,-0.051020000129938126,0.2892700135707855,-0.03117999993264675,0.26993998885154724],[0.1132500022649765,-0.014030000194907188,0.26684999465942383,0.08397000283002853,0.18480999767780304,0.2800300121307373,0.10357999801635742,-0.2574000060558319,0.2711400091648102,0.10805000364780426,-0.07518000155687332,-0.1054299995303154,0.23848000168800354,0.20313000679016113,-0.12835000455379486,-0.06566999852657318,-0.10055000334978104,-0.10722000151872635,0.16463999450206757,-0.22139999270439148,0.09773000329732895,0.1431799978017807,0.1268099993467331,0.1913899928331375,-0.08229000121355057,-0.24628999829292297,0.2608500123023987,0.035270001739263535,0.29875001311302185,0.0551300011575222,0.12714999914169312,0.090379998087883],[-0.01817999966442585,-0.07934000343084335,-0.27278000116348267,0.18220999836921692,0.21535000205039978,-0.005150000099092722,0.19742000102996826,0.030169999226927757,-0.22519999742507935,-0.26252999901771545,-0.13977999985218048,-0.2176699936389923,-0.28586000204086304,0.0026599999982863665,0.18639999628067017,0.2672699987888336,0.053199999034404755,0.07661999762058258,0.07745999842882156,-0.10865999758243561,0.2622799873352051,0.054659999907016754,0.0824899971485138,-0.1746399998664856,-0.21922999620437622,-0.22644999623298645,0.18644000589847565,0.025949999690055847,0.16423000395298004,0.1471800059080124,0.24206000566482544,0.13853999972343445],[0.03220999985933304,0.19210000336170197,0.19408999383449554,-0.020179999992251396,-0.029239999130368233,0.12720000743865967,0.023070000112056732,0.18477000296115875,0.07666999846696854,-0.2718200087547302,-0.22818000614643097,-0.15984000265598297,0.1807200014591217,-0.013170000165700912,0.04738999903202057,0.010859999805688858,0.006490000057965517,0.1292800009250641,0.03790999948978424,-0.24527999758720398,0.02256999909877777,0.15339000523090363,-0.07857999950647354,0.16538000106811523,0.2985999882221222,-0.22877000272274017,-0.21431000530719757,-0.11575999855995178,0.15854999423027039,0.3001199960708618,-0.039719998836517334,-0.152879998087883],[0.27702999114990234,0.24514000117778778,0.090549997985363,-0.2765200138092041,0.14911000430583954,-0.28845998644828796,0.05654999986290932,0.14137999713420868,-0.03830999881029129,0.05082999914884567,0.14945000410079956,-0.046560000628232956,0.29653000831604004,0.12300000339746475,-0.21177999675273895,-0.32047998905181885,0.21393999457359314,0.22029000520706177,-0.07882999628782272,-0.22548000514507294,-0.22018000483512878,0.23715999722480774,-0.26802000403404236,-0.030249999836087227,0.2210800051689148,0.05265999957919121,-0.17276999354362488,0.0561399981379509,-0.2789500057697296,-0.1375100016593933,0.16598999500274658,-0.3163500130176544],[-0.207179993391037,-0.17771999537944794,-0.1944199949502945,-0.2977699935436249,-0.17137999832630157,0.13188999891281128,0.0669500008225441,-0.25262999534606934,0.06364999711513519,-0.04605000093579292,0.05355000123381615,0.16171999275684357,-0.2696099877357483,-0.24532000720500946,0.19043999910354614,0.20214000344276428,-0.1976500004529953,-0.16005000472068787,0.2923099994659424,-0.0032999999821186066,-0.059579998254776,0.06931000202894211,0.11076000332832336,0.3048099875450134,0.12714999914169312,-0.23010000586509705,0.0944100022315979,0.05243999883532524,-0.07377000153064728,0.07957000285387039,-0.0681999996304512,0.11800999939441681],[-0.06420999765396118,-0.11561000347137451,-0.175819993019104,0.014059999957680702,-0.08908999711275101,0.2816599905490875,0.3123300075531006,0.3184199929237366,0.27459999918937683,0.03286999836564064,-0.1958400011062622,-0.1292800009250641,-0.25940001010894775,-0.1318099945783615,0.22811000049114227,-0.1072700023651123,0.011420000344514847,-0.0009200000204145908,-0.08566000312566757,-0.2141599953174591,-0.19641999900341034,0.19489000737667084,0.18111999332904816,-0.0552700012922287,-0.12575000524520874,-0.185029998421669,0.14719000458717346,-0.20145000517368317,0.14722999930381775,-0.15473000705242157,0.12156999856233597,0.11801999807357788],[0.11439000070095062,0.11101000010967255,-0.023910000920295715,0.13087999820709229,0.13888999819755554,-0.01565999910235405,0.1653600037097931,0.015769999474287033,0.040150001645088196,-0.12269999831914902,-0.14398999512195587,-0.27911001443862915,0.2926099896430969,-0.03819999843835831,0.11834000051021576,0.012740000151097775,-0.22540000081062317,0.198170006275177,0.28036999702453613,0.15272000432014465,0.05463999882340431,-0.16347000002861023,0.2972800135612488,0.05762999877333641,-0.23216000199317932,-0.1057400032877922,0.031849998980760574,0.024860000237822533,-0.21764999628067017,0.1315000057220459,-0.15163999795913696,-0.1428699940443039],[-0.014089999720454216,-0.08664999902248383,0.31439998745918274,-0.12229999899864197,0.0728600025177002,0.11279000341892242,-0.27364999055862427,-0.09890999644994736,-0.17942999303340912,-0.2724199891090393,0.05593999847769737,0.04774999991059303,-0.2600899934768677,0.21235999464988708,-0.12379000335931778,0.05389999970793724,-0.01573999971151352,0.14770999550819397,-0.09143999963998795,0.07573000341653824,0.14320999383926392,0.04098999872803688,-0.07746999710798264,-0.18727000057697296,0.18421000242233276,-0.07269000262022018,-0.0966000035405159,-0.2917799949645996,-0.2128099948167801,-0.11100000143051147,-0.20803000032901764,0.11152999848127365],[-0.27935001254081726,0.2677899897098541,0.01954999938607216,0.015289999544620514,-0.11866000294685364,-0.0487699992954731,0.1974100023508072,0.272599995136261,-0.07276999950408936,-0.24496999382972717,-0.13500000536441803,0.23261000216007233,0.23920999467372894,-0.2825799882411957,0.09375,0.039480000734329224,-0.10915999859571457,0.04436999931931496,-0.2130099982023239,0.09946999698877335,0.11962000280618668,-0.1928199976682663,0.020759999752044678,0.2473199963569641,-0.1904900074005127,0.031950000673532486,-0.2916100025177002,0.27505001425743103,0.08323000371456146,0.07799000293016434,-0.218299999833107,0.004399999976158142],[0.1048400029540062,-0.2856900095939636,0.12578999996185303,-0.09956999868154526,-0.020109999924898148,0.2797200083732605,0.20065000653266907,0.12947000563144684,-0.30320999026298523,-0.11455000191926956,0.08208999782800674,0.25380998849868774,-0.0500200018286705,0.2658900022506714,0.18387000262737274,0.2611300051212311,-0.24205000698566437,-0.28964000940322876,-0.2476699948310852,-0.2130099982023239,-0.04262999817728996,-0.09412000328302383,0.023889999836683273,0.0867300033569336,0.07231000065803528,0.06349000334739685,0.30017998814582825,0.018479999154806137,0.09956999868154526,-0.04529999941587448,0.030500000342726707,0.17361000180244446],[-0.04334999993443489,-0.17591999471187592,-0.15953999757766724,-0.19919000566005707,0.25418001413345337,0.022360000759363174,0.18684999644756317,-0.09973999857902527,-0.039400000125169754,0.04019999876618385,0.11688999831676483,0.1818300038576126,0.2887600064277649,0.2707200050354004,-0.2502399981021881,-0.2902100086212158,0.18849000334739685,-0.2203799933195114,0.22943000495433807,0.10531000047922134,0.07066000252962112,0.08750999718904495,0.15730999410152435,-0.1473499983549118,-0.13716000318527222,-0.2718000113964081,0.019610000774264336,-0.2652899920940399,-0.16460999846458435,-0.040389999747276306,0.24163000285625458,-0.03426999971270561],[-0.1011900007724762,0.2570199966430664,-0.124719999730587,0.16294999420642853,-0.11514999717473984,0.27379998564720154,-0.03367000073194504,0.146139994263649,-0.0101500004529953,-0.021220000460743904,-0.10803999751806259,0.03344999998807907,0.30417001247406006,0.12950000166893005,0.2429800033569336,0.14385999739170074,0.2522299885749817,-0.24583999812602997,0.1598300039768219,-0.3033300042152405,-0.2981100082397461,0.19016000628471375,0.06846000254154205,-0.0023499999660998583,-0.2513200044631958,0.2796100080013275,0.1802300065755844,-0.178849995136261,0.13996000587940216,0.25485000014305115,0.007120000198483467,0.288349986076355],[0.18162000179290771,-0.16099999845027924,-0.07199999690055847,-0.13792000710964203,-0.033440001308918,0.2256699949502945,-0.09548000246286392,0.08212999999523163,-0.23477999866008759,-0.025499999523162842,0.20987999439239502,0.2775599956512451,-0.0945499986410141,0.16019000113010406,-0.06966999918222427,-0.11827000230550766,-0.06063000112771988,0.2790600061416626,-0.06650000065565109,0.08061999827623367,-0.1581999957561493,-0.19696000218391418,0.29541000723838806,0.24774999916553497,-0.16140000522136688,-0.20184999704360962,0.2912200093269348,-0.23069000244140625,0.015809999778866768,-0.10653000324964523,-0.20798000693321228,0.12714999914169312],[-0.24788999557495117,0.025210000574588776,-0.10158000141382217,0.09014999866485596,0.18639999628067017,-0.047269999980926514,-0.273140013217926,-0.22266000509262085,-0.01119999960064888,-0.28984999656677246,-0.163100004196167,0.11845999956130981,-0.14295999705791473,-0.22741000354290009,-0.063680000603199,-0.23169000446796417,-0.19797000288963318,-0.25867000222206116,-0.16944000124931335,-0.1017799973487854,0.23930999636650085,-0.10943000018596649,-0.06769999861717224,-0.17879000306129456,-0.018449999392032623,-0.03852999955415726,-0.12770000100135803,0.016580000519752502,0.15199999511241913,0.07801000028848648,0.03968999907374382,-0.2621900141239166],[0.03238999843597412,-0.01561999972909689,0.2825999855995178,-0.29896000027656555,0.26089999079704285,-0.1552799940109253,0.04952000081539154,-0.2628900110721588,-0.048670001327991486,0.11992999911308289,-0.19742999970912933,0.24572999775409698,0.19098000228405,-0.2755100131034851,-0.04366999864578247,0.04077000170946121,0.249099999666214,0.10583999752998352,0.20206999778747559,-0.02295999974012375,0.2527500092983246,-0.13496999442577362,-0.24609999358654022,0.191430002450943,-0.18685999512672424,-0.09318000078201294,0.02769000083208084,0.008700000122189522,-0.2084600031375885,-0.17678000032901764,0.28885000944137573,-0.04394000023603439],[-0.06293000280857086,0.23996999859809875,-0.1714400053024292,0.16003000736236572,-0.20058999955654144,-0.19109000265598297,0.18928000330924988,0.23352999985218048,0.13053999841213226,0.21061000227928162,-0.2614699900150299,-0.03359000012278557,0.24783000349998474,-0.18779000639915466,-0.23149999976158142,-0.21900999546051025,0.12128999829292297,-0.31005001068115234,-0.30270999670028687,0.011889999732375145,-0.2365500032901764,0.0839100033044815,0.2211800068616867,0.0064199999906122684,-0.13955000042915344,0.05364000052213669,-0.09279999881982803,0.2615799903869629,0.16877999901771545,-0.04341999813914299,-0.060350000858306885,0.03798000141978264],[-0.2784999907016754,-0.07225999981164932,-0.2137099951505661,-0.25624001026153564,-0.16699999570846558,0.15263999998569489,-0.2582300007343292,-0.2798199951648712,-0.025790000334382057,0.20294000208377838,0.11886999756097794,0.17768999934196472,0.044349998235702515,-0.028179999440908432,-0.16586999595165253,0.11242999881505966,-0.2839699983596802,-0.2135699987411499,-0.04617999866604805,0.09529999643564224,0.2297399938106537,0.23802000284194946,-0.13499000668525696,-0.08110000193119049,-0.1294099986553192,0.2617500126361847,-0.1349100023508072,-0.1496499925851822,0.09820999950170517,0.13517999649047852,-0.1379999965429306,-0.3296799957752228],[0.16389000415802002,-0.17879000306129456,0.07959999889135361,0.11003000289201736,0.28887999057769775,0.22269999980926514,-0.04904999956488609,0.09943000227212906,-0.14657999575138092,-0.24774999916553497,0.15539999306201935,-0.16966000199317932,0.03522999957203865,0.05212999880313873,0.05838000029325485,0.12981000542640686,-0.13728000223636627,-0.09438999742269516,0.2831999957561493,0.13494999706745148,-0.0524200014770031,0.09752999991178513,-0.013279999606311321,-0.03889000043272972,-0.16958999633789062,-0.013000000268220901,0.14681999385356903,-0.12650999426841736,0.0005099999834783375,0.1596599966287613,-0.05167999863624573,0.26197999715805054],[0.16279000043869019,-0.09643000364303589,0.206619992852211,0.25505000352859497,-0.23863999545574188,0.2701199948787689,-0.13481999933719635,0.016790000721812248,-0.1530199944972992,0.10762999951839447,0.1956000030040741,-0.19798000156879425,-0.08050999790430069,0.12953999638557434,0.1601399928331375,0.23315000534057617,-0.24296000599861145,0.08703000098466873,-0.24526000022888184,-0.29794999957084656,-0.06436999887228012,-0.25606998801231384,-0.0007999999797903001,0.2082200050354004,-0.06860999763011932,0.18774999678134918,0.2399899959564209,-0.20322999358177185,0.13500000536441803,0.01592000015079975,-0.21111999452114105,-0.19742000102996826],[-0.20035000145435333,-0.1848900020122528,0.25745999813079834,-0.055410001426935196,0.30452999472618103,0.19171999394893646,-0.15335999429225922,0.27678999304771423,0.0662200003862381,0.09681999683380127,-0.17732000350952148,-0.17614999413490295,0.012760000303387642,-0.07704000174999237,-0.27421000599861145,0.1374800056219101,-0.28922000527381897,-0.10903999954462051,0.1595200002193451,0.20196999609470367,-0.07472000271081924,0.2671299874782562,0.1797100007534027,-0.04701999947428703,0.04879000037908554,-0.10446000099182129,0.18866999447345734,0.14395000040531158,-0.16190999746322632,0.11315000057220459,0.19407999515533447,-0.13102999329566956],[-0.20157000422477722,0.28205999732017517,-0.18836000561714172,0.08906000107526779,-0.10930000245571136,-0.1643799990415573,-0.21317000687122345,0.07823000103235245,-0.08066000044345856,0.22791999578475952,-0.15875999629497528,0.3009699881076813,-0.02841999940574169,0.060169998556375504,0.0449800007045269,0.2902100086212158,-0.1730699986219406,0.039239998906850815,-0.04478999972343445,-0.2329300045967102,0.21945999562740326,0.12353000044822693,0.1048400029540062,-0.2803399860858917,0.10119999945163727,0.00033999999868683517,0.19923000037670135,-0.06400000303983688,-0.05194000154733658,0.29280000925064087,0.05609000101685524,-0.09792999923229218],[-0.03550000116229057,0.14451999962329865,-0.1007699966430664,-0.08483999967575073,0.058490000665187836,0.2738800048828125,0.04986000061035156,-0.13399000465869904,0.251910001039505,0.15655000507831573,-0.21140000224113464,0.08550000190734863,0.2355699986219406,0.07215999811887741,-0.10829000174999237,0.05974999815225601,-0.21272000670433044,0.09008000046014786,-0.017030000686645508,0.2413100004196167,0.06027999892830849,0.29941999912261963,-0.04538999870419502,0.07814999669790268,0.1608400046825409,0.031550001353025436,0.17169000208377838,0.08333999663591385,0.004860000219196081,0.05620000138878822,0.15550999343395233,-0.24936999380588531],[0.21246999502182007,0.2660199999809265,0.23545999825000763,0.24070000648498535,-0.28271999955177307,-0.17056000232696533,-0.2013999968767166,-0.002199999988079071,-0.1638299971818924,0.27698999643325806,-0.0005699999746866524,0.08093000203371048,0.07398000359535217,-0.13689999282360077,0.22537000477313995,0.22012999653816223,0.07266999781131744,-0.26210999488830566,-0.046160001307725906,0.22931000590324402,-0.09545999765396118,0.25468000769615173,0.05310000106692314,-0.10450000315904617,0.25839999318122864,0.0004900000058114529,-0.09053000062704086,0.21439999341964722,-0.26368001103401184,0.24330000579357147,-0.26934000849723816,0.2226099967956543],[0.22969000041484833,-0.22468000650405884,0.18321000039577484,0.07199999690055847,-0.29655998945236206,-0.0062699997797608376,-0.09606999903917313,-0.07829000055789948,-0.19824999570846558,0.02718999981880188,-0.009359999559819698,-0.2911899983882904,0.26061999797821045,0.15783999860286713,0.06235000118613243,-0.12724000215530396,-0.07587999850511551,0.05473000183701515,0.09588000178337097,0.2777700126171112,-0.09307999908924103,-0.1315000057220459,-0.06289000064134598,0.038759998977184296,-0.1369200050830841,-0.30671000480651855,-0.040139999240636826,0.25666001439094543,0.0449800007045269,-0.21546000242233276,0.18783999979496002,0.05127999931573868],[0.28863000869750977,-0.25231999158859253,0.1929900050163269,0.005200000014156103,0.08516000211238861,0.10182999819517136,0.016140000894665718,-0.16050000488758087,0.2384900003671646,0.12536999583244324,0.06469999998807907,-0.12560999393463135,0.26475000381469727,0.023719999939203262,-0.07361000031232834,-0.06290999799966812,-0.18004000186920166,-0.2070399969816208,0.3021399974822998,0.290120005607605,0.03711999952793121,0.06007999926805496,-0.15737999975681305,0.2710700035095215,-0.10444000363349915,-0.08767999708652496,0.1838800013065338,-0.27656999230384827,0.28529998660087585,-0.0783500000834465,0.01576000079512596,-0.2405499964952469],[-0.22529000043869019,-0.14616000652313232,0.05353999882936478,-0.09754999727010727,0.2648699879646301,0.31494998931884766,0.056370001286268234,0.19187000393867493,0.27055999636650085,-0.0007900000200606883,-0.014890000224113464,-0.08455999940633774,-0.30546998977661133,0.2585499882698059,0.062780000269413,-0.13767999410629272,-0.2001200020313263,-0.2875100076198578,0.2695299983024597,0.2897000014781952,-0.11462999880313873,0.11913000047206879,-0.20547999441623688,-0.300790011882782,0.06958000361919403,-0.005369999911636114,-0.04293999820947647,-0.019440000876784325,-0.09715999662876129,0.26061001420021057,0.15613999962806702,0.14723999798297882],[0.19673000276088715,-0.015359999611973763,0.2113800048828125,0.22257000207901,-0.1705400049686432,-0.17117999494075775,-0.09001000225543976,0.2577899992465973,-0.2634199857711792,-0.1672399938106537,0.2073500007390976,-0.034219998866319656,0.0814799964427948,-0.1497499942779541,0.2900699973106384,-0.06449999660253525,0.1350100040435791,-0.2779799997806549,-0.17625999450683594,-0.10868000239133835,-0.23715999722480774,-0.25352999567985535,0.1487399935722351,0.07055000215768814,-0.1552799940109253,-0.293830007314682,-0.003470000112429261,0.29322001338005066,0.10046999901533127,0.10311000049114227,-0.24528999626636505,-0.1097399964928627]],"b":[-0.017400000244379044,0.01590000092983246,0.0041600000113248825,-0.017559999600052834,0.014379999600350857,0.019200000911951065,-0.014809999614953995,0.004569999873638153,-0.021880000829696655,-0.012649999931454659,0.016720000654459,-0.014419999904930592,-0.02232999913394451,-0.020269999280571938,-0.013009999878704548,0.00913000013679266,0.02167000062763691,0.010479999706149101,-0.013629999943077564,-0.025469999760389328,-0.011140000075101852,-0.02613000012934208,0.001829999964684248,-0.0007600000244565308,-0.006149999797344208,-0.0013099999632686377,0.023259999230504036,0.010010000318288803,-0.011180000379681587,0.006300000008195639,0.018459999933838844,-0.005739999935030937],"act":"silu","in":32,"out":32},{"w":[[-0.2790600061416626,-0.011800000444054604,0.2503199875354767,0.04501999914646149,0.2796599864959717,0.07400999963283539,0.007780000101774931,-0.08594000339508057,-0.15062999725341797,-0.0008800000068731606,-0.11869999766349792,0.1353600025177002,-0.22190000116825104,0.16193999350070953,-0.22992999851703644,0.26107001304626465,0.24212999641895294,-0.02652999944984913,0.1440100073814392,-0.29128000140190125,0.06463000178337097,-0.2096399962902069,-0.22476999461650848,-0.03365999832749367,-0.008070000447332859,0.10006000101566315,-0.2408600002527237,0.05576999858021736,-0.294050008058548,0.10761000216007233,0.0854400023818016,0.29853999614715576],[0.11659999936819077,0.20052999258041382,0.25554001331329346,-0.14291000366210938,-0.17648999392986298,0.23601999878883362,0.09007000178098679,0.2061000019311905,0.0573900006711483,-0.2844200134277344,0.24842999875545502,-0.11190000176429749,-0.08179999887943268,-0.06888999789953232,-0.26572999358177185,0.2701700031757355,-0.18782000243663788,0.27955999970436096,-0.2804099917411804,0.1343899965286255,0.034279998391866684,-0.26771000027656555,0.11653000116348267,0.1897200047969818,0.2128099948167801,-0.18508000671863556,0.23454000055789948,0.22707000374794006,-0.27118000388145447,-0.26203998923301697,0.2939299941062927,0.125450000166893],[-0.00892999954521656,0.09092999994754791,-0.19460000097751617,0.04441000148653984,-0.08017999678850174,0.12073999643325806,0.11858999729156494,0.17402000725269318,-0.2581300139427185,-0.25262001156806946,-0.25655001401901245,-0.14747999608516693,-0.10965999960899353,-0.16101999580860138,-0.2787100076675415,0.28690001368522644,-0.1452600061893463,-0.03392000123858452,-0.13801999390125275,0.01209999993443489,0.22332000732421875,-0.18557000160217285,0.0377499982714653,0.0030499999411404133,0.10339999943971634,-0.18786999583244324,0.28665000200271606,0.1960899978876114,-0.18668000400066376,0.063510000705719,-0.191430002450943,-0.11947000026702881],[0.2524299919605255,-0.2338699996471405,0.15522000193595886,0.20614999532699585,0.08720999956130981,0.18459999561309814,0.10245999693870544,0.05172000080347061,-0.14278000593185425,-0.2609899938106537,-0.006180000025779009,-0.09210000187158585,-0.2994700074195862,-0.03654000163078308,0.15931999683380127,0.23830999433994293,0.18856999278068542,0.15353000164031982,-0.09734000265598297,-0.2601099908351898,-0.14121000468730927,-0.2614400088787079,-0.07677999883890152,0.1546200066804886,-0.27379998564720154,-0.11240000277757645,0.2321300059556961,-0.05107000097632408,0.2468400001525879,0.26899001002311707,0.18021999299526215,-0.2304600030183792],[-0.2402700036764145,0.27865999937057495,-0.2671299874782562,-0.2926599979400635,0.07643000036478043,0.09538000077009201,-0.24684999883174896,0.007799999788403511,-0.2677600085735321,0.2872300148010254,0.2522299885749817,-0.2562600076198578,0.08923999965190887,-0.08794999867677689,0.09991999715566635,-0.2947799861431122,0.21106000244617462,-0.07769999653100967,0.1350499987602234,-0.21570000052452087,-0.06770999729633331,-0.02491999976336956,0.09391999989748001,-0.1546899974346161,-0.1312599927186966,0.21522000432014465,0.06306000053882599,-0.10852000117301941,-0.00019999999494757503,-0.016119999811053276,0.11759000271558762,-0.19103999435901642],[-0.14529000222682953,-0.18472999334335327,-0.21583999693393707,-0.14823000133037567,-0.013340000063180923,-0.2511900067329407,-0.2219099998474121,-0.14323000609874725,-0.24900999665260315,-0.25519001483917236,0.12630000710487366,0.23033000528812408,0.20362000167369843,-0.20058000087738037,0.19499999284744263,-0.22544999420642853,0.2897399961948395,-0.06182999908924103,-0.13756999373435974,-0.13941000401973724,-0.23386000096797943,-0.2768299877643585,0.2405100017786026,-0.2965399920940399,0.10058999806642532,0.15376999974250793,0.2839899957180023,0.14223000407218933,0.18639999628067017,0.25176000595092773,-0.29420000314712524,-0.04764999821782112]],"b":[0.020899999886751175,0.023840000852942467,0.008799999952316284,0.02387000061571598,0.0301900003105402,0.022390000522136688],"act":"tanh","in":32,"out":6}]},"value_net":{"input_dim":17,"layers":[{"w":[[-0.12445999681949615,-0.1765899956226349,-0.07771000266075134,-0.06539999693632126,0.11744000017642975,0.28282999992370605,-0.37814000248908997,-0.17472000420093536,-0.3743300139904022,-0.4284699857234955,-0.10277000069618225,-0.4048900008201599,0.17252999544143677,0.009290000423789024,0.29493001103401184,-0.14504000544548035,0.08023999631404877],[-0.1456499993801117,-0.3677600026130676,0.4073899984359741,-0.03790999948978424,-0.2676900029182434,0.2946600019931793,-0.3155199885368347,-0.4279800057411194,0.11524000018835068,-0.33125999569892883,0.2121800035238266,0.02223999984562397,-0.3337000012397766,0.04148000106215477,0.2752699851989746,0.06872999668121338,0.17535999417304993],[0.3617199957370758,-0.12518000602722168,-0.32455000281333923,-0.33125999569892883,-0.26708999276161194,0.3893600106239319,-0.3161900043487549,0.3208799958229065,-0.3406499922275543,0.09296000003814697,-0.17112000286579132,0.12791000306606293,0.095490001142025,-0.3594299852848053,-0.2371699959039688,0.19046999514102936,-0.2829599976539612],[-0.34970998764038086,0.02969999983906746,-0.0008200000156648457,-0.0391400009393692,-0.020430000498890877,0.12313999980688095,-0.019500000402331352,-0.0703900009393692,0.40689000487327576,0.11377999931573868,-0.031870000064373016,-0.10595999658107758,0.3332099914550781,0.2518500089645386,-0.2160400003194809,-0.35227999091148376,-0.3826499879360199],[-0.09354999661445618,-0.2341500073671341,0.23948000371456146,-0.16288000345230103,-0.14598000049591064,0.1637900024652481,-0.3966900110244751,0.3637300133705139,-0.10935000330209732,0.0871099978685379,-0.39879998564720154,0.3598099946975708,0.10298000276088715,-0.1236800029873848,0.13404999673366547,-0.1357100009918213,-0.17459000647068024],[-0.08986999839544296,0.3322499990463257,0.10163000226020813,0.029510000720620155,0.3089900016784668,0.019300000742077827,0.18392999470233917,0.13937999308109283,-0.4091300070285797,-0.12020999938249588,-0.41874000430107117,-0.42899999022483826,0.059059999883174896,-0.2198600023984909,-0.15765999257564545,0.26561999320983887,-0.37005001306533813],[-0.09181000292301178,-0.12308000028133392,0.37525999546051025,-0.21160000562667847,0.12498000264167786,0.2783699929714203,-0.2448900043964386,0.15775999426841736,0.08337999880313873,0.4119099974632263,-0.3331199884414673,0.35565999150276184,-0.23286999762058258,-0.3982200026512146,0.0616299994289875,-0.357450008392334,0.045779999345541],[-0.22273999452590942,-0.09677000343799591,-0.032010000199079514,-0.22508999705314636,-0.11948999762535095,-0.3194800019264221,0.22231000661849976,-0.09973999857902527,0.18828000128269196,-0.3519499897956848,0.35172000527381897,0.07374999672174454,0.32190999388694763,-0.11811000108718872,-0.23222999274730682,0.10413999855518341,0.160630002617836],[0.0711899995803833,-0.01909000054001808,-0.08529999852180481,-0.42820000648498535,0.17618000507354736,0.252920001745224,0.03443999961018562,0.42653000354766846,0.33285999298095703,-0.045490000396966934,-0.026639999821782112,-0.3014400005340576,-0.019349999725818634,0.37773001194000244,-0.2685700058937073,-0.2843100130558014,-0.32565000653266907],[-0.19179999828338623,-0.23734000325202942,-0.3397800028324127,0.09194999933242798,-0.28874000906944275,0.4049299955368042,0.025310000404715538,0.351749986410141,0.2079000025987625,-0.3190799951553345,0.13270999491214752,-0.33320000767707825,0.43018999695777893,-0.40338999032974243,0.44675999879837036,0.01647000014781952,0.31038999557495117],[0.1816300004720688,-0.22245000302791595,-0.12376999855041504,-0.05378999933600426,-0.33219999074935913,0.3446100056171417,0.30410000681877136,-0.38071998953819275,0.052730001509189606,-0.2663699984550476,-0.24030999839305878,0.17241999506950378,0.07423000037670135,0.09961999952793121,-0.1441500037908554,0.32607999444007874,0.18907999992370605],[-0.02717999927699566,0.14192000031471252,-0.10811000317335129,-0.3354099988937378,-0.150409996509552,-0.06458000093698502,0.2319599986076355,-0.23068000376224518,0.18355000019073486,-0.31637999415397644,-0.05257999897003174,0.3759799897670746,0.1492599993944168,0.14959000051021576,0.09601999819278717,-0.3446600139141083,0.22793999314308167],[0.30125001072883606,0.07275000214576721,0.10959000140428543,0.3502599895000458,-0.3432599902153015,-0.3662799894809723,-0.4104599952697754,-0.06611999869346619,0.32183000445365906,-0.22269000113010406,-0.1448500007390976,0.16274000704288483,-0.29907000064849854,0.1363999992609024,-0.2251800000667572,0.22394999861717224,-0.221670001745224],[-0.1848900020122528,-0.15435999631881714,-0.10081999748945236,-0.042890001088380814,0.34856000542640686,-0.3811500072479248,-0.3410100042819977,-0.31112998723983765,-0.40209001302719116,0.212909996509552,0.25262999534606934,-0.0449800007045269,-0.13194000720977783,-0.2630000114440918,-0.3090299963951111,0.22645999491214752,0.15376999974250793],[0.2840999960899353,-0.0980599969625473,-0.34661999344825745,0.4060100018978119,-0.29447001218795776,0.35798999667167664,0.20092999935150146,-0.336899995803833,-0.11044000089168549,-0.04396999999880791,-0.3546600043773651,0.05119000002741814,-0.31777000427246094,0.0946900025010109,-0.11834999918937683,-0.14163999259471893,0.26218000054359436],[-0.3742600083351135,0.26636001467704773,-0.18166999518871307,-0.025429999455809593,-0.01607999950647354,-0.3807699978351593,-0.03277000039815903,0.1016400009393692,0.2688800096511841,0.19512000679969788,-0.34404999017715454,0.10202000290155411,-0.1677899956703186,0.3246400058269501,0.40314000844955444,0.31237998604774475,-0.23986999690532684],[-0.10208000242710114,-0.2870599925518036,0.19674000144004822,-0.3783699870109558,-0.1230200007557869,-0.26392000913619995,0.12273000180721283,0.12048999965190887,-0.041359998285770416,0.16753000020980835,0.121069997549057,-0.3274799883365631,0.2805899977684021,-0.42548999190330505,-0.3707500100135803,-0.3295600116252899,-0.09995000064373016],[0.08382999897003174,0.3907899856567383,-0.12381000071763992,0.10033000260591507,-0.1387300044298172,0.020679999142885208,0.3885999917984009,-0.36024001240730286,0.0020099999383091927,-0.055410001426935196,0.050360001623630524,0.43467000126838684,-0.09395000338554382,-0.2268799990415573,0.1544400006532669,-0.25602999329566956,-0.3391999900341034],[0.23210999369621277,-0.1531600058078766,0.30195000767707825,0.4550600051879883,0.2096399962902069,0.12258999794721603,-0.16586999595165253,-0.34529998898506165,0.06792999804019928,0.21975000202655792,0.2697100043296814,-0.028370000422000885,0.08388999849557877,-0.25317999720573425,0.11710000038146973,-0.2001899927854538,0.4418199956417084],[0.3199700117111206,-0.43869999051094055,-0.040470000356435776,0.3662799894809723,-0.3017599880695343,0.14424000680446625,0.188400000333786,-0.3242799937725067,0.14663000404834747,-0.32150998711586,0.17396000027656555,-0.3843100070953369,0.17011000216007233,0.07078000158071518,-0.02572000026702881,-0.23048000037670135,-0.1963600069284439],[0.27324000000953674,0.40755000710487366,0.2257400006055832,0.05527999997138977,-0.09000000357627869,-0.23061999678611755,0.37119001150131226,-0.07040999829769135,0.14306999742984772,0.45910999178886414,-0.31226998567581177,-0.2331400066614151,0.1705400049686432,0.2689400017261505,-0.1285800039768219,0.42890000343322754,0.14044000208377838],[0.023280000314116478,-0.3164899945259094,-0.22059999406337738,0.3601900041103363,-0.022129999473690987,0.1150600016117096,-0.20882000029087067,0.33254000544548035,0.3322699964046478,0.1485999971628189,-0.12347999960184097,-0.35965999960899353,0.35374000668525696,0.26697999238967896,0.02824999950826168,0.16485999524593353,0.20845000445842743],[-0.17328999936580658,-0.2750200033187866,0.3737899959087372,-0.26243001222610474,0.21608999371528625,0.375,-0.05014000087976456,0.043960001319646835,-0.38126999139785767,-0.047759998589754105,-0.10019999742507935,0.2521899938583374,-0.13899999856948853,-0.21032999455928802,-0.3220899999141693,0.26528000831604004,-0.04974000155925751],[-0.03409000113606453,-0.23436999320983887,0.21874000132083893,0.36917001008987427,-0.10653000324964523,0.3725399971008301,0.07116000354290009,0.18070000410079956,-0.21268999576568604,-0.28600001335144043,0.15372000634670258,0.2890700101852417,-0.1462399959564209,-0.08739999681711197,-0.41802000999450684,-0.07146000117063522,-0.04983000084757805],[-0.048179998993873596,0.15172000229358673,-0.11077000200748444,0.18889999389648438,0.10123000293970108,-0.20366999506950378,-0.10033000260591507,0.3702099919319153,0.29243001341819763,0.4640499949455261,0.03180000185966492,0.19277000427246094,0.29357001185417175,0.27360999584198,0.3776099979877472,-0.3511500060558319,0.28345000743865967],[0.09720999747514725,0.32076001167297363,0.23996999859809875,0.2405100017786026,0.17104999721050262,-0.41326001286506653,0.07568000257015228,-0.2060299962759018,0.03585999831557274,0.2712799906730652,0.02831999957561493,0.16178999841213226,0.28560999035835266,0.11321000009775162,0.2047100067138672,-0.17560000717639923,-0.10576000064611435],[0.3617900013923645,0.12967999279499054,-0.416130006313324,0.23738999664783478,-0.2712700068950653,-0.25707998871803284,0.31358999013900757,-0.08748999983072281,-0.26252999901771545,-0.3805699944496155,0.17403000593185425,0.008510000072419643,-0.37738001346588135,-0.35732999444007874,0.3819600045681,-0.3451800048351288,0.34384000301361084],[-0.3562600016593933,-0.09204000234603882,-0.254040002822876,0.20271000266075134,-0.177729994058609,-0.365119993686676,-0.13819999992847443,-0.32479000091552734,0.053690001368522644,0.09856999665498734,0.27300000190734863,-0.29179999232292175,-0.24879999458789825,-0.18448999524116516,0.10515999794006348,-0.14800000190734863,0.10634999722242355],[-0.06609000265598297,0.2575800120830536,0.05796999856829643,-0.28725001215934753,0.07269000262022018,-0.07769999653100967,0.3616800010204315,0.3882899880409241,-0.1231599971652031,-0.17301000654697418,0.3030399978160858,0.33024001121520996,0.29848000407218933,-0.014800000004470348,-0.1416199952363968,0.27496999502182007,0.298550009727478],[-0.15433000028133392,0.14630000293254852,0.06442999839782715,-0.426580011844635,0.28057000041007996,0.36959999799728394,-0.02443999983370304,-0.1453000009059906,-0.31692999601364136,-0.08894000202417374,0.3465999960899353,-0.06724999845027924,-0.45194000005722046,0.20990000665187836,0.2637600004673004,-0.13776999711990356,0.2706499993801117],[-0.00773000018671155,-0.2724199891090393,-0.11195000261068344,-0.4201500117778778,0.15470999479293823,0.23145000636577606,-0.23135000467300415,0.1335899978876114,0.2705399990081787,-0.32666000723838806,-0.10550999641418457,0.190420001745224,-0.35352998971939087,0.1978600025177002,0.2102299928665161,-0.17441000044345856,-0.25641000270843506],[-0.05274000018835068,0.43566998839378357,-0.01575000025331974,0.23687000572681427,0.3197999894618988,0.20458999276161194,0.02727000042796135,-0.2259799987077713,0.27882999181747437,-0.3003000020980835,-0.3351399898529053,0.22710999846458435,0.03381999954581261,-0.30206000804901123,0.05793000012636185,0.11173000186681747,-0.059379998594522476],[-0.2612999975681305,-0.18828000128269196,-0.11023999750614166,0.292930006980896,0.0990699976682663,-0.028300000354647636,0.0083600003272295,0.37575000524520874,-0.021980000659823418,0.32916998863220215,-0.38558998703956604,-0.38266998529434204,0.18258999288082123,-0.24256999790668488,-0.09816999733448029,-0.22529000043869019,-0.3682999908924103],[-0.15661999583244324,-0.17406000196933746,0.11602000147104263,-0.396450012922287,0.004530000034719706,0.4074600040912628,-0.0597199983894825,-0.17654000222682953,-0.4321100115776062,-0.4149399995803833,0.146479994058609,0.2680499851703644,0.14717000722885132,0.17563000321388245,0.12578000128269196,-0.37790000438690186,-0.09210000187158585],[-0.2876400053501129,-0.4145500063896179,-0.019670000299811363,-0.13603000342845917,-0.3883399963378906,-0.23896999657154083,-0.38710999488830566,-0.42333000898361206,0.3455899953842163,-0.3042599856853485,0.3164600133895874,-0.14348000288009644,0.20774999260902405,-0.18991999328136444,-0.4458500146865845,-0.39153000712394714,0.34815001487731934],[-0.19191999733448029,0.41874998807907104,0.18967999517917633,-0.11238999664783478,-0.3321700096130371,-0.34314998984336853,0.23576000332832336,-0.2630299925804138,0.153779998421669,0.10200999677181244,0.10876999795436859,-0.0508200004696846,0.1069599986076355,0.11801999807357788,-0.14821000397205353,0.11461000144481659,-0.2577599883079529],[0.21433000266551971,-0.26688000559806824,0.19203999638557434,-0.39271000027656555,-0.11739999800920486,0.06601999700069427,-0.31325000524520874,0.27952998876571655,-0.45353999733924866,0.24456000328063965,0.311489999294281,0.3709000051021576,0.01947999931871891,-0.017149999737739563,0.21967999637126923,-0.15613999962806702,-0.23755000531673431],[0.1944900006055832,-0.3005000054836273,0.309689998626709,-0.2197200059890747,-0.1581999957561493,0.28598999977111816,0.010350000113248825,0.16190999746322632,-0.15717999637126923,-0.40953001379966736,-0.1456100046634674,-0.05666999891400337,-0.09414000064134598,0.3849799931049347,0.027009999379515648,0.10961999744176865,-0.12582999467849731],[0.30726000666618347,0.022590000182390213,-0.1877100020647049,-0.05751999840140343,0.2660599946975708,-0.39570000767707825,-0.07608000189065933,-0.09655000269412994,-0.07598999887704849,0.032979998737573624,-0.12801000475883484,-0.30199000239372253,-0.2915099859237671,0.22142000496387482,0.3421800136566162,0.04075000062584877,0.01425000000745058],[-0.0566600002348423,0.2130499929189682,-0.3304100036621094,-0.2884399890899658,-0.026419999077916145,0.21206000447273254,0.10817000269889832,-0.3074299991130829,0.24616000056266785,-0.3497300148010254,-0.1961199939250946,-0.295199990272522,-0.19621999561786652,-0.28178998827934265,-0.24437999725341797,-0.4562300145626068,0.052880000323057175],[-0.2204499989748001,-0.061089999973773956,-0.010209999978542328,-0.3428899943828583,-0.028629999607801437,0.29545000195503235,-0.26166000962257385,-0.06306999921798706,-0.20815999805927277,-0.3255000114440918,-0.3461399972438812,-0.20905999839305878,-0.36068999767303467,-0.1735599935054779,-0.22595000267028809,-0.21953999996185303,-0.2384600043296814],[-0.22954000532627106,-0.21318000555038452,0.3723500072956085,0.12189999967813492,0.33629000186920166,-0.1041800007224083,-0.2703700065612793,0.15663999319076538,0.39772000908851624,0.24627000093460083,-0.08613999933004379,-0.0579800009727478,-0.38203999400138855,-0.03294000029563904,-0.34869998693466187,-0.020250000059604645,-0.11371000111103058],[0.3938699960708618,-0.3343600034713745,0.4217900037765503,-0.067330002784729,-0.13186000287532806,-0.33274000883102417,0.05073000118136406,0.21860000491142273,0.2527399957180023,-0.1382099986076355,-0.03711000084877014,0.1301099956035614,0.3834399878978729,-0.3165000081062317,-0.22338999807834625,-0.33781999349594116,0.40130001306533813],[-0.20026999711990356,-0.007960000075399876,-0.16062000393867493,-0.40272000432014465,0.008559999987483025,0.34909000992774963,-0.37220001220703125,0.17869000136852264,-0.014680000022053719,-0.007149999961256981,-0.3296999931335449,0.4273200035095215,-0.3764500021934509,0.16346000134944916,-0.37108999490737915,-0.23934000730514526,-0.22297999262809753],[-0.32142001390457153,-0.1696300059556961,-0.40077000856399536,0.25971999764442444,0.1597999930381775,0.15254999697208405,-0.2579500079154968,0.12154000252485275,0.2539699971675873,0.14505000412464142,0.13700999319553375,0.01988000050187111,0.4259899854660034,-0.020810000598430634,0.07480999827384949,-0.1524599939584732,-0.2867699861526489],[-0.25382000207901,-0.32569000124931335,-0.1875399947166443,-0.2983199954032898,0.35646000504493713,0.10452999919652939,0.0972599983215332,-0.31011998653411865,0.05583000183105469,0.23149999976158142,0.2287299931049347,-0.14753000438213348,-0.14151999354362488,0.12094999849796295,-0.1261499971151352,-0.34790998697280884,0.2375900000333786],[-0.10565999895334244,-0.3571699857711792,-0.17985999584197998,0.39994001388549805,0.12672999501228333,-0.3309600055217743,0.06690999865531921,0.05253000184893608,0.13117000460624695,0.38471999764442444,0.38273999094963074,0.3561500012874603,0.3872399926185608,-0.2996799945831299,0.22258000075817108,0.23805999755859375,-0.2868399918079376],[0.28224998712539673,0.37755998969078064,0.2718299925327301,0.43224000930786133,0.39201000332832336,-0.10318999737501144,0.3971000015735626,0.08888000249862671,-0.3059700131416321,-0.04464000090956688,-0.19723999500274658,-0.14106999337673187,0.0042500002309679985,0.36208000779151917,-0.11800999939441681,-0.11795999854803085,0.1888599991798401],[-0.24541999399662018,0.18811999261379242,0.3783299922943115,-0.13527999818325043,-0.17353999614715576,0.4020799994468689,-0.3642599880695343,0.40275999903678894,-0.28042998909950256,-0.45333001017570496,0.18588000535964966,-0.09927999973297119,-0.276529997587204,0.38293999433517456,-0.3085399866104126,0.1316000074148178,0.0771699994802475],[-0.037209998816251755,0.023180000483989716,-0.021490000188350677,-0.3614000082015991,-0.35938000679016113,0.4159899950027466,-0.14654000103473663,-0.04912000149488449,0.17244000732898712,-0.2952199876308441,0.14151999354362488,-0.19544999301433563,-0.11034999787807465,-0.15680000185966492,-0.04673000052571297,-0.44472000002861023,-0.1264200061559677],[-0.18411000072956085,-0.17500999569892883,0.0016799999866634607,0.00800000037997961,0.40362998843193054,0.16767999529838562,-0.20061999559402466,0.3709399998188019,0.21473999321460724,-0.14318999648094177,0.01810000091791153,0.38808000087738037,-0.2739900052547455,-0.3684599995613098,-0.07362999767065048,-0.41800999641418457,0.128370001912117],[0.3092600107192993,0.21860000491142273,0.254940003156662,-0.42245998978614807,0.29076001048088074,-0.12105000019073486,-0.36493998765945435,-0.10569000244140625,-0.22669999301433563,0.07722000032663345,-0.09780000150203705,0.16979999840259552,-0.3321300148963928,-0.11262000352144241,0.068340003490448,0.1826999932527542,-0.1368200033903122],[0.016450000926852226,0.2536500096321106,-0.20919999480247498,0.052299998700618744,0.2657099962234497,0.32822999358177185,-0.37762999534606934,0.010940000414848328,-0.288239985704422,-0.004840000066906214,0.10960999876260757,0.14900000393390656,-0.3825399875640869,0.32361000776290894,-0.17649999260902405,-0.3297100067138672,-0.02548000030219555],[-0.35409000515937805,0.17308999598026276,-0.24950000643730164,-0.3057500123977661,-0.09510000050067902,0.11311999708414078,-0.032280001789331436,0.11823000013828278,0.07248000055551529,-0.42041999101638794,0.10036999732255936,0.019139999523758888,-0.18306000530719757,-0.1565600037574768,-0.11349000036716461,-0.4050999879837036,-0.4159800112247467],[-0.1890300065279007,-0.3269999921321869,0.3526900112628937,0.3121599853038788,-0.2739500105381012,-0.1606599986553192,-0.07885999977588654,-0.2300100028514862,0.287200003862381,0.4435800015926361,0.08269000053405762,0.014689999632537365,-0.23736000061035156,-0.3528200089931488,-0.2720400094985962,0.13083000481128693,0.2822900116443634],[0.025760000571608543,0.14702999591827393,-0.01909000054001808,-0.356469988822937,0.31547999382019043,-0.36917999386787415,-0.05144999921321869,-0.039500001817941666,0.06335999816656113,0.37483999133110046,0.004410000052303076,0.18783000111579895,0.19235000014305115,-0.2130499929189682,-0.16812999546527863,-0.1534699946641922,-0.24538999795913696],[0.2602500021457672,0.1017099991440773,0.2504200041294098,-0.05098000168800354,0.02711999975144863,0.19235999882221222,0.1190899983048439,0.2220200002193451,0.08034999668598175,-0.2880899906158447,0.31419000029563904,0.08523000031709671,0.1700800061225891,0.4231399893760681,-0.40101000666618347,-0.23145000636577606,0.1588899940252304],[-0.3024500012397766,-0.36621999740600586,-0.17448000609874725,0.32927000522613525,0.4371800124645233,-0.1531600058078766,-0.30379998683929443,0.10525000095367432,-0.01721999980509281,0.30028000473976135,0.0011399999493733048,-0.4025999903678894,0.14774000644683838,0.2642500102519989,0.014890000224113464,-0.07384999841451645,0.18720999360084534],[-0.3656499981880188,0.10294999927282333,0.3257800042629242,0.1648000031709671,-0.15650999546051025,0.060509998351335526,-0.054349999874830246,-0.07970000058412552,0.17757999897003174,0.3861599862575531,0.10394000262022018,-0.32771000266075134,0.26594001054763794,-0.11744000017642975,0.23443999886512756,0.29162999987602234,0.2856999933719635],[0.161530002951622,0.025869999080896378,-0.18024000525474548,0.06689999997615814,0.02101000025868416,-0.08681000024080276,-0.14023999869823456,0.19345000386238098,-0.03345999866724014,0.3346000015735626,0.3797900080680847,0.05299999937415123,0.19392000138759613,-0.23984000086784363,-0.34257999062538147,-0.08055999875068665,-0.2256300002336502],[0.3492099940776825,0.2630400061607361,0.32638001441955566,-0.27854999899864197,0.059289999306201935,0.22784000635147095,0.04805999994277954,-0.15674999356269836,-0.42350998520851135,0.0003000000142492354,0.09297999739646912,-0.37685999274253845,0.09100999683141708,0.1698099970817566,0.1466600000858307,-0.11450999975204468,-0.4309999942779541],[-0.3785400092601776,-0.048659998923540115,0.3645800054073334,0.01933000050485134,-0.06571999937295914,-0.1153699979186058,0.37883999943733215,0.17225000262260437,0.2654600143432617,-0.38593998551368713,-0.040860000997781754,0.11350999772548676,0.19898000359535217,0.33063000440597534,0.11063999682664871,-0.01680999994277954,0.2615399956703186],[-0.3174700140953064,-0.008559999987483025,-0.21932999789714813,-0.18252000212669373,-0.12949000298976898,-0.012269999831914902,0.131290003657341,-0.20799000561237335,-0.4437899887561798,-0.01998000033199787,-0.4293600022792816,-0.11483000218868256,0.15049999952316284,-0.19720999896526337,0.22066999971866608,-0.4370400011539459,0.006920000072568655],[0.026559999212622643,-0.05406999960541725,0.40650999546051025,0.09008999913930893,0.013609999790787697,-0.30941998958587646,0.01155999954789877,-0.19822999835014343,0.41686999797821045,-0.14086000621318817,0.26629000902175903,-0.05838000029325485,0.1335200071334839,0.3741700053215027,-0.16652999818325043,0.08254999667406082,0.05144999921321869]],"b":[0.04475000128149986,0.03894999995827675,-0.016589999198913574,-5.999999848427251e-05,0.037950001657009125,0.031690001487731934,0.008840000256896019,0.04196999967098236,0.0021899999119341373,0.032749999314546585,0.03480000048875809,-0.00044999999227002263,-0.009410000406205654,0.0066999997943639755,-0.01278000045567751,0.0002500000118743628,0.015159999951720238,0.039650000631809235,0.04490000009536743,-0.013159999623894691,0.048089999705553055,-0.009589999914169312,-0.009560000151395798,0.01916000060737133,0.04698000103235245,0.018880000337958336,0.0036700000055134296,-0.016659999266266823,0.030740000307559967,0.040130000561475754,0.03245000168681145,-0.023320000618696213,0.035509999841451645,0.046640001237392426,-0.009709999896585941,-0.007699999958276749,0.04049000144004822,0.03167000040411949,0.021789999678730965,0.04002999886870384,0.04376000165939331,-0.023919999599456787,0.0018500000005587935,0.03962999954819679,0.03957999870181084,-0.01310999970883131,-0.02085000090301037,0.009789999574422836,0.0287299994379282,0.023819999769330025,0.034299999475479126,-0.009589999914169312,-0.02085000090301037,0.04293999820947647,0.03595000132918358,0.0030700000934302807,0.010759999975562096,0.017249999567866325,0.037060000002384186,-0.030820000916719437,0.02776000089943409,0.039239998906850815,0.04269000142812729,0.04648999869823456],"act":"silu","in":17,"out":64},{"w":[[0.05062999948859215,0.21396000683307648,-0.06707999855279922,-0.13357999920845032,0.174919992685318,-0.035029999911785126,-0.07102999836206436,0.176829993724823,0.02483000047504902,0.06989999860525131,-0.03491999953985214,-0.1435299962759018,0.03925999999046326,0.04998999834060669,-0.007899999618530273,-0.2419700026512146,0.0746999979019165,0.14438000321388245,-0.16211000084877014,0.18158000707626343,0.1563200056552887,-0.1555500030517578,4.999999873689376e-05,-0.07055000215768814,-0.11728999763727188,0.04247000068426132,0.032979998737573624,-0.032099999487400055,-0.04577000066637993,-0.027960000559687614,0.14090000092983246,-0.1923000067472458,-0.0654899999499321,-0.1128000020980835,0.07435999810695648,0.03209000080823898,-0.09074000269174576,0.028300000354647636,0.09220000356435776,0.023429999127984047,-0.042830001562833786,-0.01269999984651804,0.17948000133037567,-0.12455999851226807,0.12647999823093414,-0.09324999898672104,-0.10266000032424927,-0.1748100072145462,0.14527000486850739,0.1460999995470047,0.14256000518798828,0.08416000008583069,-0.04577000066637993,0.17026999592781067,-0.22199000418186188,0.08288999646902084,-0.1934799998998642,0.1363999992609024,-0.09764000028371811,0.01510000042617321,0.08980000019073486,-0.049539998173713684,0.10437999665737152,-0.20448000729084015],[0.17030000686645508,0.12680000066757202,0.19141000509262085,-0.17404000461101532,0.16518999636173248,0.16492000222206116,0.22184999287128448,0.08472000062465668,-0.04628000035881996,0.2091200053691864,0.026930000633001328,0.19766999781131744,0.18050000071525574,0.1143300011754036,-0.030980000272393227,-0.13041000068187714,-0.15081000328063965,0.1092899963259697,0.028920000419020653,0.09960000216960907,0.07478000223636627,-0.1733900010585785,-0.005150000099092722,0.18984000384807587,0.09059000015258789,0.11123999953269958,-0.17991000413894653,0.10963000357151031,-0.18250000476837158,-0.1651799976825714,0.06942000240087509,-0.12189000099897385,0.2337999939918518,0.12700000405311584,-0.053199999034404755,-0.17964999377727509,0.15454000234603882,-0.15643000602722168,0.11492999643087387,0.21086999773979187,0.04594999924302101,-0.1627199947834015,0.08169999718666077,-0.017680000513792038,0.15106000006198883,-0.0714699998497963,-0.10619000345468521,0.14866000413894653,0.21396000683307648,0.18630999326705933,0.01534000039100647,-0.042419999837875366,-0.1228799968957901,0.12532000243663788,0.15331999957561493,0.1157199963927269,-0.029810000211000443,-0.07175999879837036,-0.1023700013756752,0.164000004529953,0.028189999982714653,0.0701799988746643,0.14178000390529633,-0.2159299999475479],[0.20746000111103058,0.2350900024175644,0.2116599977016449,0.14704999327659607,-0.04058999940752983,-0.0624300017952919,0.049320001155138016,0.08788999915122986,-0.05460000038146973,-0.11417999863624573,0.17012999951839447,0.17835000157356262,-0.1573600023984909,0.22293999791145325,-0.04264000058174133,0.1073400005698204,0.2297399938106537,0.15745000541210175,-0.15440000593662262,-0.04162999987602234,0.03043000027537346,-0.15136000514030457,0.043069999665021896,0.2134999930858612,-0.04579000174999237,0.09036000072956085,0.0949999988079071,0.1328900009393692,0.14032000303268433,0.25679999589920044,0.049559999257326126,-0.05857999995350838,0.1961899995803833,0.0755700021982193,-0.08907999843358994,-0.13874000310897827,0.15737000107765198,0.23791000247001648,-0.18336999416351318,-0.03813000023365021,-0.07586000114679337,0.1984499990940094,-0.12042000144720078,0.01720000058412552,0.05920000001788139,0.09137000143527985,-0.17573000490665436,-0.10750000178813934,-0.07338999956846237,-0.14934000372886658,0.22156000137329102,0.12407000362873077,-0.15996000170707703,-0.07842999696731567,-0.020230000838637352,-0.04095999896526337,-0.2160699963569641,0.007530000060796738,-0.1851000040769577,0.12257000058889389,0.0225600004196167,-0.010499999858438969,0.10147999972105026,-0.03759999945759773],[0.23722000420093536,0.13612000644207,-0.15737000107765198,0.06095999851822853,-0.031109999865293503,-0.015250000171363354,-0.13344000279903412,0.1615000069141388,0.11665000021457672,-0.14555999636650085,-0.028359999880194664,-0.10344000160694122,-0.2025199979543686,0.03210999816656113,0.0013500000350177288,-0.09814000129699707,0.07034000009298325,-0.017890000715851784,-0.002580000087618828,0.21296000480651855,0.04052000120282173,0.14951999485492706,-0.11935000121593475,0.03060000017285347,-0.0805400013923645,-0.22155000269412994,0.13763999938964844,0.09925000369548798,-0.0784199982881546,0.1308699995279312,0.08436000347137451,-0.03976000100374222,0.09814000129699707,0.2061000019311905,-0.03596000000834465,0.1360200047492981,0.18331000208854675,0.046720001846551895,0.22633999586105347,0.2280000001192093,0.10129000246524811,-0.08626999706029892,-0.01868000067770481,-0.040059998631477356,-0.20608000457286835,0.05384000018239021,0.022099999710917473,-0.03689999878406525,0.009329999797046185,-0.022770000621676445,0.15445999801158905,0.08578000217676163,0.026559999212622643,0.1753000020980835,-0.16317999362945557,0.0851299986243248,0.16241000592708588,0.03044999949634075,-0.20250000059604645,-0.15557999908924103,-0.016930000856518745,0.17408999800682068,0.07089000195264816,-0.19261999428272247],[-0.048650000244379044,-0.22529000043869019,0.08347000181674957,-0.11178000271320343,0.17949000000953674,-0.19562000036239624,0.13595999777317047,0.21401000022888184,-0.03412000089883804,-0.19506999850273132,0.16204999387264252,0.07799000293016434,-0.039739999920129776,-0.18647000193595886,0.0037299999967217445,0.20555999875068665,-0.12397000193595886,0.07495000213384628,-0.03553000092506409,0.19460000097751617,-0.05502000078558922,-0.10118000209331512,-0.03790999948978424,0.16586999595165253,-0.1607300043106079,-0.02622999995946884,0.06019999831914902,0.07308000326156616,-0.11356999725103378,0.15637999773025513,-0.05232999846339226,-0.17412999272346497,-0.04611000046133995,0.07997000217437744,-0.13821999728679657,0.1805499941110611,0.031769998371601105,-0.18321000039577484,0.11055999994277954,-0.15666000545024872,0.0760900005698204,0.16051000356674194,0.23141999542713165,-0.21987999975681305,-0.18276000022888184,0.121629998087883,0.03968999907374382,-0.010239999741315842,0.11591999977827072,-0.035190001130104065,0.021059999242424965,0.15504999458789825,0.013629999943077564,0.15418000519275665,0.17645999789237976,-0.16203999519348145,-0.11337000131607056,0.13916000723838806,0.22312000393867493,-0.09442000091075897,-0.13307000696659088,-0.0831499993801117,-0.08648999780416489,0.07554999738931656],[0.03914999961853027,-0.150859996676445,-0.10743000358343124,-0.09199000149965286,0.24973000586032867,0.207519993185997,-0.0746999979019165,0.09630999714136124,-0.1193000003695488,0.020519999787211418,0.13574999570846558,0.013799999840557575,-0.0741100013256073,0.21615000069141388,-0.08449000120162964,0.1502700001001358,0.2358199954032898,0.06694000214338303,0.028540000319480896,-0.15421999990940094,-0.010889999568462372,-0.1797100007534027,0.08382999897003174,-0.10824999958276749,-0.09497000277042389,-0.21080000698566437,0.03832000121474266,-0.15335999429225922,-0.023840000852942467,0.20287999510765076,-0.007019999902695417,0.12067999690771103,-0.021770000457763672,0.0801599994301796,-0.06640999764204025,-0.05324000120162964,-0.16629000008106232,0.05648000165820122,0.09218999743461609,-0.022029999643564224,-0.13470999896526337,0.1027899980545044,0.14071999490261078,-0.06187000125646591,-0.08568999916315079,0.0013500000350177288,-0.1096000000834465,-0.07769999653100967,0.005319999996572733,0.23162999749183655,-0.12570999562740326,0.1065400019288063,0.18073000013828278,0.06511999666690826,0.15268999338150024,0.0667399987578392,-0.13059000670909882,0.1694200038909912,0.07853999733924866,-0.08634000271558762,-0.14012999832630157,0.1123799979686737,-0.13798999786376953,-0.16152000427246094],[0.22994999587535858,0.144569993019104,-0.022190000861883163,0.09583000093698502,0.19652000069618225,-0.0023399998899549246,0.036639999598264694,0.13155999779701233,-0.1336899995803833,0.14776000380516052,0.0538100004196167,0.12957000732421875,-0.1092899963259697,-0.005880000069737434,-0.03522000089287758,-0.07563000172376633,-0.08805999904870987,-0.07276999950408936,-0.007379999849945307,0.2339099943637848,-0.01696000061929226,-0.023679999634623528,-0.03350000083446503,0.1168299987912178,-0.13478000462055206,-0.042830001562833786,0.13930000364780426,0.04495999962091446,-0.22682000696659088,-0.11450999975204468,0.0819299966096878,-0.1241300031542778,0.16095000505447388,0.0362900011241436,0.11093000322580338,-0.11089000105857849,-0.0878399983048439,0.11542999744415283,-0.09262999892234802,0.11283999681472778,0.02459999918937683,-0.1252100020647049,-0.18817999958992004,-0.10066000372171402,0.04165999963879585,-0.11525999754667282,0.022089999169111252,0.1357399970293045,-0.05341999977827072,-0.14337000250816345,0.24142999947071075,0.03984000161290169,0.23296000063419342,-0.0899600014090538,-0.01621999964118004,-0.20443999767303467,0.16325999796390533,0.20499999821186066,-0.010300000198185444,-0.24682000279426575,-0.07701999694108963,-0.16652999818325043,0.038100000470876694,0.15676000714302063],[-0.09179999679327011,-0.08835999667644501,0.13152000308036804,-0.08083999902009964,-0.11620999872684479,-0.07131999731063843,-0.13875000178813934,-0.013269999995827675,-0.09628999978303909,0.08188000321388245,0.19505000114440918,0.043460000306367874,-0.00949000008404255,0.11140000075101852,0.20761999487876892,-0.21526999771595,0.2503499984741211,-0.12672999501228333,-0.12586000561714172,-0.08800999820232391,-0.09889999777078629,-0.23201000690460205,0.0221599992364645,-0.11311999708414078,0.12987999618053436,-0.2488899976015091,0.09985999763011932,0.035190001130104065,0.16886000335216522,0.1385599970817566,0.1826300024986267,0.06800000369548798,-0.07571999728679657,0.092289999127388,0.15988999605178833,0.009689999744296074,0.006180000025779009,0.014670000411570072,-0.01955999992787838,0.23761999607086182,-0.02339000068604946,0.14364999532699585,-0.11992000043392181,0.23212000727653503,-0.2123900055885315,-0.026990000158548355,-0.17069999873638153,-0.07763999700546265,0.07534000277519226,-0.1122799962759018,0.12860000133514404,-0.10853999853134155,-0.11010999977588654,0.1888899952173233,0.06923999637365341,-0.06676000356674194,0.1545100063085556,0.12918999791145325,0.06629999727010727,-0.24775999784469604,0.2477400004863739,-0.08688999712467194,-0.049550000578165054,-0.11349000036716461],[0.249439999461174,0.14511999487876892,0.0779699981212616,-0.06871999800205231,0.025499999523162842,0.04067999869585037,0.13391999900341034,-0.10075999796390533,0.034779999405145645,0.00015999999595806003,0.1320199966430664,0.1754699945449829,-0.1502700001001358,-0.0017800000496208668,0.2385299950838089,-0.1953900009393692,0.24473999440670013,0.1731099933385849,-0.16177000105381012,-0.0800200030207634,-0.16891999542713165,0.024219999089837074,0.19280000030994415,0.047189999371767044,-0.0629199966788292,-0.14270000159740448,0.11764000356197357,-0.15592999756336212,0.11947000026702881,-0.17036999762058258,-0.011909999884665012,-0.02280000038444996,0.1379999965429306,0.18207000195980072,-0.019109999760985374,-0.14240999519824982,0.13868999481201172,0.0618400014936924,0.12913000583648682,0.07004000246524811,-0.1104699969291687,-0.10879000276327133,-0.0024399999529123306,0.23920999467372894,-0.03102000057697296,0.027559999376535416,-0.04885999858379364,-0.009349999949336052,-0.16173000633716583,0.15408000349998474,-0.08100999891757965,-0.14719000458717346,0.12308000028133392,-0.13198000192642212,0.020099999383091927,0.14132000505924225,-0.032349999994039536,-0.002570000011473894,-0.17847999930381775,0.08230999857187271,-0.1043199971318245,0.15291999280452728,0.13517999649047852,-0.025620000436902046],[-0.07940000295639038,0.08567000180482864,0.1198199987411499,-0.18243999779224396,-0.16841000318527222,-0.126460000872612,0.0188400000333786,0.053300000727176666,-0.19774000346660614,0.10068999975919724,-0.08850999921560287,0.1784300059080124,0.22262999415397644,-0.09901999682188034,-0.017650000751018524,-0.000699999975040555,0.11291000247001648,-0.05345999822020531,0.02817000076174736,-0.11970999836921692,0.13307000696659088,-0.07367999851703644,0.032680001109838486,0.007530000060796738,0.24017000198364258,0.15389999747276306,0.1025099977850914,0.031099999323487282,0.1719599962234497,0.0044200001284480095,0.09815999865531921,0.22812999784946442,-0.16312000155448914,-0.16711999475955963,0.0015999999595806003,0.04868000000715256,-0.15707999467849731,-0.04628000035881996,0.1358100026845932,-0.12616999447345734,-0.027809999883174896,-0.2044599950313568,0.19030000269412994,0.13473999500274658,0.13312000036239624,-0.016930000856518745,-0.07383999973535538,-0.010569999925792217,-0.24098999798297882,0.07416000217199326,0.015250000171363354,0.06611999869346619,-0.06528999656438828,-0.12707999348640442,0.11161000281572342,0.17457999289035797,-0.13362999260425568,-0.16598999500274658,0.07611999660730362,-0.08440999686717987,-0.07754000276327133,-0.1466200053691864,-0.19485999643802643,0.1850000023841858],[0.189410001039505,0.2338400036096573,-0.13641999661922455,-0.11728999763727188,-0.1520400047302246,0.15952999889850616,-0.023189999163150787,-0.23315000534057617,-0.18482999503612518,0.17139999568462372,0.05012999847531319,-0.19259999692440033,-0.12257999926805496,0.2538999915122986,0.1919499933719635,-0.12018000334501266,0.1650400012731552,-0.12365999817848206,0.05553999915719032,-0.04859999939799309,-0.0715399980545044,0.03864999860525131,0.2509799897670746,-0.01145000010728836,-0.24767999351024628,-0.22815999388694763,0.068340003490448,0.07858999818563461,0.16997000575065613,-0.1395300030708313,-0.15027999877929688,-0.06404999643564224,0.07547999918460846,-0.03957999870181084,0.01360000018030405,0.15711000561714172,0.19226999580860138,-0.10204999893903732,0.16708999872207642,0.058400001376867294,0.13446000218391418,0.006719999946653843,-0.1196800023317337,0.12751999497413635,-0.18754999339580536,-0.09008999913930893,-0.212349995970726,0.15896999835968018,0.02848999947309494,0.19130000472068787,0.25014999508857727,0.01066999975591898,-0.11606000363826752,-0.07795999944210052,-0.19381000101566315,0.20497000217437744,0.13142000138759613,-0.003289999905973673,0.1603199988603592,0.15053999423980713,-0.006610000040382147,-0.014809999614953995,0.02687999978661537,0.07356999814510345],[0.02558000013232231,-0.07050999999046326,0.21527999639511108,0.11146999895572662,0.02483000047504902,-0.07407999783754349,0.22793999314308167,0.098860003054142,0.2388399988412857,0.1748100072145462,0.14226999878883362,-0.19065000116825104,0.11642000079154968,0.0033499998971819878,-0.06325999647378922,0.17743000388145447,0.03175999969244003,-0.2116200029850006,-0.0005600000149570405,-0.07280000299215317,-0.01066999975591898,-0.08333999663591385,0.04946000128984451,-0.08602999895811081,-0.14474999904632568,0.07857000082731247,0.2137400060892105,0.093019999563694,0.18057000637054443,0.008080000057816505,-0.03167999908328056,-0.0012700000079348683,-0.03962999954819679,-0.0101500004529953,0.01964999921619892,-0.14393000304698944,-0.11614999920129776,0.05527999997138977,-0.01988000050187111,0.16919000446796417,0.10163000226020813,-0.04390000179409981,0.0822800025343895,0.042479999363422394,-0.14794999361038208,0.16407999396324158,0.015270000323653221,-0.06601999700069427,0.12421999871730804,-0.10050000250339508,0.04050000011920929,-0.118709996342659,-0.007069999817758799,0.021229999139904976,-0.16101999580860138,0.007679999805986881,-0.0034199999645352364,-0.044530000537633896,-0.1465499997138977,0.15932999551296234,-0.1398800015449524,0.0014199999859556556,0.12696999311447144,-0.18416999280452728],[0.08613999933004379,-0.12496999651193619,-0.028680000454187393,-0.04774999991059303,0.146589994430542,0.126910001039505,0.09904000163078308,-0.06610000133514404,-0.018039999529719353,0.04165000095963478,-0.06463000178337097,0.03892999887466431,0.18557000160217285,-0.10384000092744827,-0.18791000545024872,-0.022520000115036964,-0.006000000052154064,-0.0170499999076128,-0.047189999371767044,-0.16617999970912933,0.00406000018119812,-0.11920999735593796,0.05076000094413757,0.1753000020980835,0.004989999812096357,0.11003000289201736,0.10823000222444534,0.03725999966263771,-0.06396999955177307,-0.12336000055074692,-0.12678000330924988,-0.23218999803066254,0.07010000199079514,0.11747000366449356,0.20044000446796417,0.1751900017261505,0.0587799996137619,0.19965000450611115,0.095940001308918,-0.07400999963283539,0.025839999318122864,0.1920199990272522,0.01396000012755394,-0.16888000071048737,-0.14938999712467194,-0.060759998857975006,-0.06327000260353088,-0.15237000584602356,-0.11647000163793564,-0.12648999691009521,-0.09961000084877014,-0.04450000077486038,-0.08501999825239182,0.12740999460220337,-0.15860000252723694,-0.1566299945116043,0.03294000029563904,0.17806999385356903,-0.02566000074148178,-0.042410001158714294,-0.05962999910116196,-0.18950000405311584,-0.03302999958395958,-0.08223000168800354],[0.04270000010728836,-0.11739999800920486,-0.07222999632358551,-0.007400000002235174,-0.1886499971151352,0.12495999783277512,-0.0060800001956522465,-0.07314000278711319,0.18365000188350677,0.08724000304937363,-0.06532000005245209,-0.02047000080347061,0.020509999245405197,-0.18289999663829803,-0.24671000242233276,0.08319000154733658,-0.08793000131845474,0.13474999368190765,0.22643999755382538,-0.058240000158548355,0.17242999374866486,-0.06078999862074852,-0.11168999969959259,0.08980999886989594,0.11249999701976776,-0.1404699981212616,-0.13744999468326569,-0.19840000569820404,0.0941699966788292,0.010119999758899212,0.15334999561309814,0.17425000667572021,0.13426999747753143,-0.0854400023818016,-0.00419999985024333,-0.09131000190973282,-0.12165000289678574,-0.1041800007224083,-0.10858999937772751,0.07061000168323517,-0.20048999786376953,-0.12991000711917877,0.20649999380111694,-0.11452999711036682,0.11942999809980392,0.04960000142455101,0.02580999955534935,0.0203000009059906,-0.153779998421669,-0.033969998359680176,-0.08099000155925751,-0.049959998577833176,-0.14497999846935272,-0.23524999618530273,-0.029839999973773956,-0.05615999922156334,-0.07558000087738037,-0.06400000303983688,-0.053380001336336136,0.19415999948978424,0.028999999165534973,0.07789000123739243,-0.25308001041412354,-0.015410000458359718],[0.0792199969291687,-0.02029000036418438,0.16718000173568726,0.00535999983549118,-0.08777999877929688,-0.22943000495433807,-0.08804000169038773,-0.11883000284433365,0.1774899959564209,-0.15086999535560608,0.09944000095129013,-0.1659500002861023,-0.1661899983882904,-0.02790999971330166,-0.11900000274181366,0.1268399953842163,0.17815999686717987,-0.14112000167369843,0.16787999868392944,-0.10862000286579132,-0.10593000054359436,-0.032499998807907104,-0.13225999474525452,-0.22208000719547272,0.07734999805688858,-0.07526999711990356,0.1876399964094162,0.06159999966621399,-0.11170999705791473,0.17547999322414398,-0.0408799983561039,-0.04684000089764595,0.1758500039577484,-0.1143300011754036,0.01436999998986721,-0.05226000025868416,-0.09300000220537186,-0.24264000356197357,-0.06694000214338303,0.13564999401569366,-0.1259700059890747,-0.14338000118732452,-0.13289999961853027,0.16951000690460205,0.18466000258922577,-0.02563999965786934,0.13965000212192535,0.1781100034713745,-0.0018100000452250242,-0.1748799979686737,-0.21367000043392181,0.03832999989390373,0.15672999620437622,0.05705999955534935,-0.0667399987578392,0.20286999642848969,0.1382099986076355,-0.13874000310897827,0.025100000202655792,-0.08647999912500381,-0.16393999755382538,0.14858999848365784,0.010060000233352184,0.06259000301361084],[-0.13530999422073364,-0.22359000146389008,-0.011269999668002129,0.1720999926328659,-0.16685999929904938,0.05705999955534935,0.11166000366210938,0.040369998663663864,0.06207999959588051,-0.06545999646186829,0.024660000577569008,-0.1886499971151352,-0.10479000210762024,0.05869000032544136,-0.09126999974250793,0.23770000040531158,-0.04574999958276749,0.2539899945259094,0.09835000336170197,0.049570001661777496,0.25393998622894287,-0.043129999190568924,-0.13636000454425812,-0.18977999687194824,0.12817999720573425,-0.039239998906850815,-0.07275000214576721,-0.011699999682605267,0.08167999982833862,-0.03993000090122223,0.1442199945449829,-0.1589999943971634,-0.21496999263763428,0.08268000185489655,-0.13062000274658203,0.012179999612271786,0.03894999995827675,0.11535000056028366,0.0899600014090538,-0.07607000321149826,0.039340000599622726,-0.03706999868154526,0.2329699993133545,-0.1337299942970276,0.2077600061893463,-0.04707000032067299,-0.026569999754428864,0.1164499968290329,-0.13322000205516815,-0.10677000135183334,0.0027000000700354576,-0.03288000077009201,-0.04024999961256981,-0.10648000240325928,-0.02662000060081482,-0.057999998331069946,-0.04278000071644783,-0.1425199955701828,0.2515900135040283,0.033240001648664474,0.06057000160217285,0.20211000740528107,0.08476000279188156,0.21661999821662903],[-0.04896000027656555,0.1414099931716919,0.04106000065803528,-0.026820000261068344,0.02263999916613102,-0.050530001521110535,0.0580499991774559,0.24451999366283417,0.16044999659061432,0.12159000337123871,0.09634000062942505,0.22046999633312225,0.029319999739527702,0.04868999868631363,0.028379999101161957,-0.0778999999165535,-0.19820000231266022,-0.1466600000858307,-0.007899999618530273,0.18818999826908112,0.2549299895763397,0.00203999993391335,0.000859999970998615,-0.2432900071144104,0.20527000725269318,-0.06859000027179718,-0.09041000157594681,-0.08506999909877777,0.1835000067949295,-0.22725999355316162,-0.1893399953842163,0.15467000007629395,0.15951000154018402,0.02515999972820282,-0.2223699986934662,0.15703000128269196,-0.08281999826431274,0.0813400000333786,-0.24291999638080597,-0.16202999651432037,-0.24221999943256378,0.13853999972343445,-0.1358499974012375,0.13481999933719635,-0.16395999491214752,-0.17681999504566193,0.06453000009059906,0.15268999338150024,-0.12657000124454498,-0.06947000324726105,0.07061000168323517,-0.1920199990272522,0.02386000007390976,0.14982999861240387,-0.04723000153899193,0.14833000302314758,-0.15549999475479126,-0.10987000167369843,0.18750999867916107,-0.122079998254776,-0.19746999442577362,0.067330002784729,0.12591999769210815,0.10440000146627426],[-0.0723000019788742,-0.07485000044107437,0.23569999635219574,0.19189000129699707,0.1503099948167801,0.1956299990415573,0.11967000365257263,-0.24698999524116516,-0.03249000012874603,-0.21498000621795654,0.09940999746322632,-0.047839999198913574,0.045660000294446945,-0.03942999988794327,-0.09565000236034393,-0.06802000105381012,-0.0545400008559227,0.08307000249624252,-0.05919000133872032,-0.21833999454975128,-0.0797400027513504,-0.1830500066280365,-0.03164999932050705,0.1154400035738945,-0.12689000368118286,-0.23165999352931976,0.07492999732494354,0.016200000420212746,-0.036559998989105225,-0.0006799999973736703,0.15315000712871552,-0.08370000123977661,-0.14904999732971191,-0.002369999885559082,-0.17927999794483185,-0.19704000651836395,-0.01621999964118004,-0.1466899961233139,0.09649000316858292,0.22612999379634857,0.1895499974489212,-0.1477299928665161,0.1447100043296814,0.04500000178813934,-0.17350000143051147,-0.16968999803066254,-0.24898000061511993,0.10352999716997147,0.16092999279499054,-0.04740000143647194,0.1716800034046173,0.09395000338554382,0.17710000276565552,-0.08543000370264053,0.02638000063598156,0.21716000139713287,-0.18294000625610352,0.11693999916315079,0.009680000133812428,0.131290003657341,0.2601799964904785,-0.21985000371932983,-0.0420599989593029,0.06757999956607819],[-0.13297000527381897,-0.22849999368190765,0.17990000545978546,0.025380000472068787,-0.044429998844861984,0.004650000017136335,0.10293000191450119,0.04262999817728996,-0.004379999823868275,0.12755000591278076,0.053619999438524246,0.14733999967575073,-0.16715000569820404,0.13699999451637268,0.050620000809431076,0.15230000019073486,0.1677200049161911,0.179749995470047,0.10335999727249146,0.06633999943733215,0.22558000683784485,0.22294999659061432,-0.011359999887645245,0.12221000343561172,0.22257000207901,-0.10640999674797058,0.08111000061035156,-0.06446000188589096,0.2352299988269806,-0.12713000178337097,-0.06370999664068222,0.07868999987840652,0.180759996175766,0.1582999974489212,-0.11186999827623367,-0.15254999697208405,-0.028349999338388443,-0.11623000353574753,-0.13504000008106232,-0.04075000062584877,0.01706000044941902,-0.0170499999076128,0.1855199933052063,-0.05249999836087227,0.03488000109791756,-0.11468999832868576,0.23208999633789062,-0.15797999501228333,-0.12144999951124191,-0.20829999446868896,0.0058200000785291195,-0.23808999359607697,0.08166000247001648,0.015159999951720238,0.2087700068950653,0.16120000183582306,-0.07833000272512436,0.06235000118613243,0.2331800013780594,-0.17364999651908875,0.05747999995946884,0.09825000166893005,-0.09903000295162201,0.2118300050497055],[-0.15227000415325165,-0.021789999678730965,-0.17675000429153442,-0.011250000447034836,-0.11025000363588333,-0.16147999465465546,0.21464000642299652,-0.05908999964594841,0.10938999801874161,-0.12590999901294708,0.10651999711990356,0.052710000425577164,-0.07310999929904938,-0.16539999842643738,0.06151000037789345,-0.027049999684095383,0.10587000101804733,0.009390000253915787,0.11729999631643295,-0.10119999945163727,-0.22201000154018402,0.015169999562203884,0.024650000035762787,-0.020010000094771385,0.1748100072145462,-0.12711000442504883,-0.1606599986553192,-0.1633799970149994,-0.22979000210762024,0.06584999710321426,0.1700199991464615,0.05502999946475029,0.10977999866008759,0.06476999819278717,-0.15661999583244324,-0.15848000347614288,0.229980006814003,0.09532999992370605,-0.1821800023317337,-0.1054299995303154,0.17533999681472778,-0.168830007314682,0.14408999681472778,0.020579999312758446,-0.17323000729084015,0.10006000101566315,0.15341000258922577,0.09793999791145325,0.06300999969244003,0.07232999801635742,-0.10136000066995621,0.09165000170469284,0.12370000034570694,-0.0738999992609024,-0.18147000670433044,0.10085000097751617,-0.0005099999834783375,-0.0532200001180172,0.1464499980211258,-0.1390399932861328,-0.046059999614953995,-0.02539999969303608,0.041510000824928284,0.15022000670433044],[-0.131290003657341,0.02353000082075596,0.160180002450943,0.15588000416755676,0.19197000563144684,0.10509999841451645,-0.0030900000128895044,-0.03002000041306019,0.0720599964261055,-0.0752900019288063,-0.1726900041103363,0.12233000248670578,0.10436999797821045,0.22931000590324402,-0.19318999350070953,-0.09915000200271606,-0.135670006275177,0.07829000055789948,-0.1407800018787384,-0.1763100028038025,-0.11108999699354172,0.09053999930620193,0.03443999961018562,-0.10679999738931656,0.0019099999917671084,0.06019999831914902,-0.020889999344944954,0.09408000111579895,-0.18063999712467194,0.22618000209331512,0.2351599931716919,-0.19273999333381653,0.1335200071334839,-0.1619199961423874,-0.19019000232219696,-0.012539999559521675,0.12168999761343002,-0.09822999686002731,-0.15857000648975372,-0.12546999752521515,0.18832999467849731,0.017190000042319298,-0.06340999901294708,-0.14169000089168549,0.1033099964261055,-0.0826599970459938,-0.17896999418735504,-0.15816999971866608,-0.15106000006198883,0.22186000645160675,-0.16053999960422516,0.10447999835014343,0.13662999868392944,-0.17270000278949738,0.09889999777078629,-0.15846000611782074,0.07586000114679337,0.045099999755620956,0.07964999973773956,0.06871999800205231,0.16648000478744507,0.05105999857187271,-0.0037799999117851257,0.0659400001168251],[-0.10955999791622162,0.217739999294281,0.16495999693870544,-0.005679999943822622,0.19044999778270721,0.0003600000054575503,0.2483000010251999,-0.10078000277280807,-0.0421300008893013,-0.10072000324726105,-0.2164199948310852,-0.1112700030207634,-0.09132999926805496,-0.056049998849630356,-0.1738000065088272,-0.065870001912117,0.12275999784469604,-0.17741000652313232,-0.058729998767375946,-0.1697400063276291,0.14279000461101532,-0.09662000089883804,0.22095000743865967,0.10548999905586243,-0.19147999584674835,-0.045889999717473984,0.024660000577569008,-0.14975999295711517,-0.21720999479293823,0.018300000578165054,-0.004449999891221523,-0.06313999742269516,0.21001000702381134,0.06272000074386597,-0.13087999820709229,-0.019829999655485153,0.24009999632835388,0.09379000216722488,-0.15386000275611877,-0.1336199939250946,0.09482000023126602,0.12233000248670578,0.07101000100374222,0.06349000334739685,0.16843999922275543,0.2289399951696396,0.10533999651670456,0.02768000029027462,0.08664999902248383,0.08786000311374664,0.1384900063276291,-0.10741999745368958,-0.059459999203681946,-0.1127299964427948,-0.20794999599456787,-0.19088000059127808,0.1302500069141388,-0.07184000313282013,-0.22169999778270721,-0.10606999695301056,-0.0814099982380867,0.13370999693870544,-0.010420000180602074,-0.21151000261306763],[-0.03037000074982643,-0.0634400025010109,-0.09561000019311905,0.14693999290466309,0.09713000059127808,-0.23736000061035156,0.024089999496936798,0.07281000167131424,-0.14270000159740448,0.17765000462532043,-0.030319999903440475,-0.057989999651908875,-0.07141999900341034,0.06836999952793121,-0.028540000319480896,-0.14309999346733093,-0.05795999988913536,0.23172999918460846,-0.051330000162124634,-0.2291100025177002,-0.05302000045776367,0.03181000053882599,-0.24582000076770782,-0.00026000000070780516,0.2569099962711334,0.0961500033736229,0.14319999516010284,0.058309998363256454,-0.05691000074148178,0.033629998564720154,0.028929999098181725,0.12881000339984894,0.1447400003671646,-0.024769999086856842,0.07150000333786011,-0.06646999716758728,-0.16549000144004822,-0.09860999882221222,-0.08250000327825546,-0.03540999814867973,-0.05705000087618828,0.15162000060081482,-0.1755799949169159,0.07507999986410141,0.0024399999529123306,0.1229500025510788,-0.0289900004863739,0.1332399994134903,-0.0952799990773201,-0.21167999505996704,-0.19178999960422516,-0.11722999811172485,-0.09589000046253204,-0.2380400002002716,-0.1498900055885315,0.23006999492645264,-0.0032399999909102917,0.0507499985396862,0.17344999313354492,-0.07882999628782272,-0.07202000170946121,0.1155100017786026,0.17767000198364258,0.08481000363826752],[-0.12544000148773193,0.1333400011062622,-0.035909999161958694,-0.06639999896287918,-0.14203999936580658,-0.14930999279022217,0.08257000148296356,-0.11411000043153763,0.10430999845266342,-0.10875999927520752,0.122529998421669,0.09801000356674194,0.02435999922454357,0.17781999707221985,-0.16438999772071838,0.16631999611854553,0.0997999981045723,-0.19870999455451965,0.0040699997916817665,-0.1979600042104721,0.10123000293970108,0.09425999969244003,-0.15700000524520874,0.009050000458955765,-0.2281699925661087,0.17271000146865845,0.07811000198125839,0.027140000835061073,0.17297999560832977,0.09845999628305435,-0.05700000002980232,0.16017000377178192,-0.17594000697135925,-0.06742999702692032,-0.08862999826669693,0.05406000092625618,0.16457000374794006,0.255950003862381,-0.08263000100851059,0.06617999821901321,-0.08947999775409698,-0.10441000014543533,0.001500000013038516,-0.11337000131607056,-0.0717800036072731,0.04149999842047691,-0.08882000297307968,-0.21999000012874603,0.11501999944448471,0.23434999585151672,0.1331699937582016,-0.09566999971866608,0.11201000213623047,-0.09583000093698502,-0.20294000208377838,0.1771399974822998,0.04983999952673912,0.03141000121831894,0.1080700010061264,0.016820000484585762,-0.030880000442266464,0.12002000212669373,0.2194100022315979,-0.1560799926519394],[0.03836999833583832,0.12229999899864197,-0.09892000257968903,-0.1804399937391281,0.0810599997639656,0.10080000013113022,0.19939999282360077,0.04992999881505966,0.01819000020623207,-0.08436000347137451,0.00570000009611249,0.01889999955892563,0.18038000166416168,0.19256000220775604,0.00394000019878149,-0.1861100047826767,0.10924000293016434,-0.2064100056886673,-0.154229998588562,0.06780999898910522,-0.2433599978685379,0.09322000294923782,-0.03471999987959862,-0.01039000041782856,0.13149000704288483,0.17624999582767487,0.08172000199556351,-0.06759999692440033,-0.06464000046253204,-0.06508000195026398,-0.16520999372005463,-0.1577800065279007,0.04267000034451485,0.24594999849796295,-0.08635000139474869,-0.03739999979734421,0.18925000727176666,0.22337999939918518,0.06086999922990799,0.15049999952316284,-0.026019999757409096,0.08229000121355057,-0.046620000153779984,-0.11230000108480453,-0.12338999658823013,-0.044449999928474426,0.14790000021457672,0.07902999967336655,0.06616000086069107,0.1035500019788742,-0.0919400006532669,0.23523999750614166,-0.004980000201612711,0.09544999897480011,0.0784199982881546,0.08624999970197678,0.046539999544620514,0.15047000348567963,0.029650000855326653,0.08919999748468399,-0.08828999847173691,-0.13854999840259552,-0.158270001411438,-0.11541000008583069],[0.053929999470710754,-0.006099999882280827,0.14824999868869781,0.10159000009298325,-0.1391800045967102,-0.1349799931049347,-0.11462999880313873,0.051419999450445175,0.17271000146865845,0.14729000627994537,-0.022430000826716423,0.00431999983265996,-0.1480100005865097,0.02524000033736229,0.01278000045567751,-0.06590999662876129,-0.16588999330997467,-0.14406999945640564,0.18509000539779663,-0.2180500030517578,0.24623000621795654,0.21965999901294708,0.15997999906539917,0.08513999730348587,0.25843000411987305,-0.0485600009560585,0.0342399999499321,-0.1398400068283081,0.015259999781847,-0.10526999831199646,0.18466000258922577,-0.16489000618457794,0.06516999751329422,0.059459999203681946,-0.1540600061416626,-0.05423999950289726,-0.12319999933242798,-0.1024399995803833,-0.0877000018954277,0.16674000024795532,-0.1397400051355362,0.07620999962091446,-0.12483999878168106,-0.05420999974012375,-0.11003000289201736,0.10559000074863434,-0.11039000004529953,0.06656000018119812,0.1833599954843521,-0.14654000103473663,-0.23190000653266907,0.08679000288248062,-0.12038999795913696,-0.1931000053882599,0.22057999670505524,0.16485999524593353,-0.06871999800205231,-0.16192999482154846,0.15228000283241272,0.11368999630212784,-0.11462000012397766,0.14512999355793,0.1326799988746643,0.08267000317573547],[-0.24792000651359558,0.16814999282360077,0.04157000035047531,-0.012059999629855156,0.0996600016951561,-0.2114800065755844,0.12073999643325806,0.24893000721931458,-0.18907000124454498,0.1798499971628189,0.14271000027656555,-0.07492999732494354,0.13154999911785126,-0.0839499980211258,-0.22811000049114227,-0.051819998770952225,-0.02944999933242798,0.03415999934077263,0.039980001747608185,-0.1501300036907196,0.2378299981355667,-0.10578999668359756,-0.2283799946308136,0.0914200022816658,0.18452000617980957,0.20701000094413757,0.11715999990701675,0.09307999908924103,0.08974999934434891,-0.13147999346256256,-0.045910000801086426,-0.16734999418258667,0.023159999400377274,-0.08399000018835068,-0.0430000014603138,0.02653999999165535,-0.0036200000904500484,0.1598999947309494,0.07417000085115433,-0.1699499934911728,0.0567299984395504,0.18480999767780304,-0.1253100037574768,-0.24065999686717987,0.1610099971294403,-0.2358500063419342,-0.14262999594211578,-0.055479999631643295,-0.11247999966144562,0.11992999911308289,-0.10236000269651413,-0.003370000049471855,-0.21132999658584595,-0.24330000579357147,-0.021940000355243683,-0.1771399974822998,0.18556000292301178,-0.05720999836921692,0.10397999733686447,-0.043049998581409454,0.13882000744342804,0.1879899948835373,-0.1226700022816658,-0.02418000064790249],[0.05908999964594841,-0.1732500046491623,-0.02776000089943409,-0.03855999931693077,-0.10903999954462051,0.057190001010894775,0.14788000285625458,0.22236000001430511,-0.049320001155138016,0.14198000729084015,-0.014639999717473984,-0.0019499999471008778,-0.034949999302625656,-0.07498999685049057,0.02401999942958355,0.07865999639034271,-0.07057999819517136,-0.14952999353408813,-0.17615999281406403,-0.10585000365972519,-0.1472499966621399,-0.009680000133812428,0.15376999974250793,-0.018360000103712082,-0.0015699999639764428,0.17889000475406647,-0.07220999896526337,-0.17991000413894653,0.019710000604391098,-0.2051900029182434,-0.1557299941778183,-0.0020800000056624413,0.1107499971985817,0.013740000315010548,-0.14630000293254852,0.10062000155448914,0.16425000131130219,-0.21163000166416168,-0.054430000483989716,0.10722000151872635,0.14813999831676483,0.08332999795675278,0.18862999975681305,-0.21786999702453613,0.0816200003027916,-0.0327799990773201,-0.055149998515844345,0.15233999490737915,-0.23483000695705414,-0.1570499986410141,0.12520000338554382,-0.059689998626708984,-0.19163000583648682,-0.0023399998899549246,0.07727000117301941,0.16919000446796417,-0.03237000107765198,-0.10408999770879745,0.04123000055551529,0.12042000144720078,-0.032280001789331436,-0.08575999736785889,0.014349999837577343,0.0603800006210804],[0.18783999979496002,-0.10875999927520752,0.1624400019645691,0.15643000602722168,-0.1966399997472763,-0.04016999900341034,-0.13986000418663025,0.1809300035238266,0.15850000083446503,-0.04879000037908554,-0.20378999412059784,0.07805000245571136,-0.1621199995279312,0.06859999895095825,-0.1341100037097931,-0.05293000116944313,-0.07464999705553055,0.2046000063419342,0.043299999088048935,0.027939999476075172,-0.11836999654769897,-0.03743999823927879,