{"env_id":"Walker2d-v5","model_xml":"walker2d_v5.xml","obs_dim":17,"act_dim":6,"nq":9,"nv":9,"nu":6,"frame_skip":4,"timestep":0.002,"dt":0.008,"action_low":[-1.0,-1.0,-1.0,-1.0,-1.0,-1.0],"action_high":[1.0,1.0,1.0,1.0,1.0,1.0],"obs_components":[{"kind":"qpos","start":1,"clip":null},{"kind":"qvel","start":0,"clip":[-10.0,10.0]}],"needs_rne":false,"init_qpos":[0.0,1.25,0.0,0.0,0.0,0.0,0.0,0.0,0.0],"init_qvel":[0.0,0.0,0.0,0.0,0.0,0.0,0.0,0.0,0.0],"reset_noise_scale":0.005,"healthy":{"terminate_when_unhealthy":true,"z_index":1,"z_range":[0.8,2.0],"angle_index":2,"angle_range":[-1.0,1.0],"state_range":null},"obs_labels":["rootz pos","rooty pos","thigh_joint pos","leg_joint pos","foot_joint pos","thigh_left_joint pos","leg_left_joint pos","foot_left_joint pos","rootx vel","rootz vel","rooty vel","thigh_joint vel","leg_joint vel","foot_joint vel","thigh_left_joint vel","leg_left_joint vel","foot_left_joint vel"],"action_labels":["thigh_joint","leg_joint","foot_joint","thigh_left_joint","leg_left_joint","foot_left_joint"],"normalization":{"mean":[1.1946908235549927,-0.30582019686698914,-0.1449788510799408,-0.19364874064922333,0.17206871509552002,-0.04658001661300659,-0.40636417269706726,0.1976732462644577,-0.8736671209335327,-0.6780397891998291,-2.500514507293701,-0.8993827700614929,-1.9789397716522217,0.5506048798561096,-0.21144066751003265,-3.157991647720337,0.38949763774871826],"var":[0.0054541765712201595,0.08809297531843185,0.04808710515499115,0.14198529720306396,0.24813690781593323,0.022000795230269432,0.2966839671134949,0.24219059944152832,0.6019195318222046,1.276259422302246,20.832942962646484,25.963342666625977,24.168415069580078,46.662540435791016,24.135438919067383,28.432580947875977,58.556644439697266],"epsilon":0.0,"clip_obs":1000000.0},"policy_onnx":"walker2d__lr_cmp_none__final.onnx","policy_net":{"input_dim":17,"layers":[{"w":[[-0.33188000321388245,0.3121500015258789,-0.226500004529953,-0.2910099923610687,0.25637999176979065,0.19532999396324158,-0.023520000278949738,0.22327999770641327,0.017389999702572823,-0.24302999675273895,-0.26405999064445496,-0.05330999940633774,-0.08126000314950943,-0.21178999543190002,0.26458001136779785,-0.39574000239372253,0.10869000107049942],[-0.23907999694347382,0.025359999388456345,0.0012199999764561653,0.4144200086593628,0.22518999874591827,0.027559999376535416,-0.32214999198913574,0.11873000115156174,0.20309999585151672,0.40125998854637146,-0.2561199963092804,-0.034619998186826706,-0.2835800051689148,-0.394569993019104,0.3190099895000458,0.11618000268936157,-0.13436000049114227],[-0.39282000064849854,-0.19593000411987305,0.05724000185728073,0.11568000167608261,0.28734999895095825,0.334989994764328,0.37707000970840454,-0.3725399971008301,-0.18161000311374664,-0.08878999948501587,-0.1607999950647354,0.27981001138687134,0.34025999903678894,0.21720999479293823,0.2751699984073639,0.21799999475479126,-0.02785000018775463],[0.2193399965763092,0.3093799948692322,-0.24772000312805176,0.44547998905181885,-0.21751999855041504,-0.2955000102519989,-0.3285900056362152,0.04473999887704849,0.4324600100517273,-0.011780000291764736,-0.2431900054216385,-0.1137000024318695,-0.20950999855995178,-0.4004400074481964,-0.256850004196167,-0.2825999855995178,0.2390500009059906],[-0.3141399919986725,-0.10216999799013138,0.41881999373435974,0.2588599920272827,-0.21783000230789185,0.16190999746322632,-0.30417999625205994,0.2892000079154968,-0.40630000829696655,0.3066299855709076,0.21750999987125397,-0.2680700123310089,-0.03263000026345253,0.3521899878978729,-0.10332000255584717,0.13300999999046326,-0.07624000310897827],[0.35062000155448914,-0.21428999304771423,-0.11699000000953674,0.10773999989032745,-0.29065999388694763,0.15286000072956085,0.3941799998283386,-0.092009998857975,-0.021649999544024467,-0.1965699940919876,0.3745900094509125,0.24369999766349792,-0.06999000161886215,0.12857000529766083,-0.15830999612808228,-0.26093000173568726,0.37090998888015747],[-0.10486000031232834,-0.03844999894499779,0.28859999775886536,-0.12637999653816223,-0.2964699864387512,-0.08959999680519104,0.3219200074672699,-0.2654399871826172,0.06745000183582306,-0.376010000705719,0.28558000922203064,-0.11636000126600266,0.17483000457286835,-0.28992998600006104,-0.06351999938488007,-0.38666000962257385,-0.08566000312566757],[-0.26333001255989075,0.4293400049209595,-0.2123900055885315,-0.176829993724823,0.07018999755382538,0.06408999860286713,-0.25095999240875244,-0.3124200105667114,0.1513500064611435,-0.11546999961137772,0.29583999514579773,0.2661699950695038,-0.0865200012922287,0.22754999995231628,0.09837999939918518,-0.32416999340057373,-0.08225999772548676],[-0.0031399999279528856,0.30990999937057495,-0.08282999694347382,0.14836999773979187,0.09326999634504318,-0.11785999685525894,-0.3053399920463562,0.3544900119304657,0.09747999906539917,-0.058889999985694885,0.0163199994713068,0.26927998661994934,-0.04382999986410141,-0.3357299864292145,0.13569000363349915,0.23624999821186066,-0.1808300018310547],[0.14648999273777008,0.3813199996948242,-0.18693000078201294,-0.15112000703811646,0.28308001160621643,0.13774000108242035,-0.18193000555038452,0.15612000226974487,0.18220999836921692,0.2592099905014038,0.18883000314235687,0.12308000028133392,-0.3812299966812134,-0.06074000149965286,0.311710000038147,-0.07547999918460846,0.1931699961423874],[-0.3868600130081177,-0.3885599970817566,0.2584199905395508,-0.39531001448631287,-0.1771100014448166,0.28189998865127563,0.22336000204086304,-0.1577499955892563,-0.31189000606536865,-0.39406999945640564,0.11728999763727188,-0.3867200016975403,-0.01819000020623207,-0.28925999999046326,-0.06212000176310539,0.051259998232126236,-0.14751000702381134],[0.08207999914884567,-0.03880000114440918,0.06554000079631805,0.36243000626564026,0.10535000264644623,0.0025400000158697367,-0.06392999738454819,-0.30417999625205994,0.029360000044107437,-0.052949998527765274,-0.1252100020647049,-0.14065000414848328,0.0730699971318245,0.3073599934577942,0.13923999667167664,0.35381999611854553,-0.3981499969959259],[-0.3893499970436096,-0.4159899950027466,0.370279997587204,-0.26100000739097595,0.3134399950504303,-0.2560499906539917,-0.017109999433159828,0.15876999497413635,-0.21236999332904816,-0.191880002617836,0.35427001118659973,0.2657400071620941,-0.39340001344680786,0.06369999796152115,-0.10524000227451324,0.09194999933242798,-0.33406001329421997],[-0.24865999817848206,-0.03781000152230263,-0.36555999517440796,0.43560999631881714,0.2322400063276291,-0.2157900035381317,0.34457001090049744,0.013199999928474426,-0.09526000171899796,-0.3789199888706207,-0.24981999397277832,-0.33044999837875366,0.31751999258995056,0.28940001130104065,-0.2281399965286255,0.15992000699043274,-0.07333000004291534],[0.2768700122833252,-0.17258000373840332,-0.026159999892115593,0.04261999949812889,0.05567000061273575,0.16545000672340393,-0.2871200144290924,0.2542099952697754,0.32293999195098877,-0.15800000727176666,0.3576500117778778,0.39941999316215515,0.41378000378608704,0.09026999771595001,0.24995000660419464,-0.2059900015592575,0.06857000291347504],[-0.35780999064445496,0.004540000110864639,0.27803000807762146,0.1628500074148178,0.2795400023460388,0.09948000311851501,0.3281799852848053,0.2250099927186966,-0.12039999663829803,0.010400000028312206,0.10791999846696854,0.12426000088453293,0.20157000422477722,-0.10204999893903732,-0.3716999888420105,-0.041269998997449875,-0.32405999302864075],[0.37391000986099243,0.368910014629364,0.2570500075817108,-0.2390100061893463,0.06860999763011932,-0.29686999320983887,-0.36302998661994934,-0.10447999835014343,0.13513000309467316,0.3530200123786926,0.40380001068115234,-0.18081000447273254,-0.22856999933719635,0.3972499966621399,-0.19530999660491943,-0.07092999666929245,-0.14050999283790588],[-0.11884000152349472,0.006000000052154064,-0.007569999899715185,-0.19359999895095825,0.07056999951601028,-0.2579900026321411,-0.3342199921607971,-0.34757000207901,0.151419997215271,0.3684599995613098,-0.12338999658823013,0.2985999882221222,-0.2427700012922287,0.02085999958217144,-0.20134000480175018,0.39515000581741333,-0.03141000121831894],[0.3579699993133545,-0.12814000248908997,-0.2101300060749054,-0.30191999673843384,0.04413999989628792,0.3796299993991852,-0.224590003490448,-0.25845998525619507,0.12233000248670578,0.050689999014139175,0.341839998960495,-0.22763000428676605,-0.41596001386642456,-0.10189999639987946,0.10881999880075455,-0.16527999937534332,-0.4126800000667572],[-0.011620000004768372,-0.16859999299049377,0.12846000492572784,0.1092199981212616,0.15977999567985535,0.2936300039291382,-0.3486799895763397,-0.20892000198364258,0.23479999601840973,-0.17231999337673187,-0.0037799999117851257,0.3387700021266937,-0.05711999908089638,-0.018069999292492867,-0.37501001358032227,0.012640000320971012,0.09923999756574631],[0.20804999768733978,-0.04859999939799309,-0.4027099907398224,-0.3021399974822998,0.16968999803066254,0.33842000365257263,-0.36383000016212463,0.1495800018310547,-0.17326000332832336,0.030559999868273735,0.2707499861717224,0.2263599932193756,0.20774999260902405,0.23986999690532684,-0.26756998896598816,-0.002839999971911311,-0.038270000368356705],[-0.09666000306606293,-0.11606000363826752,0.195250004529953,-0.05776999890804291,-0.21121999621391296,-0.20869000256061554,0.013770000077784061,-0.040699999779462814,-0.01549999974668026,-0.1333400011062622,0.2111400067806244,-0.3898000121116638,-0.3275499939918518,-0.40518999099731445,0.3912999927997589,-0.3603299856185913,-0.3819800019264221],[0.13033999502658844,-0.0451899990439415,-0.04681999981403351,0.2255299985408783,-0.23354999721050262,-0.42149999737739563,-0.2777999937534332,-0.020400000736117363,-0.2526499927043915,-0.10239999741315842,-0.2189200073480606,-0.34060999751091003,-0.35965999960899353,-0.12827999889850616,-0.37279999256134033,-0.1740799993276596,-0.1680700033903122],[-0.2935299873352051,-0.294950008392334,-0.3639200031757355,-0.4040600061416626,0.2862299978733063,-0.28380000591278076,-0.04106999933719635,-0.08034999668598175,0.18793000280857086,-0.0811299979686737,0.05761000141501427,0.3298799991607666,-0.1517699956893921,-0.026639999821782112,0.12184000015258789,0.2988399863243103,-0.2093999981880188],[0.4030799865722656,0.006630000192672014,-0.22731000185012817,0.21358999609947205,-0.3320600092411041,0.003169999923557043,-0.198730006814003,-0.16683000326156616,0.38888999819755554,-0.2889699935913086,-0.18257999420166016,0.2896899878978729,-0.3574399948120117,0.11687000095844269,0.09585999697446823,-0.2915099859237671,-0.014460000209510326],[0.19389000535011292,-0.1385599970817566,0.20885999500751495,-0.3818399906158447,0.14470000565052032,-0.058809999376535416,-0.26357999444007874,-0.283160001039505,0.3066500127315521,0.10141000151634216,0.40167999267578125,-0.3617599904537201,0.41481998562812805,-0.33316001296043396,-0.211899995803833,0.29561999440193176,0.11495000123977661],[0.4103100001811981,-0.08957000076770782,0.0545400008559227,-0.10001999884843826,-0.10312999784946442,0.24347999691963196,-0.034219998866319656,-0.27439001202583313,0.053679998964071274,-0.20253999531269073,0.41301000118255615,-0.06435000151395798,-0.4062199890613556,-0.39362001419067383,-0.03170999884605408,-0.0828699991106987,0.10169000178575516],[-0.02387000061571598,-0.06778000295162201,0.08139999955892563,0.3324599862098694,-0.21536999940872192,0.3142400085926056,0.19923999905586243,0.36550000309944153,-0.14988000690937042,0.1400499939918518,0.0686199963092804,-0.28648999333381653,0.27059999108314514,-0.1559000015258789,-0.3302600085735321,0.3447200059890747,-0.24699999392032623],[-0.2741900086402893,0.38923001289367676,-0.1632400006055832,0.26504001021385193,0.0945499986410141,0.3928399980068207,0.24925999343395233,0.052390001714229584,-0.38787999749183655,-0.12856000661849976,-0.15410000085830688,0.06421999633312225,0.09488999843597412,0.0333699993789196,0.2122499942779541,-0.27362000942230225,0.2520900070667267],[-0.016860000789165497,-0.10834000259637833,0.04326000064611435,0.3755599856376648,0.21331000328063965,0.1331699937582016,-0.0016499999910593033,0.39493000507354736,0.03798000141978264,0.20701000094413757,0.30612000823020935,-0.2563900053501129,-0.39037999510765076,0.11157000064849854,-0.15267999470233917,0.22673000395298004,-0.08551999926567078],[0.01066999975591898,0.2533699870109558,-0.33928999304771423,-0.35308000445365906,0.217739999294281,-0.14956000447273254,0.004050000105053186,-0.28714999556541443,0.03999999910593033,-0.1339000016450882,0.1060900017619133,-0.366239994764328,0.13547000288963318,0.320279985666275,-0.17520999908447266,0.20755000412464142,-0.15695999562740326],[0.34564998745918274,0.0632999986410141,-0.08800999820232391,0.19981999695301056,-0.3278599977493286,0.23518000543117523,0.18483999371528625,-0.3059599995613098,0.41363000869750977,-0.1316000074148178,0.3744699954986572,-0.37797001004219055,-0.00965999998152256,-0.1883399933576584,-0.24848000705242157,-0.025110000744462013,0.3437199890613556]],"b":[-0.00913000013679266,0.0025100000202655792,-0.01056000031530857,0.038109999150037766,0.022110000252723694,0.031109999865293503,0.009050000458955765,0.0301900003105402,0.041019998490810394,0.006130000110715628,-0.011859999969601631,-0.018719999119639397,-0.005919999908655882,0.037769999355077744,0.015479999594390392,0.0022100000642240047,0.021929999813437462,-0.029810000211000443,0.018650000914931297,-0.0063299997709691525,-0.03458999842405319,0.024000000208616257,0.01981000043451786,-0.0011599999852478504,0.007449999917298555,0.003109999932348728,0.02775000035762787,-0.02305999957025051,0.008009999990463257,0.020670000463724136,0.011300000362098217,0.04064999893307686],"act":"silu","in":17,"out":32},{"w":[[0.20182999968528748,-0.2226099967956543,-0.08206000179052353,0.1293099969625473,-0.17869000136852264,0.23232999444007874,-0.2128800004720688,-0.24743999540805817,0.21238000690937042,0.013150000013411045,-0.18871000409126282,-0.2556000053882599,-0.28617000579833984,-0.20482000708580017,-0.006930000148713589,0.18045000731945038,-0.12188000231981277,0.10802000015974045,-0.26462000608444214,0.27173998951911926,0.02785000018775463,0.06589999794960022,0.027899999171495438,-0.2417300045490265,0.27090001106262207,0.1306699961423874,-0.012020000256597996,0.17383000254631042,-0.004089999943971634,0.05025000125169754,0.02676999941468239,0.18390999734401703],[-0.21083000302314758,-0.24608999490737915,-0.08578000217676163,0.21453000605106354,0.12766000628471375,0.14579999446868896,-0.2846499979496002,0.1026500016450882,-0.09284999966621399,0.20914000272750854,-0.11907000094652176,0.017899999395012856,0.17431999742984772,0.07667999714612961,0.29339998960494995,-0.13922999799251556,0.1408499926328659,-0.26504001021385193,-0.10057999938726425,0.0006200000061653554,0.3071900010108948,0.07924000173807144,-0.17354999482631683,-0.17861999571323395,0.2262199968099594,0.26677998900413513,0.04109000042080879,-0.03451000154018402,-0.13652999699115753,-0.13684000074863434,0.2798599898815155,0.1439799964427948],[-0.28582999110221863,0.2913599908351898,-0.09018000215291977,-0.1864600032567978,0.03401000052690506,0.014709999784827232,-0.021849999204277992,0.13619999587535858,0.2481600046157837,-0.11524999886751175,0.2579500079154968,0.3119400143623352,-0.24281999468803406,0.17619000375270844,0.20872999727725983,0.26805999875068665,-0.156700000166893,-0.09499000012874603,0.1590300053358078,-0.20791999995708466,-0.15525999665260315,0.12325000017881393,0.2556299865245819,-0.10374999791383743,0.008340000174939632,0.1909099966287613,-0.2669599950313568,0.3003099858760834,-0.15503999590873718,0.18964000046253204,0.246069997549057,0.23175999522209167],[0.14786000549793243,0.2697699964046478,-0.015250000171363354,-0.23968000710010529,-0.021900000050663948,0.1608400046825409,0.15870000422000885,-0.09571000188589096,-0.13898000121116638,0.21900999546051025,0.18949000537395477,0.20964999496936798,0.2203799933195114,-0.07846999913454056,0.20907999575138092,-0.22702999413013458,-0.17521999776363373,0.18302999436855316,0.03593999892473221,-0.004519999958574772,0.1340699940919876,0.19433000683784485,-0.212459996342659,-0.16572000086307526,-0.2527399957180023,0.08730000257492065,-0.014270000159740448,0.0713300034403801,0.22362999618053436,0.27079999446868896,0.03497999906539917,-0.262800008058548],[0.10842999815940857,0.030209999531507492,-0.014120000414550304,-0.20455999672412872,0.2915000021457672,-0.20235000550746918,0.02857000008225441,-0.13267000019550323,-0.2607699930667877,-0.24089999496936798,0.27590999007225037,-0.09254000335931778,0.021209999918937683,0.21318000555038452,0.0451200008392334,0.30963000655174255,0.08382000029087067,0.26677000522613525,0.1852799952030182,-0.21828000247478485,0.22416000068187714,-0.0705299973487854,0.2513599991798401,0.12812000513076782,-0.30946001410484314,0.030470000579953194,-0.14764000475406647,0.05624999850988388,-0.053300000727176666,0.2858000099658966,-0.028909999877214432,0.2716600000858307],[0.11776000261306763,-0.007040000054985285,0.27164000272750854,0.08716999739408493,0.18821999430656433,0.28115999698638916,0.10538999736309052,-0.2542400062084198,0.28192999958992004,0.1145000010728836,-0.07150000333786011,-0.09982000291347504,0.24522000551223755,0.2081100046634674,-0.12109000235795975,-0.05276999995112419,-0.09303999692201614,-0.10341999679803848,0.1666399985551834,-0.2220499962568283,0.09950999915599823,0.14768999814987183,0.1293099969625473,0.19749000668525696,-0.08429999649524689,-0.24079999327659607,0.2611500024795532,0.0442500002682209,0.30316001176834106,0.06505999714136124,0.13046999275684357,0.0945499986410141],[-0.016440000385046005,-0.0831800028681755,-0.27730000019073486,0.17833000421524048,0.2072400003671646,-0.013460000045597553,0.19437000155448914,0.02525000087916851,-0.2297700047492981,-0.2682099938392639,-0.13853999972343445,-0.22336000204086304,-0.28571999073028564,-0.001180000021122396,0.18279999494552612,0.2607499957084656,0.04464999958872795,0.0741799995303154,0.07789000123739243,-0.11327999830245972,0.2608700096607208,0.056379999965429306,0.08195000141859055,-0.17199000716209412,-0.22317999601364136,-0.2324499934911728,0.18187999725341797,0.01841999962925911,0.15995000302791595,0.1370999962091446,0.23684999346733093,0.12970000505447388],[0.03629999980330467,0.19564999639987946,0.19623999297618866,-0.024490000680088997,-0.03002999909222126,0.12466000020503998,0.017869999632239342,0.1902099996805191,0.08077999949455261,-0.2680799961090088,-0.2257400006055832,-0.15741999447345734,0.18602000176906586,-0.013770000077784061,0.051180001348257065,0.014059999957680702,0.011710000224411488,0.133310005068779,0.043219998478889465,-0.24161000549793243,0.028699999675154686,0.15588000416755676,-0.07671000063419342,0.17102999985218048,0.2994999885559082,-0.2315399944782257,-0.21539999544620514,-0.11578000336885452,0.15695999562740326,0.30601999163627625,-0.03985000029206276,-0.159170001745224],[0.27581000328063965,0.23903000354766846,0.09014999866485596,-0.27983999252319336,0.1445000022649765,-0.29061999917030334,0.05683999881148338,0.13583999872207642,-0.04394000023603439,0.04733999818563461,0.14959000051021576,-0.054090000689029694,0.29374000430107117,0.11744999885559082,-0.21594999730587006,-0.3245199918746948,0.20473000407218933,0.2135699987411499,-0.08044999837875366,-0.22843000292778015,-0.223130002617836,0.23588000237941742,-0.27204999327659607,-0.034279998391866684,0.22025999426841736,0.04312000051140785,-0.1721400022506714,0.050209999084472656,-0.2766900062561035,-0.1435299962759018,0.15817999839782715,-0.32475000619888306],[-0.20237000286579132,-0.18217000365257263,-0.19303999841213226,-0.3006500005722046,-0.17488999664783478,0.12714000046253204,0.06887000054121017,-0.2550399899482727,0.056689999997615814,-0.051100000739097595,0.055720001459121704,0.15550999343395233,-0.2707099914550781,-0.24789999425411224,0.18498000502586365,0.2008499950170517,-0.20744000375270844,-0.16656999289989471,0.2902500033378601,-0.004389999900013208,-0.062460001558065414,0.07071000337600708,0.10982000082731247,0.3006199896335602,0.12285999953746796,-0.23543000221252441,0.09238000214099884,0.046870000660419464,-0.06697999686002731,0.06947000324726105,-0.07123000174760818,0.11129000037908554],[-0.056859999895095825,-0.10723999887704849,-0.17041000723838806,0.017650000751018524,-0.07801999896764755,0.2879599928855896,0.31310999393463135,0.3258799910545349,0.2855300009250641,0.04252000153064728,-0.2000499963760376,-0.12499000132083893,-0.2523300051689148,-0.12999999523162842,0.23607000708580017,-0.09277000278234482,0.022290000692009926,0.0005099999834783375,-0.08224999904632568,-0.21568000316619873,-0.19248999655246735,0.19826999306678772,0.17872999608516693,-0.05017000064253807,-0.12257000058889389,-0.1814900040626526,0.1491899937391281,-0.19309000670909882,0.15714000165462494,-0.13976000249385834,0.12204000353813171,0.12197999656200409],[0.11331000179052353,0.10553000122308731,-0.02954000048339367,0.1295199990272522,0.13300999999046326,-0.022390000522136688,0.16161000728607178,0.013330000452697277,0.030899999663233757,-0.12890000641345978,-0.1455399990081787,-0.28468000888824463,0.2873300015926361,-0.04064999893307686,0.1130400002002716,0.0016299999551847577,-0.23653000593185425,0.19262999296188354,0.2779200077056885,0.15299999713897705,0.05553000047802925,-0.16675999760627747,0.2956700026988983,0.053119998425245285,-0.23307999968528748,-0.11095000058412552,0.026639999821782112,0.017170000821352005,-0.21952000260353088,0.12134999781847,-0.15386000275611877,-0.1483599990606308],[-0.008589999750256538,-0.08772999793291092,0.3131699860095978,-0.12897999584674835,0.07266999781131744,0.1101899966597557,-0.27480000257492065,-0.09457000344991684,-0.18244999647140503,-0.2715499997138977,0.056049998849630356,0.03889999911189079,-0.2562499940395355,0.20476000010967255,-0.1252399981021881,0.04696999862790108,-0.021290000528097153,0.14514000713825226,-0.08997000008821487,0.08247999846935272,0.15035000443458557,0.04092000052332878,-0.08208999782800674,-0.18615999817848206,0.18404999375343323,-0.07808999717235565,-0.09737999737262726,-0.2995400130748749,-0.2124900072813034,-0.11562000215053558,-0.21448999643325806,0.10469000041484833],[-0.28224000334739685,0.2630299925804138,0.013570000417530537,0.023679999634623528,-0.12564000487327576,-0.049309998750686646,0.2036599963903427,0.2680700123310089,-0.07591000199317932,-0.24806000292301178,-0.13854999840259552,0.2267799973487854,0.2336300015449524,-0.2852799892425537,0.09098000079393387,0.032760001718997955,-0.11502999812364578,0.03830999881029129,-0.21703000366687775,0.0933300033211708,0.1109900027513504,-0.1910499930381775,0.02047000080347061,0.2417300045490265,-0.19197000563144684,0.028519999235868454,-0.29054999351501465,0.2701599895954132,0.08416000008583069,0.06872999668121338,-0.22283999621868134,0.004670000169426203],[0.10288000106811523,-0.28762000799179077,0.12369000166654587,-0.10236000269651413,-0.01978999935090542,0.27755001187324524,0.19463999569416046,0.13011999428272247,-0.3061400055885315,-0.11507000029087067,0.08070000261068344,0.2534399926662445,-0.0515500009059906,0.2655700147151947,0.18192000687122345,0.2560200095176697,-0.24196000397205353,-0.2886199951171875,-0.2472199946641922,-0.212349995970726,-0.040699999779462814,-0.09577000141143799,0.02442000061273575,0.08598999679088593,0.07292000204324722,0.06063999980688095,0.2983100116252899,0.015599999576807022,0.09529999643564224,-0.04597000032663345,0.03150999918580055,0.16936999559402466],[-0.04191000014543533,-0.17479999363422394,-0.15929000079631805,-0.1965000033378601,0.25275999307632446,0.02191999927163124,0.18768000602722168,-0.10016000270843506,-0.03539999946951866,0.03928999975323677,0.11801999807357788,0.18437999486923218,0.290010005235672,0.2722800076007843,-0.24980999529361725,-0.2852100133895874,0.1913599967956543,-0.21834999322891235,0.22958999872207642,0.10524000227451324,0.0690699964761734,0.08859000355005264,0.1582300066947937,-0.14622999727725983,-0.1372700035572052,-0.26881998777389526,0.019840000197291374,-0.259770005941391,-0.16504999995231628,-0.038339998573064804,0.2425300031900406,-0.030710000544786453],[-0.1016400009393692,0.26170000433921814,-0.11827000230550766,0.17127999663352966,-0.11042000353336334,0.2822299897670746,-0.02628999948501587,0.1513800024986267,-0.004040000028908253,-0.016090000048279762,-0.10819000005722046,0.0399399995803833,0.3050900101661682,0.13580000400543213,0.2496899962425232,0.15023000538349152,0.2610599994659424,-0.24301999807357788,0.1596599966287613,-0.30366000533103943,-0.3012799918651581,0.19212999939918518,0.06931000202894211,-0.0010499999625608325,-0.24821999669075012,0.2866399884223938,0.18431000411510468,-0.1720699965953827,0.1456499993801117,0.257889986038208,0.014460000209510326,0.29837000370025635],[0.18308000266551971,-0.1570100039243698,-0.07219000160694122,-0.13439999520778656,-0.0333000011742115,0.22491000592708588,-0.09869000315666199,0.08320000022649765,-0.22840000689029694,-0.02013999968767166,0.21044999361038208,0.27851998805999756,-0.0933699980378151,0.16304999589920044,-0.06571000069379807,-0.11591999977827072,-0.05553000047802925,0.2826400101184845,-0.06582000106573105,0.08128000050783157,-0.15546999871730804,-0.1961899995803833,0.29631999135017395,0.25060999393463135,-0.16222000122070312,-0.19898000359535217,0.289249986410141,-0.2262600064277649,0.014329999685287476,-0.09730999916791916,-0.20496000349521637,0.12807999551296234],[-0.24658000469207764,0.023350000381469727,-0.1015700027346611,0.08965999633073807,0.18390999734401703,-0.048739999532699585,-0.26631999015808105,-0.22192999720573425,-0.013000000268220901,-0.2915700078010559,-0.1627199947834015,0.11650999635457993,-0.1429699957370758,-0.22915999591350555,-0.06456000357866287,-0.23226000368595123,-0.20272000133991241,-0.2630000114440918,-0.1687999963760376,-0.10643000155687332,0.23535999655723572,-0.10333999991416931,-0.0691400021314621,-0.18230000138282776,-0.019759999588131905,-0.040150001645088196,-0.12553000450134277,0.014139999635517597,0.15544000267982483,0.07242000102996826,0.03740999847650528,-0.2632000148296356],[0.034929998219013214,-0.019360000267624855,0.2750999927520752,-0.29987001419067383,0.2558700144290924,-0.15996000170707703,0.04648999869823456,-0.26506999135017395,-0.05378999933600426,0.11643999814987183,-0.19518999755382538,0.23576000332832336,0.1906999945640564,-0.28341999650001526,-0.048170000314712524,0.0333000011742115,0.24048000574111938,0.10270000249147415,0.20080000162124634,-0.020819999277591705,0.2544899880886078,-0.1342500001192093,-0.2453400045633316,0.19044999778270721,-0.18706999719142914,-0.09881000220775604,0.026830000802874565,0.002529999939724803,-0.20799000561237335,-0.1837500035762787,0.28025001287460327,-0.05107999965548515],[-0.06199999898672104,0.23567000031471252,-0.16821999847888947,0.15807999670505524,-0.2060299962759018,-0.19011999666690826,0.19412000477313995,0.23502999544143677,0.12568999826908112,0.20761999487876892,-0.25874999165534973,-0.038270000368356705,0.24950000643730164,-0.1925099939107895,-0.23252999782562256,-0.22731000185012817,0.11630000174045563,-0.3105100095272064,-0.30417001247406006,0.015010000206530094,-0.2365099936723709,0.0847100019454956,0.21999000012874603,0.00749000022187829,-0.13926999270915985,0.05054999887943268,-0.09205999970436096,0.25282999873161316,0.16740000247955322,-0.05186999961733818,-0.06350000202655792,0.03646999970078468],[-0.27967000007629395,-0.0834600031375885,-0.22242000699043274,-0.26374998688697815,-0.17455999553203583,0.14452999830245972,-0.2619900107383728,-0.2835800051689148,-0.037859998643398285,0.19280999898910522,0.11570999771356583,0.16824999451637268,0.039500001817941666,-0.03957999870181084,-0.17670999467372894,0.10027000308036804,-0.2949399948120117,-0.21946999430656433,-0.046509999781847,0.09551999717950821,0.22848999500274658,0.23531000316143036,-0.13776999711990356,-0.08682999759912491,-0.12912000715732574,0.2520799934864044,-0.13765999674797058,-0.15929000079631805,0.09282000362873077,0.12218999862670898,-0.14862999320030212,-0.34220001101493835],[0.16646000742912292,-0.1764799952507019,0.08455999940633774,0.10578999668359756,0.29440000653266907,0.22392000257968903,-0.05268999934196472,0.10632000118494034,-0.14619000256061554,-0.2420099973678589,0.15682999789714813,-0.16735999286174774,0.03884999826550484,0.05144000053405762,0.061879999935626984,0.13172000646591187,-0.13012999296188354,-0.08952999860048294,0.28554999828338623,0.1426600068807602,-0.042149998247623444,0.09531000256538391,-0.014410000294446945,-0.035110000520944595,-0.16851000487804413,-0.011490000411868095,0.1457200050354004,-0.1271200031042099,0.0014100000262260437,0.16732999682426453,-0.04732000082731247,0.26116999983787537],[0.16592000424861908,-0.09375,0.20608000457286835,0.2536099851131439,-0.24039000272750854,0.2614099979400635,-0.13907000422477722,0.014460000209510326,-0.15062999725341797,0.1058799996972084,0.1989700049161911,-0.1995300054550171,-0.07699000090360641,0.13075999915599823,0.1590300053358078,0.23792999982833862,-0.24661000072956085,0.08720999956130981,-0.24414999783039093,-0.30090001225471497,-0.06137000024318695,-0.25345999002456665,0.0009200000204145908,0.2134000062942505,-0.07486999779939651,0.185589998960495,0.23247000575065613,-0.20236000418663025,0.13431000709533691,0.01623000018298626,-0.21166999638080597,-0.20625999569892883],[-0.19537000358104706,-0.18020999431610107,0.25804999470710754,-0.05610999837517738,0.3059599995613098,0.18735000491142273,-0.15414999425411224,0.27722999453544617,0.06955000013113022,0.09698999673128128,-0.17412999272346497,-0.17844000458717346,0.014809999614953995,-0.07660999894142151,-0.27483999729156494,0.1398099958896637,-0.2937600016593933,-0.10836999863386154,0.16078999638557434,0.20597000420093536,-0.06807000190019608,0.2681500017642975,0.18042999505996704,-0.04566999897360802,0.048259999603033066,-0.10400000214576721,0.18776999413967133,0.1444000005722046,-0.15881000459194183,0.11591999977827072,0.19356000423431396,-0.13375000655651093],[-0.19923999905586243,0.2856299877166748,-0.18813000619411469,0.09181000292301178,-0.10817000269889832,-0.16711999475955963,-0.21241000294685364,0.08050999790430069,-0.07665000110864639,0.2303600013256073,-0.1589999943971634,0.29982998967170715,-0.029330000281333923,0.05942999944090843,0.047240000218153,0.29030999541282654,-0.17497999966144562,0.03953000158071518,-0.04464000090956688,-0.23037000000476837,0.22217999398708344,0.12382999807596207,0.1050100028514862,-0.28057000041007996,0.10051000118255615,0.0023900000378489494,0.19835999608039856,-0.06332000344991684,-0.04778999835252762,0.29308000206947327,0.05544000118970871,-0.09743999689817429],[-0.032749999314546585,0.15288999676704407,-0.09574999660253525,-0.08350999653339386,0.06531000137329102,0.28095999360084534,0.04529999941587448,-0.12635000050067902,0.2596000134944916,0.16412000358104706,-0.20851999521255493,0.09328000247478485,0.2424599975347519,0.07898999750614166,-0.10206999629735947,0.06953000277280807,-0.1979999989271164,0.10078000277280807,-0.01233999989926815,0.2464199960231781,0.06818000227212906,0.30039000511169434,-0.04185999929904938,0.08724000304937363,0.16512000560760498,0.03959000110626221,0.1753299981355667,0.09296000003814697,0.003969999961555004,0.07038000226020813,0.16384999454021454,-0.24237999320030212],[0.2134999930858612,0.2693299949169159,0.2391899973154068,0.2473600059747696,-0.2770499885082245,-0.16245000064373016,-0.1976500004529953,-0.0008299999753944576,-0.15960000455379486,0.28110000491142273,0.0010300000431016088,0.08416000008583069,0.07626000046730042,-0.13375000655651093,0.22964000701904297,0.22739000618457794,0.0799499973654747,-0.25887998938560486,-0.04684999957680702,0.23120999336242676,-0.09392999857664108,0.2550800144672394,0.053369998931884766,-0.10317999869585037,0.260019987821579,0.0062699997797608376,-0.087459996342659,0.22273999452590942,-0.2609100043773651,0.2522299885749817,-0.266400009393692,0.23352999985218048],[0.22476999461650848,-0.22829000651836395,0.18154999613761902,0.06911999732255936,-0.3003399968147278,-0.005849999841302633,-0.10199999809265137,-0.0800200030207634,-0.20332999527454376,0.026249999180436134,-0.012649999931454659,-0.29069000482559204,0.25703001022338867,0.15750999748706818,0.06046999990940094,-0.13344000279903412,-0.07464999705553055,0.05395999923348427,0.09549999982118607,0.2761000096797943,-0.09610000252723694,-0.13428999483585358,-0.06350000202655792,0.0364300012588501,-0.13549000024795532,-0.30963000655174255,-0.04066000133752823,0.25303998589515686,0.03894999995827675,-0.216839998960495,0.18836000561714172,0.04836999997496605],[0.2885099947452545,-0.25321999192237854,0.1931300014257431,0.0049299998208880424,0.0826599970459938,0.10373000055551529,0.015610000118613243,-0.15876999497413635,0.23622000217437744,0.12352000176906586,0.06547000259160995,-0.12377999722957611,0.26488998532295227,0.02339000068604946,-0.07407999783754349,-0.0670899972319603,-0.18095000088214874,-0.2051199972629547,0.3025999963283539,0.291049987077713,0.03596000000834465,0.0602400004863739,-0.155799999833107,0.27153000235557556,-0.10287000238895416,-0.08709000051021576,0.18549999594688416,-0.2779900133609772,0.28387001156806946,-0.08336000144481659,0.016419999301433563,-0.23432999849319458],[-0.2243099957704544,-0.14153000712394714,0.05590000003576279,-0.09386999905109406,0.2708899974822998,0.3145099878311157,0.05751999840140343,0.18982000648975372,0.2778399884700775,0.002369999885559082,-0.0142000000923872,-0.07797999680042267,-0.30441001057624817,0.26886001229286194,0.06612999737262726,-0.122079998254776,-0.19446000456809998,-0.2916100025177002,0.265859991312027,0.2759700119495392,-0.11896999925374985,0.1216999962925911,-0.20272000133991241,-0.3016200065612793,0.06412000209093094,-0.0019000000320374966,-0.048820000141859055,-0.009890000335872173,-0.09072999656200409,0.2702600061893463,0.16256000101566315,0.14824999868869781],[0.19606000185012817,-0.015230000019073486,0.21252000331878662,0.226610004901886,-0.17077000439167023,-0.17204999923706055,-0.08513999730348587,0.25488001108169556,-0.2614699900150299,-0.1679999977350235,0.20743000507354736,-0.03720000013709068,0.0808899998664856,-0.15015000104904175,0.290800005197525,-0.06154999881982803,0.13157999515533447,-0.2855899930000305,-0.1779700070619583,-0.11196000128984451,-0.24023999273777008,-0.25150999426841736,0.14569999277591705,0.06831000000238419,-0.15769000351428986,-0.29433000087738037,-0.003329999977722764,0.29381000995635986,0.10333000123500824,0.10172999650239944,-0.24855999648571014,-0.10847000032663345]],"b":[-0.023439999669790268,0.03147000074386597,0.009689999744296074,-0.031690001487731934,0.016289999708533287,0.03316999971866608,-0.02938999980688095,0.009759999811649323,-0.03303999826312065,-0.02150999940931797,0.03465000167489052,-0.03109000064432621,-0.029999999329447746,-0.02810000069439411,-0.017650000751018524,0.012790000066161156,0.03508000075817108,0.016790000721812248,-0.017430000007152557,-0.03604999929666519,-0.01785999909043312,-0.04188999906182289,0.007840000092983246,-0.004240000154823065,-0.0063599999994039536,-2.9999999242136255e-05,0.040119998157024384,0.02290000021457672,-0.017170000821352005,0.006899999920278788,0.029370000585913658,-0.005510000046342611],"act":"silu","in":32,"out":32},{"w":[[-0.2726700007915497,-0.005429999902844429,0.26006999611854553,0.04641000181436539,0.28540998697280884,0.08218000084161758,0.018950000405311584,-0.08643999695777893,-0.15143999457359314,0.0006600000197067857,-0.10868000239133835,0.13354000449180603,-0.2311200052499771,0.16392000019550323,-0.2183299958705902,0.26080000400543213,0.2531900107860565,-0.026510000228881836,0.1344199925661087,-0.29302000999450684,0.07227999716997147,-0.2220200002193451,-0.21796000003814697,-0.030319999903440475,-0.00863999966531992,0.10525999963283539,-0.23744000494480133,0.06333000212907791,-0.2945899963378906,0.1068900004029274,0.0989999994635582,0.30024999380111694],[0.12056999653577805,0.21121999621391296,0.2678700089454651,-0.13630999624729156,-0.16537000238895416,0.24483999609947205,0.09532999992370605,0.2142300009727478,0.059390000998973846,-0.291269987821579,0.25018998980522156,-0.10885000228881836,-0.09367000311613083,-0.060770001262426376,-0.2599000036716461,0.2707499861717224,-0.17305000126361847,0.2779400050640106,-0.29221001267433167,0.14217999577522278,0.040950000286102295,-0.28040000796318054,0.12018000334501266,0.19460000097751617,0.2157299965620041,-0.17226000130176544,0.24492999911308289,0.2408200055360794,-0.2709900140762329,-0.25968998670578003,0.30434998869895935,0.12932999432086945],[-0.007400000002235174,0.09328000247478485,-0.19423000514507294,0.04470999911427498,-0.07851000130176544,0.12126000225543976,0.11771000176668167,0.17406000196933746,-0.2565400004386902,-0.2501299977302551,-0.2550399899482727,-0.14517000317573547,-0.10949999839067459,-0.15826000273227692,-0.2760699987411499,0.28821998834609985,-0.14336000382900238,-0.030060000717639923,-0.14104999601840973,0.012719999998807907,0.22317999601364136,-0.18967999517917633,0.04092999920248985,0.0029800001066178083,0.10266999900341034,-0.18959000706672668,0.28769999742507935,0.19715000689029694,-0.18512000143527985,0.06458999961614609,-0.18907999992370605,-0.11965999752283096],[0.25777000188827515,-0.22217999398708344,0.16613000631332397,0.20472000539302826,0.09363999962806702,0.1883399933576584,0.10762999951839447,0.053050000220537186,-0.14379000663757324,-0.2602199912071228,-0.00041000000783242285,-0.09291999787092209,-0.30476999282836914,-0.03483999893069267,0.16599999368190765,0.23833000659942627,0.20187999308109283,0.15580999851226807,-0.10705000162124634,-0.2591699957847595,-0.1366100013256073,-0.2737399935722351,-0.0770300030708313,0.15594999492168427,-0.27375999093055725,-0.10553999990224838,0.2372799962759018,-0.043529998511075974,0.24556000530719757,0.2666800022125244,0.19169999659061432,-0.2318899929523468],[-0.23382000625133514,0.28975000977516174,-0.2502500116825104,-0.2844899892807007,0.09041000157594681,0.10932999849319458,-0.2366500049829483,0.017480000853538513,-0.2669300138950348,0.2825300097465515,0.2609899938106537,-0.25376999378204346,0.07740999758243561,-0.07779999822378159,0.1151600033044815,-0.2928699851036072,0.22856000065803528,-0.07749000191688538,0.12317000329494476,-0.206169992685318,-0.05860000103712082,-0.041189998388290405,0.10110999643802643,-0.14907999336719513,-0.12245000153779984,0.22965000569820404,0.08004999905824661,-0.09470999985933304,-0.002300000051036477,-0.013829999603331089,0.13389000296592712,-0.19019000232219696],[-0.1404000073671341,-0.1722099930047989,-0.20719000697135925,-0.14715999364852905,-0.007710000034421682,-0.24713000655174255,-0.21658000349998474,-0.14305000007152557,-0.25064998865127563,-0.25687000155448914,0.1291400045156479,0.23015999794006348,0.2034199982881546,-0.1985200047492981,0.2008800059556961,-0.22453999519348145,0.2984200119972229,-0.060989998281002045,-0.14406000077724457,-0.13818000257015228,-0.23582999408245087,-0.29006001353263855,0.244719997048378,-0.2973499894142151,0.10450000315904617,0.16082000732421875,0.28922998905181885,0.1491599977016449,0.1856199949979782,0.2511500120162964,-0.28158000111579895,-0.05031000077724457]],"b":[0.032180000096559525,0.040219999849796295,0.011479999870061874,0.03564000129699707,0.04909000173211098,0.035110000520944595],"act":"tanh","in":32,"out":6}]},"value_net":{"input_dim":17,"layers":[{"w":[[-0.15623000264167786,-0.20961999893188477,-0.05073999986052513,-0.05465000122785568,0.09504999965429306,0.3218800127506256,-0.3721100091934204,-0.19596999883651733,-0.4169600009918213,-0.45100000500679016,-0.13179999589920044,-0.41519999504089355,0.1627500057220459,0.005960000213235617,0.3252600133419037,-0.17728999257087708,0.06659000366926193],[-0.1689700037240982,-0.3973900079727173,0.42375001311302185,-0.038509998470544815,-0.28025999665260315,0.31836000084877014,-0.31749001145362854,-0.4495700001716614,0.07938999682664871,-0.34757000207901,0.18782000243663788,0.003869999898597598,-0.34544000029563904,0.04340000078082085,0.2741599977016449,0.046459998935461044,0.15825000405311584],[0.3610000014305115,-0.12913000583648682,-0.31630998849868774,-0.32872000336647034,-0.2743299901485443,0.39684000611305237,-0.31237998604774475,0.3241899907588959,-0.35012000799179077,0.09238000214099884,-0.1749899983406067,0.12685999274253845,0.09369000047445297,-0.3615800142288208,-0.23792000114917755,0.1888200044631958,-0.2901400029659271],[-0.32899001240730286,0.07355000078678131,0.005030000116676092,-0.02848999947309494,0.007939999923110008,0.09877000004053116,-0.0074800001457333565,-0.029580000787973404,0.4577299952507019,0.1404699981212616,0.008840000256896019,-0.07662999629974365,0.3641600012779236,0.23659999668598175,-0.2169100046157837,-0.3109300136566162,-0.3598800003528595],[-0.11751999706029892,-0.2662299871444702,0.2653200030326843,-0.16574999690055847,-0.1555200070142746,0.18866999447345734,-0.3964099884033203,0.3475399911403656,-0.1496099978685379,0.06769999861717224,-0.42805999517440796,0.33792001008987427,0.08636000007390976,-0.11962000280618668,0.13313999772071838,-0.16208000481128693,-0.1851000040769577],[-0.13077999651432037,0.2833999991416931,0.1234700009226799,0.013740000315010548,0.30024001002311707,0.05931000038981438,0.1592700034379959,0.11484000086784363,-0.45778998732566833,-0.15610000491142273,-0.45208999514579773,-0.4117099940776825,0.02418000064790249,-0.22200000286102295,-0.11309999972581863,0.22283999621868134,-0.39035001397132874],[-0.10950999706983566,-0.1457200050354004,0.40702998638153076,-0.21626999974250793,0.14532999694347382,0.3042699992656708,-0.24237999320030212,0.1789799928665161,0.04456999897956848,0.39939001202583313,-0.3510099947452545,0.362419992685318,-0.2575100064277649,-0.4018999934196472,0.08038000017404556,-0.3822999894618988,0.03415999934077263],[-0.18414999544620514,-0.04546000063419342,-0.010929999873042107,-0.19262999296188354,-0.08619999885559082,-0.3456999957561493,0.2554900050163269,-0.0565899983048439,0.2407200038433075,-0.30987998843193054,0.39678001403808594,0.1128700003027916,0.3627200126647949,-0.11901000142097473,-0.20825999975204468,0.14936000108718872,0.19543999433517456],[0.06682000309228897,-0.01924999989569187,-0.05234000086784363,-0.4300599992275238,0.20337000489234924,0.28169000148773193,0.03822999820113182,0.46358999609947205,0.31231001019477844,-0.0514100007712841,-0.04025999829173088,-0.3104499876499176,-0.03243999928236008,0.3978399932384491,-0.27028998732566833,-0.29892000555992126,-0.3438900113105774],[-0.1492999941110611,-0.17630000412464142,-0.3084700107574463,0.14791999757289886,-0.2813799977302551,0.4180000126361847,0.07143999636173248,0.4029400050640106,0.2700499892234802,-0.2653999924659729,0.18929000198841095,-0.28457000851631165,0.4857499897480011,-0.4438199996948242,0.49160999059677124,0.07091999799013138,0.35258999466896057],[0.1545799970626831,-0.2373100072145462,-0.09085000306367874,-0.0014400000218302011,-0.3787800073623657,0.3910599946975708,0.34307000041007996,-0.4195300042629242,0.01907999999821186,-0.2753399908542633,-0.24616000056266785,0.16128000617027283,0.11097999662160873,0.12319999933242798,-0.17338000237941742,0.3536199927330017,0.2111700028181076],[-0.002589999930933118,0.19261999428272247,-0.06911999732255936,-0.31498000025749207,-0.13811999559402466,-0.07588999718427658,0.26649001240730286,-0.19609999656677246,0.24118000268936157,-0.291020005941391,0.001970000099390745,0.4305500090122223,0.17927999794483185,0.16595999896526337,0.1545500010251999,-0.3024899959564209,0.2763200104236603],[0.34286999702453613,0.12701000273227692,0.12972000241279602,0.39930999279022217,-0.30195000767707825,-0.3799299895763397,-0.37630000710487366,-0.029929999262094498,0.3774299919605255,-0.17825999855995178,-0.09897000342607498,0.18828000128269196,-0.2506999969482422,0.14757999777793884,-0.2129800021648407,0.2683199942111969,-0.18105000257492065],[-0.21538999676704407,-0.19384999573230743,-0.06134000048041344,-0.04261999949812889,0.335999995470047,-0.34213000535964966,-0.33605000376701355,-0.34033000469207764,-0.4556500017642975,0.1872200071811676,0.21437999606132507,-0.04276999831199646,-0.16187000274658203,-0.26565998792648315,-0.2780500054359436,0.1849599927663803,0.13503000140190125],[0.23322999477386475,-0.14480000734329224,-0.35662999749183655,0.38589999079704285,-0.32576000690460205,0.37735000252723694,0.17410999536514282,-0.36329999566078186,-0.1595499962568283,-0.07500000298023224,-0.38326001167297363,0.04140999913215637,-0.33809998631477356,0.0682699978351593,-0.09335000067949295,-0.17494000494480133,0.21640999615192413],[-0.3522599935531616,0.3082500100135803,-0.1931699961423874,-0.006430000066757202,-0.0007399999885819852,-0.40641000866889954,-0.017990000545978546,0.13459999859333038,0.31490999460220337,0.2244199961423874,-0.3068000078201294,0.12996000051498413,-0.13583999872207642,0.31650999188423157,0.41760000586509705,0.3506999909877777,-0.21838000416755676],[-0.12797999382019043,-0.32738998532295227,0.22947999835014343,-0.378030002117157,-0.14225000143051147,-0.22166000306606293,0.12116999924182892,0.09594999998807907,-0.09049999713897705,0.1443299949169159,0.08743000030517578,-0.334989994764328,0.2546499967575073,-0.42445001006126404,-0.34136998653411865,-0.3675200045108795,-0.11987999826669693],[0.13285000622272491,0.455159991979599,-0.07562000304460526,0.15634000301361084,-0.13018999993801117,0.02515999972820282,0.443450003862381,-0.31832000613212585,0.0660099983215332,0.0013899999903514981,0.1088000014424324,0.4897899925708771,-0.043140001595020294,-0.241689994931221,0.20472000539302826,-0.19968999922275543,-0.31123000383377075],[0.28137001395225525,-0.09627000242471695,0.3361699879169464,0.5069400072097778,0.22953000664710999,0.1172500029206276,-0.12246000021696091,-0.30272001028060913,0.12610000371932983,0.27254998683929443,0.32326000928878784,0.02133999951183796,0.1325400024652481,-0.26194000244140625,0.15746000409126282,-0.1440799981355667,0.48493000864982605],[0.27375999093055725,-0.4776900112628937,-0.04826999828219414,0.3494899868965149,-0.3334900140762329,0.1778700053691864,0.16321000456809998,-0.35172998905181885,0.1049100011587143,-0.356220006942749,0.14368000626564026,-0.40264999866485596,0.14439000189304352,0.06616999953985214,-0.026240000501275063,-0.26545000076293945,-0.22074000537395477],[0.31509000062942505,0.46039000153541565,0.26673999428749084,0.10430999845266342,-0.07547999918460846,-0.22142000496387482,0.4176900088787079,-0.02711999975144863,0.19674000144004822,0.5086600184440613,-0.26190999150276184,-0.19205999374389648,0.21743999421596527,0.2907800078392029,-0.1407500058412552,0.4772700071334839,0.17689000070095062],[0.07660999894142151,-0.2527500092983246,-0.20319999754428864,0.41791999340057373,0.02329999953508377,0.08630000054836273,-0.16369999945163727,0.3794899880886078,0.3997800052165985,0.21003000438213348,-0.06232000142335892,-0.3149600028991699,0.40939000248908997,0.26014000177383423,0.03288999944925308,0.22376999258995056,0.24457000195980072],[-0.20021000504493713,-0.3112500011920929,0.39765000343322754,-0.26330000162124634,0.21602000296115875,0.39875999093055725,-0.05008000135421753,0.03533000126481056,-0.42653998732566833,-0.06313999742269516,-0.12190999835729599,0.25525999069213867,-0.15782000124454498,-0.20812000334262848,-0.29043999314308167,0.2356400042772293,-0.067610003054142],[-0.07457999885082245,-0.2790600061416626,0.21591000258922577,0.35905998945236206,-0.1269800066947937,0.3999300003051758,0.05279000103473663,0.15424999594688416,-0.2599399983882904,-0.31711000204086304,0.11751999706029892,0.2624000012874603,-0.16912999749183655,-0.08904000371694565,-0.41517001390457153,-0.10723999887704849,-0.0756400004029274],[-0.007829999551177025,0.2019599974155426,-0.08646000176668167,0.23465999960899353,0.11503999680280685,-0.2158699929714203,-0.062210001051425934,0.4108400046825409,0.3428899943828583,0.509850025177002,0.07704000174999237,0.23409999907016754,0.3366999924182892,0.28266000747680664,0.4106700122356415,-0.30504000186920166,0.31310999393463135],[0.14674000442028046,0.3829599916934967,0.2753700017929077,0.295879989862442,0.193790003657341,-0.4329400062561035,0.12833000719547272,-0.1589999943971634,0.09621000289916992,0.3286699950695038,0.08540000021457672,0.21338999271392822,0.3387100100517273,0.1137399971485138,0.24230000376701355,-0.11581999808549881,-0.06663999706506729],[0.3228299915790558,0.09796000272035599,-0.3983300030231476,0.22915999591350555,-0.2939299941062927,-0.22588999569416046,0.302619993686676,-0.1071700006723404,-0.2969000041484833,-0.40902000665664673,0.15334999561309814,0.0021699999924749136,-0.39991000294685364,-0.3707199990749359,0.39215999841690063,-0.3738499879837036,0.33893999457359314],[-0.3534899950027466,-0.0892300009727478,-0.25512000918388367,0.19296999275684357,-0.16718000173568726,-0.3663899898529053,-0.14470000565052032,-0.3137899935245514,0.06072000041604042,0.09831999987363815,0.2734200060367584,-0.29232001304626465,-0.25255000591278076,-0.18217000365257263,0.09939000010490417,-0.14645999670028687,0.1044899970293045],[-0.03319999948143959,0.30445000529289246,0.08694999665021896,-0.26015999913215637,0.0800900012254715,-0.09166000038385391,0.394679993391037,0.4193800091743469,-0.07666999846696854,-0.13946999609470367,0.34415000677108765,0.36777999997138977,0.33281999826431274,-0.006560000125318766,-0.11653999984264374,0.3137100040912628,0.3296099901199341],[-0.17594000697135925,0.1154400035738945,0.0851299986243248,-0.43290001153945923,0.2889299988746643,0.39267998933792114,-0.029929999262094498,-0.15028999745845795,-0.35378000140190125,-0.1064400002360344,0.3191699981689453,-0.08840999752283096,-0.4697299897670746,0.21161000430583954,0.2572000026702881,-0.1638299971818924,0.2535800039768219],[-0.02937999926507473,-0.3046500086784363,-0.08349999785423279,-0.4309700131416321,0.17292000353336334,0.2609100043773651,-0.23687000572681427,0.14496000111103058,0.22758999466896057,-0.34926000237464905,-0.1397700011730194,0.17056000232696533,-0.3793199956417084,0.2083600014448166,0.20744000375270844,-0.2063400000333786,-0.2740899920463562],[-0.01889999955892563,0.4944800138473511,0.0043299999088048935,0.27042001485824585,0.3150300085544586,0.1887899935245514,0.06319999694824219,-0.18841999769210815,0.3393299877643585,-0.261790007352829,-0.28007999062538147,0.27623000741004944,0.0777600035071373,-0.3072800040245056,0.08597999811172485,0.1677200049161911,-0.030820000916719437],[-0.29475000500679016,-0.23465000092983246,-0.07844000309705734,0.29256999492645264,0.08816999942064285,0.01355000026524067,0.005810000002384186,0.3606500029563904,-0.07687000185251236,0.30028000473976135,-0.4232499897480011,-0.39772000908851624,0.15440000593662262,-0.2377299964427948,-0.07468000054359436,-0.2692900002002716,-0.39021000266075134],[-0.18637999892234802,-0.2102700024843216,0.14283999800682068,-0.3953700065612793,-0.0002300000051036477,0.44141000509262085,-0.058490000665187836,-0.1900700032711029,-0.4745599925518036,-0.4365699887275696,0.1135300025343895,0.25398001074790955,0.13152000308036804,0.1829099953174591,0.1398800015449524,-0.40702998638153076,-0.10999999940395355],[-0.3178800046443939,-0.44637998938560486,-0.004209999926388264,-0.1529099941253662,-0.417930006980896,-0.20457999408245087,-0.39680999517440796,-0.4449700117111206,0.3053700029850006,-0.333079993724823,0.2854500114917755,-0.16052000224590302,0.17719000577926636,-0.17776000499725342,-0.443589985370636,-0.424780011177063,0.3177199959754944],[-0.14213000237941742,0.4793500006198883,0.22686000168323517,-0.0572500005364418,-0.2972100079059601,-0.3537200093269348,0.28334999084472656,-0.22359000146389008,0.21125000715255737,0.1541299968957901,0.1569100022315979,-0.016820000484585762,0.16067999601364136,0.11841999739408493,-0.12518000602722168,0.16154000163078308,-0.2184000015258789],[0.18220999836921692,-0.3049600124359131,0.22752000391483307,-0.39713001251220703,-0.13575999438762665,0.1027199998497963,-0.3141700029373169,0.258650004863739,-0.4982900023460388,0.2169799953699112,0.27458998560905457,0.33827000856399536,-0.0007600000244565308,-0.015239999629557133,0.19878999888896942,-0.18735000491142273,-0.25540000200271606],[0.15876999497413635,-0.3430500030517578,0.33976998925209045,-0.223130002617836,-0.16637000441551208,0.3265100121498108,0.0039900001138448715,0.1515599936246872,-0.2048500031232834,-0.4369400143623352,-0.18177999556064606,-0.0634400025010109,-0.11925999820232391,0.3907800018787384,0.055879998952150345,0.07462000101804733,-0.15008999407291412],[0.2782300114631653,-0.006279999855905771,-0.16479000449180603,-0.07757999747991562,0.27316001057624817,-0.3628099858760834,-0.09584999829530716,-0.1149900034070015,-0.11170999705791473,0.006430000066757202,-0.15627999603748322,-0.31836000084877014,-0.3180299997329712,0.21219000220298767,0.34610000252723694,0.008320000022649765,-0.004910000134259462],[-0.07152999937534332,0.1861100047826767,-0.3136099874973297,-0.29113999009132385,-0.02920999936759472,0.24337999522686005,0.10442999750375748,-0.3297699987888336,0.20937000215053558,-0.3646000027656555,-0.22187000513076782,-0.3121800124645233,-0.2147500067949295,-0.27987998723983765,-0.22368000447750092,-0.4878399968147278,0.0398700013756752],[-0.24940000474452972,-0.09491000324487686,0.019039999693632126,-0.3413200080394745,-0.034609999507665634,0.3309299945831299,-0.25659000873565674,-0.07266999781131744,-0.24922999739646912,-0.3457399904727936,-0.37307998538017273,-0.20562000572681427,-0.37926000356674194,-0.16541999578475952,-0.1944199949502945,-0.24998000264167786,-0.25393998622894287],[-0.2277200073003769,-0.19899000227451324,0.3778899908065796,0.12475000321865082,0.335099995136261,-0.1060200035572052,-0.26657000184059143,0.1580899953842163,0.4107300043106079,0.24873000383377075,-0.08128000050783157,-0.06239999830722809,-0.3762800097465515,-0.025939999148249626,-0.362529993057251,-0.012509999796748161,-0.10446000099182129],[0.4499100148677826,-0.2688699960708618,0.4615499973297119,-0.00546000013127923,-0.11304999887943268,-0.35638999938964844,0.10768000036478043,0.2674899995326996,0.31953001022338867,-0.07601000368595123,0.02710000053048134,0.18477000296115875,0.4444099962711334,-0.3395799994468689,-0.18589000403881073,-0.2757500112056732,0.453029990196228],[-0.22235000133514404,-0.04242999851703644,-0.13322000205516815,-0.4103899896144867,0.009499999694526196,0.3713900148868561,-0.3693599998950958,0.1739799976348877,-0.05607999861240387,-0.028939999639987946,-0.3620699942111969,0.4108099937438965,-0.3939700126647949,0.15454000234603882,-0.35756000876426697,-0.26982998847961426,-0.23134000599384308],[-0.2740600109100342,-0.09863000363111496,-0.38659000396728516,0.32006001472473145,0.20833000540733337,0.12582999467849731,-0.2087700068950653,0.17734000086784363,0.32523998618125916,0.20827999711036682,0.2004700005054474,0.0743200033903122,0.4872500002384186,-0.03545999899506569,0.11559999734163284,-0.08828999847173691,-0.2791300117969513],[-0.2678000032901764,-0.34918999671936035,-0.1789499968290329,-0.30094999074935913,0.3509399890899658,0.12240000069141388,0.09311000257730484,-0.3319399952888489,0.020889999344944954,0.22168999910354614,0.20704999566078186,-0.16416999697685242,-0.1497800052165985,0.11331000179052353,-0.13471999764442444,-0.36726000905036926,0.21423999965190887],[-0.062049999833106995,-0.30869001150131226,-0.17726999521255493,0.43198999762535095,0.16664999723434448,-0.3602299988269806,0.08686000108718872,0.08739999681711197,0.183569997549057,0.42732998728752136,0.42142999172210693,0.38326001167297363,0.42337000370025635,-0.30410000681877136,0.24420000612735748,0.266510009765625,-0.2527100145816803],[0.3202199935913086,0.4249100089073181,0.30781999230384827,0.4691599905490875,0.4035800099372864,-0.10544999688863754,0.43946999311447144,0.11787000298500061,-0.2672800123691559,-0.008379999548196793,-0.16830000281333923,-0.13621999323368073,0.04123999923467636,0.39695000648498535,-0.15118999779224396,-0.0825200006365776,0.22166000306606293],[-0.2707900106906891,0.15189999341964722,0.3765000104904175,-0.14332999289035797,-0.18313999474048615,0.4154900014400482,-0.37485000491142273,0.38460999727249146,-0.318589985370636,-0.4732399880886078,0.15967999398708344,-0.10875999927520752,-0.29559001326560974,0.3628000020980835,-0.28435999155044556,0.10322999954223633,0.05631000176072121],[-0.060109999030828476,-0.01027000043541193,-0.022460000589489937,-0.36983999609947205,-0.3635199964046478,0.42838001251220703,-0.1552100032567978,-0.06623999774456024,0.13447000086307526,-0.3167800009250641,0.11168999969959259,-0.22259999811649323,-0.12875999510288239,-0.14681999385356903,-0.05655999854207039,-0.4726099967956543,-0.1436000019311905],[-0.199070006608963,-0.199630007147789,0.02250000089406967,0.0005300000193528831,0.4169999957084656,0.1866299957036972,-0.20499999821186066,0.381989985704422,0.18024000525474548,-0.15828999876976013,-0.006279999855905771,0.3727099895477295,-0.2930999994277954,-0.36511000990867615,-0.07694000005722046,-0.44282999634742737,0.12211000174283981],[0.28738999366760254,0.17934000492095947,0.273360013961792,-0.44016000628471375,0.3049499988555908,-0.0968799963593483,-0.3763900101184845,-0.11811999976634979,-0.2711600065231323,0.04822000116109848,-0.13617999851703644,0.1410599946975708,-0.36390000581741333,-0.10904999822378159,0.06334000080823898,0.1424199938774109,-0.153779998421669],[0.012690000236034393,0.24145999550819397,-0.20306000113487244,0.05059000104665756,0.2660900056362152,0.33166998624801636,-0.3780600130558014,0.004350000061094761,-0.3122999966144562,-0.00827999971807003,0.09476999938488007,0.13639000058174133,-0.38572999835014343,0.3134799897670746,-0.18437999486923218,-0.34237000346183777,-0.03485000133514404],[-0.37981998920440674,0.13149000704288483,-0.22206999361515045,-0.30963000655174255,-0.10287000238895416,0.14762000739574432,-0.03308999910950661,0.10259000211954117,0.02281999960541725,-0.44595998525619507,0.059579998254776,-0.007639999967068434,-0.20640000700950623,-0.14885999262332916,-0.10925000160932541,-0.439520001411438,-0.43035998940467834],[-0.14634999632835388,-0.2778699994087219,0.37654998898506165,0.34883999824523926,-0.23743000626564026,-0.18275000154972076,-0.045079998672008514,-0.1945900022983551,0.33768001198768616,0.4922899901866913,0.130280002951622,0.054659999907016754,-0.1940699964761734,-0.34310999512672424,-0.2537600100040436,0.1766200065612793,0.3171499967575073],[0.046799998730421066,0.1992100030183792,-0.016200000420212746,-0.32760998606681824,0.3355099856853485,-0.3950999975204468,-0.02240999974310398,0.006810000166296959,0.11964999884366989,0.41280999779701233,0.05510000139474869,0.23398999869823456,0.2337699979543686,-0.23197999596595764,-0.13468000292778015,-0.10334999859333038,-0.24146999418735504],[0.308789998292923,0.16588999330997467,0.29774001240730286,-0.006750000175088644,0.027130000293254852,0.18914000689983368,0.167820006608963,0.2518799901008606,0.14124000072479248,-0.24120000004768372,0.3677600026130676,0.12296999990940094,0.22012999653816223,0.44005000591278076,-0.3765200078487396,-0.17903000116348267,0.20024999976158142],[-0.32767999172210693,-0.39316999912261963,-0.15599000453948975,0.3274399936199188,0.4247699975967407,-0.12325000017881393,-0.30581000447273254,0.08437000215053558,-0.054669998586177826,0.2787800133228302,-0.022609999403357506,-0.41242000460624695,0.1264999955892563,0.2647700011730194,0.030939999967813492,-0.10176999866962433,0.1754000037908554],[-0.322050005197525,0.15389999747276306,0.35690000653266907,0.2076999992132187,-0.12095999717712402,0.0500200018286705,-0.01672999933362007,-0.041120000183582306,0.22845999896526337,0.43421998620033264,0.15067000687122345,-0.2865700125694275,0.30803999304771423,-0.11131999641656876,0.2577100098133087,0.3379899859428406,0.31905999779701233],[0.21035000681877136,0.08861999958753586,-0.17949000000953674,0.1190200001001358,0.06241999939084053,-0.11548999696969986,-0.10598000138998032,0.23212000727653503,0.030700000002980232,0.38802000880241394,0.4322800040245056,0.08670999854803085,0.24834999442100525,-0.22033999860286713,-0.3346799910068512,-0.02703999914228916,-0.1876000016927719],[0.31178000569343567,0.22258999943733215,0.32666000723838806,-0.2953299880027771,0.05130000039935112,0.2508400082588196,0.023560000583529472,-0.1774899959564209,-0.4642600119113922,-0.029850000515580177,0.06019999831914902,-0.3964099884033203,0.06605999916791916,0.1607999950647354,0.16947999596595764,-0.1500300019979477,-0.45021000504493713],[-0.3439500033855438,0.012649999931454659,0.40740999579429626,0.055629998445510864,-0.047919999808073044,-0.11423999816179276,0.42754000425338745,0.2164900004863739,0.32756999135017395,-0.3468700051307678,0.014619999565184116,0.1607699990272522,0.24521000683307648,0.3674199879169464,0.1505800038576126,0.03666999936103821,0.304610013961792],[-0.34349000453948975,-0.03917999938130379,-0.19011999666690826,-0.17723999917507172,-0.14762000739574432,0.02418000064790249,0.13447000086307526,-0.22821000218391418,-0.4843200147151947,-0.03412000089883804,-0.45416000485420227,-0.1168299987912178,0.13907000422477722,-0.19464999437332153,0.25029999017715454,-0.46428999304771423,-0.010289999656379223],[0.06447000056505203,-0.00674000009894371,0.4371100068092346,0.13130000233650208,0.029239999130368233,-0.32350999116897583,0.04874999821186066,-0.16077999770641327,0.4641200006008148,-0.09820999950170517,0.3090899884700775,-0.0213600005954504,0.1749899983406067,0.38405001163482666,-0.1434900015592575,0.12500999867916107,0.08348999917507172]],"b":[0.08472000062465668,0.07102999836206436,-0.006779999937862158,0.048409998416900635,0.06810999661684036,0.060419999063014984,0.04605000093579292,0.0933699980378151,0.047690000385046005,0.09053000062704086,0.09074000269174576,0.06218999996781349,0.04363999888300896,0.04465999826788902,-0.019449999555945396,0.04878000169992447,0.04842999950051308,0.09860000014305115,0.10312999784946442,-0.025849999859929085,0.10053999722003937,0.05218999832868576,0.02978000044822693,0.04761999845504761,0.09594999998807907,0.08188000321388245,0.05113999918103218,-0.0400100015103817,0.08085999637842178,0.07061000168323517,0.06342999637126923,0.03294999897480011,0.07343000173568726,0.08660999685525894,-0.044829998165369034,0.04842999950051308,0.07910999655723572,0.0767500028014183,0.021980000659823418,0.06437999755144119,0.08060000091791153,-0.01621999964118004,0.06970000267028809,0.06367000192403793,0.10458999872207642,-0.010619999840855598,0.012719999998807907,0.061230000108480453,0.044429998844861984,0.033580001443624496,0.0552700012922287,-0.002420000033453107,-0.019740000367164612,0.07496000081300735,0.0885699987411499,0.0656299963593483,0.07440999895334244,0.0320499986410141,0.08711999654769897,0.01006999984383583,0.0560699999332428,0.09378000348806381,0.08026999980211258,0.09561999887228012],"act":"silu","in":17,"out":64},{"w":[[0.07688000053167343,0.2389799952507019,-0.04936999827623367,-0.16076000034809113,0.1980700045824051,0.0001900000061141327,-0.05364999920129776,0.15191000699996948,0.027790000662207603,0.07847999781370163,-0.0019399999873712659,-0.1509999930858612,0.01307000033557415,0.07152999937534332,0.0195700004696846,-0.269569993019104,0.09640999883413315,0.13992999494075775,-0.17276999354362488,0.21119999885559082,0.13902999460697174,-0.17696000635623932,0.023800000548362732,-0.025289999321103096,-0.13553999364376068,0.02092999964952469,0.06247999891638756,-0.024979999288916588,-0.05545999854803085,-0.003930000122636557,0.15173999965190887,-0.2228499948978424,-0.0348999984562397,-0.08525999635457993,0.07593999803066254,0.01947999931871891,-0.05903000012040138,0.05902000144124031,0.10698000341653824,0.03109000064432621,-0.022390000522136688,-0.026809999719262123,0.1565299928188324,-0.10911999642848969,0.11178000271320343,-0.08019000291824341,-0.11315999925136566,-0.16056999564170837,0.1691499948501587,0.15805000066757202,0.1564899981021881,0.10349000245332718,-0.0246799997985363,0.18374000489711761,-0.23420000076293945,0.04975000023841858,-0.20645999908447266,0.15248000621795654,-0.10879000276327133,-0.010320000350475311,0.12533999979496002,-0.047439999878406525,0.1343899965286255,-0.22447000443935394],[0.1914599984884262,0.14650000631809235,0.20577000081539154,-0.2011599987745285,0.18459999561309814,0.19318999350070953,0.23345999419689178,0.05510000139474869,-0.043480001389980316,0.20413999259471893,0.05552000179886818,0.17949999868869781,0.15029999613761902,0.13381999731063843,-0.006969999987632036,-0.16276000440120697,-0.12870000302791595,0.08906999975442886,0.003800000064074993,0.12681999802589417,0.04935000091791153,-0.19867999851703644,0.013000000268220901,0.22947999835014343,0.063960000872612,0.08158999681472778,-0.15834000706672668,0.11281999945640564,-0.20446999371051788,-0.147599995136261,0.07709000259637833,-0.15875999629497528,0.2604700028896332,0.14879000186920166,-0.0501599982380867,-0.19850000739097595,0.18015000224113464,-0.13104000687599182,0.1308099925518036,0.21823999285697937,0.061330001801252365,-0.17315000295639038,0.049229998141527176,-0.005799999926239252,0.12890000641345978,-0.06154999881982803,-0.1254200041294098,0.15859000384807587,0.23237000405788422,0.19623999297618866,0.02305999957025051,-0.027370000258088112,-0.1077599972486496,0.13589000701904297,0.13270999491214752,0.08242999762296677,-0.05615000054240227,-0.057429999113082886,-0.1221499964594841,0.1348000019788742,0.057750001549720764,0.056040000170469284,0.16755999624729156,-0.24208000302314758],[0.24751999974250793,0.2681500017642975,0.24432000517845154,0.1036899983882904,-0.006049999967217445,-0.015410000458359718,0.07485000044107437,0.052560001611709595,-0.049970000982284546,-0.08993999660015106,0.2163500040769577,0.1472799926996231,-0.19812999665737152,0.2574999928474426,0.0035000001080334187,0.06554000079631805,0.2648400068283081,0.1452600061893463,-0.1712699979543686,0.005900000222027302,0.006490000057965517,-0.1856199949979782,0.07923000305891037,0.2660999894142151,-0.07868000119924545,0.055730000138282776,0.13515999913215637,0.14169000089168549,0.11994999647140503,0.28883999586105347,0.064970001578331,-0.10267999768257141,0.24426999688148499,0.11448000371456146,-0.08309999853372574,-0.16322000324726105,0.19752000272274017,0.280349999666214,-0.16019000113010406,-0.021539999172091484,-0.04309999942779541,0.1717199981212616,-0.15272000432014465,0.04230999946594238,0.02782999910414219,0.11260999739170074,-0.1982100009918213,-0.0724399983882904,-0.03824000060558319,-0.12928999960422516,0.23905999958515167,0.15014000236988068,-0.12842999398708344,-0.055560000240802765,-0.03508000075817108,-0.08630000054836273,-0.24316999316215515,0.03849000111222267,-0.19997000694274902,0.0821399986743927,0.06821999698877335,-0.014340000227093697,0.14519000053405762,-0.07282000035047531],[0.2567799985408783,0.15429000556468964,-0.1442600041627884,0.040380001068115234,-0.013930000364780426,0.01413000002503395,-0.12184000015258789,0.1402900069952011,0.11756999790668488,-0.13415999710559845,0.0014900000533089042,-0.1083500012755394,-0.22497999668121338,0.0502999983727932,0.02459000051021576,-0.12318000197410583,0.09057000279426575,-0.013829999603331089,-0.006459999829530716,0.24017000198364258,0.02216999977827072,0.13179999589920044,-0.10345999896526337,0.0704599991440773,-0.09538999944925308,-0.23886999487876892,0.16374999284744263,0.10640999674797058,-0.08873999863862991,0.14657999575138092,0.09166000038385391,-0.06746000051498413,0.12557999789714813,0.2258799970149994,-0.033080000430345535,0.12473999708890915,0.2073799967765808,0.06956999748945236,0.23837999999523163,0.2339800000190735,0.11530999839305878,-0.09420999884605408,-0.038270000368356705,-0.02962999977171421,-0.2137400060892105,0.0625699982047081,0.016519999131560326,-0.02905000001192093,0.025350000709295273,-0.014290000312030315,0.1645199954509735,0.0986500009894371,0.03982999920845032,0.18460999429225922,-0.1714099943637848,0.06661999970674515,0.1450899988412857,0.044199999421834946,-0.2116599977016449,-0.1741500049829483,0.012910000048577785,0.17059999704360962,0.095490001142025,-0.21143999695777893],[-0.06109999865293503,-0.23733000457286835,0.07382000237703323,-0.07569999992847443,0.16635000705718994,-0.2113499939441681,0.12908999621868134,0.2500300109386444,-0.03590000048279762,-0.16917000710964203,0.16267000138759613,0.09489999711513519,-0.008030000142753124,-0.19958999752998352,-0.00887999963015318,0.2430800050497055,-0.14271999895572662,0.1105400025844574,0.002219999907538295,0.18000000715255737,-0.02116999961435795,-0.06614000350236893,-0.04780000075697899,0.13364000618457794,-0.12643000483512878,0.011509999632835388,0.0529399998486042,0.0709099993109703,-0.08093000203371048,0.14720000326633453,-0.05886999890208244,-0.12919999659061432,-0.06452000141143799,0.06764999777078629,-0.14474999904632568,0.20683999359607697,0.016249999403953552,-0.19913999736309052,0.09804999828338623,-0.16448000073432922,0.06755000352859497,0.16731999814510345,0.2709299921989441,-0.22782999277114868,-0.14747999608516693,0.11399000138044357,0.06356000155210495,0.008460000157356262,0.10670000314712524,-0.04458000138401985,0.015629999339580536,0.14518000185489655,0.005119999870657921,0.14610999822616577,0.2057500034570694,-0.1320900022983551,-0.07281000167131424,0.12947000563144684,0.25394999980926514,-0.06644000113010406,-0.15153999626636505,-0.0471699982881546,-0.10242000222206116,0.1083500012755394],[0.06532000005245209,-0.12894999980926514,-0.08861000090837479,-0.12477000057697296,0.2733300030231476,0.24066999554634094,-0.05741000175476074,0.06829000264406204,-0.11307000368833542,0.014650000259280205,0.15388000011444092,-0.002859999891370535,-0.09967999905347824,0.2364799976348877,-0.05691000074148178,0.12126000225543976,0.2555299997329712,0.048889998346567154,0.006200000178068876,-0.12415999919176102,-0.03297000005841255,-0.20255999267101288,0.10712999850511551,-0.060910001397132874,-0.11614999920129776,-0.23788000643253326,0.06539999693632126,-0.1485700011253357,-0.03967000171542168,0.2249400019645691,0.005100000184029341,0.08580999821424484,0.010359999723732471,0.10640999674797058,-0.07377000153064728,-0.0702499970793724,-0.13545000553131104,0.08691000193357468,0.11040999740362167,-0.015320000238716602,-0.11457999795675278,0.08950000256299973,0.1147100031375885,-0.04583999887108803,-0.10248000174760818,0.014750000089406967,-0.12154000252485275,-0.07453999668359756,0.02873999997973442,0.24150000512599945,-0.11017999798059464,0.12580999732017517,0.2011300027370453,0.07912000268697739,0.13314999639987946,0.040539998561143875,-0.1512800008058548,0.18783999979496002,0.06058000028133392,-0.11050999909639359,-0.10469000041484833,0.10220000147819519,-0.10807999968528748,-0.1847500056028366],[0.2579900026321411,0.17156000435352325,-0.0011099999537691474,0.06931000202894211,0.22397999465465546,0.03819999843835831,0.05758000165224075,0.10332000255584717,-0.1334500014781952,0.15631000697612762,0.08676999807357788,0.10871999710798264,-0.14285999536514282,0.020179999992251396,-0.00674000009894371,-0.10649000108242035,-0.05706999823451042,-0.07597000151872635,-0.023169999942183495,0.26504001021385193,-0.03993000090122223,-0.0485600009560585,-0.00506999995559454,0.16389000415802002,-0.15725000202655792,-0.0676800012588501,0.17264999449253082,0.05355000123381615,-0.24026000499725342,-0.08756999671459198,0.09391000121831894,-0.15881000459194183,0.19356000423431396,0.06739000231027603,0.11354000121355057,-0.1275400072336197,-0.0516900010406971,0.14966000616550446,-0.07543999701738358,0.12228000164031982,0.048179998993873596,-0.14404000341892242,-0.2145799994468689,-0.08264999836683273,0.028850000351667404,-0.10151000320911407,0.011850000359117985,0.1441899985074997,-0.02597000077366829,-0.1287200003862381,0.2571600079536438,0.0625699982047081,0.25461000204086304,-0.07321999967098236,-0.030649999156594276,-0.2410999983549118,0.1400900036096573,0.21971000730991364,-0.025270000100135803,-0.275409996509552,-0.0369499996304512,-0.1726199984550476,0.07150000333786011,0.13086000084877014],[-0.06858000159263611,-0.06791999936103821,0.1477700024843216,-0.10600999742746353,-0.09651000052690506,-0.03748999908566475,-0.1252100020647049,-0.03409000113606453,-0.09125000238418579,0.09210000187158585,0.22506999969482422,0.03525000065565109,-0.03513000160455704,0.13391000032424927,0.2348400056362152,-0.24150000512599945,0.27445000410079956,-0.12342000007629395,-0.1389700025320053,-0.0551300011575222,-0.11687000095844269,-0.25185999274253845,0.041030000895261765,-0.07020000368356705,0.11313000321388245,-0.2687300145626068,0.1310800015926361,0.04769999906420708,0.15665000677108765,0.15703999996185303,0.19152000546455383,0.03669000044465065,-0.03646999970078468,0.11503999680280685,0.16255000233650208,-0.002570000011473894,0.03400000184774399,0.04095999896526337,0.0016400000313296914,0.24431000649929047,-0.0067900000140070915,0.13625000417232513,-0.14202000200748444,0.24456000328063965,-0.2210800051689148,-0.016370000317692757,-0.17490999400615692,-0.06641999632120132,0.094200000166893,-0.10326000303030014,0.1404000073671341,-0.09296999871730804,-0.09369999915361404,0.19968000054359436,0.05823000147938728,-0.08179999887943268,0.13514000177383423,0.15594999492168427,0.05412999913096428,-0.268449991941452,0.2801699936389923,-0.09324999898672104,-0.020989999175071716,-0.13423000276088715],[0.2779400050640106,0.1701200008392334,0.09831000119447708,-0.09663999825716019,0.05051000043749809,0.07874000072479248,0.15121999382972717,-0.12654000520706177,0.03962000086903572,0.017720000818371773,0.16923999786376953,0.16224999725818634,-0.18166999518871307,0.025350000709295273,0.27024000883102417,-0.22844000160694122,0.2726599872112274,0.17656999826431274,-0.16906000673770905,-0.04425999894738197,-0.18581999838352203,0.0019600000232458115,0.21743999421596527,0.09260000288486481,-0.08516000211238861,-0.16655999422073364,0.1501699984073639,-0.14256000518798828,0.10846000164747238,-0.14715999364852905,-0.0010499999625608325,-0.057920001447200775,0.1769700050354004,0.21049000322818756,-0.014229999855160713,-0.15497000515460968,0.17076000571250916,0.09380999952554703,0.1499900072813034,0.07863999903202057,-0.08907999843358994,-0.12088000029325485,-0.027499999850988388,0.25529998540878296,-0.04430000111460686,0.04134000092744827,-0.05773000046610832,0.014159999787807465,-0.13681000471115112,0.16596999764442444,-0.0667399987578392,-0.12862999737262726,0.1439400017261505,-0.11760000139474869,0.01322999969124794,0.11089999973773956,-0.050599999725818634,0.024949999526143074,-0.18685999512672424,0.05319000035524368,-0.0677499994635582,0.15680000185966492,0.1683499962091446,-0.050370000302791595],[-0.1157900020480156,0.06752999871969223,0.08776000142097473,-0.11230000108480453,-0.21003000438213348,-0.1316400021314621,0.0036800000816583633,0.11072000116109848,-0.15699000656604767,0.1573600023984909,-0.054579999297857285,0.2348400056362152,0.2822200059890747,-0.12699000537395477,-0.04935000091791153,0.05874999985098839,0.08287999778985977,0.002409999957308173,0.08258000016212463,-0.146029993891716,0.18695999681949615,-0.01063000038266182,-0.0005200000014156103,-0.04616999998688698,0.29361000657081604,0.21149000525474548,0.1151999980211258,0.03197000175714493,0.22439999878406525,-0.015560000203549862,0.08044999837875366,0.2897599935531616,-0.17842000722885132,-0.20107999444007874,-0.020190000534057617,0.10296999663114548,-0.18669000267982483,-0.08764000236988068,0.10457000136375427,-0.16132999956607819,-0.058010000735521317,-0.15386000275611877,0.24617999792099,0.1049799993634224,0.1977500021457672,-0.04667000100016594,-0.02604999952018261,0.04974000155925751,-0.26006001234054565,0.02889000065624714,0.041680000722408295,0.028379999101161957,-0.09324999898672104,-0.16023999452590942,0.16492000222206116,0.23669999837875366,-0.07587999850511551,-0.16152000427246094,0.12904000282287598,-0.026319999247789383,-0.11332999914884567,-0.09042000025510788,-0.22994999587535858,0.2404700070619583],[0.21979999542236328,0.2621699869632721,-0.11400999873876572,-0.15162000060081482,-0.12430000305175781,0.19494999945163727,-0.00267999991774559,-0.2632800042629242,-0.18538999557495117,0.18459999561309814,0.08195000141859055,-0.19997000694274902,-0.15522000193595886,0.2799000144004822,0.22351999580860138,-0.15246999263763428,0.19137999415397644,-0.1118599995970726,0.04495000094175339,-0.01271000038832426,-0.09848999977111816,0.008460000157356262,0.27785998582839966,0.03581000119447708,-0.2694700062274933,-0.253930002450943,0.10531999915838242,0.0960099995136261,0.15294000506401062,-0.1130099967122078,-0.13593000173568726,-0.10045000165700912,0.11240000277757645,-0.008379999548196793,0.019449999555945396,0.1377899944782257,0.22769999504089355,-0.06685999780893326,0.18898999691009521,0.0677499994635582,0.15810999274253845,-0.011579999700188637,-0.15017999708652496,0.146479994058609,-0.19619999825954437,-0.07321999967098236,-0.217289999127388,0.16321000456809998,0.05587000027298927,0.20640000700950623,0.2682200074195862,0.03223999962210655,-0.0916299968957901,-0.060440000146627426,-0.20995000004768372,0.177839994430542,0.10610000044107437,0.02175999991595745,0.14232000708580017,0.12001000344753265,0.03051000088453293,-0.02377999946475029,0.06086000055074692,0.04631999880075455],[0.05014000087976456,-0.04766999930143356,0.2320300042629242,0.07727999985218048,0.04667999967932701,-0.03954000025987625,0.24318000674247742,0.06808000057935715,0.23763999342918396,0.17038999497890472,0.17757999897003174,-0.20172999799251556,0.08524999767541885,0.025469999760389328,-0.031530000269412994,0.14476999640464783,0.05511000007390976,-0.22795000672340393,-0.02223999984562397,-0.03742000088095665,-0.03660000115633011,-0.11231999844312668,0.07018999755382538,-0.04019999876618385,-0.1697700023651123,0.04984999820590019,0.24331000447273254,0.09743999689817429,0.1595900058746338,0.029370000585913658,-0.022379999980330467,-0.03967000171542168,-0.0075599998235702515,0.014870000071823597,0.019999999552965164,-0.16426999866962433,-0.08466999977827072,0.08377999812364578,-0.0016400000313296914,0.17825999855995178,0.11954999715089798,-0.058400001376867294,0.05310000106692314,0.0560699999332428,-0.17484000325202942,0.17591999471187592,-0.002940000034868717,-0.061250001192092896,0.14440999925136566,-0.08942999690771103,0.05164000019431114,-0.10053999722003937,0.011359999887645245,0.03317999839782715,-0.181209996342659,-0.02790999971330166,-0.029410000890493393,-0.02928999997675419,-0.1667499989271164,0.1289999932050705,-0.10203000158071518,-0.012629999779164791,0.1570100039243698,-0.21053999662399292],[0.13262000679969788,-0.07765000313520432,0.00394000019878149,-0.08371999859809875,0.1930599957704544,0.17925000190734863,0.14138999581336975,-0.09702000021934509,-0.019519999623298645,0.061330001801252365,-0.01940999925136566,0.008030000142753124,0.14799000322818756,-0.06536000221967697,-0.15002000331878662,-0.05883999913930893,0.033640000969171524,-0.02556000091135502,-0.062780000269413,-0.12359999865293503,-0.021700000390410423,-0.14896999299526215,0.10238000005483627,0.24139000475406647,-0.020099999383091927,0.07880000025033951,0.146589994430542,0.04828000068664551,-0.07445000112056732,-0.07085999846458435,-0.10221999883651733,-0.2732999920845032,0.1103300005197525,0.1716099977493286,0.2017199993133545,0.15756000578403473,0.11535999923944473,0.2530499994754791,0.11130999773740768,-0.06379000097513199,0.06836999952793121,0.16348999738693237,-0.012450000271201134,-0.13465000689029694,-0.15956999361515045,-0.034370001405477524,-0.07231999933719635,-0.1434600055217743,-0.06763999909162521,-0.10346999764442444,-0.06429000198841095,-0.008440000005066395,-0.04571999981999397,0.15741999447345734,-0.17640000581741333,-0.20081999897956848,0.010049999691545963,0.2017900049686432,-0.04142000153660774,-0.07508999854326248,-0.006320000160485506,-0.19287000596523285,0.01607999950647354,-0.1123099997639656],[-0.01155999954789877,-0.13097000122070312,-0.11900000274181366,0.06684000045061111,-0.24613000452518463,0.12477000057697296,-0.035190001130104065,-0.00749000022187829,0.24044999480247498,0.15056000649929047,-0.01964999921619892,0.04641000181436539,0.08842000365257263,-0.22603000700473785,-0.295740008354187,0.15192000567913055,-0.12723000347614288,0.19891999661922455,0.2885900139808655,-0.08946999907493591,0.23263999819755554,0.0070500001311302185,-0.167480006814003,0.02508999966084957,0.17566999793052673,-0.07474999874830246,-0.10918000340461731,-0.20237000286579132,0.15443000197410583,-0.03034999966621399,0.12094999849796295,0.24221999943256378,0.11952999979257584,-0.14146000146865845,-0.032430000603199005,-0.028039999306201935,-0.16232000291347504,-0.1615999937057495,-0.1521800011396408,0.020959999412298203,-0.25400999188423157,-0.06897000223398209,0.2697399854660034,-0.16367000341415405,0.19005000591278076,0.0024900001008063555,0.08414000272750854,0.08372999727725983,-0.1838199943304062,-0.09436000138521194,-0.04100000113248825,-0.10722000151872635,-0.19057999551296234,-0.2843799889087677,0.03172000125050545,0.013249999843537807,-0.010780000127851963,-0.05593999847769737,0.0071299998089671135,0.2607499957084656,-0.01819000020623207,0.1424199938774109,-0.3060399889945984,0.048259999603033066],[0.06160999834537506,-0.03734999895095825,0.1519699990749359,0.05429000034928322,-0.11257000267505646,-0.2408899962902069,-0.09683000296354294,-0.06377000361680984,0.1973399966955185,-0.10809999704360962,0.11789000034332275,-0.11723999679088593,-0.11243999749422073,-0.04430000111460686,-0.1367799937725067,0.17855000495910645,0.15394000709056854,-0.08660999685525894,0.22277000546455383,-0.12987999618053436,-0.053050000220537186,0.017079999670386314,-0.14872999489307404,-0.2665199935436249,0.12520000338554382,-0.02029000036418438,0.18623000383377075,0.06342999637126923,-0.06193999946117401,0.16402000188827515,-0.04659000039100647,0.01606000028550625,0.16749000549316406,-0.1335899978876114,0.002300000051036477,-0.00482999999076128,-0.11186999827623367,-0.2651500105857849,-0.08291000127792358,0.11685000360012054,-0.13905000686645508,-0.11011999845504761,-0.07788000255823135,0.15748000144958496,0.22944000363349915,-0.03799999877810478,0.18035000562667847,0.20997999608516693,-0.01119999960064888,-0.1988999992609024,-0.20190000534057617,0.019130000844597816,0.14616000652313232,0.0429299995303154,-0.014940000139176846,0.2549999952316284,0.19323000311851501,-0.1363299936056137,0.07683999836444855,-0.03750000149011612,-0.18848000466823578,0.20047999918460846,-0.011680000461637974,0.11392000317573547],[-0.15866999328136444,-0.24672000110149384,-0.030169999226927757,0.2249000072479248,-0.1947699934244156,0.04743000119924545,0.10044000297784805,0.08553999662399292,0.0911799967288971,-0.020649999380111694,0.04284999892115593,-0.1395300030708313,-0.060679998248815536,0.03880000114440918,-0.11067000031471252,0.2831000089645386,-0.06897000223398209,0.30063000321388245,0.14465999603271484,0.02810000069439411,0.29403001070022583,0.0028299998957663774,-0.1578499972820282,-0.2322400063276291,0.16989000141620636,0.007699999958276749,-0.07122000306844711,-0.01448999997228384,0.120619997382164,-0.05559999868273735,0.13204999268054962,-0.10843999683856964,-0.22678999602794647,0.05931000038981438,-0.1496800035238266,0.049880001693964005,0.015990000218153,0.08769000321626663,0.06938999891281128,-0.09901999682188034,0.020800000056624413,0.004360000137239695,0.2784000039100647,-0.15160000324249268,0.25850000977516174,-0.06615000218153,0.007449999917298555,0.1565600037574768,-0.14762000739574432,-0.13815000653266907,0.018160000443458557,-0.05660000070929527,-0.056370001286268234,-0.1282999962568283,0.01561999972909689,-0.005929999984800816,4.999999873689376e-05,-0.14117999374866486,0.2916800081729889,0.0771699994802475,0.03674999997019768,0.24270999431610107,0.06114000082015991,0.2576200067996979],[-0.07054000347852707,0.11849000304937363,0.022929999977350235,0.024890000000596046,-0.0022100000642240047,-0.05925999954342842,0.05031000077724457,0.28957000374794006,0.18919000029563904,0.16279999911785126,0.10789000242948532,0.26664999127388,0.07350999861955643,0.0264699999243021,0.00773000018671155,-0.029969999566674232,-0.22529000043869019,-0.09957999736070633,0.03830999881029129,0.1648399978876114,0.2935599982738495,0.04769999906420708,-0.018629999831318855,-0.28633999824523926,0.249099999666214,-0.02111000008881092,-0.09329000115394592,-0.0973299965262413,0.22150999307632446,-0.24010999500751495,-0.19840000569820404,0.20428000390529633,0.14624999463558197,0.003389999968931079,-0.245619997382164,0.193790003657341,-0.10812000185251236,0.05403999984264374,-0.26495999097824097,-0.18132999539375305,-0.25788000226020813,0.17298999428749084,-0.09091000258922577,0.12053000181913376,-0.11326000094413757,-0.1948699951171875,0.09967000037431717,0.1954900026321411,-0.13952000439167023,-0.09447000175714493,0.07882999628782272,-0.21333999931812286,0.009639999829232693,0.1328900009393692,-0.0069599999114871025,0.20087000727653503,-0.11336000263690948,-0.1141199991106987,0.22623999416828156,-0.07722999900579453,-0.22325000166893005,0.10769999772310257,0.1018500030040741,0.14515000581741333],[-0.035009998828172684,-0.04774999991059303,0.2667500078678131,0.149399995803833,0.18140000104904175,0.23931999504566193,0.14669999480247498,-0.2849400043487549,-0.021330000832676888,-0.2004999965429306,0.1400199979543686,-0.06250999867916107,0.009060000069439411,-0.0037400000728666782,-0.04950999841094017,-0.10786999762058258,-0.023159999400377274,0.09832999855279922,-0.06318999826908112,-0.17621999979019165,-0.0995199978351593,-0.21328000724315643,0.0016199999954551458,0.16638000309467316,-0.14595000445842743,-0.2551000118255615,0.12263000011444092,0.013790000230073929,-0.03533000126481056,0.03181000053882599,0.17135000228881836,-0.12285999953746796,-0.09934999793767929,0.03390999883413315,-0.20444999635219574,-0.21815000474452972,0.02249000035226345,-0.10708999633789062,0.13420000672340393,0.23609000444412231,0.21945999562740326,-0.1581999957561493,0.12570999562740326,0.06931000202894211,-0.19630999863147736,-0.1478399932384491,-0.25453001260757446,0.1353899985551834,0.1926099956035614,-0.03553000092506409,0.19461999833583832,0.12178000062704086,0.2095700055360794,-0.06577999889850616,0.007720000110566616,0.19557000696659088,-0.19458000361919403,0.15692999958992004,-0.006440000142902136,0.09629999846220016,0.3030500113964081,-0.2136400043964386,0.0007300000288523734,0.03658000007271767],[-0.16102999448776245,-0.258109986782074,0.15665000677108765,0.08027999848127365,-0.07829000055789948,-0.014519999735057354,0.08900000154972076,0.09014999866485596,0.03178999945521355,0.16689999401569366,0.060440000146627426,0.1974399983882904,-0.11584000289440155,0.11297000199556351,0.02630000002682209,0.2008499950170517,0.1369599997997284,0.22902999818325043,0.151419997215271,0.03765999898314476,0.2708500027656555,0.27167001366615295,-0.0392800010740757,0.0765099972486496,0.2667500078678131,-0.05609000101685524,0.07485000044107437,-0.0711899995803833,0.2769800126552582,-0.14555999636650085,-0.07434999942779541,0.13288000226020813,0.16067999601364136,0.12857000529766083,-0.13131000101566315,-0.10860999673604965,-0.05934000015258789,-0.14959999918937683,-0.15197999775409698,-0.06407000124454498,-0.00558000011369586,0.02515999972820282,0.23326000571250916,-0.0723000019788742,0.08226999640464783,-0.13544000685214996,0.2678599953651428,-0.11173000186681747,-0.1429000049829483,-0.24226999282836914,0.01940000057220459,-0.26342999935150146,0.06443999707698822,-0.009519999846816063,0.25314998626708984,0.2155199944972992,-0.029920000582933426,0.06106000021100044,0.27639999985694885,-0.12657999992370605,0.028030000627040863,0.1429000049829483,-0.12857000529766083,0.2580299973487854],[-0.12571999430656433,-0.0031300000846385956,-0.1563899964094162,-0.051089998334646225,-0.08707000315189362,-0.12143000215291977,0.23085999488830566,-0.09154000133275986,0.11691000312566757,-0.14757999777793884,0.1282700002193451,0.021229999139904976,-0.09916000068187714,-0.1366100013256073,0.09176000207662582,-0.05908000096678734,0.13521000742912292,-0.016049999743700027,0.08748999983072281,-0.07208000123500824,-0.24525000154972076,-0.011909999884665012,0.047210000455379486,0.02655000053346157,0.14753000438213348,-0.15765999257564545,-0.14128999412059784,-0.16745999455451965,-0.2527799904346466,0.08686999976634979,0.18129999935626984,0.015540000051259995,0.15379999577999115,0.09042000025510788,-0.17181000113487244,-0.17735999822616577,0.25951001048088074,0.12509000301361084,-0.1509999930858612,-0.09549999982118607,0.1956299990415573,-0.17486000061035156,0.11477000266313553,0.03711999952793121,-0.2047799974679947,0.1130099967122078,0.1355299949645996,0.10496000200510025,0.08536999672651291,0.08297000080347061,-0.08934000134468079,0.11191999912261963,0.14351999759674072,-0.0595100000500679,-0.20417000353336334,0.07028000056743622,-0.030319999903440475,-0.023000000044703484,0.12348999828100204,-0.16453999280929565,-0.009139999747276306,-0.047600001096725464,0.07451000064611435,0.12249000370502472],[-0.09945999830961227,0.044860001653432846,0.1823199987411499,0.11505000293254852,0.2219800055027008,0.1459600031375885,0.022260000929236412,-0.06395000219345093,0.07196000218391418,-0.08990000188350677,-0.15575000643730164,0.0885000005364418,0.06897000223398209,0.25696998834609985,-0.1642799973487854,-0.13559000194072723,-0.10486999899148941,0.05697000026702881,-0.17053000628948212,-0.15121999382972717,-0.1383499950170517,0.05708000063896179,0.06581000238656998,-0.05519000068306923,-0.026909999549388885,0.028459999710321426,0.01042999979108572,0.08987999707460403,-0.1991499960422516,0.2565799951553345,0.2503100037574768,-0.23375999927520752,0.16800999641418457,-0.12847000360488892,-0.21410000324249268,-0.033959999680519104,0.15836000442504883,-0.06128000095486641,-0.12950000166893005,-0.11473000049591064,0.21525999903678894,-0.001509999972768128,-0.09018000215291977,-0.12009000033140182,0.07435999810695648,-0.06691999733448029,-0.1965000033378601,-0.1537099927663803,-0.12099000066518784,0.2347400039434433,-0.14007000625133514,0.1320600062608719,0.16212999820709229,-0.15351000428199768,0.07378000020980835,-0.19214999675750732,0.047529999166727066,0.05758000165224075,0.055410001426935196,0.03584999963641167,0.20608000457286835,0.032499998807907104,0.033319998532533646,0.03584999963641167],[-0.08759000152349472,0.2355699986219406,0.18038000166416168,-0.03579999879002571,0.20954999327659607,0.03333999961614609,0.26155999302864075,-0.12093000113964081,-0.041179999709129333,-0.08669000118970871,-0.1852400004863739,-0.11580999940633774,-0.1137700006365776,-0.032519999891519547,-0.14170999825000763,-0.09230999648571014,0.147599995136261,-0.17363999783992767,-0.06665000319480896,-0.14007000625133514,0.1253100037574768,-0.11778999865055084,0.2391200065612793,0.14673000574111938,-0.20723000168800354,-0.06321000307798386,0.05936000123620033,-0.1439400017261505,-0.22213999927043915,0.03602999821305275,0.0038999998942017555,-0.09322000294923782,0.24668000638484955,0.08421999961137772,-0.13956999778747559,-0.03149000182747841,0.2664799988269806,0.11931999772787094,-0.12928999960422516,-0.12942999601364136,0.1105400025844574,0.11413999646902084,0.05694999918341637,0.07541999965906143,0.1530900001525879,0.23836000263690948,0.09974999725818634,0.04295999929308891,0.10491999983787537,0.09493999928236008,0.149959996342659,-0.09254000335931778,-0.04407000169157982,-0.10217999666929245,-0.21638000011444092,-0.21070000529289246,0.11416999995708466,-0.04733999818563461,-0.2310899943113327,-0.1272200047969818,-0.048739999532699585,0.13878999650478363,0.018650000914931297,-0.23106999695301056],[-0.054979998618364334,-0.08962000161409378,-0.11964000016450882,0.19972999393939972,0.05844999849796295,-0.2492000013589859,0.010529999621212482,0.1245800033211708,-0.10452000051736832,0.21981999278068542,-0.009999999776482582,-0.007029999978840351,-0.01575000025331974,0.04828999936580658,-0.050540000200271606,-0.09210000187158585,-0.08547999709844589,0.2830600142478943,-0.0008900000248104334,-0.2536500096321106,-0.003659999929368496,0.08137000352144241,-0.27720001339912415,-0.04766999930143356,0.30212000012397766,0.14846999943256378,0.14334000647068024,0.05482000112533569,-0.01133000012487173,0.011710000224411488,0.015189999714493752,0.18609000742435455,0.13414999842643738,-0.055470000952482224,0.054659999907016754,-0.018389999866485596,-0.19177000224590302,-0.13447999954223633,-0.10137999802827835,-0.06185999885201454,-0.08000999689102173,0.1966799944639206,-0.1242000013589859,0.04992000013589859,0.04799000173807144,0.10204999893903732,0.010730000212788582,0.1749899983406067,-0.11661999672651291,-0.25407999753952026,-0.16628000140190125,-0.14916999638080597,-0.11381000280380249,-0.26771000027656555,-0.09978000074625015,0.28523001074790955,0.04713999852538109,0.05034000054001808,0.22168999910354614,-0.02865999937057495,-0.10260000079870224,0.1633100062608719,0.15094000101089478,0.1342500001192093],[-0.10012000054121017,0.1567399948835373,-0.018479999154806137,-0.10751999914646149,-0.11868999898433685,-0.11326000094413757,0.10055000334978104,-0.14228999614715576,0.09545999765396118,-0.12723000347614288,0.1297599971294403,0.07220999896526337,0.0003100000030826777,0.19824999570846558,-0.14128999412059784,0.13816000521183014,0.12011999636888504,-0.22011999785900116,-0.022199999541044235,-0.17032000422477722,0.07927999645471573,0.0675399973988533,-0.13293999433517456,0.05500999838113785,-0.2513900101184845,0.14448000490665436,0.10216999799013138,0.0368800014257431,0.15415999293327332,0.12052000313997269,-0.043469998985528946,0.12640999257564545,-0.14794999361038208,-0.041850000619888306,-0.08845999836921692,0.036570001393556595,0.19292999804019928,0.28551000356674194,-0.06474000215530396,0.0753600001335144,-0.06817000359296799,-0.1320199966430664,-0.02402999997138977,-0.09617000073194504,-0.10441000014543533,0.055560000240802765,-0.1024399995803833,-0.23944999277591705,0.13898000121116638,0.2482299953699112,0.14806999266147614,-0.07502999901771545,0.13165000081062317,-0.08026000112295151,-0.22325000166893005,0.14402000606060028,0.026319999247789383,0.04795999825000763,0.08691000193357468,-0.006659999955445528,0.0021800000686198473,0.10197000205516815,0.24690000712871552,-0.17985999584197998],[0.06746000051498413,0.14891000092029572,-0.08005999773740768,-0.2144699990749359,0.10661999881267548,0.1365399956703186,0.21778999269008636,0.02247999981045723,0.021730000153183937,-0.08555000275373459,0.04255000129342079,-9.999999747378752e-05,0.15275999903678894,0.21403999626636505,0.03265000134706497,-0.21392999589443207,0.13255999982357025,-0.2175700068473816,-0.1724099963903427,0.10315000265836716,-0.2627899944782257,0.0684100016951561,-0.009170000441372395,0.03593999892473221,0.10980000346899033,0.15101000666618347,0.10417000204324722,-0.0700799971818924,-0.07873000204563141,-0.0407399982213974,-0.15309999883174896,-0.19099000096321106,0.07514999806880951,0.2749300003051758,-0.08965999633073807,-0.051089998334646225,0.22008000314235687,0.2549000084400177,0.0723399966955185,0.1607699990272522,-0.003229999914765358,0.06302999705076218,-0.07260999828577042,-0.09470000118017197,-0.14733999967575073,-0.030869999900460243,0.133200004696846,0.09318999946117401,0.09184999763965607,0.11751999706029892,-0.0777600035071373,0.2547000050544739,0.016340000554919243,0.11187999695539474,0.06174999848008156,0.05119000002741814,0.029360000044107437,0.16184000670909882,0.015259999781847,0.06293000280857086,-0.05316999927163124,-0.14339999854564667,-0.12580999732017517,-0.13853999972343445],[0.03528999909758568,-0.025359999388456345,0.13298000395298004,0.1520799994468689,-0.1612900048494339,-0.14826999604701996,-0.12323000282049179,0.09962999820709229,0.1902499943971634,0.18624000251293182,-0.011900000274181366,0.04188999906182289,-0.10127999633550644,0.00394000019878149,-0.007079999893903732,-0.013779999688267708,-0.19265000522136688,-0.08952999860048294,0.23465000092983246,-0.24045999348163605,0.2884100079536438,0.2646400034427643,0.14361000061035156,0.04301999881863594,0.3054400086402893,0.003169999923557043,0.025059999898076057,-0.15105000138282776,0.05697000026702881,-0.11750999838113785,0.1764499992132187,-0.11045999825000763,0.05017000064253807,0.041120000183582306,-0.17284999787807465,-0.013159999623894691,-0.14574000239372253,-0.12596000730991364,-0.11145000159740448,0.15183000266551971,-0.15278999507427216,0.10255999863147736,-0.07705999910831451,-0.06634999811649323,-0.05936000123620033,0.0917000025510788,-0.06868000328540802,0.10352999716997147,0.17045000195503235,-0.16474999487400055,-0.2308100014925003,0.07010000199079514,-0.13259999454021454,-0.20654000341892242,0.2644999921321869,0.21511000394821167,-0.02312999963760376,-0.16761000454425812,0.19415999948978424,0.16243000328540802,-0.13750000298023224,0.18893000483512878,0.11015000194311142,0.12644000351428986],[-0.27970999479293823,0.14701999723911285,0.01860000006854534,0.047919999808073044,0.06323999911546707,-0.21873000264167786,0.10469000041484833,0.2953200042247772,-0.15181000530719757,0.22569000720977783,0.15807999670505524,-0.028839999809861183,0.17816999554634094,-0.1082099974155426,-0.24944999814033508,-0.00430000014603138,-0.05758000165224075,0.08072999864816666,0.0861700028181076,-0.17407000064849854,0.2782999873161316,-0.0557899996638298,-0.26225000619888306,0.04729999974370003,0.2276799976825714,0.2553099989891052,0.12131000310182571,0.08624999970197678,0.12814000248908997,-0.15452000498771667,-0.06718999892473221,-0.11666999757289886,0.008940000087022781,-0.11692000180482864,-0.06655000150203705,0.06554999947547913,-0.03156999871134758,0.12404999881982803,0.05260999873280525,-0.19863000512123108,0.0258799996227026,0.2264000028371811,-0.0798799991607666,-0.27132999897003174,0.2186499983072281,-0.263619989156723,-0.10662999749183655,-0.00750999990850687,-0.1368899941444397,0.08000999689102173,-0.07805000245571136,-0.03906000033020973,-0.2365799993276596,-0.27647000551223755,0.020740000531077385,-0.11903999745845795,0.22768999636173248,-0.05660000070929527,0.14499999582767487,0.005489999894052744,0.11298000067472458,0.227960005402565,-0.15051999688148499,0.01816999912261963],[0.037220001220703125,-0.197270005941391,-0.046539999544620514,0.015250000171363354,-0.13740000128746033,0.04292000085115433,0.13675999641418457,0.27458998560905457,-0.021199999377131462,0.18525999784469604,0.0057299998588860035,0.051259998232126236,0.016450000926852226,-0.09538999944925308,0.00343999988399446,0.13116000592708588,-0.09560000151395798,-0.09526000171899796,-0.1233299970626831,-0.12750999629497528,-0.09776999801397324,0.04236000031232834,0.13343000411987305,-0.06285999715328217,0.04822999984025955,0.23393000662326813,-0.07299000024795532,-0.1815599948167801,0.06690999865531921,-0.22059999406337738,-0.16592000424861908,0.05634000152349472,0.09585999697446823,-0.009399999864399433,-0.16304999589920044,0.14667999744415283,0.1380700021982193,-0.24151000380516052,-0.07628999650478363,0.08715000003576279,0.13165999948978424,0.11625999957323074,0.24063999950885773,-0.23395000398159027,0.1304199993610382,-0.050999999046325684,-0.014949999749660492,0.1891999989748001,-0.2495799958705902,-0.18480999767780304,0.13158999383449554,-0.08173000067472458,-0.20738999545574188,-0.020919999107718468,0.1259399950504303,0.22074000537395477,0.021490000188350677,-0.10513000190258026,0.08918000012636185,0.1690399944782257,-0.05827999860048294,-0.03488999977707863,-0.009920000098645687,0.11084000021219254],[0.15349000692367554,-0.14363999664783478,0.13172000646591187,0.21739999949932098,-0.2415499985218048,-0.06265000253915787,-0.15725000202655792,0.24190999567508698,0.2009200006723404,0.003280000062659383,-0.19368000328540802,0.1385200023651123,-0.09952999651432037,0.037780001759529114,-0.16665999591350555,0.00800000037997961,-0.1109199970960617,0.262800008058548,0.1035199984908104,-0.008290000259876251,-0.060499999672174454,0.02490999922156334,-0.04944000020623207,-0.07784000039100647,-0.07656999677419662,