{"env_id":"Walker2d-v5","model_xml":"walker2d_v5.xml","obs_dim":17,"act_dim":6,"nq":9,"nv":9,"nu":6,"frame_skip":4,"timestep":0.002,"dt":0.008,"action_low":[-1.0,-1.0,-1.0,-1.0,-1.0,-1.0],"action_high":[1.0,1.0,1.0,1.0,1.0,1.0],"obs_components":[{"kind":"qpos","start":1,"clip":null},{"kind":"qvel","start":0,"clip":[-10.0,10.0]}],"needs_rne":false,"init_qpos":[0.0,1.25,0.0,0.0,0.0,0.0,0.0,0.0,0.0],"init_qvel":[0.0,0.0,0.0,0.0,0.0,0.0,0.0,0.0,0.0],"reset_noise_scale":0.005,"healthy":{"terminate_when_unhealthy":true,"z_index":1,"z_range":[0.8,2.0],"angle_index":2,"angle_range":[-1.0,1.0],"state_range":null},"obs_labels":["rootz pos","rooty pos","thigh_joint pos","leg_joint pos","foot_joint pos","thigh_left_joint pos","leg_left_joint pos","foot_left_joint pos","rootx vel","rootz vel","rooty vel","thigh_joint vel","leg_joint vel","foot_joint vel","thigh_left_joint vel","leg_left_joint vel","foot_left_joint vel"],"action_labels":["thigh_joint","leg_joint","foot_joint","thigh_left_joint","leg_left_joint","foot_left_joint"],"normalization":{"mean":[1.134207010269165,-0.5423055291175842,-0.49800124764442444,-0.7413714528083801,0.2016567438840866,-0.035119567066431046,-0.15882571041584015,0.7360909581184387,1.5216169357299805,-0.037213969975709915,-0.10472448170185089,0.03562648594379425,-0.5529634952545166,-0.6605385541915894,-0.08338408917188644,-0.01676016114652157,-0.2530179023742676],"var":[0.00263294973410666,0.04810255393385887,0.17245666682720184,0.4692903161048889,0.34735193848609924,0.009209925308823586,0.06434406340122223,0.05303511396050453,1.1329035758972168,0.34106817841529846,12.142420768737793,31.774396896362305,44.846649169921875,49.84453201293945,17.42436408996582,22.730655670166016,25.53411293029785],"epsilon":1e-08,"clip_obs":10.0},"policy_onnx":"walker2d__ppo_walker2d_3M_s1__final.onnx","policy_net":{"input_dim":17,"layers":[{"w":[[-0.3922100067138672,0.11000999808311462,0.01561999972909689,0.0744900032877922,0.13639000058174133,-0.10191000252962112,0.22116999328136444,0.29526999592781067,-0.03263000026345253,0.3975299894809723,0.24587999284267426,-0.15297000110149384,0.004019999876618385,0.1991100013256073,0.11937999725341797,-0.023719999939203262,0.08453000336885452],[0.2997399866580963,0.1345299929380417,0.2780500054359436,-0.051259998232126236,-0.30072999000549316,-0.14154000580310822,-0.08348000049591064,0.05982000008225441,-0.08489000052213669,0.4303100109100342,0.2556700110435486,-0.14100000262260437,-0.04487999901175499,-0.14896999299526215,0.15851999819278717,0.03181000053882599,-0.29124999046325684],[0.025909999385476112,0.1482899934053421,0.27178001403808594,0.19125999510288239,-0.16256000101566315,-0.25475001335144043,0.22150999307632446,-0.17273999750614166,-0.20600999891757965,-0.20981000363826752,0.08758000284433365,0.25529998540878296,-0.14396999776363373,-0.05259000137448311,0.030820000916719437,-0.22593000531196594,0.23533999919891357],[0.05282999947667122,-0.03627000004053116,0.06272000074386597,0.1650799959897995,-0.05923999845981598,-0.18946999311447144,0.25383999943733215,0.0849900022149086,0.12285000085830688,0.131400004029274,-0.044280000030994415,-0.4693000018596649,0.40400999784469604,-0.0042500002309679985,-0.15214000642299652,0.09531000256538391,-0.1196800023317337],[-0.028589999303221703,-0.08906999975442886,-0.052570000290870667,0.05490000173449516,0.003019999945536256,0.20677000284194946,0.3029400110244751,0.09855999797582626,-0.26649999618530273,0.13078999519348145,0.18133999407291412,-0.07819999754428864,0.2720800042152405,0.3418099880218506,0.1375100016593933,0.20866000652313232,0.040380001068115234],[0.11975999921560287,-0.03909999877214432,-0.08473999798297882,0.15534000098705292,0.22296999394893646,-0.057089999318122864,-0.23880000412464142,0.24130000174045563,-0.03412000089883804,-0.07026000320911407,0.05796999856829643,0.07661999762058258,0.44106000661849976,0.4714199900627136,0.02498999983072281,-0.18982000648975372,-0.04267999902367592],[0.09502000361680984,0.003710000077262521,0.1139800027012825,-0.10757999867200851,0.19991999864578247,-0.1605300009250641,0.20182999968528748,-0.009549999609589577,-0.026149999350309372,0.10385999828577042,0.14279000461101532,-0.10356000065803528,-0.09955000132322311,0.18511000275611877,-0.03801000118255615,0.2702299952507019,0.3363499939441681],[-0.2186799943447113,0.2200700044631958,-0.03743999823927879,-0.10634999722242355,0.10865999758243561,0.01800999976694584,0.03392999991774559,-0.012919999659061432,0.3369100093841553,-0.0034099998883903027,0.038830000907182693,-0.12637999653816223,0.16689999401569366,0.12415999919176102,-0.2799299955368042,-0.3765200078487396,0.0038399999029934406],[-0.0933699980378151,0.3211599886417389,0.13433000445365906,-0.28251999616622925,0.016259999945759773,-0.23628999292850494,0.14532999694347382,-0.2506900131702423,0.2585499882698059,0.32210999727249146,0.08425000309944153,0.11855000257492065,-0.11337000131607056,0.3928300142288208,-0.20469999313354492,-0.005760000087320805,-0.32600998878479004],[0.0611100010573864,-0.04428999871015549,-0.28564000129699707,0.038430001586675644,0.26177000999450684,0.06503999978303909,0.07436999678611755,0.11834999918937683,-0.23337000608444214,-0.11691000312566757,-0.05229000002145767,-0.07247000187635422,-0.18553000688552856,0.024089999496936798,-0.14889000356197357,0.17358000576496124,-0.03027000091969967],[-0.3805699944496155,-0.13565999269485474,0.24165000021457672,-0.10943999886512756,0.023240000009536743,0.11270000040531158,-0.05341999977827072,-0.11191999912261963,-0.03361000120639801,-0.0018400000408291817,0.08393999934196472,0.09257999807596207,0.25391000509262085,-0.043540000915527344,0.030220000073313713,0.3211599886417389,0.0002500000118743628],[0.11772000044584274,0.045049998909235,-0.08523000031709671,0.1360200047492981,0.1537500023841858,0.24473999440670013,0.020919999107718468,-0.1215599998831749,-0.018379999324679375,-0.29993999004364014,-0.272489994764328,-0.14881999790668488,-0.052799999713897705,-0.35315001010894775,-0.16247999668121338,0.19637000560760498,-0.06656999886035919],[0.14133000373840332,0.11349000036716461,-0.14770999550819397,0.025310000404715538,0.02452000044286251,0.11680000275373459,0.03822999820113182,-0.0863799974322319,-0.22989000380039215,-0.25902000069618225,-0.15803000330924988,0.018559999763965607,-0.17257000505924225,0.1665399968624115,-0.21943999826908112,0.04969000071287155,0.48065000772476196],[0.004339999984949827,-0.028589999303221703,0.05824999883770943,0.05648000165820122,0.037310000509023666,-0.04357000067830086,0.10984999686479568,0.006940000224858522,-0.05051000043749809,0.38457000255584717,0.17664000391960144,0.017100000753998756,0.22877000272274017,0.01205000001937151,0.14920000731945038,0.20069000124931335,0.3581399917602539],[0.10328000038862228,0.026830000802874565,0.05479000136256218,0.2310599982738495,0.10284999758005142,0.002360000042244792,0.05204999819397926,-0.4092499911785126,0.21562999486923218,-0.06129999831318855,0.053619999438524246,0.18546999990940094,-0.09856999665498734,-0.13440999388694763,-0.16453999280929565,0.18648000061511993,-0.0037700000684708357],[-0.013849999755620956,0.23669999837875366,-0.28685998916625977,0.09555000066757202,-0.03686000034213066,0.14053000509738922,-0.12110999971628189,0.2401600033044815,0.23319000005722046,-0.16648000478744507,0.19719000160694122,-0.3344700038433075,0.07574000209569931,0.16867999732494354,-0.058240000158548355,-0.08156999945640564,-0.023479999974370003],[-0.160180002450943,0.028020000085234642,-0.1492999941110611,0.08636000007390976,0.22393999993801117,0.007319999858736992,-0.09137000143527985,-0.00949000008404255,0.1516599953174591,-0.4360400140285492,0.09553000330924988,-0.09047999978065491,-0.19125999510288239,0.10798999667167664,-0.35436999797821045,-0.2707099914550781,0.10251999646425247],[0.19019000232219696,-0.34073999524116516,-0.11251000314950943,0.12845000624656677,0.12037000060081482,-0.14178000390529633,-0.2158699929714203,0.0025100000202655792,-0.13740000128746033,-0.21317000687122345,0.005009999964386225,0.03322000056505203,0.31755998730659485,0.2447499930858612,0.15758000314235687,-0.4851900041103363,0.22728000581264496],[0.09528999775648117,-0.21522000432014465,-0.003909999970346689,-0.1751900017261505,0.03836999833583832,-0.426580011844635,0.11355999857187271,-0.006039999891072512,-0.09402000159025192,0.299560010433197,-0.3447299897670746,-0.23598000407218933,-0.19155000150203705,-0.059300001710653305,-0.23594999313354492,-0.07272999733686447,0.10033000260591507],[-0.11322999745607376,-0.2672100067138672,0.1052900031208992,0.1313599944114685,-0.10525999963283539,-0.16676999628543854,0.22141000628471375,0.0013899999903514981,0.08145000040531158,-0.3893499970436096,-0.09718000143766403,0.029999999329447746,0.10920000076293945,-0.1064400002360344,0.04140999913215637,0.0009599999757483602,-0.024320000782608986],[-0.066600002348423,0.22763000428676605,0.1076200008392334,0.03652000054717064,0.20196999609470367,0.38721999526023865,-0.26225998997688293,0.03791999816894531,0.31960999965667725,-0.11372999846935272,0.23701000213623047,0.06154000014066696,-0.08443000167608261,0.17979000508785248,0.19503000378608704,0.03773999959230423,0.08897999674081802],[-0.05316999927163124,-0.27261999249458313,-0.07721000164747238,-0.1742600053548813,0.03338000178337097,-0.15749000012874603,-0.2339099943637848,0.03717999905347824,0.03269999846816063,-0.3389599919319153,0.3090299963951111,0.06379999965429306,0.03254000097513199,0.09232000261545181,0.36601999402046204,0.16565999388694763,0.3155199885368347],[0.048920001834630966,-0.11225000023841858,-0.046629998832941055,-0.04927999898791313,0.09618999809026718,-0.24004000425338745,0.1461700052022934,-0.08618000149726868,-0.08066999912261963,-0.2197899967432022,-0.19995999336242676,-0.07519999891519547,-0.12280000001192093,-0.17527000606060028,0.027079999446868896,-0.2671999931335449,-0.06255000084638596],[-0.023229999467730522,-0.23372000455856323,0.2145799994468689,-0.08485999703407288,-0.16019999980926514,0.16415999829769135,0.0560699999332428,-0.17038999497890472,0.008940000087022781,0.28804999589920044,-0.17387999594211578,0.17910000681877136,-0.23082999885082245,-0.30601000785827637,-0.003599999938160181,-0.23177999258041382,0.014240000396966934],[0.2503800094127655,0.0014799999771639705,-0.005080000031739473,0.17534999549388885,-0.11384999752044678,-0.15437999367713928,0.15299999713897705,0.21750999987125397,0.07839000225067139,0.25501999258995056,0.05268999934196472,-0.08219999819993973,-0.08917000144720078,0.21668000519275665,0.12748999893665314,-0.23892000317573547,0.36103999614715576],[0.0966000035405159,0.4009999930858612,-0.10102000087499619,0.2855600118637085,-0.12263999879360199,0.009770000353455544,0.14667999744415283,0.3228900134563446,0.13338999450206757,0.0147299999371171,-0.13812999427318573,-0.17282000184059143,-0.03262000158429146,-0.2921000123023987,-0.12878000736236572,0.11032000184059143,0.05090000107884407],[0.27347999811172485,0.10811000317335129,-0.1050499975681305,0.08090999722480774,0.21171000599861145,0.015359999611973763,0.032430000603199005,-0.10215000063180923,-0.09928999841213226,-0.24302999675273895,-0.05793999880552292,-0.05415000021457672,-0.04224000126123428,0.3472000062465668,-0.27752000093460083,-0.1343899965286255,0.21299000084400177],[0.289249986410141,-0.2190299928188324,-0.04202999919652939,-0.12425000220537186,0.14552000164985657,0.04010999947786331,-0.2943899929523468,0.02725999988615513,-0.23173999786376953,-0.061799999326467514,-0.20882999897003174,0.047600001096725464,-0.2059199959039688,0.3648799955844879,-0.08910000324249268,0.008849999867379665,-0.13057999312877655],[-0.12586000561714172,0.19273999333381653,0.15723000466823578,0.12274999916553497,-0.10955999791622162,0.038419999182224274,-0.12285000085830688,0.13576999306678772,0.020349999889731407,0.058150000870227814,-0.04414999857544899,0.02954000048339367,-0.12421000003814697,-0.38381001353263855,0.1416199952363968,-0.14332999289035797,0.4671800136566162],[-0.15380999445915222,0.08865000307559967,-0.06435000151395798,0.3931399881839752,-0.08743000030517578,-0.28665998578071594,0.057259999215602875,-0.21536999940872192,0.035190001130104065,-0.11394000053405762,0.06764999777078629,-0.052379999309778214,0.032829999923706055,-0.016930000856518745,-0.04267999902367592,-0.4016200006008148,0.5120499730110168],[0.1493300050497055,-0.28839001059532166,-0.18059000372886658,0.04033999890089035,0.051430001854896545,-0.27737000584602356,0.08539000153541565,0.13402999937534332,-0.03801000118255615,0.06168000027537346,-0.18609000742435455,-0.37279999256134033,-0.03483999893069267,-0.07393000274896622,-0.0236200001090765,0.10982000082731247,-0.09300000220537186],[-0.03302000090479851,-0.03616999834775925,-0.17375999689102173,-0.10689999908208847,-0.08844999969005585,-0.5384799838066101,0.04715999960899353,-0.11671999841928482,-0.06447000056505203,-0.003329999977722764,0.2437400072813034,0.0624300017952919,0.2982200086116791,0.06617999821901321,0.17107999324798584,0.0002899999963119626,-0.22811000049114227],[-0.1496800035238266,-0.12700000405311584,0.062199998646974564,-0.1326099932193756,0.06094000115990639,0.08016999810934067,0.08985999971628189,0.2525399923324585,0.1962900012731552,-0.17470000684261322,0.1333799958229065,-0.3455199897289276,0.20271000266075134,0.18129000067710876,-0.1728000044822693,0.29330000281333923,-0.10028000175952911],[0.1891999989748001,-0.064970001578331,-0.013399999588727951,0.003599999938160181,0.09911999851465225,-0.18717999756336212,-0.10597000271081924,0.14789000153541565,-0.45471999049186707,-0.1294499933719635,0.009580000303685665,0.19856999814510345,-0.03782999888062477,0.4705300033092499,0.09984999895095825,-0.08679000288248062,0.007290000095963478],[0.13474999368190765,-0.10890000313520432,0.08953999727964401,0.22006000578403473,-0.33845001459121704,-0.3173699975013733,-0.23844000697135925,0.2568100094795227,-0.01688000001013279,-0.10317999869585037,-0.0955900028347969,-0.022849999368190765,0.12679000198841095,-0.13107000291347504,0.06785000115633011,-0.28431999683380127,-0.15455999970436096],[-0.054030001163482666,0.042319998145103455,-0.0010100000072270632,0.1498900055885315,0.1333400011062622,0.2053000032901764,0.032249998301267624,0.053050000220537186,0.18016000092029572,-0.29754000902175903,0.050220001488924026,0.0393499992787838,-0.16051000356674194,-0.16989000141620636,0.14643999934196472,-0.07872000336647034,-0.07235000282526016],[0.07726000249385834,-0.03398999944329262,0.04097000136971474,0.2423900067806244,0.1944199949502945,0.05843999981880188,-0.22269000113010406,0.2549799978733063,-0.15060999989509583,-0.34178000688552856,-0.09743999689817429,-0.0565899983048439,-0.03570999950170517,0.09641999751329422,0.33129000663757324,-0.4149399995803833,-0.07445000112056732],[-0.20524999499320984,-0.11456000059843063,-0.09781000018119812,0.14747999608516693,0.20553000271320343,0.3037700057029724,-0.0443900004029274,0.14941999316215515,0.12144000083208084,-0.22842000424861908,-0.16370999813079834,-0.23687000572681427,0.16155000030994415,0.2877199947834015,0.12372999638319016,0.007809999864548445,0.1474599987268448],[0.2337999939918518,-0.36309999227523804,0.12178999930620193,0.06374000012874603,0.030810000374913216,0.005690000019967556,0.026580000296235085,0.19806000590324402,-0.20141999423503876,0.17972999811172485,-0.03675999864935875,-0.3264800012111664,0.1515199989080429,0.44297999143600464,-0.15703999996185303,-0.051989998668432236,0.23434999585151672],[-0.004879999905824661,-0.09957999736070633,0.0892300009727478,-0.15323999524116516,0.14204999804496765,-0.15765999257564545,0.17372000217437744,0.0030900000128895044,-0.033440001308918,-0.12476000189781189,-0.023180000483989716,0.051339998841285706,0.21559999883174896,0.381089985370636,0.40351998805999756,-0.07280000299215317,-0.00011000000085914508],[0.3329100012779236,0.2524999976158142,-0.004559999797493219,0.11315999925136566,0.004550000187009573,0.43042001128196716,0.024609999731183052,-0.1792300045490265,0.1652500033378601,0.18261000514030457,-0.02694999985396862,-0.015169999562203884,0.13728000223636627,0.0849900022149086,0.10802000015974045,-0.053199999034404755,0.05601000040769577],[0.1707099974155426,0.2579900026321411,0.08459000289440155,-0.09718000143766403,0.12467999756336212,0.20931999385356903,0.16854000091552734,-0.25056999921798706,-0.06072999909520149,0.13711999356746674,0.13426999747753143,-0.021040000021457672,0.09203000366687775,0.13942000269889832,0.11982999742031097,0.008369999937713146,0.20565000176429749],[0.20074999332427979,-0.03058999963104725,0.2598100006580353,-0.13771000504493713,0.21455000340938568,0.01875000074505806,0.028589999303221703,-0.16978999972343445,0.27649998664855957,-0.3441300094127655,0.15783999860286713,-0.20874999463558197,-0.04493999853730202,-0.012120000086724758,-0.27963000535964966,0.06407000124454498,-0.3545199930667877],[0.0007300000288523734,0.09871000051498413,0.16701999306678772,-0.11482000350952148,0.20242999494075775,0.059470001608133316,-0.08376999944448471,0.1103300005197525,-0.14104999601840973,-0.13777999579906464,-0.013659999705851078,0.0421300008893013,0.4680599868297577,-0.23725000023841858,-0.05220000073313713,0.03067000024020672,-0.08455999940633774],[0.20810000598430634,-0.24796000123023987,0.0702499970793724,0.08158999681472778,0.33469000458717346,-0.014410000294446945,-0.24809999763965607,-0.048889998346567154,-0.041110001504421234,-0.12444999814033508,-0.16266000270843506,0.10884000360965729,-0.15067000687122345,-0.09553000330924988,0.010209999978542328,-0.19603000581264496,-0.20643000304698944],[0.10488999634981155,-0.3596799969673157,-0.05517999827861786,-0.05486999824643135,0.15158000588417053,0.30531999468803406,0.2402700036764145,0.07116000354290009,-0.029260000213980675,0.10475999861955643,0.11851000040769577,-0.21939000487327576,0.04467000067234039,0.3151699900627136,0.1278800070285797,-0.2585600018501282,-0.3253999948501587],[-0.07535000145435333,0.07996000349521637,-0.24889999628067017,0.05691000074148178,0.15424999594688416,0.1847900003194809,0.03931000083684921,-0.1320600062608719,0.07232999801635742,-0.2550399899482727,-0.135110005736351,0.049240000545978546,-0.1866600066423416,0.007600000128149986,-0.3493199944496155,0.22696000337600708,-0.09877999871969223],[0.20573000609874725,0.06597000360488892,-0.15310999751091003,-0.05827999860048294,0.1271200031042099,-0.029529999941587448,0.14244000613689423,0.10503999888896942,0.15762999653816223,0.04961000010371208,-0.008849999867379665,-0.08517000079154968,0.06724999845027924,0.1734900027513504,-0.11591000109910965,-0.4525899887084961,0.3268199861049652],[-0.1166900023818016,-0.1712999939918518,0.10916999727487564,-0.09385000169277191,0.1651799976825714,-0.1572200059890747,0.0016700000269338489,0.18233999609947205,0.3531000018119812,0.22567999362945557,-0.10266999900341034,-0.05956000089645386,0.05500999838113785,0.24628999829292297,-0.06791000068187714,-0.07074999809265137,-0.27459999918937683],[0.06084999814629555,0.09410999715328217,0.13670000433921814,0.001129999989643693,0.0026700000744313,0.13781000673770905,-0.12487000226974487,-0.08172000199556351,0.07438000291585922,-0.3977000117301941,0.33487001061439514,0.4152500033378601,-0.19922000169754028,-0.0801599994301796,0.2213899940252304,0.24246999621391296,0.33333998918533325],[-0.19272999465465546,0.3338800072669983,-0.093469999730587,-0.18012000620365143,0.08737999945878983,0.17874999344348907,-0.02442000061273575,0.09408000111579895,0.07207000255584717,0.24560999870300293,0.21604999899864197,-0.20513999462127686,-0.15263999998569489,0.2487799972295761,-0.23907999694347382,-0.136680006980896,0.00827999971807003],[0.011300000362098217,-0.3742600083351135,-0.1169700026512146,0.04470000043511391,-0.23794999718666077,0.04179000109434128,-0.36177000403404236,0.06846000254154205,-0.28242000937461853,0.17321999371051788,-0.05318000167608261,0.018799999728798866,0.11588999629020691,0.01696000061929226,0.13982999324798584,-0.06379000097513199,0.10948999971151352],[0.031610000878572464,-0.23553000390529633,0.15344999730587006,-0.05931999906897545,-0.04297000169754028,-0.012600000016391277,-0.17476999759674072,0.3280700147151947,0.02677999995648861,-0.1881600022315979,-0.09489999711513519,-0.2377299964427948,0.1960500031709671,0.07304999977350235,-0.31376001238822937,0.4127500057220459,-0.0574599988758564],[-0.22871999442577362,-0.32502999901771545,0.030330000445246696,0.16121000051498413,-0.23847000300884247,-0.0666700005531311,0.16705000400543213,0.2134000062942505,-0.15238000452518463,0.17694999277591705,-0.05488999933004379,0.0030900000128895044,0.10572999715805054,-0.22288000583648682,-0.10194999724626541,0.3425399959087372,-0.38611000776290894],[0.35784998536109924,-0.04261999949812889,0.04487000033259392,-0.14980000257492065,0.025629999116063118,-0.2159299999475479,-0.11387000232934952,-0.13504000008106232,-0.266510009765625,-0.16102999448776245,-0.025049999356269836,0.014580000191926956,0.05203000083565712,-0.18805000185966492,0.06341999769210815,0.13592000305652618,-0.149399995803833],[0.23138999938964844,-0.07766000181436539,0.09075000137090683,-0.028200000524520874,0.10971000045537949,0.4325999915599823,0.05730000138282776,-0.1384499967098236,0.09077999740839005,-0.018769999966025352,0.22773000597953796,0.15479999780654907,0.3255600035190582,0.06576000154018402,-0.05993000045418739,0.023310000076889992,0.4654799997806549],[0.1464499980211258,-0.12957000732421875,-0.20824000239372253,-0.3234499990940094,0.044449999928474426,0.2551400065422058,-0.061409998685121536,0.2338699996471405,-0.3055199980735779,0.012419999577105045,0.005489999894052744,0.051259998232126236,0.05345999822020531,0.09437999874353409,0.031939998269081116,0.12018000334501266,-0.13368000090122223],[0.24000999331474304,0.28224998712539673,-0.19415999948978424,0.032019998878240585,-0.18678000569343567,0.5189399719238281,0.09004999697208405,0.09217000007629395,0.25560998916625977,0.03305999934673309,0.11193999648094177,-0.12883999943733215,0.1553799957036972,-0.13099999725818634,-0.023889999836683273,-0.1774500012397766,0.06549999862909317],[0.09419000148773193,-0.04042999818921089,-0.16687999665737152,0.1566700041294098,0.06883999705314636,0.1525299996137619,0.05875999853014946,-0.239329993724823,0.05762000009417534,0.01131999958306551,0.1054999977350235,-0.0063299997709691525,0.13001999258995056,0.2871200144290924,0.32003000378608704,-0.3755500018596649,0.002360000042244792],[0.1435600072145462,0.021290000528097153,0.1404300034046173,0.2237599939107895,-0.16311000287532806,-0.1901800036430359,0.015799999237060547,0.2253199964761734,0.24838000535964966,-0.23743000626564026,-0.0528700016438961,-0.3478499948978424,0.45500999689102173,0.32304999232292175,-0.11212000250816345,0.30970001220703125,0.12224999815225601],[0.09257999807596207,-0.15166999399662018,0.2652699947357178,0.1546899974346161,0.00546000013127923,0.047210000455379486,0.13774000108242035,-0.1792300045490265,0.1345299929380417,0.1411300003528595,0.08941999822854996,0.13188999891281128,0.2829799950122833,-0.10356999933719635,0.07738000154495239,-0.020109999924898148,-0.22404000163078308],[0.19450999796390533,-0.024700000882148743,0.08404000103473663,0.17181000113487244,-0.1304599940776825,-0.02947000041604042,-0.37470000982284546,-0.0989999994635582,-0.0319099985063076,-0.38613998889923096,0.11033999919891357,0.05996999889612198,-0.13808999955654144,0.26221999526023865,0.019600000232458115,0.10354000329971313,-0.09702999889850616],[-0.23019999265670776,0.37261998653411865,-0.0457100011408329,-0.1688999980688095,-0.07068999856710434,0.21665999293327332,-0.16468000411987305,-0.09284000098705292,-0.007590000052005053,-0.09335999935865402,-0.1593399941921234,0.19753000140190125,-0.03286999836564064,-0.06651999801397324,0.11251000314950943,-0.3416300117969513,-0.14973999559879303],[-0.15395000576972961,0.001069999998435378,-0.1824900060892105,0.009619999676942825,-0.015399999916553497,0.09322000294923782,-0.18694999814033508,-0.1861100047826767,-0.12313999980688095,-0.2819800078868866,-0.13700999319553375,-0.07944999635219574,-0.2918199896812439,-0.2816300094127655,0.07749000191688538,-0.29354000091552734,0.007009999826550484],[0.16571000218391418,0.17732000350952148,-0.0002300000051036477,-0.19332000613212585,0.08671999722719193,-0.08225999772548676,0.1540900021791458,0.06451000273227692,0.17007000744342804,-0.15637999773025513,-0.24145999550819397,-0.2913300096988678,0.35332998633384705,0.05555000156164169,-0.24142000079154968,0.0035600000992417336,-0.24887000024318695],[0.2333499938249588,0.05308999866247177,-0.19257000088691711,-0.09387999773025513,0.04709000140428543,0.1664399951696396,0.1768999993801117,0.38909998536109924,-0.15007999539375305,0.08432000130414963,-0.14820000529289246,-0.1238899976015091,-0.07274000346660614,-0.043859999626874924,-0.17494000494480133,0.3081499934196472,-0.16992999613285065],[0.023800000548362732,0.1806900054216385,-0.1395999938249588,0.13871000707149506,-0.30921000242233276,-0.31310001015663147,0.042100001126527786,-0.07361000031232834,0.210999995470047,0.05528999865055084,0.23201000690460205,0.14253999292850494,0.22766000032424927,0.2626599967479706,0.22969000041484833,-0.10390999913215637,0.10832999646663666],[0.15782000124454498,0.21533000469207764,0.14342999458312988,-0.05503999814391136,-0.038109999150037766,0.042490001767873764,-0.08696000277996063,0.02522999979555607,0.15714000165462494,0.4418199956417084,0.26291999220848083,0.03434000164270401,0.0568000003695488,-0.07746999710798264,0.25060001015663147,-0.30011001229286194,0.22276000678539276],[-0.04042999818921089,-0.3215700089931488,0.16569000482559204,-0.01841999962925911,-0.15839999914169312,0.153779998421669,-0.07413999736309052,0.04670000076293945,-0.2610799968242645,-0.07648999989032745,-0.294050008058548,-0.16110000014305115,-0.008990000002086163,0.03068999946117401,-0.14624999463558197,0.20627999305725098,0.3921799957752228],[0.08669999986886978,0.12997999787330627,0.14621999859809875,0.06261999905109406,-0.013020000420510769,0.23330000042915344,0.012319999746978283,-0.47721999883651733,-0.18081000447273254,-0.03474999964237213,0.1462700068950653,0.08048000186681747,0.2128800004720688,0.25126999616622925,0.14824999868869781,-0.28075000643730164,0.14061999320983887],[0.20788000524044037,-0.3034200072288513,-0.12116000056266785,0.30647000670433044,-0.0758500024676323,-0.29554998874664307,-0.19638000428676605,0.20829999446868896,-0.09864000231027603,0.02831999957561493,-0.28766998648643494,0.2002200037240982,-0.11112000048160553,-0.2674199938774109,-0.04967999830842018,-0.007369999773800373,-0.16109000146389008],[-0.0557899996638298,-0.044270001351833344,0.1777999997138977,0.13244999945163727,-0.19888000190258026,-0.14665000140666962,-0.2659600079059601,0.22788000106811523,-0.2523699998855591,0.2659899890422821,-0.091559998691082,-0.1830500066280365,0.07366999983787537,0.2750000059604645,0.08968999981880188,0.2013999968767166,-0.018519999459385872],[-0.0573199987411499,-0.008340000174939632,0.03060000017285347,0.3213199973106384,0.12624000012874603,-0.07548999786376953,-0.08741000294685364,-0.22724999487400055,-0.24788999557495117,-0.12195999920368195,0.047129999846220016,-0.10672999918460846,0.3384700119495392,-0.10653000324964523,-0.06356000155210495,-0.23210999369621277,-0.22491000592708588],[0.18227000534534454,-0.0773100033402443,0.063510000705719,-0.009150000289082527,0.35872000455856323,0.3974300026893616,-0.024949999526143074,0.285970002412796,-0.08956000208854675,0.1510400027036667,0.061330001801252365,0.30507001280784607,-0.12727999687194824,-0.006380000151693821,0.1740799993276596,-0.25707998871803284,-0.08611000329256058],[-0.324970006942749,-0.034129999577999115,-0.03511999920010567,-0.335999995470047,-0.014069999568164349,-0.03824000060558319,0.09714999794960022,0.17409999668598175,-0.07165999710559845,-0.2962700128555298,-0.2874999940395355,0.052960000932216644,-0.09201999753713608,-0.14574000239372253,-0.17580999433994293,0.14940999448299408,0.11057999730110168],[0.031700000166893005,0.04998999834060669,0.15550999343395233,-0.22654999792575836,0.08268000185489655,0.2304999977350235,-0.25108999013900757,-0.40384000539779663,-0.07062000036239624,0.22076000273227692,0.19425000250339508,0.04024999961256981,0.11142999678850174,-0.1041100025177002,0.199070006608963,0.003000000026077032,-0.041200000792741776],[-0.1089399978518486,0.11849000304937363,-0.12582999467849731,0.0006000000284984708,0.04531000182032585,-0.11998999863862991,0.09300000220537186,0.3895399868488312,-0.15839999914169312,0.096220001578331,0.19673000276088715,0.029370000585913658,0.061480000615119934,-0.030249999836087227,0.15892000496387482,0.3135400116443634,0.31404998898506165],[-0.25314998626708984,-0.2828499972820282,0.033479999750852585,-0.13928000628948212,0.052060000598430634,0.20443999767303467,-0.06666000187397003,0.15584999322891235,-0.24956999719142914,-0.18873000144958496,-0.23124000430107117,-0.12716999650001526,0.09527000039815903,-0.17032000422477722,-0.36454999446868896,-0.015549999661743641,-0.032919999212026596],[-0.22645999491214752,0.15916000306606293,-0.05561000108718872,-0.09379000216722488,0.017589999362826347,0.06696999818086624,0.12071000039577484,0.13946999609470367,0.20917999744415283,-0.33886998891830444,0.04428999871015549,0.1411599963903427,-0.11303000152111053,0.054680000990629196,-0.03551999852061272,0.14990000426769257,-0.20068000257015228],[-0.09153000265359879,0.11482000350952148,0.07006999850273132,-0.3378700017929077,0.017980000004172325,-0.2931399941444397,0.03929999843239784,-0.10267999768257141,-0.08053000271320343,0.0638900026679039,0.04704999923706055,-0.04145999997854233,0.18986999988555908,-0.325439989566803,0.08686999976634979,-0.039319999516010284,0.03344999998807907],[0.004579999949783087,0.18294000625610352,0.11793000251054764,-0.06674999743700027,-0.03931000083684921,-0.06424999982118607,-0.2484699934720993,0.37996000051498413,0.08333999663591385,-0.13232000172138214,0.2513499855995178,0.2812800109386444,0.13644999265670776,-0.1707800030708313,0.3646799921989441,-0.0635799989104271,0.19512000679969788],[-0.1832900047302246,-0.2243099957704544,-0.029810000211000443,-0.1252100020647049,0.17256000638008118,-0.006180000025779009,-0.09770999848842621,0.22559000551700592,0.21296000480651855,-0.15606999397277832,-0.017969999462366104,-0.23194000124931335,0.046939998865127563,-0.002529999939724803,-0.2199700027704239,0.2846199870109558,-0.25817999243736267],[0.30000999569892883,-0.20276999473571777,0.12565000355243683,-0.33125001192092896,-0.18783999979496002,0.09487999975681305,0.006889999844133854,0.010739999823272228,0.10627000033855438,0.12122000008821487,0.022549999877810478,0.028950000181794167,-0.20467999577522278,0.23857000470161438,-0.03754999861121178,0.322160005569458,-0.26361000537872314],[0.2054699957370758,0.2753300070762634,0.09978999942541122,0.04309999942779541,-0.020640000700950623,-0.2285899966955185,-0.0010600000387057662,0.08879999816417694,-0.04252000153064728,0.31951001286506653,0.047359999269247055,0.0340999998152256,0.11198999732732773,0.0707399994134903,0.054329998791217804,-0.3218199908733368,0.4215500056743622],[-0.06137000024318695,0.2437800019979477,-0.011880000121891499,0.0945499986410141,-0.06241999939084053,-0.22368000447750092,0.09013000130653381,-0.06615000218153,0.07972999662160873,0.04258999973535538,-0.1324400007724762,-0.3443399965763092,0.2129800021648407,0.14645999670028687,-0.19189999997615814,-0.04196999967098236,-0.5279499888420105],[0.0052999998442828655,0.06750000268220901,-0.18498000502586365,-0.15160000324249268,0.1109199970960617,-0.16259999573230743,0.09718000143766403,-0.17027999460697174,0.017400000244379044,0.36236000061035156,-0.10118000209331512,-0.11986000090837479,-0.10553000122308731,0.2170799970626831,-0.40907999873161316,0.24377000331878662,-0.25117000937461853],[-0.2429099977016449,0.21615000069141388,0.2684600055217743,-0.24626000225543976,-0.0008500000112690032,-0.05025000125169754,-0.026599999517202377,0.23503999412059784,-0.14906999468803406,0.12185999751091003,0.2449900060892105,0.2668600082397461,0.27386000752449036,-0.11507000029087067,0.5896599888801575,-0.04114000126719475,-0.01728999987244606],[0.2865999937057495,0.04558999836444855,-0.293830007314682,0.4012700021266937,0.20212000608444214,-0.14546999335289001,-0.09419000148773193,0.05087000131607056,-0.07468000054359436,0.29938000440597534,-0.09414000064134598,-0.04428999871015549,0.06648000329732895,0.07457000017166138,-0.036639999598264694,0.29183000326156616,-0.12703000009059906],[-0.09354999661445618,-0.24010999500751495,-0.13826000690460205,-0.12745000422000885,0.1447400003671646,0.17305999994277954,0.24807000160217285,-0.30948999524116516,-0.023970000445842743,-0.017680000513792038,0.09203000366687775,0.03832000121474266,-0.12067999690771103,0.2903600037097931,0.5057799816131592,-0.46483999490737915,-0.21574999392032623],[-0.04236999899148941,0.07284999638795853,-0.3266899883747101,0.342960000038147,0.06296999752521515,-0.08251000195741653,0.09472999721765518,-0.0596500001847744,-0.09927999973297119,-0.033319998532533646,0.32916000485420227,-0.07953999936580658,0.07161000370979309,-0.10717999935150146,0.2322400063276291,-0.17032000422477722,0.06722000241279602],[-0.34810999035835266,-0.07485000044107437,-0.004050000105053186,-0.2790299952030182,0.07150000333786011,-0.024819999933242798,-0.09480000287294388,0.18605999648571014,-0.004819999914616346,0.060309998691082,-0.14246000349521637,-0.3573499917984009,0.056060001254081726,0.09715999662876129,-0.2980799973011017,0.336650013923645,-0.20555000007152557],[0.2872200012207031,-0.08191999793052673,-0.04004000127315521,0.06657999753952026,-0.1441899985074997,-0.25874999165534973,0.0581200011074543,-0.29541999101638794,-0.3091900050640106,0.19569000601768494,-0.17117999494075775,0.06369999796152115,0.056060001254081726,0.07028999924659729,0.2618100047111511,0.017330000177025795,-0.15741999447345734],[-0.16423000395298004,0.3208000063896179,-0.10977999866008759,-0.059780001640319824,-0.054659999907016754,0.3034600019454956,-0.038690000772476196,0.1614300012588501,0.18799999356269836,0.014410000294446945,0.092569999396801,0.12856000661849976,0.02476000040769577,0.4912300109863281,-0.17971999943256378,0.23597000539302826,0.11396999657154083],[0.11062999814748764,-0.16154000163078308,0.18494999408721924,0.07381000369787216,-0.13892999291419983,-0.1940000057220459,-0.16433000564575195,0.2921299934387207,-0.4293600022792816,0.01558000035583973,-0.09602999687194824,0.07751999795436859,-0.07904999703168869,0.17267000675201416,-0.020570000633597374,0.03468000143766403,-0.23111000657081604],[0.009549999609589577,0.004470000043511391,-0.04252000153064728,0.037870001047849655,0.14274999499320984,-0.2046000063419342,0.24865999817848206,-0.10238000005483627,0.3239000141620636,0.3735400140285492,0.1030300036072731,-0.2960200011730194,0.1857600063085556,0.06808000057935715,-0.14817999303340912,0.31251999735832214,0.11483000218868256],[0.32951998710632324,0.15376999974250793,-0.3535900115966797,0.19222000241279602,-0.040789999067783356,-0.0413299985229969,0.1286800056695938,-0.2410700023174286,0.3123700022697449,0.13038000464439392,0.16907000541687012,0.15415999293327332,-0.16872000694274902,0.0655599981546402,-0.08331000059843063,-0.014419999904930592,0.15937000513076782],[-0.034299999475479126,-0.046140000224113464,0.07852999866008759,0.06395000219345093,0.05784999951720238,0.07494000345468521,-0.047210000455379486,-0.008249999955296516,0.2682900130748749,-0.14382000267505646,0.3055900037288666,0.10096000134944916,-0.036010000854730606,-0.22605000436306,0.20037999749183655,0.25429001450538635,-0.5042799711227417],[0.3333899974822998,-0.07598999887704849,0.037709999829530716,-0.010700000450015068,0.06159000098705292,0.2714399993419647,0.005270000081509352,-0.4070200026035309,-0.04008999839425087,0.07680000364780426,0.12961000204086304,-0.019300000742077827,-0.2255599945783615,0.05136999860405922,-0.1967799961566925,0.14425000548362732,-0.14053000509738922],[0.10543999820947647,0.08173999935388565,-0.1580899953842163,-0.040800001472234726,0.24859000742435455,0.2518100142478943,0.07948999851942062,0.027540000155568123,0.24838000535964966,-0.2729400098323822,-0.14082999527454376,0.05733000114560127,-0.1940000057220459,0.027470000088214874,-0.1567700058221817,0.010060000233352184,0.0406000018119812],[-0.13444000482559204,0.3544299900531769,0.09120000153779984,0.1316000074148178,-0.13979999721050262,0.10478000342845917,0.1446399986743927,0.12672999501228333,-0.21594999730587006,0.2586599886417389,-0.04374999925494194,0.005919999908655882,-0.16391000151634216,-0.019840000197291374,-0.23207999765872955,0.03505999967455864,-0.04743000119924545],[-0.15207000076770782,-0.24552999436855316,0.011180000379681587,0.06671000272035599,-0.055879998952150345,0.11918999999761581,0.01909000054001808,-0.2932699918746948,-0.43654000759124756,0.05201999843120575,-0.05257999897003174,0.36528000235557556,-0.06457000225782394,0.037780001759529114,0.06779000163078308,0.037289999425411224,-0.20127999782562256],[0.06287000328302383,0.09027999639511108,0.21901999413967133,-0.06055999919772148,-0.21094000339508057,-0.16062000393867493,-0.18362000584602356,0.047520000487565994,-0.23506000638008118,0.3031100034713745,-0.20672999322414398,0.1984100043773651,-0.04706000164151192,0.13802999258041382,-0.06992000341415405,-0.13359999656677246,-0.26965999603271484],[-0.07683999836444855,0.2654399871826172,0.027899999171495438,-0.21007999777793884,0.0030499999411404133,0.019440000876784325,0.43316999077796936,-0.0986500009894371,0.1263599991798401,-0.32820001244544983,0.06960999965667725,0.1762399971485138,-0.07525999844074249,-0.5513399839401245,0.001879999996162951,-0.03491999953985214,0.3242500126361847],[0.0061900001019239426,0.04868000000715256,0.3715600073337555,-0.13389000296592712,-0.06162000074982643,-0.39983999729156494,0.01655999943614006,0.07203999906778336,0.05922999978065491,-0.29350000619888306,-0.31047001481056213,-0.1473499983549118,0.13774000108242035,0.007410000078380108,-0.1742600053548813,-0.005640000104904175,0.22152000665664673],[-0.30862998962402344,0.00215999991632998,0.15209999680519104,-0.09404999762773514,0.015809999778866768,-0.07889000326395035,-0.11704999953508377,-0.16901999711990356,0.1359899938106537,-0.4569000005722046,0.07953999936580658,0.02027999982237816,0.06618999689817429,-0.26767000555992126,-0.3440600037574768,0.15670999884605408,-0.042249999940395355],[0.029589999467134476,-0.30788999795913696,0.008139999583363533,0.008589999750256538,0.11209999769926071,-0.14372000098228455,-0.17449000477790833,0.11793000251054764,0.1282700002193451,-0.03248000144958496,0.25394999980926514,-0.1782200038433075,0.178739994764328,0.03984000161290169,0.453110009431839,-0.24706000089645386,0.37057000398635864],[0.042010001838207245,-0.11305999755859375,0.030640000477433205,0.164000004529953,-0.04822999984025955,-0.453249990940094,0.015390000306069851,0.32787999510765076,-0.020549999549984932,0.35175999999046326,0.07937999814748764,0.08679000288248062,-0.2578200101852417,0.20677000284194946,0.17226000130176544,-0.292279988527298,0.3364099860191345],[-0.09633000195026398,0.06654000282287598,0.16041000187397003,0.028060000389814377,-0.12886999547481537,0.04140999913215637,0.12530000507831573,-0.02531999908387661,0.14016999304294586,0.032829999923706055,0.4314799904823303,0.363070011138916,0.04340000078082085,0.07489000260829926,0.1537500023841858,-0.06883999705314636,0.20319999754428864],[0.1147800013422966,-0.35076001286506653,-0.0002300000051036477,-0.37646999955177307,-0.1798200011253357,0.1898300051689148,0.025219999253749847,-0.0650700032711029,0.06036999821662903,-0.07385999709367752,-0.027480000630021095,-0.011260000057518482,0.09723000228404999,0.14951999485492706,0.41200000047683716,-0.18985000252723694,-0.15408000349998474],[-0.03488999977707863,0.10903000086545944,-0.17563000321388245,0.11507000029087067,0.03872999921441078,0.011869999580085278,-0.4095099866390228,0.21517999470233917,0.06078999862074852,-0.23411999642848969,-0.029400000348687172,0.0938899964094162,-0.02305000089108944,0.11204999685287476,-0.08940000087022781,0.10276000201702118,-0.1748500019311905],[-0.18661999702453613,0.0020200000144541264,0.03669999912381172,0.1414400041103363,0.03410999849438667,0.07073000073432922,0.1693599969148636,0.04701000079512596,0.039719998836517334,-0.32523998618125916,-0.03288000077009201,-0.004290000069886446,0.5318499803543091,-0.01906999945640564,0.15500999987125397,0.000859999970998615,0.015350000001490116],[0.09284999966621399,0.07451000064611435,0.190870001912117,-0.07020000368356705,-0.1650400012731552,0.10888999700546265,-0.03853999823331833,0.02558000013232231,-0.1116499975323677,0.31657999753952026,0.21003000438213348,0.13255999982357025,0.26660001277923584,-0.20645999908447266,-0.08237999677658081,0.01217000000178814,-0.1245800033211708],[-0.010610000230371952,-0.3167000114917755,0.07305999845266342,-0.27487999200820923,0.014779999852180481,-0.050769999623298645,-0.14038999378681183,0.09861999750137329,0.04441000148653984,-0.11395999789237976,0.06353999674320221,0.06772000342607498,0.21052999794483185,0.11681000143289566,0.24457000195980072,-0.13280999660491943,-0.07005999982357025],[-0.22524000704288483,0.1099499985575676,-0.1151999980211258,-0.10209999978542328,0.22957000136375427,-0.14215999841690063,-0.06503999978303909,-0.362280011177063,0.046950001269578934,-0.4047900140285492,0.017149999737739563,-0.04861000180244446,-0.27913999557495117,-0.09617000073194504,-0.010490000247955322,0.19057999551296234,-0.35043999552726746],[-0.2175700068473816,-0.125,0.1080700010061264,-0.012430000118911266,-0.17643000185489655,0.26721999049186707,-0.04868999868631363,0.2081100046634674,0.04425999894738197,0.10045000165700912,0.05423999950289726,0.1540299952030182,-0.06021000072360039,0.18062999844551086,0.02944999933242798,-0.14357000589370728,-0.5981199741363525],[0.14702999591827393,0.12515999376773834,-0.07887999713420868,-0.048969998955726624,-0.14077000319957733,-0.007110000122338533,0.06109999865293503,-0.1440500020980835,0.24413999915122986,-0.08336000144481659,-0.010409999638795853,-0.02184000052511692,-0.18579000234603882,0.029239999130368233,-0.16428999602794647,0.43101000785827637,0.2171200066804886],[0.07892999798059464,-0.0010100000072270632,0.12273000180721283,-0.03290000185370445,-0.06983000040054321,0.09898000210523605,-0.38725998997688293,-0.15307000279426575,0.02068999968469143,-0.37415000796318054,-0.06797000020742416,0.10524000227451324,-0.3930499851703644,0.021320000290870667,-0.07720000296831131,-0.41269999742507935,-0.09438999742269516],[-0.034279998391866684,-0.004040000028908253,-0.21889999508857727,0.09954000264406204,-0.3148399889469147,0.23352999985218048,-0.045180000364780426,-0.15719999372959137,-0.15442000329494476,-0.5983700156211853,-0.034690000116825104,-0.04837999865412712,-0.2688100039958954,-0.16594000160694122,0.048909999430179596,-0.12758000195026398,-0.042500000447034836],[-0.03756000101566315,-0.06272999942302704,-0.1948300004005432,-0.25402000546455383,0.13131999969482422,0.25080999732017517,-0.07298000156879425,0.036740001291036606,0.0478300005197525,0.39524000883102417,0.1607300043106079,0.13711999356746674,-0.031980000436306,-0.45186999440193176,0.35993000864982605,-0.07269000262022018,0.15862999856472015],[-0.3618699908256531,0.07982999831438065,-0.1676200032234192,0.1370300054550171,-0.309469997882843,0.028860000893473625,0.13011999428272247,0.28894999623298645,-0.24288000166416168,0.21441000699996948,0.12481000274419785,-0.3339900076389313,0.28812000155448914,0.2390500009059906,0.0521400012075901,-0.06520000100135803,-0.15195000171661377],[-0.10649999976158142,0.08336000144481659,-0.1871899962425232,0.05307000130414963,0.11364000290632248,0.32332998514175415,-0.13752000033855438,0.14047999680042267,-0.05920000001788139,-0.13234999775886536,-0.04842999950051308,0.13614000380039215,-0.21593999862670898,0.39520999789237976,0.020800000056624413,0.00482999999076128,-0.368910014629364],[0.16141000390052795,0.07390999794006348,-0.08888000249862671,0.07649999856948853,-0.22247999906539917,-0.06111999973654747,-0.04980999976396561,0.014999999664723873,-0.04402000084519386,0.15695999562740326,-0.0321200005710125,0.0493599995970726,0.022630000486969948,-0.05728000029921532,-0.38809001445770264,0.6569300293922424,0.032519999891519547],[-0.3449000120162964,0.3899199962615967,0.09536000341176987,0.13050000369548798,0.03141000121831894,0.19785000383853912,-0.09977000206708908,0.06491000205278397,0.33359000086784363,0.07308000326156616,0.053690001368522644,-0.0689999982714653,-0.07281000167131424,0.17574000358581543,-0.04278000071644783,0.197270005941391,-0.2634899914264679],[0.14639000594615936,-0.10818000137805939,0.04207000136375427,0.07490000128746033,-0.05189000070095062,-0.12310999631881714,0.13348999619483948,0.20344999432563782,-0.23326000571250916,0.16116000711917877,-0.07773000001907349,0.03658999875187874,-0.19568000733852386,0.39768001437187195,0.007739999797195196,-0.05054999887943268,0.10943999886512756],[-0.30671998858451843,0.06312999874353409,0.10198000073432922,0.008489999920129776,0.025510000064969063,0.1573999971151352,-0.09702999889850616,0.24083000421524048,-0.1224299967288971,0.1742199957370758,0.01810000091791153,0.06803999841213226,0.07005999982357025,0.06425999850034714,0.001769999973475933,0.43667998909950256,0.17163999378681183],[-0.26789000630378723,-0.010289999656379223,-0.1145000010728836,-0.0333699993789196,-0.057739999145269394,-0.02783999964594841,0.07637999951839447,0.3169200122356415,-0.02833000011742115,-0.20823000371456146,-0.1973000019788742,-0.2766999900341034,0.13489000499248505,0.06282000243663788,-0.13874000310897827,-0.35512998700141907,-0.16126999258995056],[-0.000539999979082495,-0.2873600125312805,0.16384999454021454,-0.09138999879360199,-0.37003999948501587,0.035029999911785126,-0.09320999681949615,-0.17736999690532684,-0.193790003657341,0.020419999957084656,-0.06241999939084053,0.0749099999666214,0.13556000590324402,-0.2794800102710724,0.025369999930262566,-0.27667999267578125,-0.011459999717772007],[-0.06772000342607498,-0.2288299947977066,0.045079998672008514,0.01875999942421913,-0.04261999949812889,-0.1633400022983551,0.09096000343561172,-0.25115999579429626,0.16824999451637268,-0.34762999415397644,-0.11541999876499176,-0.13489000499248505,-0.0581899993121624,-0.10797999799251556,-0.05235999822616577,0.013910000212490559,0.07631000131368637],[-0.016759999096393585,0.3216400146484375,-0.028720000758767128,-0.04462999850511551,0.03821000084280968,-0.2408899962902069,-0.10125000029802322,-0.18719999492168427,0.05527999997138977,-0.09392999857664108,-0.11688999831676483,-0.010250000283122063,0.0007200000109151006,-0.06492999941110611,0.15925000607967377,-0.6972299814224243,0.17741000652313232],[0.41582000255584717,-0.15853999555110931,-0.3037000000476837,-0.10047999769449234,0.3696100115776062,0.30948999524116516,-0.021530000492930412,0.03418999910354614,0.156810000538826,0.053939998149871826,0.24299000203609467,-0.029100000858306885,0.24560000002384186,0.05967000126838684,0.08212999999523163,-0.05976000055670738,-0.14687000215053558],[0.10377000272274017,0.06136000156402588,-0.30687999725341797,0.02442000061273575,-0.196710005402565,-0.2461100071668625,-0.37981998920440674,-0.23521000146865845,0.020230000838637352,0.05282999947667122,-0.18084000051021576,0.22224999964237213,-0.2879199981689453,-0.38646000623703003,-0.08440999686717987,0.09274999797344208,0.18321000039577484],[-0.029419999569654465,0.08332999795675278,-0.06640999764204025,-0.03840000182390213,0.047759998589754105,-0.3490999937057495,0.08166000247001648,-0.23461000621318817,-0.08675999939441681,0.02319999970495701,-0.4330799877643585,-0.28185999393463135,-0.0029100000392645597,-0.3394699990749359,-0.22314999997615814,-0.20523999631404877,-0.17457999289035797],[0.1459600031375885,0.1672700047492981,-0.23288999497890472,0.046220000833272934,0.1115799993276596,0.29583999514579773,-0.08897999674081802,-0.011409999802708626,0.0016899999463930726,0.14612999558448792,-0.27858999371528625,0.13696999847888947,-0.328000009059906,-0.058079998940229416,0.1703300029039383,-0.40849998593330383,-0.045490000396966934],[0.12830999493598938,0.2830300033092499,-0.025769999250769615,-0.009750000201165676,-0.010870000347495079,0.01996999979019165,-0.12274999916553497,0.010459999553859234,0.35635000467300415,-0.13384999334812164,0.014739999547600746,-0.1281300038099289,-0.045180000364780426,-0.281139999628067,-0.28780001401901245,0.157260000705719,0.08761999756097794],[-0.14133000373840332,-0.06552000343799591,0.10796999931335449,-0.014829999767243862,-0.16495999693870544,-0.14555999636650085,0.23135000467300415,-0.26111000776290894,0.2570900022983551,-0.2840299904346466,0.021229999139904976,-0.05480999872088432,0.20258000493049622,-0.2645300030708313,-0.06102000176906586,0.15444999933242798,0.18423999845981598],[-0.14098000526428223,-0.08378999680280685,0.2998799979686737,-0.24086999893188477,-0.08771999925374985,0.05132000148296356,-0.019999999552965164,0.1835400015115738,-0.15368999540805817,-0.04569999873638153,-0.1258399933576584,-0.04938000068068504,0.08032000064849854,0.3534199893474579,-0.036010000854730606,-0.02118000015616417,0.03602999821305275],[-0.09700000286102295,-0.12317000329494476,0.14579999446868896,0.042580001056194305,-0.12612000107765198,-0.04566999897360802,0.02305999957025051,0.4000299870967865,0.0018500000005587935,0.1812800019979477,0.3174999952316284,-0.04092999920248985,0.3903000056743622,0.30877000093460083,0.2411700040102005,0.021570000797510147,0.04941000044345856],[-0.15459999442100525,-0.19769999384880066,-0.41624000668525696,-0.009709999896585941,-0.14720000326633453,0.11853999644517899,0.01372000016272068,0.28301000595092773,0.11131999641656876,0.198730006814003,-0.11590000241994858,-0.06077999994158745,-0.04307999834418297,-0.14821000397205353,-0.40174001455307007,-0.15394000709056854,-0.15945999324321747],[-0.07890000194311142,0.17358000576496124,0.2442599982023239,0.07368999719619751,-0.025059999898076057,-0.03286999836564064,0.14691999554634094,-0.4859499931335449,0.13539999723434448,0.4984300136566162,0.07072000205516815,0.15437999367713928,-0.06363999843597412,0.01858999952673912,0.023159999400377274,0.08851999789476395,0.01954999938607216],[0.2906999886035919,0.05383000150322914,-0.24469999969005585,0.11316999793052673,0.11314000189304352,-0.07862000167369843,0.16133999824523926,-0.28338998556137085,0.3109000027179718,-0.2620599865913391,0.058070000261068344,-0.02848999947309494,-0.11044000089168549,0.32019999623298645,0.13833999633789062,-0.2642099857330322,0.13469000160694122],[0.07716000080108643,0.010689999908208847,0.005630000028759241,-0.05705000087618828,0.34018000960350037,-0.17949999868869781,0.05595000088214874,0.6001600027084351,-0.02920999936759472,0.15591000020503998,0.24538999795913696,-0.026739999651908875,0.1144699975848198,0.3517400026321411,0.03925999999046326,0.210549995303154,0.15435999631881714],[0.125,-0.06435000151395798,0.14911000430583954,0.019290000200271606,-0.1960899978876114,-0.06330999732017517,-0.010440000332891941,-0.1624699980020523,-0.34714001417160034,0.052570000290870667,0.11037000268697739,0.27577999234199524,0.1138399988412857,-0.07463999837636948,0.1837099939584732,0.3965800106525421,0.04907999932765961],[-0.1563500016927719,0.384770005941391,0.14305000007152557,0.06230999901890755,0.21737000346183777,0.2706100046634674,0.10318999737501144,0.2618499994277954,0.37882000207901,0.010990000329911709,0.011850000359117985,-0.23138000071048737,-0.18832999467849731,0.08669999986886978,0.027170000597834587,0.012629999779164791,-0.22639000415802002],[-0.3796499967575073,-0.10644999891519547,-0.11156000196933746,-0.22367000579833984,-0.15804000198841095,-0.05253000184893608,-0.10384000092744827,-0.18279999494552612,0.07263000309467316,0.3308599889278412,0.24145999550819397,0.02119000069797039,-0.08055000007152557,-0.16766999661922455,0.11612000316381454,-0.01027000043541193,-0.17601999640464783],[0.2824600040912628,0.1554100066423416,-0.0206300001591444,0.04701999947428703,0.20141999423503876,-0.10463999956846237,0.15060000121593475,-0.26385998725891113,-0.04526999965310097,0.38514000177383423,-0.025699999183416367,-0.062300000339746475,0.0777600035071373,-0.012330000288784504,-0.018290000036358833,0.40845999121665955,-0.2357500046491623],[-0.0421300008893013,-0.32736000418663025,0.08049000054597855,-0.01972999982535839,-0.09808000177145004,-0.15139999985694885,-0.06553000211715698,0.5877699851989746,-0.043710000813007355,-0.12251000106334686,0.10688000172376633,0.054499998688697815,0.18166999518871307,0.16761000454425812,0.18657000362873077,0.0451200008392334,0.41148999333381653],[0.11829999834299088,0.23521000146865845,0.1684499979019165,-0.09882000088691711,-0.18063999712467194,-0.04498999938368797,-0.23962999880313873,0.020109999924898148,0.44350001215934753,0.007660000119358301,-0.08502999693155289,0.1088699996471405,-0.03468000143766403,-0.15334999561309814,0.035009998828172684,0.14488999545574188,0.21671999990940094],[0.06312999874353409,0.009390000253915787,0.2398499995470047,-0.04089999943971634,0.13007999956607819,0.011269999668002129,0.002050000010058284,-0.0357000008225441,0.25157999992370605,-0.517490029335022,0.010769999586045742,0.3617900013923645,-0.22599999606609344,-0.3488999903202057,-0.1293099969625473,0.08910000324249268,0.039889998733997345],[0.04548000171780586,-0.11430999636650085,-0.2629599869251251,0.09815999865531921,0.29662999510765076,0.030789999291300774,-0.05663000047206879,0.12382999807596207,-0.1486700028181076,-0.43123000860214233,-0.16619999706745148,0.059209998697042465,0.02410000003874302,0.13096000254154205,0.05708000063896179,-0.1420699954032898,0.5325199961662292],[0.02263999916613102,0.2888000011444092,-0.0342399999499321,0.020150000229477882,0.08425000309944153,-0.12882000207901,0.14519000053405762,-0.1760600060224533,0.2972399890422821,0.2785800099372864,-0.061980001628398895,0.11539000272750854,-0.22899000346660614,-0.21547000110149384,-0.17418000102043152,0.3496299982070923,-0.44200998544692993],[0.0318400003015995,0.08370999991893768,-0.19516000151634216,0.2204499989748001,0.07253000140190125,-0.09672000259160995,-0.06448999792337418,-0.29497000575065613,0.14052000641822815,-0.013159999623894691,0.23565000295639038,-0.08123999834060669,-0.024469999596476555,-0.13106000423431396,0.2599700093269348,-0.28286001086235046,0.04357999935746193],[0.2520900070667267,-0.1358100026845932,-0.05297999829053879,-0.08100000023841858,-0.0626399964094162,0.02078999951481819,-0.06792999804019928,0.33362001180648804,0.05260000005364418,0.4230700135231018,0.2480500042438507,0.04512999951839447,0.1395300030708313,0.009479999542236328,0.1599700003862381,-0.07164999842643738,0.008580000139772892],[0.3408200144767761,-0.062150001525878906,0.0768899992108345,0.13631999492645264,-0.1815599948167801,-0.48521000146865845,0.168380007147789,0.08833000063896179,-0.2278899997472763,-0.05073000118136406,0.026680000126361847,-0.06584999710321426,-0.04301999881863594,0.19853000342845917,-0.043719999492168427,0.19949999451637268,-0.12716999650001526],[-0.21431000530719757,0.20970000326633453,0.19665999710559845,0.15524999797344208,-0.4106599986553192,-0.04039999842643738,0.12442000210285187,-0.0004900000058114529,0.049389999359846115,0.20180000364780426,0.0005600000149570405,0.0022899999748915434,0.029680000618100166,-0.14309999346733093,-0.25080999732017517,0.24360999464988708,0.10644999891519547],[0.09166999906301498,-0.27202001214027405,0.09943000227212906,-0.050689999014139175,-0.08459000289440155,0.0044200001284480095,0.15588000416755676,-0.009630000218749046,-0.22134999930858612,0.09431999921798706,-0.1909099966287613,0.08117000013589859,-0.27230000495910645,-0.3618299961090088,-0.19370999932289124,-0.23837999999523163,-0.12496999651193619],[-0.19864000380039215,-0.10296999663114548,0.07457999885082245,0.03181000053882599,0.06683000177145004,-0.01513999979943037,0.1370999962091446,-0.04297000169754028,-0.19721999764442444,0.3467699885368347,0.062369998544454575,0.24011999368667603,-0.09362000226974487,-0.03878000006079674,0.0754999965429306,0.18389999866485596,0.3003099858760834],[0.2583500146865845,0.29104000329971313,0.2853499948978424,0.055890001356601715,0.3020800054073334,0.15071000158786774,0.2773500084877014,-0.10296999663114548,-0.13731999695301056,-0.12245000153779984,-0.20674000680446625,-0.14409999549388885,-0.02742999978363514,0.2443699985742569,-0.1312199980020523,-0.4875899851322174,0.2132599949836731],[-0.04255999997258186,0.3274799883365631,-0.10365000367164612,-0.005249999929219484,-0.2863999903202057,0.3010199964046478,-0.15717999637126923,-0.010060000233352184,0.009119999594986439,0.3802500069141388,-0.13515999913215637,-0.259770005941391,0.1698099970817566,-0.010929999873042107,-0.1645900011062622,0.21815000474452972,0.11178000271320343],[-0.1130400002002716,0.03220999985933304,-0.07039999961853027,-0.01319000031799078,-0.035509999841451645,-0.25415000319480896,-0.2708500027656555,0.1143300011754036,-0.10801000148057938,-0.3458699882030487,-0.2720099985599518,0.07786999642848969,-0.12268999963998795,-0.06460999697446823,-0.08397000283002853,-0.2671799957752228,0.024620000272989273],[-0.0025599999353289604,0.13613000512123108,0.010239999741315842,0.11327999830245972,0.1603199988603592,0.06865999847650528,0.24347999691963196,-0.26203998923301697,0.21591000258922577,0.2666899859905243,0.26469001173973083,0.17810000479221344,0.3714199960231781,-0.2621999979019165,0.5597000122070312,-0.18313999474048615,0.03726999834179878],[-0.08794999867677689,0.3272800147533417,0.27004000544548035,0.0686199963092804,-0.29339998960494995,-0.010579999536275864,0.03683000057935715,0.06674999743700027,0.1234000027179718,-0.08371999859809875,-0.029689999297261238,-0.02370000071823597,-0.05222000181674957,-0.2583700120449066,-0.15538999438285828,-0.06055999919772148,-0.262939989566803],[-0.16554999351501465,0.28099000453948975,0.09612999856472015,-0.1509300023317337,0.06545999646186829,0.165010005235672,0.14050999283790588,0.06575000286102295,-0.12657000124454498,-0.01906999945640564,0.2141299992799759,0.0033400000538676977,0.2246900051832199,0.33730998635292053,-0.13515999913215637,0.21160000562667847,-0.20590999722480774],[-0.09195999801158905,-0.1521800011396408,0.03254000097513199,-0.1376899927854538,0.08823999762535095,-0.01575000025331974,-0.20951999723911285,0.004720000084489584,-0.20979000627994537,0.47530001401901245,0.13089999556541443,0.18403999507427216,-0.1941699981689453,-0.06718999892473221,0.43533000349998474,0.13186000287532806,0.13162000477313995],[0.05909999832510948,0.12803000211715698,-0.024010000750422478,0.2595300078392029,-0.03180000185966492,-0.36188000440597534,-0.0826599970459938,0.1747100055217743,0.0965299978852272,0.07340999692678452,-0.015610000118613243,-0.2238599956035614,-0.024229999631643295,-0.28049999475479126,-0.008489999920129776,-0.31575000286102295,0.1350499987602234],[-0.5851699709892273,0.16519999504089355,-0.13381999731063843,-0.038830000907182693,-0.07241000235080719,0.16685999929904938,0.04675000160932541,0.09262999892234802,-0.01844000071287155,-0.08547999709844589,0.25450998544692993,-0.01981000043451786,-0.1863899976015091,-0.17594000697135925,-0.06356000155210495,0.32701000571250916,0.17118999361991882],[-0.15591999888420105,-0.08727999776601791,-0.06662999838590622,0.0738300010561943,-0.13815000653266907,0.2647800147533417,-0.25435999035835266,-0.23115000128746033,-0.2887899875640869,-0.2303999960422516,-0.4040600061416626,0.0473099984228611,-0.23303000628948212,-0.08325999975204468,-0.028699999675154686,-0.43490999937057495,-0.10283999890089035],[-0.13291999697685242,-0.05892999842762947,0.05432000011205673,-0.0008500000112690032,0.2509799897670746,-0.20498999953269958,-0.05477000027894974,-0.13106000423431396,-0.0008800000068731606,-0.22777000069618225,-0.14345000684261322,-0.04332999885082245,0.265859991312027,0.15522000193595886,0.06524000316858292,0.29385000467300415,0.17726999521255493],[0.16867999732494354,-0.00863999966531992,0.09453999996185303,-0.0637499988079071,-0.0640999972820282,-0.25383999943733215,-0.14169999957084656,-0.03320999816060066,0.06360000371932983,0.5257400274276733,-0.018330000340938568,-0.1726599931716919,-0.18945999443531036,0.07732000201940536,0.1652899980545044,-0.4142799973487854,-0.1992100030183792],[-0.1506199985742569,-0.40139999985694885,0.07236000150442123,-0.2648800015449524,-0.03497999906539917,0.006409999914467335,-0.2249400019645691,0.049880001693964005,-0.06157999858260155,-0.009650000371038914,-0.06503999978303909,0.17321999371051788,-0.27581000328063965,0.223130002617836,-0.09690999984741211,0.15147000551223755,-0.2893800139427185],[-0.18143999576568604,-0.09232000261545181,-0.02677999995648861,-0.1966799944639206,-0.1393900066614151,0.2750999927520752,0.03618999943137169,-0.07676000148057938,0.08049999922513962,-0.39048001170158386,0.027780000120401382,-0.020169999450445175,-0.08556000143289566,-0.4004499912261963,-0.13547000288963318,0.04405000060796738,-0.509909987449646],[-0.19415000081062317,-0.1281300038099289,0.11778999865055084,-0.003169999923557043,0.0034199999645352364,-0.11877000331878662,-0.0743900015950203,0.12635000050067902,-0.10732000321149826,-0.275519996881485,-0.007540000136941671,-0.07885000109672546,0.10561999678611755,-0.10801000148057938,-0.12011999636888504,0.790440022945404,0.22417999804019928],[-0.09554000198841095,0.13104000687599182,-0.20712999999523163,0.2859799861907959,-0.23170000314712524,-0.05917999893426895,-0.10447999835014343,-0.17387999594211578,0.005810000002384186,-0.29517999291419983,-0.3796600103378296,-0.1307699978351593,0.06985999643802643,0.32975998520851135,-0.037459999322891235,-0.3048799932003021,0.17309999465942383],[-0.014469999819993973,0.0873899981379509,-0.07582999765872955,0.33921998739242554,0.014019999653100967,0.06610000133514404,0.09971000254154205,-0.01817999966442585,0.01549999974668026,-0.3338800072669983,0.28224998712539673,0.1570100039243698,-0.09864000231027603,0.09653999656438828,0.16640999913215637,0.4072999954223633,0.1590700000524521],[0.1553799957036972,-0.15794000029563904,-0.09098999947309494,-0.05950000137090683,-0.26815998554229736,-0.35694000124931335,-0.023310000076889992,-0.13586999475955963,0.224590003490448,-0.15035000443458557,-0.16804000735282898,0.011060000397264957,-0.1887499988079071,0.004449999891221523,-0.03790999948978424,0.12499000132083893,0.18242000043392181],[-0.26229000091552734,-0.007040000054985285,-0.11765000224113464,0.266510009765625,0.06656000018119812,0.10969000309705734,0.10078000277280807,0.25887998938560486,0.14801999926567078,-0.1130400002002716,-0.35989001393318176,-0.3521000146865845,0.02095000073313713,0.07704000174999237,-0.5252500176429749,-0.03650999814271927,0.11653999984264374],[0.15865999460220337,-0.10886000096797943,0.11507999897003174,0.14544999599456787,0.0013500000350177288,0.17687000334262848,0.04803000018000603,0.15476000308990479,-0.09015999734401703,0.17191000282764435,0.006899999920278788,-0.07541000097990036,0.11429999768733978,-0.036410000175237656,0.17529000341892242,0.16516000032424927,0.11542999744415283],[-0.22892999649047852,0.12167000025510788,0.21411000192165375,-0.025930000469088554,-0.07618000358343124,0.34244999289512634,0.24812999367713928,-0.39184001088142395,0.13482999801635742,-0.137580007314682,0.02986999973654747,0.22589999437332153,0.18772999942302704,-0.2861599922180176,0.05987999960780144,-0.1251399964094162,-0.2433599978685379],[0.15921999514102936,-0.3119800090789795,-0.08974000066518784,0.10309000313282013,-0.0363599993288517,0.19582000374794006,-0.14246000349521637,0.2947100102901459,-0.23865999281406403,0.07502999901771545,0.011180000379681587,-0.2013700008392334,-0.09790000319480896,0.38552001118659973,-0.0848499983549118,-0.4946399927139282,-0.03914999961853027],[-0.09848000109195709,0.07011999934911728,0.2085600048303604,0.0847800001502037,0.19205999374389648,0.0024900001008063555,-0.17529000341892242,0.05494000017642975,-0.28988999128341675,-0.08262000232934952,0.06257999688386917,0.11974000185728073,-0.2523399889469147,-0.4948199987411499,-0.2189200073480606,-0.07429999858140945,0.39434999227523804],[-0.04512999951839447,-0.26987001299858093,-0.12601999938488007,-0.10145000368356705,-0.1228799968957901,-0.5425500273704529,0.06357000023126602,-0.20148000121116638,0.05240999907255173,0.23206999897956848,0.12692999839782715,0.00791999977082014,-0.03310000151395798,0.051979999989271164,0.12407000362873077,0.388839989900589,0.19755999743938446],[-0.05008000135421753,-0.27480000257492065,-0.23434999585151672,0.11187999695539474,-0.0485600009560585,0.030950000509619713,-0.11148999631404877,0.2960900068283081,-0.28220999240875244,0.27643999457359314,-0.21852000057697296,0.12336000055074692,-0.027620000764727592,-0.0950699970126152,0.16718000173568726,-0.2612200081348419,0.3215399980545044],[0.1828799992799759,0.2876400053501129,-0.16857999563217163,0.19682000577449799,0.1257299929857254,-0.2928699851036072,0.18523000180721283,0.15610000491142273,0.08882000297307968,0.10841000080108643,0.034529998898506165,-0.16732999682426453,0.036240000277757645,-0.3015199899673462,-0.08511999994516373,-0.16753000020980835,0.17114999890327454],[-0.1545100063085556,-0.09657000005245209,0.1685599982738495,-0.11533000320196152,-0.08771000057458878,0.20148999989032745,0.11581999808549881,0.04707999899983406,-0.09593000262975693,-0.04932999983429909,-0.028389999642968178,0.052650000900030136,0.2649100124835968,-0.39649999141693115,0.2102700024843216,0.10965999960899353,-0.3453800082206726],[0.17966000735759735,-0.35190001130104065,-0.018379999324679375,0.03164000064134598,-0.09335999935865402,0.16175000369548798,-0.048250000923871994,-0.06227000057697296,-0.282370001077652,-0.13617999851703644,-0.029009999707341194,-0.1545100063085556,0.03466999903321266,-0.068790003657341,0.14090999960899353,0.12122999876737595,-0.21265999972820282],[0.05480999872088432,0.1576399952173233,0.17764000594615936,0.015359999611973763,-0.019610000774264336,-0.3302299976348877,-0.10298000276088715,0.47585999965667725,0.07697000354528427,-0.01336000021547079,-0.21644000709056854,-0.1341799944639206,0.17077000439167023,-0.07182999700307846,0.09668000042438507,-0.06785999983549118,0.05435999855399132],[-0.39741000533103943,0.1790899932384491,0.08835999667644501,0.08443000167608261,-0.0028899998869746923,-0.15233999490737915,-0.15365000069141388,0.21559999883174896,0.02044999971985817,0.046220000833272934,0.13492000102996826,0.15809999406337738,0.21341000497341156,0.07749000191688538,0.22878000140190125,0.026580000296235085,0.3384000062942505],[-0.0611100010573864,0.14696000516414642,-0.2020300030708313,0.21453000605106354,-0.09522999823093414,0.0853400006890297,0.04204000160098076,0.153329998254776,0.2460000067949295,-0.03644999861717224,-0.05838000029325485,-0.07051999866962433,-0.047970000654459,0.22594000399112701,-0.2159299999475479,-0.3172299861907959,0.16128000617027283],[0.1360200047492981,0.10298000276088715,0.10542000085115433,-0.22682000696659088,-0.1076899990439415,-0.17363999783992767,0.02744000032544136,0.5954499840736389,-0.1809699982404709,0.4041000008583069,0.18310000002384186,-0.07788000255823135,-0.12195000052452087,-0.21110999584197998,0.2641899883747101,0.1289999932050705,-0.18519000709056854],[-0.01063000038266182,-0.037700001150369644,-0.24893000721931458,-0.01874000020325184,0.031230000779032707,-0.2585600018501282,0.12086000293493271,0.09996999800205231,0.21089999377727509,0.15674999356269836,0.08743999898433685,-0.06413999944925308,0.06046999990940094,0.09303999692201614,-0.2592200040817261,0.2073799967765808,-0.3005799949169159],[0.20367999374866486,0.044429998844861984,-0.04380999878048897,-0.022949999198317528,0.14306999742984772,-0.18890999257564545,0.1406400054693222,-0.3348099887371063,0.10977999866008759,0.15437999367713928,0.055479999631643295,0.03781000152230263,0.23600000143051147,0.015150000341236591,0.07583999633789062,0.07174000144004822,0.5297099947929382],[0.021770000457763672,-0.3197900056838989,0.10266000032424927,-0.07501000165939331,0.12261000275611877,-0.06262999773025513,-0.13613000512123108,-0.1313599944114685,0.0019000000320374966,0.13274000585079193,0.021560000255703926,-0.04108000174164772,0.15528999269008636,-0.27121999859809875,0.1071700006723404,0.246069997549057,-0.08699999749660492],[0.027049999684095383,-0.15952999889850616,0.09853000193834305,-0.09527000039815903,-0.018859999254345894,-0.18348999321460724,0.045409999787807465,0.17611999809741974,-0.33009999990463257,0.050289999693632126,-0.05758000165224075,-0.10019999742507935,-0.2167000025510788,-0.10587000101804733,-0.132860004901886,0.29427000880241394,0.05948999896645546],[-0.31911998987197876,0.37171998620033264,-0.01889999955892563,-0.004379999823868275,-0.09745000302791595,0.13097000122070312,0.07267999649047852,0.40081000328063965,0.1954900026321411,0.03286999836564064,0.22070999443531036,0.06366000324487686,0.07964000105857849,0.13906000554561615,-0.17496000230312347,-0.2667100131511688,-0.04213999956846237],[0.238769993185997,-0.0955599993467331,0.01030999980866909,0.0362900011241436,-0.04044000059366226,-0.20338000357151031,0.19762000441551208,-0.12849999964237213,0.2068600058555603,0.09244000166654587,0.04115999862551689,-0.004769999999552965,-0.05623999983072281,0.15895000100135803,0.06685999780893326,0.40709999203681946,0.33952000737190247],[0.07653000205755234,0.24011999368667603,-0.17712000012397766,0.17584000527858734,0.05017000064253807,0.10162000358104706,-0.13527999818325043,0.11319000273942947,0.09159000217914581,-0.39004001021385193,-0.13454000651836395,-0.01358999963849783,-0.06026000156998634,0.2842400074005127,-0.04436999931931496,-0.16319000720977783,0.10773999989032745],[0.09004999697208405,-0.15220999717712402,0.13208000361919403,-0.22164000570774078,-0.014940000139176846,-0.09860000014305115,-0.10931000113487244,-0.10950999706983566,-0.2698799967765808,-0.005619999952614307,0.11745999753475189,0.41144001483917236,0.0688600018620491,-0.20778000354766846,0.21904000639915466,0.12143000215291977,-0.1437399983406067],[-0.12015999853610992,0.07850000262260437,0.19327999651432037,0.09689000248908997,-0.32109999656677246,0.2517800033092499,0.1790499985218048,0.25064998865127563,0.08601000159978867,-0.2024500072002411,-0.15129999816417694,-0.04075999930500984,0.22119000554084778,-0.13033999502658844,-0.24574999511241913,0.20198999345302582,-0.15556000173091888],[-0.21629999577999115,0.3108699917793274,0.040460001677274704,0.10819000005722046,0.12960000336170197,0.046560000628232956,0.14438000321388245,0.09250999987125397,-0.05962999910116196,-0.24934999644756317,0.025469999760389328,0.02913999930024147,-0.03144000098109245,0.02687999978661537,-0.20204000174999237,0.3892799913883209,-0.13086000084877014],[0.00018000000272877514,0.022949999198317528,-0.4264799952507019,-0.08036000281572342,0.07941000163555145,-0.2902100086212158,0.16728000342845917,0.002360000042244792,0.11197999864816666,-0.22224000096321106,-0.08839999884366989,-0.08250000327825546,0.02930000051856041,-0.0020200000144541264,-0.3048500120639801,0.2249699980020523,-0.017109999433159828],[0.17000000178813934,-0.039799999445676804,0.11573000252246857,-0.06274999678134918,0.017270000651478767,-0.008419999852776527,0.25255998969078064,-0.030640000477433205,-0.06187000125646591,-0.3085399866104126,-0.25029000639915466,-0.35447999835014343,0.3141300082206726,-0.04422000050544739,-0.10655000060796738,0.22815999388694763,0.016499999910593033],[-0.02126999944448471,-0.19773000478744507,-0.009469999931752682,-0.10736999660730362,0.0725800022482872,-0.19267000257968903,0.15749000012874603,-0.1711599975824356,-0.20305000245571136,0.3131299912929535,-0.047200001776218414,0.18813000619411469,-0.0856499969959259,-0.2563999891281128,0.2633500099182129,0.12750999629497528,0.21157999336719513],[-0.4077700078487396,-0.23446999490261078,-0.18129000067710876,-0.057989999651908875,-0.09968999773263931,0.18398000299930573,0.02053000032901764,-0.3320299983024597,-0.13225999474525452,0.08765000104904175,-0.46074000000953674,-0.12178000062704086,-0.01145000010728836,-0.18567000329494476,0.06046000123023987,-0.2091600000858307,0.03195999935269356],[0.24260999262332916,-0.10559999942779541,0.017400000244379044,0.10079000145196915,-0.26805999875068665,-0.04605000093579292,-0.29027000069618225,0.36528000235557556,0.20236000418663025,0.02150999940931797,0.07918000221252441,0.1824599951505661,0.08183000236749649,-0.2012999951839447,-0.15581999719142914,0.1484600007534027,0.24426999688148499],[0.1394599974155426,-0.289029985666275,-0.08224000036716461,0.0003000000142492354,-0.03373999893665314,-0.04097000136971474,-0.5001400113105774,0.14528000354766846,-0.20875999331474304,0.05754999816417694,-0.18887999653816223,-0.12605999410152435,-0.15780000388622284,0.13788999617099762,0.01631000079214573,0.057020001113414764,-0.17949999868869781],[0.008390000090003014,0.08861000090837479,-0.1943800002336502,-0.015769999474287033,0.22245000302791595,-0.2787500023841858,0.24028000235557556,0.2648699879646301,-0.15672999620437622,0.30195000767707825,0.14789000153541565,-0.061409998685121536,0.03221999853849411,0.025499999523162842,0.01396000012755394,-0.023509999737143517,0.36528998613357544],[-0.1326799988746643,0.16673000156879425,-0.05381999909877777,-0.24432000517845154,0.1391499936580658,-0.005570000037550926,-0.014639999717473984,0.030889999121427536,0.2022700011730194,-0.4167099893093109,0.12370000034570694,0.04261000081896782,-0.02208000048995018,-0.247639998793602,0.04981999844312668,0.005369999911636114,0.31887000799179077],[0.044780001044273376,-0.15228000283241272,-0.0021699999924749136,-0.19311000406742096,0.32872000336647034,-0.05720999836921692,-0.029610000550746918,0.10532999783754349,-0.11714000254869461,-0.29131999611854553,-0.16635000705718994,-0.014759999699890614,-0.22407999634742737,0.2082899957895279,-0.22351999580860138,0.08833999931812286,0.4897800087928772],[-0.07475999742746353,0.03339000046253204,-0.05855000019073486,0.03466999903321266,-0.4315299987792969,0.07453999668359756,0.164560005068779,-0.13605999946594238,0.16824999451637268,-0.10224000364542007,0.041510000824928284,-0.2530499994754791,0.016939999535679817,-0.33621999621391296,-0.14226000010967255,0.05486999824643135,-0.06160999834537506],[-0.32152000069618225,0.014659999869763851,-0.1286499947309494,-0.059939999133348465,0.05525999888777733,0.10719999670982361,-0.05567999929189682,0.4359300136566162,0.2779499888420105,-0.13912999629974365,0.04267000034451485,-0.18811999261379242,-0.10890000313520432,0.055560000240802765,-0.21462999284267426,0.10670000314712524,0.06836000084877014],[-0.014960000291466713,0.1732099950313568,0.28481000661849976,-0.37950000166893005,0.06757000088691711,-0.055330000817775726,0.10063000023365021,0.24621999263763428,0.15782000124454498,-0.03824000060558319,-0.19710999727249146,0.32857000827789307,-0.38308998942375183,-0.021539999172091484,-0.16534000635147095,0.11747000366449356,-0.15818999707698822],[0.09560000151395798,-0.4630599915981293,0.04487000033259392,-0.23563000559806824,0.05293000116944313,-0.05959999933838844,-0.15522000193595886,-0.1763100028038025,-0.23337000608444214,0.09008999913930893,-0.2845500111579895,-0.096670001745224,-0.2614400088787079,-0.16011999547481537,-0.15142999589443207,0.03548000007867813,-0.04834999889135361],[-0.05663999915122986,0.011579999700188637,-0.04938000068068504,0.1407800018787384,0.09262000024318695,-0.10192999988794327,-0.15806999802589417,-0.4228299856185913,0.09855999797582626,-0.18756000697612762,-0.12853999435901642,-0.058159999549388885,-0.15972000360488892,0.5167800188064575,-0.1378300040960312,-0.07818000018596649,0.34769999980926514],[-0.1439100056886673,0.2665199935436249,-0.08658000081777573,0.28014999628067017,0.17382000386714935,0.2825300097465515,0.07829999923706055,0.1838800013065338,0.2064799964427948,-0.02621999941766262,-0.0023799999617040157,-0.10249999910593033,0.00039999998989515007,0.15764999389648438,0.08859000355005264,-0.018279999494552612,0.3099200129508972],[0.16213999688625336,0.12849999964237213,-0.02864000014960766,0.1400199979543686,-0.09164000302553177,0.2699199914932251,0.21097999811172485,-0.19251999258995056,-0.19039000570774078,0.27948999404907227,0.03612000122666359,-0.03361000120639801,-0.027809999883174896,-0.14571000635623932,0.0736600011587143,-0.2660199999809265,0.06047999858856201],[-0.06666000187397003,0.17899000644683838,0.10811000317335129,0.06561999768018723,0.13802999258041382,-0.004860000219196081,0.09038999676704407,-0.2464900016784668,-0.16976000368595123,-0.11903999745845795,-0.20059999823570251,-0.10253000259399414,0.05449000000953674,0.02776999957859516,0.2908799946308136,-0.7691100239753723,-0.06968999654054642],[0.2879999876022339,0.12099000066518784,0.02775000035762787,0.2654300034046173,0.011529999785125256,0.29287999868392944,0.03767000138759613,-0.3128100037574768,-0.06367000192403793,0.07816000282764435,0.04546000063419342,0.04751000180840492,0.11722999811172485,-0.18768000602722168,0.08100999891757965,-0.049789998680353165,-0.13077999651432037],[-0.1438400000333786,0.31262001395225525,0.004490000195801258,-0.29715999960899353,0.07816000282764435,-0.055399999022483826,0.42976000905036926,0.24427999556064606,0.049240000545978546,0.025709999725222588,0.0700099989771843,-0.014820000156760216,-0.06419999897480011,-0.08874999731779099,-0.2834700047969818,0.0027799999807029963,-0.16019000113010406],[-0.33427000045776367,-0.08259999752044678,-0.07644999772310257,0.0685499981045723,-0.03598000109195709,-0.19103999435901642,-0.04978000000119209,0.3270399868488312,-0.11890000104904175,-0.20257000625133514,-0.16878999769687653,0.059849999845027924,-0.048990000039339066,-0.23478999733924866,-0.18862999975681305,0.35141000151634216,0.30827000737190247],[-0.24995000660419464,-0.03911000117659569,-0.10134000331163406,-0.25951001048088074,0.026189999654889107,-0.13323000073432922,-0.17308999598026276,0.08938000351190567,-0.05917999893426895,0.13905000686645508,0.0772399976849556,-0.03925999999046326,-0.2988699972629547,0.15674999356269836,-0.13492000102996826,0.3805199861526489,-0.14016999304294586],[0.02776000089943409,0.12657000124454498,-0.20672999322414398,0.21359999477863312,-0.12015999853610992,-0.10898000001907349,-0.09889999777078629,0.23431000113487244,-0.10457000136375427,0.16707000136375427,0.07780999690294266,0.24863000214099884,-0.16037000715732574,-0.3443099856376648,-0.010619999840855598,0.06866999715566635,0.06564000248908997],[-0.13359999656677246,0.023900000378489494,-0.26014000177383423,-0.24740000069141388,0.0774800032377243,-0.063230000436306,0.2177100032567978,-0.12298999726772308,0.362309992313385,0.17047999799251556,-0.17479999363422394,-0.11359000205993652,0.08974999934434891,0.23520000278949738,-0.2537199854850769,0.4062199890613556,-0.03754999861121178],[0.06802999973297119,-0.0833199992775917,0.01355000026524067,-0.0676800012588501,0.06532999873161316,0.08500000089406967,-0.1887200027704239,0.08365000039339066,-0.20970000326633453,0.09294000267982483,-0.34946000576019287,-0.4014599919319153,0.14667999744415283,-0.2159699946641922,-0.38672998547554016,0.16764000058174133,-0.2093600034713745],[-0.15853999555110931,0.08568999916315079,0.15703000128269196,-0.16011999547481537,-0.004310000222176313,0.12272000312805176,-0.16822999715805054,-0.02735999971628189,0.05473000183701515,0.10074000060558319,-0.12582999467849731,-0.24081000685691833,0.1562100052833557,-0.11264000087976456,-0.12845000624656677,-0.0660799965262413,-0.35929998755455017],[0.006380000151693821,-0.16148999333381653,0.051649998873472214,0.1266999989748001,-0.06074000149965286,-0.39601001143455505,0.2482299953699112,-0.1830500066280365,-0.15271000564098358,-0.2256699949502945,0.09285999834537506,-0.0742499977350235,0.31292998790740967,-0.3375299870967865,0.04613000154495239,0.15193000435829163,-0.3490999937057495],[-0.03553000092506409,-0.11010000109672546,0.0061599998734891415,-0.22032999992370605,0.06453999876976013,-0.23905999958515167,-0.18743999302387238,0.34286001324653625,0.06341999769210815,0.17723999917507172,0.04495999962091446,-0.13354000449180603,0.16719000041484833,0.3691500127315521,-0.06564000248908997,0.5539199709892273,0.3448599874973297],[-0.18126000463962555,0.22939999401569366,-0.049240000545978546,0.10021000355482101,0.19902999699115753,0.20385999977588654,-0.010029999539256096,0.05793000012636185,0.27017998695373535,-0.1599700003862381,0.02889999933540821,0.013509999960660934,-0.16595999896526337,-0.0363599993288517,-0.029100000858306885,0.3629800081253052,-0.17960000038146973],[0.2777999937534332,0.44051000475883484,-0.06328000128269196,0.03957999870181084,-0.20667000114917755,-0.12494000047445297,0.19155000150203705,-0.17080000042915344,0.24875999987125397,0.12161000072956085,0.10537000000476837,0.04822000116109848,0.20237000286579132,0.2230300009250641,0.058150000870227814,-0.2028599977493286,0.018139999359846115],[-0.04791000112891197,0.26399001479148865,-0.32210999727249146,-0.12591999769210815,0.135670006275177,0.09171999990940094,0.0075599998235702515,-0.3462100028991699,0.2181600034236908,-0.32690998911857605,0.14930999279022217,0.08721999824047089,0.03923000022768974,-0.0269399993121624,-0.01107999961823225,-0.243709996342659,-0.23247000575065613],[-0.08290000259876251,-0.20300999283790588,0.07259999960660934,-0.12972000241279602,-0.17440000176429749,-0.08942999690771103,-0.05502000078558922,0.1348000019788742,-0.15207000076770782,0.08116000145673752,-0.3310700058937073,-0.24205000698566437,0.07061000168323517,-0.21155999600887299,-0.16314999759197235,-0.023399999365210533,-0.4603300094604492],[0.04913000017404556,0.4135900139808655,-0.3023099899291992,0.15676000714302063,-0.08233000338077545,-0.15791000425815582,0.13144999742507935,-0.11890000104904175,0.005499999970197678,0.03099999949336052,-0.037689998745918274,-0.09008000046014786,-0.03836999833583832,-0.23325000703334808,-0.18515999615192413,-0.19550000131130219,0.2652300000190735],[0.03195999935269356,-0.0018899999558925629,-0.06054000183939934,-0.014340000227093697,-0.20216000080108643,-0.17267000675201416,0.290800005197525,0.08083000034093857,-0.16685999929904938,-0.46581000089645386,-0.03390999883413315,-0.04961000010371208,0.010990000329911709,0.08974999934434891,0.10078000277280807,-0.5177000164985657,0.1542699933052063],[-0.14444999396800995,0.08393000066280365,-0.022220000624656677,-0.10198000073432922,-0.12353000044822693,0.3269599974155426,0.00547999981790781,0.1477999985218048,-0.27665001153945923,-0.11969999969005585,0.022600000724196434,-0.11633999645709991,-0.05795999988913536,0.030339999124407768,0.04772999882698059,-0.08092000335454941,-0.039080001413822174],[0.24966999888420105,0.16208000481128693,0.11631999909877777,0.013089999556541443,0.05648000165820122,-0.09606999903917313,-0.09686999768018723,0.3241499960422516,-0.01858999952673912,0.19780999422073364,-0.0699400007724762,-0.028289999812841415,0.2927300035953522,0.05908000096678734,-0.10056000202894211,0.31821998953819275,0.09594999998807907],[0.34946998953819275,-0.29368001222610474,-0.17917999625205994,-0.12439999729394913,0.213469997048378,-0.004579999949783087,-0.03139999881386757,-0.0040799998678267,-0.054829999804496765,-0.04732999950647354,0.12246000021696091,0.27549999952316284,-0.08632999658584595,0.07812000066041946,0.016030000522732735,-0.12204000353813171,-0.05920000001788139],[-0.22491000592708588,0.11784999817609787,0.017309999093413353,0.013500000350177288,0.03513000160455704,0.4376400113105774,-0.02923000045120716,-0.26052001118659973,0.1439100056886673,0.007660000119358301,0.3109399974346161,0.3068400025367737,0.021309999749064445,-0.15809999406337738,0.23362000286579132,-0.1532599925994873,0.24627000093460083],[-0.13436000049114227,0.01744000054895878,-0.047759998589754105,-0.16674000024795532,0.08601000159978867,0.4379799962043762,0.05034000054001808,-0.035999998450279236,0.2094999998807907,0.30873000621795654,0.25126999616622925,-0.03075999952852726,0.13446000218391418,-0.07887999713420868,0.038109999150037766,0.23196999728679657,0.08408000320196152],[0.02672000043094158,-0.23387999832630157,-0.02370999939739704,-0.04808000102639198,-0.035360001027584076,0.05056999996304512,-0.21872000396251678,-0.048590000718832016,0.2771399915218353,0.09477999806404114,0.1482599973678589,0.17121000587940216,-0.10749000310897827,0.31703999638557434,-0.10798999667167664,0.05299000069499016,-0.2774200141429901],[-0.24966999888420105,-0.11230000108480453,-0.44822001457214355,0.07579000294208527,0.18331000208854675,0.012849999591708183,0.22825999557971954,0.2916199862957001,-0.2582300007343292,-0.07196000218391418,-0.07861000299453735,-0.022430000826716423,-0.25450998544692993,0.307669997215271,-0.09283000230789185,-0.055070001631975174,0.04190000146627426],[0.5070099830627441,0.18907000124454498,-0.10377000272274017,0.13384999334812164,0.2418300062417984,0.06239999830722809,-0.11774999648332596,-0.25453001260757446,0.006320000160485506,0.13571999967098236,0.16940000653266907,0.1624400019645691,-0.23340000212192535,0.21438999474048615,0.1807200014591217,0.07415000349283218,0.38515999913215637],[-0.34817999601364136,-0.12035000324249268,-0.08337000012397766,0.12696999311447144,-0.09634000062942505,-0.1673000007867813,-0.17723000049591064,-0.16660000383853912,-0.2694700062274933,-0.23033000528812408,-0.04789000004529953,0.19458000361919403,-0.17409999668598175,-0.5210899710655212,0.15674999356269836,-0.23215000331401825,0.18082000315189362],[0.177729994058609,-0.060019999742507935,0.10926000028848648,0.06442999839782715,0.005940000060945749,0.09583000093698502,0.013450000435113907,-0.27566999197006226,-0.2305299937725067,0.3554899990558624,0.08077999949455261,0.015320000238716602,-0.008969999849796295,0.13950000703334808,0.15198999643325806,-0.012679999694228172,0.06202000007033348],[-0.1488099992275238,-0.12625999748706818,0.2169799953699112,0.0778999999165535,0.1481200009584427,-0.036479998379945755,-0.290800005197525,-0.027720000594854355,0.18553000688552856,-0.2341099977493286,0.1530900001525879,0.08626999706029892,0.06202000007033348,0.08895000070333481,0.36285001039505005,-0.17883999645709991,0.060339998453855515],[0.005960000213235617,-0.12878000736236572,-0.025280000641942024,-0.5049200057983398,0.14125999808311462,0.0714000016450882,0.11986999958753586,0.22443999350070953,-0.16901999711990356,-0.18282000720500946,-0.1329600065946579,0.008379999548196793,-0.0775500014424324,0.1900400072336197,0.0029100000392645597,-0.22287000715732574,0.1326500028371811],[0.4401800036430359,0.06853000074625015,-0.10042999684810638,0.1523900032043457,0.22871999442577362,-0.12126000225543976,0.08912999927997589,0.31330999732017517,-0.028839999809861183,0.09363000094890594,-0.19374999403953552,-0.13030999898910522,0.09068000316619873,0.22205999493598938,-0.10123000293970108,0.04724999889731407,-0.021290000528097153],[0.3035399913787842,-0.24469999969005585,0.12398000061511993,0.049970000982284546,0.1906999945640564,-0.2324800044298172,-0.0013299999991431832,-0.28018999099731445,0.05389000102877617,-0.20931999385356903,-0.16202999651432037,0.2296299934387207,-0.25913000106811523,-0.23941999673843384,0.06522999703884125,-0.16087999939918518,0.19663000106811523],[0.06791999936103821,-0.3930099904537201,-0.07915999740362167,0.005109999794512987,0.2884800136089325,-0.14872999489307404,0.09935999661684036,-0.10102000087499619,0.39447999000549316,0.06347999721765518,0.3303999900817871,-0.2164900004863739,0.45684999227523804,0.04335999861359596,0.3901900053024292,0.12178999930620193,-0.06532000005245209],[0.23333999514579773,-0.01939000003039837,0.1347000002861023,0.291920006275177,-0.0911799967288971,0.009909999556839466,0.15421999990940094,0.13729999959468842,-0.10179000347852707,0.05510000139474869,-0.06589999794960022,-0.22652000188827515,0.14774000644683838,0.21953999996185303,-0.4505699872970581,0.03784999996423721,0.031530000269412994],[0.2713800072669983,-0.049400001764297485,0.1110600009560585,0.1451600044965744,0.12312000244855881,0.2650899887084961,-0.06047999858856201,0.09988000243902206,-0.0805400013923645,-0.017020000144839287,-0.20191000401973724,-0.1396999955177307,0.24844999611377716,0.01018999982625246,-0.008750000037252903,-0.1598699986934662,-0.24324999749660492],[-0.004739999771118164,0.1262200027704239,0.17141999304294586,0.2525300085544586,0.0037299999967217445,0.11406999826431274,-0.015639999881386757,0.2793999910354614,0.11765000224113464,0.09385000169277191,-0.22877000272274017,-0.14655999839305878,-0.01257999986410141,0.36879000067710876,-0.15261000394821167,0.1720999926328659,0.19257000088691711],[-0.20422999560832977,-0.10802999883890152,0.16410000622272491,-0.2787800133228302,-0.018780000507831573,-0.06627999991178513,0.08235999941825867,-0.08094000071287155,-0.17053000628948212,-0.02775000035762787,0.001820000004954636,0.17564000189304352,0.05522000044584274,-0.22728000581264496,0.5966799855232239,-0.49966999888420105,-0.015939999371767044],[0.1916700005531311,0.008310000412166119,-0.12734000384807587,0.05688000097870827,-0.16685999929904938,-0.08606000244617462,0.08882000297307968,-0.21220999956130981,0.06686999648809433,-0.17570999264717102,-0.05722999945282936,0.11761999875307083,-0.25367000699043274,-0.15265999734401703,-0.2940399944782257,-0.040950000286102295,0.277539998292923],[0.04125000163912773,0.3006899952888489,-0.1886499971151352,0.2238599956035614,-0.004840000066906214,0.13798999786376953,0.0029200001154094934,-0.1522900015115738,0.19866999983787537,-0.003169999923557043,0.22386999428272247,-0.005410000216215849,0.2398499995470047,0.06780999898910522,0.21005000174045563,-0.06599999964237213,0.20896999537944794],[0.18695999681949615,-0.17249000072479248,-0.0012199999764561653,0.026189999654889107,-0.30959001183509827,0.06128000095486641,0.08810000121593475,-0.15036000311374664,-0.12849999964237213,-0.09830000251531601,0.12626999616622925,0.16144999861717224,0.04436999931931496,-0.03960999846458435,0.10147999972105026,0.3596799969673157,0.18330000340938568],[-0.13431000709533691,0.05149000138044357,0.14470000565052032,-0.07422000169754028,0.08180999755859375,0.2077299952507019,0.00279000005684793,0.19464999437332153,0.06598000228404999,0.05262000113725662,0.0318400003015995,0.09431999921798706,0.14768999814987183,0.4084399938583374,-0.16154000163078308,0.46768999099731445,-0.3307099938392639],[0.0780399963259697,-0.16987000405788422,0.006020000204443932,-0.07161000370979309,-0.17605000734329224,0.1783600002527237,-0.3604699969291687,-0.3924799859523773,0.1415800005197525,-0.09830000251531601,0.04974000155925751,0.1317799985408783,-0.07559999823570251,0.05177000164985657,0.216839998960495,0.007300000172108412,0.13120999932289124],[-0.10853999853134155,0.1907300055027008,0.02761000022292137,0.17601999640464783,-0.11981000006198883,0.21710999310016632,0.03302000090479851,-0.026599999517202377,-0.12828999757766724,0.15906000137329102,0.018570000305771828,0.05722000077366829,-0.37338000535964966,-0.026820000261068344,-0.2839899957180023,0.025529999285936356,-0.44005998969078064]],"b":[-0.10217999666929245,0.22741000354290009,-0.24589000642299652,0.2509100139141083,-0.09001000225543976,-0.09804999828338623,0.16110999882221222,0.019190000370144844,0.03454999998211861,-0.010300000198185444,-0.12992000579833984,0.26723000407218933,-0.11299999803304672,-0.19931000471115112,-0.25113001465797424,0.017319999635219574,-0.16038000583648682,-0.16428999602794647,-0.043469998985528946,0.0347599983215332,-0.04391999915242195,0.10803999751806259,0.12195999920368195,0.053599998354911804,-0.13892999291419983,0.00139999995008111,-0.016429999843239784,0.15118999779224396,0.11253000050783157,-0.17102999985218048,0.22600999474525452,0.12150999903678894,-0.028289999812841415,-0.2493399977684021,-0.04659999907016754,0.21938000619411469,-0.09092999994754791,-0.08071000128984451,-0.08659999817609787,0.21720999479293823,0.1821500062942505,-0.05350999906659126,-0.03376000002026558,0.10216999799013138,0.035190001130104065,0.0776899978518486,0.2983799874782562,-0.07530999928712845,0.2571200132369995,-0.06641999632120132,-0.19081999361515045,0.17566999793052673,-0.08721999824047089,0.08178000152111053,0.27042001485824585,-0.08837000280618668,0.3138299882411957,-0.06751000136137009,-0.22193999588489532,-0.06620000302791595,-0.1941400021314621,-0.2300100028514862,-0.2309899926185608,-0.14284999668598175,0.19311000406742096,0.012980000115931034,0.07134000211954117,0.04318000003695488,-0.20762999355793,-0.09870000183582306,0.08432000130414963,0.07530000060796738,-0.3232699930667877,0.34167999029159546,-0.12933999300003052,0.07760000228881836,-0.020919999107718468,-0.07227999716997147,-0.3158999979496002,0.07219000160694122,-0.007540000136941671,-0.09405999630689621,0.24146999418735504,0.13262000679969788,-0.21377000212669373,-0.16537000238895416,0.012310000136494637,0.18987999856472015,0.11591999977827072,0.29326000809669495,-0.016519999131560326,0.11751999706029892,0.07117000222206116,-0.05184999853372574,0.2909899950027466,0.21838000416755676,-0.08124999701976776,-0.16484999656677246,0.058800000697374344,-0.19210000336170197,0.01834999956190586,0.11540000140666962,0.1703999936580658,-0.09492000192403793,-0.09571000188589096,0.4014100134372711,0.00430000014603138,-0.1487099975347519,-0.031129999086260796,-0.39980000257492065,-0.09378000348806381,-0.05344000086188316,0.30932000279426575,-0.02914999984204769,0.01889999955892563,0.07766000181436539,-0.16827000677585602,0.1530900001525879,0.15738999843597412,0.05332000181078911,0.06251999735832214,0.06762000173330307,-0.048009999096393585,-0.31547999382019043,-0.14451000094413757,0.13625000417232513,0.06151999905705452,0.19920000433921814,0.05420000106096268,0.06859000027179718,-0.1251000016927719,0.00977999996393919,-0.09747999906539917,-0.11503999680280685,-0.14187000691890717,-0.2994700074195862,-0.11694999784231186,-0.28648000955581665,-0.14318999648094177,0.06339000165462494,0.006550000049173832,-0.044610001146793365,-0.07479999959468842,-0.02580999955534935,-0.1814499944448471,0.15042999386787415,-0.26732999086380005,-0.09181000292301178,0.08154000341892242,-0.10626000165939331,-0.10384999960660934,-0.13109999895095825,-0.1871500015258789,-0.1919099986553192,0.015250000171363354,0.09835000336170197,-0.15810999274253845,-0.029160000383853912,-0.02985999919474125,0.04405000060796738,-0.05950000137090683,-0.1377899944782257,-0.060120001435279846,0.1657799929380417,-0.10699000209569931,-0.046470001339912415,0.1132500022649765,-0.06750000268220901,-0.03985000029206276,0.015039999969303608,-0.0813400000333786,-0.06128000095486641,0.07451000064611435,0.15241000056266785,0.04267000034451485,-0.15442000329494476,-0.18690000474452972,-0.18694999814033508,-0.25887998938560486,-0.00686000008136034,0.07277999818325043,0.0821399986743927,0.019430000334978104,0.15751999616622925,-0.05916000157594681,-0.14926999807357788,-0.15737999975681305,0.10597000271081924,0.18985000252723694,0.3496899902820587,0.2232699990272522,0.013330000452697277,-0.1014999970793724,0.3064500093460083,-0.09059999883174896,-0.0623599998652935,-0.11992000043392181,-0.20488999783992767,-0.1795099973678589,-0.05268999934196472,0.16518999636173248,-0.07197000086307526,-0.1776600033044815,0.09297999739646912,-0.15723000466823578,0.10509999841451645,0.04713999852538109,-0.03585999831557274,-0.137580007314682,0.06538999825716019,0.11462000012397766,-0.1769700050354004,-0.04292000085115433,-0.12836000323295593,0.023900000378489494,-0.1386999934911728,-0.08256000280380249,-0.1301800012588501,-0.0033400000538676977,-0.16067999601364136,0.08461999893188477,0.13494999706745148,-0.03443999961018562,-0.07074999809265137,-0.04303999990224838,-0.10853999853134155,-0.04430000111460686,0.092569999396801,0.09364999830722809,-0.1679600030183792,-0.15094000101089478,-0.23853999376296997,-0.08234000205993652,0.2873600125312805,0.1452600061893463,-0.11084999889135361,-0.09605000168085098,0.19991999864578247,0.17015999555587769,-0.10017000138759613,-0.1639299988746643,-0.1834000051021576,0.10170000046491623,0.1941000074148178,-0.03051000088453293,0.31905999779701233,-0.0030900000128895044,-0.097120001912117,-0.08251000195741653,0.01370999962091446,-0.06176000088453293,0.03319000080227852,-0.06789000332355499,-0.04789000004529953,0.052000001072883606,-0.3351300060749054],"act":"tanh","in":17,"out":256},{"w":[[0.08626999706029892,-0.06614000350236893,0.0384100005030632,0.06626000255346298,0.048020001500844955,0.07436999678611755,-0.05462000146508217,0.089369997382164,0.06599999964237213,0.09683000296354294,0.16865000128746033,-0.031780000776052475,-0.001230000052601099,-0.05683000013232231,-0.05187999829649925,-0.11049000173807144,0.11738999933004379,-0.07064999639987946,0.05265999957919121,-0.1860000044107437,-0.03637000173330307,0.059530001133680344,-0.12600000202655792,0.11003000289201736,0.09166999906301498,0.1413699984550476,-0.042100001126527786,-0.14079000055789948,0.05693000182509422,0.1142600029706955,-0.06283000111579895,0.09115000069141388,0.024369999766349792,0.12943999469280243,0.054990001022815704,0.04531000182032585,0.18953000009059906,-0.08152999728918076,-0.05062999948859215,0.18580999970436096,-0.12123999744653702,0.08529999852180481,0.010660000145435333,-0.014530000276863575,0.13051000237464905,0.028119999915361404,0.04994000121951103,-0.03373999893665314,0.055479999631643295,-0.14406999945640564,0.24714000523090363,-0.023019999265670776,0.07964000105857849,-0.12476000189781189,0.1255899965763092,-0.08271999657154083,0.027860000729560852,-0.07062999904155731,-0.06154999881982803,-0.0200399998575449,-0.06369999796152115,0.005669999867677689,0.05981000140309334,0.10718999803066254,-0.07051999866962433,-0.012439999729394913,0.10007999837398529,0.016589999198913574,0.06588999927043915,0.011620000004768372,0.12442000210285187,-0.0852700024843216,-0.13705000281333923,-0.1425900012254715,0.03889999911189079,-0.22121000289916992,-0.08466999977827072,0.0016199999954551458,-0.019500000402331352,0.07780999690294266,0.17262999713420868,-0.0758500024676323,-0.1474200040102005,0.04456999897956848,0.00443999981507659,-0.06725999712944031,-0.12604999542236328,0.11105000227689743,-0.06362000107765198,0.03036000020802021,0.17112000286579132,-0.01042999979108572,-0.19092999398708344,-0.15977999567985535,0.1471800059080124,0.02694999985396862,-0.03336000069975853,0.1985500007867813,0.0660799965262413,0.07441999763250351,0.12526999413967133,0.02816000021994114,0.09634000062942505,0.02542000077664852,0.12257000058889389,0.06481000036001205,-0.0356299988925457,0.053950000554323196,-0.05719999969005585,-0.0806099995970726,0.044849999248981476,0.0810599997639656,0.03771999850869179,0.026850000023841858,-0.11014000326395035,0.2051600068807602,0.04363999888300896,0.05017000064253807,-0.0073899999260902405,-0.10598000138998032,0.00863999966531992,-0.02964000031352043,0.08608999848365784,0.016100000590085983,0.02346000075340271,0.12230999767780304,0.1549299955368042,-0.12955999374389648,0.05129000172019005,0.12246000021696091,0.07991000264883041,-0.0816200003027916,-0.1919800043106079,-0.04433000087738037,-0.14509999752044678,-0.07114999741315842,0.1185000017285347,0.0321200005710125,0.002300000051036477,0.12044999748468399,-0.062950000166893,-0.029239999130368233,-0.06379999965429306,0.017410000786185265,-0.09459000080823898,0.06566999852657318,-0.007930000312626362,0.05714000016450882,-0.03804999962449074,-0.012880000285804272,0.13531999289989471,-0.046459998935461044,-0.0062500000931322575,-0.06810999661684036,0.010759999975562096,-0.13680000603199005,0.021689999848604202,0.07072000205516815,-0.23855000734329224,0.07004000246524811,-0.11913000047206879,0.05031000077724457,-0.11111000180244446,0.001449999981559813,-0.005210000090301037,0.031690001487731934,0.0910400003194809,-0.057750001549720764,0.06019999831914902,0.04816000163555145,-0.12655000388622284,0.029759999364614487,-0.012470000423491001,-0.017559999600052834,-0.14079000055789948,