{"env_id":"Walker2d-v5","model_xml":"walker2d_v5.xml","obs_dim":17,"act_dim":6,"nq":9,"nv":9,"nu":6,"frame_skip":4,"timestep":0.002,"dt":0.008,"action_low":[-1.0,-1.0,-1.0,-1.0,-1.0,-1.0],"action_high":[1.0,1.0,1.0,1.0,1.0,1.0],"obs_components":[{"kind":"qpos","start":1,"clip":null},{"kind":"qvel","start":0,"clip":[-10.0,10.0]}],"needs_rne":false,"init_qpos":[0.0,1.25,0.0,0.0,0.0,0.0,0.0,0.0,0.0],"init_qvel":[0.0,0.0,0.0,0.0,0.0,0.0,0.0,0.0,0.0],"reset_noise_scale":0.005,"healthy":{"terminate_when_unhealthy":true,"z_index":1,"z_range":[0.8,2.0],"angle_index":2,"angle_range":[-1.0,1.0],"state_range":null},"obs_labels":["rootz pos","rooty pos","thigh_joint pos","leg_joint pos","foot_joint pos","thigh_left_joint pos","leg_left_joint pos","foot_left_joint pos","rootx vel","rootz vel","rooty vel","thigh_joint vel","leg_joint vel","foot_joint vel","thigh_left_joint vel","leg_left_joint vel","foot_left_joint vel"],"action_labels":["thigh_joint","leg_joint","foot_joint","thigh_left_joint","leg_left_joint","foot_left_joint"],"normalization":{"mean":[1.1271615028381348,-0.5146379470825195,-0.03963503614068031,-0.021716617047786713,0.6686720848083496,-0.47741252183914185,-0.6655434370040894,0.5598070621490479,1.3751580715179443,-0.029922552406787872,-0.10487604141235352,-0.03500983491539955,-0.05489015579223633,-0.16655442118644714,-0.12943676114082336,0.043396055698394775,-0.7510220408439636],"var":[0.0024351293686777353,0.03962690010666847,0.014293945394456387,0.012298178859055042,0.10929016768932343,0.11487238109111786,0.2775740623474121,0.1381218135356903,1.2204320430755615,0.3847951591014862,11.011621475219727,14.474802017211914,12.279242515563965,29.586843490600586,32.538673400878906,43.80954360961914,44.63728713989258],"epsilon":1e-08,"clip_obs":10.0},"policy_onnx":"walker2d__ppo_walker2d_3M_s3__best.onnx","policy_net":{"input_dim":17,"layers":[{"w":[[0.17778000235557556,-0.04510999843478203,-0.061420001089572906,-0.23016999661922455,0.03376999869942665,0.11655999720096588,0.19523000717163086,0.039719998836517334,-0.16785000264644623,0.36017999053001404,0.1429000049829483,0.025599999353289604,-0.280460000038147,-0.15102000534534454,-0.022989999502897263,0.09476999938488007,-0.03990999981760979],[-0.22281000018119812,-0.10057999938726425,-0.20092999935150146,-0.11125999689102173,0.10582999885082245,0.18940000236034393,-0.23449000716209412,0.06210000067949295,-0.300819993019104,-0.20191000401973724,-0.07965999841690063,-0.02314000017940998,0.10829000174999237,-0.04504000023007393,0.16962000727653503,0.16707000136375427,0.25725001096725464],[-0.22372999787330627,-0.17095999419689178,-0.19066999852657318,-0.13951000571250916,-0.06567999720573425,-0.20621000230312347,-0.19889000058174133,-0.11118999868631363,-0.014039999805390835,-0.07830999791622162,-0.26131001114845276,-0.48899000883102417,0.33816999197006226,-0.05909999832510948,-0.07327999919652939,0.15681999921798706,0.08756999671459198],[-0.03830999881029129,0.3117600083351135,0.11956000328063965,0.29357999563217163,0.18528999388217926,0.17880000174045563,0.092289999127388,-0.04213999956846237,-0.18574999272823334,-0.0801599994301796,-0.05550000071525574,0.19805000722408295,0.19464999437332153,0.025839999318122864,-0.2028599977493286,0.06747999787330627,-0.19436000287532806],[0.09261000156402588,-0.574679970741272,0.2873699963092804,0.058970000594854355,-0.13508999347686768,-0.2505800127983093,0.02783999964594841,0.011579999700188637,0.01295000035315752,0.02857000008225441,-0.04010000079870224,0.07072000205516815,0.02029000036418438,-0.25661998987197876,-0.08389999717473984,-0.004410000052303076,0.008009999990463257],[0.042819999158382416,-0.006010000128298998,0.2176399976015091,0.15195000171661377,0.2904599905014038,0.12363000214099884,-0.1435299962759018,0.18012000620365143,-0.07355000078678131,0.10503000020980835,0.016419999301433563,-0.14034999907016754,0.22415000200271606,0.13537999987602234,-0.08455000072717667,0.05502000078558922,0.5329999923706055],[-0.34615999460220337,-0.030700000002980232,-0.33504000306129456,0.027219999581575394,-0.24637000262737274,0.045579999685287476,-0.00675999978557229,-0.06594999879598618,0.2224999964237213,0.03863000124692917,0.3144800066947937,0.05714000016450882,0.01817999966442585,0.420989990234375,0.10954999923706055,-0.005570000037550926,-0.1328900009393692],[0.19889000058174133,-0.016909999772906303,-0.02116999961435795,0.01181000005453825,0.047210000455379486,-0.12728999555110931,0.2800700068473816,-0.24626000225543976,0.12105999886989594,0.34918999671936035,0.17872999608516693,0.05714000016450882,-0.08157999813556671,-0.1284399926662445,-0.15158000588417053,0.2529599964618683,-0.08472999930381775],[0.09538999944925308,0.3104499876499176,-0.12592999637126923,0.016979999840259552,0.05909999832510948,0.005080000031739473,0.15233999490737915,0.048569999635219574,-0.029479999095201492,-0.009150000289082527,0.22516000270843506,-0.12247999757528305,-0.15042999386787415,0.11666999757289886,-0.09442999958992004,0.04244000092148781,-0.03418999910354614],[0.003269999986514449,0.1992100030183792,-0.1619500070810318,-0.14285999536514282,-0.034699998795986176,0.2740100026130676,-0.07406999915838242,0.2101600021123886,-0.21003000438213348,-0.007910000160336494,0.054510001093149185,0.0393499992787838,-0.026499999687075615,-0.1566299945116043,0.08657000213861465,-0.064240001142025,0.3483400046825409],[0.2894499897956848,-0.049229998141527176,-0.21550999581813812,0.13309000432491302,0.22123000025749207,-0.07062000036239624,0.30281001329421997,0.257860004901886,-0.14940999448299408,0.14092999696731567,0.20442000031471252,0.2549000084400177,0.16690999269485474,0.15480999648571014,0.3621099889278412,-0.005289999768137932,0.04919999837875366],[-0.05429000034928322,-0.1028200015425682,0.1909399926662445,0.095660001039505,0.16755999624729156,-0.13366000354290009,0.09515000134706497,-0.11620000004768372,-0.11010000109672546,0.019700000062584877,0.03311999887228012,-0.12849000096321106,0.356550008058548,0.21744999289512634,0.01336000021547079,0.008449999615550041,-0.11986999958753586],[-0.2938399910926819,-0.011389999650418758,-0.19949999451637268,0.20964999496936798,-0.2356099933385849,-0.09825000166893005,-0.017820000648498535,0.13446000218391418,-0.16695000231266022,-0.0933699980378151,-0.37053000926971436,-0.18119999766349792,-0.20915000140666962,0.014919999986886978,-0.4074600040912628,0.014770000241696835,0.09669999778270721],[-0.05860999971628189,-0.29315999150276184,0.17389999330043793,0.14135000109672546,-0.01679999940097332,0.04822000116109848,-0.2917099893093109,-0.2143000066280365,0.06819000095129013,-0.010759999975562096,-0.15000000596046448,0.035349998623132706,-0.22579999268054962,-0.057259999215602875,0.07119999825954437,-0.07328999787569046,-0.019290000200271606],[0.19454999268054962,-0.02807999961078167,0.08773999661207199,-0.1824900060892105,-0.010099999606609344,-0.11941999942064285,0.0459199994802475,-0.38596999645233154,0.04755000025033951,0.15738999843597412,-0.09166000038385391,0.016140000894665718,0.3047100007534027,0.06418000161647797,-0.1091499999165535,0.02834000065922737,-0.04188999906182289],[0.09302999824285507,0.009050000458955765,-0.14587999880313873,-0.24417999386787415,0.14069999754428864,0.16448000073432922,0.08557000011205673,0.42770999670028687,-0.22213000059127808,0.12646999955177307,-0.08307000249624252,0.07718999683856964,-0.3615399897098541,0.025040000677108765,-0.15731999278068542,0.17132000625133514,-0.01018999982625246],[-0.26510998606681824,-0.0094200000166893,-0.020179999992251396,0.06887000054121017,-0.13061000406742096,-0.3069700002670288,-0.1506199985742569,-0.019519999623298645,0.08792000263929367,0.07190000265836716,-0.0938899964094162,-0.21876999735832214,0.21050000190734863,0.01489999983459711,-0.25881001353263855,-0.04055999964475632,0.17835000157356262],[-0.0692100003361702,0.2251800000667572,-0.05773000046610832,-0.02937999926507473,-0.26370999217033386,0.13247999548912048,0.17663000524044037,-0.10559999942779541,0.29497000575065613,-0.1684499979019165,-0.06966999918222427,-0.1289599984884262,0.3148899972438812,-0.04851999878883362,0.2865400016307831,-0.3803200125694275,-0.00418000016361475],[0.03793000057339668,0.16075000166893005,-0.143669992685318,-0.03067000024020672,-0.22684000432491302,-0.04639999940991402,0.316430002450943,-0.23853999376296997,-0.17678000032901764,-0.06558000296354294,-0.1770399957895279,0.006550000049173832,-0.28773000836372375,0.2542699873447418,-0.0057299998588860035,0.10758999735116959,-0.13774000108242035],[-0.15637999773025513,0.24484999477863312,0.09376999735832214,0.11285000294446945,-0.026119999587535858,0.0960799977183342,0.1691100001335144,0.2623000144958496,-0.10197000205516815,0.22136999666690826,0.22923000156879425,-0.11208999902009964,0.19735999405384064,-0.1782200038433075,0.015519999898970127,-0.09679999947547913,0.21030999720096588],[0.13245999813079834,-0.28040000796318054,0.23983000218868256,-0.01360000018030405,0.06913000345230103,-0.131850004196167,0.14778999984264374,-0.25863999128341675,-0.016119999811053276,0.34200000762939453,-0.1168299987912178,0.2778399884700775,0.03982999920845032,-0.24003000557422638,-0.1787700057029724,-0.010049999691545963,-0.1145699992775917],[0.19160999357700348,-0.15636999905109406,0.2889299988746643,0.36632999777793884,-0.05648000165820122,-0.045329999178647995,-0.24443000555038452,0.16925999522209167,-0.14701999723911285,0.045899998396635056,-0.10751999914646149,-0.03570999950170517,0.029100000858306885,0.16290000081062317,-0.01803000085055828,0.09962999820709229,0.12947000563144684],[0.1656399965286255,-0.1335200071334839,0.09914000332355499,-0.34071001410484314,-0.09431999921798706,0.13088999688625336,-0.0502999983727932,0.087459996342659,0.03946999832987785,0.03361000120639801,0.13133999705314636,0.1912499964237213,-0.10328000038862228,-0.10202000290155411,0.09001000225543976,0.06632000207901001,0.1297300010919571],[0.057360000908374786,0.23533999919891357,-0.18105000257492065,-0.08386000245809555,-0.23736000061035156,0.22443999350070953,0.020099999383091927,-0.00773000018671155,-0.0434500016272068,0.17839999496936798,0.22879000008106232,0.06526000052690506,9.000000136438757e-05,-0.46612000465393066,0.03982999920845032,0.03413999825716019,-0.22673000395298004],[0.316540002822876,-0.1374099999666214,0.09010999649763107,-0.07867000252008438,-0.17161999642848969,-0.07801999896764755,0.12037999927997589,-0.030419999733567238,-0.25227999687194824,0.01745999976992607,0.058329999446868896,0.1807900071144104,0.1314699947834015,-0.350380003452301,0.008729999884963036,-0.22381000220775604,-0.15745000541210175],[-0.07310999929904938,0.08349999785423279,0.249099999666214,0.13638000190258026,-0.0955599993467331,0.13666999340057373,-0.07872000336647034,-0.11795999854803085,0.10657999664545059,0.27678000926971436,0.00877000018954277,-0.011239999905228615,0.30390000343322754,-0.001290000043809414,-0.06809999793767929,0.31185001134872437,0.34325000643730164],[0.08367999643087387,0.04870999976992607,0.00494999997317791,0.12046000361442566,0.03832999989390373,0.09730000048875809,-0.1670999974012375,0.11087000370025635,-0.1062999963760376,0.04343000054359436,-0.08434999734163284,-0.06632000207901001,0.3978700041770935,0.2837600111961365,-0.00406000018119812,-0.014189999550580978,0.07575999945402145],[0.06870000064373016,0.17443999648094177,-0.013249999843537807,0.03720000013709068,-0.17961999773979187,0.015239999629557133,0.2299100011587143,0.08258000016212463,0.04639999940991402,0.09847000241279602,0.038419999182224274,0.06355000287294388,-0.329800009727478,-0.01696000061929226,0.09418000280857086,0.10098999738693237,0.17991000413894653],[0.057999998331069946,-0.18559999763965607,-0.22347000241279602,0.1350799947977066,-0.03618000075221062,-0.007710000034421682,0.06374000012874603,0.14616000652313232,-0.18408000469207764,-0.34744998812675476,0.04498999938368797,-0.07720000296831131,0.1449899971485138,0.18810999393463135,0.12116999924182892,-0.06967999786138535,-0.4241200089454651],[-0.1450600028038025,0.19523000717163086,0.0686199963092804,-0.07575000077486038,0.08190999925136566,0.3529700040817261,-0.32631000876426697,-0.22452999651432037,-0.14882999658584595,0.13555000722408295,-0.08474999666213989,-0.09229999780654907,-0.1581300050020218,0.022350000217556953,-0.04870999976992607,-0.17533999681472778,0.21464000642299652],[0.02078999951481819,0.04950999841094017,0.28022000193595886,-0.09405999630689621,0.008080000057816505,-0.23894000053405762,0.004840000066906214,0.04318999871611595,-0.030859999358654022,0.034049998968839645,-0.05565999820828438,-0.16012999415397644,0.3009899854660034,0.17433999478816986,0.21321000158786774,-0.23517000675201416,-0.27667999267578125],[0.2522200047969818,-0.08357000350952148,0.22826999425888062,0.23041999340057373,0.019029999151825905,-0.12291999906301498,-0.2524999976158142,0.056299999356269836,-0.09224999696016312,0.15884000062942505,-0.22766999900341034,-0.15212999284267426,0.08225999772548676,0.16342000663280487,-0.1848199963569641,-0.05000999942421913,-0.1946599930524826],[0.05739999935030937,-0.0028299998957663774,-0.025679999962449074,-0.04410000145435333,-0.08806999772787094,0.4256899952888489,-0.25266000628471375,0.10138999670743942,0.05397000163793564,-0.122079998254776,-0.14806999266147614,0.0013699999544769526,-0.09043999761343002,0.33928000926971436,-0.3324800133705139,0.09759999811649323,0.00033999999868683517],[0.19373999536037445,-0.3131999969482422,-0.018330000340938568,-0.21180999279022217,-0.060750000178813934,0.07737000286579132,-0.004980000201612711,0.0858599990606308,0.1324000060558319,-0.04583999887108803,0.0006799999973736703,-0.062950000166893,-0.09697999805212021,-0.2899399995803833,0.13387000560760498,-0.0763700008392334,0.12713000178337097],[0.10761000216007233,0.046560000628232956,-0.3660399913787842,-0.09922000020742416,0.1002499982714653,-0.03621000051498413,0.11733999848365784,-0.050999999046325684,0.03488000109791756,-0.2424200028181076,-0.12272000312805176,-0.14146000146865845,-0.16440999507904053,-0.19708000123500824,-0.023910000920295715,0.008729999884963036,-0.0813400000333786],[-0.2156199961900711,0.08180999755859375,-0.13691000640392303,0.09675999730825424,-0.20479999482631683,-0.03889999911189079,-0.1473899930715561,0.1567399948835373,-0.21041999757289886,0.12037999927997589,-0.3247700035572052,0.022299999371170998,0.06049000099301338,0.12180999666452408,-0.21244999766349792,0.05339000001549721,-0.25819000601768494],[0.06674999743700027,-0.08925999701023102,-0.19630999863147736,-0.09244000166654587,0.011769999749958515,0.08516000211238861,0.0938899964094162,-0.007350000087171793,0.024700000882148743,-0.005439999978989363,0.10087999701499939,0.40191999077796936,-0.2032099962234497,-0.23315000534057617,0.04092000052332878,-0.2295999974012375,0.10474999994039536],[0.48346999287605286,-0.13576999306678772,0.027049999684095383,0.1412000060081482,0.11723999679088593,-0.0694499984383583,-0.047240000218153,0.2962599992752075,0.03240999951958656,0.27913999557495117,-0.12557999789714813,0.2709999978542328,-0.28575000166893005,-0.1407800018787384,-0.12672999501228333,-0.09356000274419785,-0.13582000136375427],[-0.0737999975681305,0.004730000160634518,-0.007799999788403511,0.13318000733852386,0.015879999846220016,0.0567299984395504,-0.05347000062465668,0.08722999691963196,0.02785000018775463,-0.4088200032711029,-0.4620400071144104,-0.22300000488758087,-0.10784000158309937,-0.18741999566555023,-0.04439999908208847,-0.14007000625133514,-0.09636999666690826],[-0.03923000022768974,-0.23436999320983887,0.2612999975681305,-0.016540000215172768,-0.09100999683141708,-0.067610003054142,-0.09899000078439713,-0.05511999875307083,-0.27059999108314514,0.08049000054597855,-0.13806000351905823,0.3072499930858612,0.1836400032043457,-0.022420000284910202,-0.10127999633550644,-0.1514900028705597,0.07020000368356705],[0.1238899976015091,-0.10322000086307526,0.3108600080013275,0.2219099998474121,0.03782999888062477,0.3381899893283844,-0.22111999988555908,0.0471699982881546,-0.055330000817775726,-0.25540998578071594,0.10317999869585037,0.1629599928855896,0.10210999846458435,0.16463999450206757,-0.04182000085711479,-0.02507000043988228,0.05823000147938728],[-0.12212000042200089,0.19341999292373657,0.13685999810695648,0.11458999663591385,-0.2178799957036972,-0.2644299864768982,0.13001999258995056,-0.15025000274181366,0.010950000025331974,-0.07401999831199646,0.03976999968290329,0.012559999711811543,0.28275999426841736,0.10769999772310257,0.1565299928188324,-0.21160000562667847,0.3278999924659729],[-0.0970500037074089,0.22281000018119812,0.13046999275684357,-0.07179000228643417,0.24693000316619873,-0.036249998956918716,0.16601000726222992,0.38631001114845276,0.07117000222206116,0.23861999809741974,0.4591600000858307,0.4715299904346466,0.08291999995708466,0.09358000010251999,0.0069599999114871025,-0.02824999950826168,-0.0364300012588501],[0.1504800021648407,-0.014580000191926956,-0.3436500132083893,-0.060830000787973404,0.10806000232696533,0.22095000743865967,0.15012000501155853,0.2521600127220154,-0.06835000216960907,-0.127470001578331,-0.005439999978989363,0.002959999954327941,-0.2826099991798401,0.015869999304413795,0.2633399963378906,0.19201000034809113,-0.06830000132322311],[-0.2132200002670288,0.19930000603199005,-0.26368001103401184,0.04828999936580658,0.05195000022649765,0.14082999527454376,-0.06449999660253525,0.29166001081466675,0.18252000212669373,-0.051739998161792755,0.20892000198364258,0.1004600003361702,-0.21175000071525574,-0.2646099925041199,-0.033080000430345535,0.20879000425338745,0.09819000214338303],[-0.15365000069141388,-0.17324000597000122,0.07565999776124954,-0.15703000128269196,-0.26504001021385193,0.2825799882411957,-0.1385899931192398,0.2520599961280823,0.021789999678730965,0.19984999299049377,0.0652099996805191,-0.07661999762058258,-0.10397999733686447,-0.03381999954581261,-0.1303499937057495,0.18411000072956085,0.021150000393390656],[0.015390000306069851,-0.27204999327659607,-0.10485000163316727,-0.0871099978685379,-0.05762000009417534,0.06566999852657318,-0.25407999753952026,-0.13755999505519867,0.11428000032901764,-0.061319999396800995,-0.19212999939918518,0.08011999726295471,0.122079998254776,0.07565999776124954,-0.0839499980211258,-0.07004000246524811,0.18299999833106995],[0.0974700003862381,-0.03985999897122383,0.027230000123381615,-0.01759999990463257,0.09965000301599503,0.1965399980545044,-0.144679993391037,0.09471999853849411,-0.02222999930381775,-0.20758000016212463,0.15998999774456024,0.08631999790668488,-0.038019999861717224,-0.23537999391555786,0.17361000180244446,-0.0928800031542778,0.3396799862384796],[0.0643400028347969,-0.14534999430179596,0.12154000252485275,0.13558000326156616,-0.2323800027370453,0.030619999393820763,-0.18772999942302704,-0.1388999968767166,-0.12560999393463135,-0.2848699986934662,-0.09714999794960022,-0.02850000001490116,0.12706999480724335,-0.05050000175833702,0.18344999849796295,-0.19731999933719635,-0.17598000168800354],[0.011289999820291996,-0.03488999977707863,0.0013299999991431832,-0.12409999966621399,-0.10753999650478363,-0.05048000067472458,0.13705000281333923,-0.15985000133514404,0.12729999423027039,0.5239800214767456,0.09450999647378922,0.053849998861551285,0.028429999947547913,-0.05553000047802925,-0.02126999944448471,0.1662600040435791,0.08975999802350998],[0.20340999960899353,-0.22015999257564545,-0.030150000005960464,0.08862999826669693,0.1331000030040741,-0.2541700005531311,-0.06637000292539597,-0.015320000238716602,-0.12095999717712402,0.10552000254392624,-0.24593999981880188,0.13091999292373657,-0.03962999954819679,-0.10413999855518341,-0.27757999300956726,-0.041760001331567764,0.016459999606013298],[0.25784000754356384,-0.025450000539422035,0.15734000504016876,-0.08167999982833862,-0.05558000132441521,0.1023700013756752,0.12197999656200409,-0.008709999732673168,-0.04538000002503395,0.3391300141811371,0.26388001441955566,0.1341799944639206,0.3413900136947632,0.11342000216245651,-0.03434000164270401,0.12841999530792236,0.17121000587940216],[-0.025030000135302544,0.01486000046133995,-0.05057999864220619,0.2562200129032135,0.1133899986743927,0.03491000086069107,0.05389999970793724,-0.2592200040817261,-0.17441999912261963,0.301800012588501,0.11919999867677689,0.027289999648928642,0.25609999895095825,0.022360000759363174,-0.13023999333381653,0.18862000107765198,0.24889999628067017],[-0.3191800117492676,0.09115999937057495,0.08459000289440155,-0.0581899993121624,0.07037000358104706,0.06710000336170197,-0.06849999725818634,0.02566000074148178,-0.23131999373435974,0.35131001472473145,-0.0064199999906122684,0.05803000181913376,-0.24135999381542206,-0.11384999752044678,-0.11089000105857849,-0.07575999945402145,-0.29027000069618225],[0.1623300015926361,0.13985000550746918,-0.0015999999595806003,0.10340999811887741,-0.02631000056862831,0.1747400015592575,-0.004470000043511391,-0.21581000089645386,0.06750000268220901,-0.48809999227523804,-0.1144300028681755,-0.2146800011396408,0.0887100026011467,0.022579999640583992,0.002309999894350767,0.1916700005531311,0.13097000122070312],[-0.06810999661684036,-0.08778999745845795,-0.11846999824047089,0.07028000056743622,-0.06346999853849411,0.1295900046825409,0.05790000036358833,0.030470000579953194,0.12273000180721283,0.3231399953365326,-0.025259999558329582,0.09876000136137009,-0.04805000126361847,-0.210999995470047,0.1134599968791008,0.1539900004863739,0.01971999928355217],[-0.11474999785423279,-0.16360999643802643,-0.23201000690460205,0.3338199853897095,-0.15167999267578125,0.055309999734163284,0.19481000304222107,0.3036099970340729,-0.23019999265670776,-0.24845999479293823,-0.14680999517440796,0.00039000000106170774,0.09030000120401382,0.07660999894142151,-0.14905999600887299,0.06965000182390213,-0.019130000844597816],[-0.052549999207258224,0.16324999928474426,-0.020419999957084656,0.09442000091075897,0.11173000186681747,0.2871200144290924,0.09455999732017517,0.03846000134944916,-0.0008200000156648457,-0.08688999712467194,0.1225999966263771,0.01795000024139881,0.11772999912500381,-0.10294999927282333,0.04616999998688698,0.2526400089263916,0.41530001163482666],[-0.24004000425338745,0.005119999870657921,-0.10301999747753143,-0.1907700002193451,0.061149999499320984,0.14169999957084656,0.06601999700069427,0.26583001017570496,0.09053999930620193,-0.011859999969601631,-0.10773999989032745,-0.24959999322891235,0.32624998688697815,-0.19020000100135803,0.2462500035762787,-0.24928000569343567,0.13127000629901886],[0.010049999691545963,-0.04941000044345856,-0.2134999930858612,0.01018999982625246,0.0914900004863739,-0.1451600044965744,-0.07970000058412552,0.18640999495983124,0.13162000477313995,0.06798999756574631,0.2796899974346161,0.10876999795436859,-0.17204999923706055,-0.3197599947452545,-0.004240000154823065,0.20354999601840973,0.4055199921131134],[-0.08810999989509583,0.06881000101566315,0.14316999912261963,0.11101999878883362,-0.07998999953269958,-0.2842000126838684,-0.02580999955534935,-0.11785999685525894,0.12424000352621078,-0.037209998816251755,-0.07917000353336334,-0.13423000276088715,0.5931800007820129,0.0051299999468028545,0.07475999742746353,-0.2158699929714203,-0.06682000309228897],[-0.07903999835252762,0.0437299981713295,-0.2343900054693222,-0.18780000507831573,-0.15891000628471375,0.00750999990850687,0.15223999321460724,-0.19142000377178192,0.26701998710632324,-0.0597199983894825,0.09041000157594681,-0.0906900018453598,0.06007999926805496,-0.392630010843277,0.20297999680042267,0.13912999629974365,0.059459999203681946],[-0.14601999521255493,-0.03545999899506569,0.17125999927520752,-0.035840000957250595,0.16865000128746033,-0.02060999907553196,-0.3836599886417389,0.1661600023508072,-0.017139999195933342,-0.16514000296592712,-0.23806999623775482,0.18649999797344208,-0.1647700071334839,0.18208999931812286,-0.0919099971652031,0.08287999778985977,-0.14622999727725983],[-0.1995600014925003,0.19158999621868134,0.02143999934196472,-0.1964000016450882,-0.06765999644994736,0.1986600011587143,-0.03288000077009201,-0.008620000444352627,-0.1431799978017807,0.3231000006198883,-0.0557899996638298,0.09059000015258789,-0.05395999923348427,0.1457899957895279,-0.1432500034570694,0.01496999990195036,0.016669999808073044],[0.0792900025844574,-0.053130000829696655,0.21070000529289246,0.06435000151395798,0.20830999314785004,0.05753999948501587,-0.23010000586509705,-0.2809000015258789,-0.09119000285863876,-0.3216800093650818,-0.09238000214099884,0.056620001792907715,0.3146199882030487,-0.01624000072479248,-0.06515000015497208,-0.12025000154972076,0.1570499986410141],[-0.025259999558329582,0.03229000046849251,-0.06092999875545502,0.22133000195026398,-0.036740001291036606,-0.01940999925136566,0.25012001395225525,0.2527500092983246,-0.13109000027179718,0.007069999817758799,-0.04067999869585037,0.12748999893665314,-0.24055999517440796,-0.21570000052452087,0.2249000072479248,-0.3036699891090393,-0.4571399986743927],[-0.24104000627994537,-0.4632900059223175,-0.05886999890208244,-0.06793999671936035,0.051010001450777054,-0.3357200026512146,-0.08855000138282776,0.3222000002861023,0.008729999884963036,0.010060000233352184,0.0257399994879961,-0.030729999765753746,-0.13117000460624695,-0.36577001214027405,0.21780000627040863,0.14651000499725342,0.30254998803138733],[-0.12476000189781189,0.04836999997496605,0.03531999886035919,0.1731400042772293,0.07734999805688858,-0.051979999989271164,-0.13887999951839447,-0.04242999851703644,-0.19742000102996826,0.004579999949783087,-0.06350000202655792,-0.175819993019104,0.2934100031852722,-0.05149000138044357,0.08229999989271164,-0.2882699966430664,0.19269999861717224],[-0.006579999811947346,-0.0038799999747425318,0.03206999972462654,-0.22020000219345093,0.0421999990940094,0.18025000393390656,-0.13878999650478363,-0.04035000130534172,-0.38515999913215637,0.28488999605178833,0.026890000328421593,0.2668899893760681,-0.16874000430107117,0.10266000032424927,-0.10960999876260757,0.1453700065612793,-0.02143999934196472],[0.017149999737739563,0.12953999638557434,-0.2584500014781952,0.20690999925136566,-0.20420999825000763,0.23535999655723572,0.17675000429153442,0.16144999861717224,0.06204000115394592,0.04562000185251236,-0.13243000209331512,-0.24413999915122986,0.08433999866247177,0.14449000358581543,-0.1453399956226349,-0.30031999945640564,-0.06913000345230103],[-0.4099099934101105,0.08997000008821487,-0.1526699960231781,-0.08027999848127365,0.07327999919652939,-0.13921000063419342,0.021150000393390656,-0.16854000091552734,0.09630999714136124,-0.17246000468730927,-0.019950000569224358,-0.1920900046825409,0.0523499995470047,-0.07489000260829926,-0.1599700003862381,-0.03302999958395958,0.12501999735832214],[0.07586999982595444,-0.027979999780654907,-0.20027999579906464,-0.13890999555587769,-0.06036999821662903,0.03895999863743782,-0.03348999843001366,0.004999999888241291,0.013949999585747719,0.3407599925994873,0.049710001796483994,-0.01298999972641468,0.5343499779701233,-0.364439994096756,0.19012999534606934,-0.1119299978017807,0.15045000612735748],[0.28863000869750977,-0.22352999448776245,-0.09742999821901321,0.05397000163793564,-0.13059000670909882,0.050220001488924026,0.20103999972343445,-0.1273999959230423,-0.18400000035762787,0.0413299985229969,-0.098130002617836,0.08905000239610672,-0.06897000223398209,0.04030999913811684,0.1848199963569641,0.11969999969005585,-0.08663000166416168],[0.20730000734329224,-0.10662999749183655,-0.182669997215271,0.1206900030374527,-0.21667000651359558,-0.06976000219583511,0.23351000249385834,-0.14877000451087952,-0.09430000185966492,0.1190899983048439,-0.2271299958229065,0.08693999797105789,0.03361000120639801,-0.09414000064134598,0.08021999895572662,0.18411999940872192,0.3740200102329254],[0.06533999741077423,0.009469999931752682,-0.07711999863386154,-0.025909999385476112,-0.15241999924182892,-0.18667000532150269,0.1538199931383133,0.17111000418663025,0.02298000082373619,-0.26350998878479004,-0.123819999396801,-0.07447999715805054,0.33715999126434326,0.18154999613761902,0.14986999332904816,-0.2450300008058548,0.14087000489234924],[-0.060770001262426376,0.10372000187635422,-0.14778000116348267,-0.13343000411987305,-0.0478300005197525,0.03282000124454498,0.0568699985742569,-0.09621000289916992,-0.0062500000931322575,-0.05513999983668327,0.44839000701904297,-0.2882300019264221,0.5335000157356262,-0.08291000127792358,0.24084000289440155,0.012260000221431255,0.20558999478816986],[0.02718999981880188,0.03522000089287758,0.0812000036239624,-0.23955999314785004,-0.14559000730514526,-0.12935000658035278,0.01931999996304512,-0.2009900063276291,0.34033000469207764,-0.02841000072658062,0.2098499983549118,-0.17892999947071075,-0.08804000169038773,-0.07184000313282013,-0.01706000044941902,0.19555999338626862,0.033080000430345535],[-0.01257999986410141,-0.07128000259399414,0.062460001558065414,-0.11309999972581863,0.06441999971866608,-0.01568000018596649,0.08123999834060669,-0.049059998244047165,0.2954300045967102,0.0914200022816658,0.1068200021982193,-0.11083000153303146,-0.3840300142765045,-0.026760000735521317,-0.021929999813437462,-0.14021000266075134,-0.12564000487327576],[0.3295400142669678,-0.19621999561786652,0.07667999714612961,0.23657000064849854,-0.10681000351905823,0.006099999882280827,0.11361999809741974,-0.08528000116348267,-0.2018599957227707,0.11880999803543091,0.15535999834537506,-0.05178999900817871,-0.06741999834775925,-0.2440200001001358,-0.04123999923467636,-0.18939000368118286,-0.1970600038766861],[-0.03751000016927719,-0.22835999727249146,0.16031000018119812,0.0616299994289875,0.01810000091791153,0.11296000331640244,-0.22934000194072723,-0.14459000527858734,0.013770000077784061,-0.16832999885082245,-0.3052699863910675,-0.024870000779628754,-0.07965999841690063,0.23079000413417816,0.2109300047159195,-0.2825300097465515,-0.10196000337600708],[-0.22622999548912048,0.3604699969291687,-0.16165000200271606,0.21710999310016632,0.01307000033557415,0.04125000163912773,0.08251000195741653,-0.16391000151634216,0.16144999861717224,0.06477999687194824,-0.015169999562203884,-0.28095000982284546,-0.10243000090122223,0.0557899996638298,-0.2123199999332428,0.09482000023126602,0.07071000337600708],[0.08466000109910965,0.06572999805212021,-0.20404000580310822,0.026690000668168068,0.04690999910235405,-0.06802999973297119,-0.0508899986743927,-0.16088999807834625,-0.20872999727725983,-0.14736999571323395,-0.1114799976348877,-0.19638000428676605,-0.11170999705791473,0.03457000106573105,0.1667799949645996,-0.4277400076389313,-0.022339999675750732],[-0.08070000261068344,0.07240000367164612,0.20148000121116638,-0.1537099927663803,0.14368000626564026,-0.19828000664710999,0.13043999671936035,-0.05908999964594841,0.2675899863243103,0.05211000144481659,0.07433000206947327,0.1802700012922287,-0.08654999732971191,-0.07874000072479248,-0.10965000092983246,0.12197999656200409,0.3840999901294708],[-0.1524599939584732,-0.04061000049114227,0.0635799989104271,-0.0894400030374527,-0.20861999690532684,0.26012998819351196,-0.0831499993801117,0.334989994764328,-0.16072000563144684,0.16877000033855438,-0.2870599925518036,0.04366999864578247,0.0006000000284984708,0.1859399974346161,-0.145019993185997,0.1910099983215332,-0.12724000215530396],[0.027130000293254852,-0.1893800050020218,-0.12163999676704407,0.21116000413894653,-0.10513000190258026,0.18671000003814697,-0.3084299862384796,0.0030499999411404133,-0.16162000596523285,-0.09489999711513519,0.02167999930679798,0.06634999811649323,0.1698800027370453,0.04258999973535538,0.00989999994635582,-0.09021999686956406,0.1838800013065338],[0.06572999805212021,-0.10784000158309937,-0.14869999885559082,0.26041001081466675,-0.06086999922990799,-0.09429000318050385,0.06589999794960022,-0.024000000208616257,-0.08696000277996063,0.11659999936819077,-0.21761000156402588,-0.14951999485492706,0.020190000534057617,0.12234999984502792,-0.05575999990105629,-0.009909999556839466,0.046950001269578934],[0.21133999526500702,0.058410000056028366,-0.17753000557422638,0.21731999516487122,0.0370200015604496,0.17091000080108643,-0.07823000103235245,0.04365000128746033,-0.09228000044822693,-0.34332001209259033,-0.18599000573158264,-0.05477999895811081,-0.25137999653816223,0.2855300009250641,-0.06459999829530716,0.17979000508785248,0.023639999330043793],[-0.0017900000093504786,0.19457000494003296,-0.024860000237822533,0.09585999697446823,-0.045010000467300415,0.07740999758243561,0.20027999579906464,0.09226000308990479,0.048420000821352005,0.09071999788284302,0.2614699900150299,0.060100000351667404,-0.12353000044822693,0.04297000169754028,0.04072999954223633,0.04944000020623207,0.09325999766588211],[0.30177998542785645,-0.026240000501275063,0.11739999800920486,0.01054999977350235,0.49184998869895935,-0.09284000098705292,0.22970999777317047,0.049959998577833176,-0.09378000348806381,0.26802998781204224,0.009689999744296074,0.09079000353813171,0.12483999878168106,-0.017249999567866325,-0.146589994430542,0.16705000400543213,0.12309999763965607],[0.29785001277923584,0.0500900000333786,0.014179999940097332,0.05909999832510948,-0.093019999563694,-0.02491999976336956,0.3030799925327301,-0.18336999416351318,0.09493999928236008,0.09911999851465225,0.11962000280618668,0.0720599964261055,0.1993899941444397,9.999999747378752e-06,0.06435000151395798,0.21683000028133392,0.16398000717163086],[-0.08416999876499176,-0.016019999980926514,0.06790000200271606,-0.17327000200748444,0.19684000313282013,0.11224000155925751,0.0069599999114871025,-0.06345000118017197,-0.21988999843597412,-0.07462000101804733,-0.19436000287532806,-0.30974000692367554,0.02143000066280365,0.10763999819755554,-0.18432000279426575,0.010769999586045742,0.25863000750541687],[0.10277999937534332,0.17027999460697174,-0.11393000185489655,0.008329999633133411,-0.07371000200510025,-0.2589299976825714,0.23263999819755554,-0.05229000002145767,0.294979989528656,0.15433000028133392,0.0493599995970726,-0.192890003323555,0.1307000070810318,-0.016140000894665718,0.07079999893903732,-0.05631000176072121,-0.1068200021982193],[0.050519999116659164,-0.29638999700546265,0.0869700014591217,0.07802999764680862,0.09516999870538712,-0.04433999955654144,-0.037950001657009125,-0.18893000483512878,-0.197270005941391,-0.020150000229477882,-0.3386400043964386,-0.3036099970340729,-0.04123999923467636,-0.24874000251293182,-0.10913000255823135,-0.17451000213623047,0.035190001130104065],[0.149959996342659,0.07463999837636948,0.07412000000476837,-0.09126000106334686,0.09294000267982483,-0.15945999324321747,0.035750001668930054,0.21557000279426575,0.11643999814987183,0.07451999932527542,0.0423399992287159,0.2029699981212616,-0.3468700051307678,-0.039889998733997345,-0.21492999792099,-0.02476000040769577,0.16182999312877655],[-0.03606000170111656,-0.19696000218391418,-0.40303999185562134,0.1669600009918213,-0.09318000078201294,0.15700000524520874,-0.14786000549793243,0.13517999649047852,-0.193790003657341,-0.27208998799324036,-0.16513000428676605,-0.19144000113010406,0.14475999772548676,0.054340001195669174,0.02452000044286251,-0.12645000219345093,-0.03164999932050705],[-0.11821000277996063,-0.003539999946951866,-0.022430000826716423,0.1432799994945526,0.2030400037765503,-0.20755000412464142,0.1494700014591217,0.0604499988257885,0.10203000158071518,0.08190999925136566,-0.19652000069618225,-0.22290000319480896,-0.006909999996423721,0.05435999855399132,-0.022630000486969948,0.11990000307559967,0.07266999781131744],[0.047860000282526016,-0.1398400068283081,-0.0575999990105629,-0.06735999882221222,0.17562000453472137,-0.0705299973487854,0.2010599970817566,-0.05513999983668327,0.20999999344348907,0.09937000274658203,0.057819999754428864,0.06836000084877014,-0.21129000186920166,0.054269999265670776,-0.10294999927282333,0.1027199998497963,0.2594299912452698],[-0.21302999556064606,0.007890000008046627,0.02920999936759472,0.1261499971151352,0.09291999787092209,0.20514999330043793,-0.04676000028848648,-0.11833000183105469,-0.06289000064134598,0.4651400148868561,-0.2696399986743927,-0.01001999992877245,-0.19211000204086304,-0.16660000383853912,-0.40143001079559326,-0.0004799999878741801,-0.21206000447273254],[-0.0022499999031424522,0.0019199999514967203,-0.17384999990463257,-0.06994999945163727,0.08201999962329865,0.1850699931383133,0.14632000029087067,-0.02785000018775463,-0.20497000217437744,-0.2629599869251251,-0.03612999990582466,-0.04975000023841858,-0.040389999747276306,0.02679000049829483,0.16864000260829926,-0.1432500034570694,-0.16805000603199005],[-0.007170000113546848,-0.08378999680280685,-0.06069999933242798,0.09301000088453293,0.10419999808073044,0.03844999894499779,-0.06086999922990799,0.0789399966597557,0.015519999898970127,-0.2576200067996979,-0.1416199952363968,-0.12578000128269196,-0.20699000358581543,-0.44822999835014343,-0.08692000061273575,-0.09588000178337097,0.1342500001192093],[0.23878000676631927,-0.10734999924898148,0.3519900143146515,0.10341999679803848,-0.09233000129461288,0.12985999882221222,0.10603000223636627,-0.21980999410152435,-0.2342199981212616,0.20587000250816345,0.032280001789331436,-0.013020000420510769,0.08560000360012054,-0.17219999432563782,-0.02459000051021576,-0.050689999014139175,0.03254999965429306],[-0.2540700137615204,-0.02469000034034252,0.20837000012397766,0.04864000156521797,-0.11240000277757645,-0.1842699944972992,-0.018549999222159386,-0.16086000204086304,-0.18066999316215515,0.14797000586986542,-0.12251999974250793,-0.24984000623226166,0.192330002784729,-0.21119000017642975,-0.005979999899864197,0.1587900072336197,-0.21357999742031097],[-0.24212999641895294,0.21969999372959137,-0.06885000318288803,-0.13541999459266663,0.1658100038766861,-0.11150000244379044,0.021320000290870667,-0.029740000143647194,0.018549999222159386,-0.026419999077916145,0.30651000142097473,0.17184999585151672,-0.14393000304698944,-0.20116999745368958,-0.004350000061094761,0.01565999910235405,0.12630000710487366],[-0.18839000165462494,0.18026000261306763,0.08252999931573868,-0.1522900015115738,-0.05415000021457672,0.25418001413345337,-0.0067900000140070915,-0.046870000660419464,0.07394000142812729,0.20796999335289001,0.21482999622821808,-0.07002999633550644,-0.07977999746799469,-0.36739999055862427,0.010200000368058681,0.013020000420510769,0.21338999271392822],[0.15460999310016632,-0.2032800018787384,0.21629999577999115,-0.0953499972820282,-0.0975399985909462,0.17125999927520752,-0.10976000130176544,-0.054510001093149185,-0.17770999670028687,-0.14564000070095062,-0.07316000014543533,-0.2153400033712387,0.044119998812675476,0.1860799938440323,0.10048999637365341,-0.18419000506401062,-0.19935999810695648],[0.00016999999934341758,-0.16324999928474426,0.11378999799489975,0.06917999684810638,0.07244999706745148,-0.07767000049352646,-0.0656299963593483,0.16314999759197235,0.011540000326931477,0.3450300097465515,-0.017009999603033066,0.18039000034332275,0.3146800100803375,-0.098580002784729,-0.15693999826908112,0.0812700018286705,-0.33267998695373535],[0.13782000541687012,-0.08566000312566757,-0.051569998264312744,-0.02271999977529049,0.20253999531269073,0.11361999809741974,0.19258999824523926,-0.3019700050354004,-0.17527000606060028,0.041680000722408295,-0.3533500134944916,-0.31415998935699463,0.005640000104904175,0.02184000052511692,0.08523999899625778,0.08305999636650085,-0.06374000012874603],[-0.02524000033736229,-0.05392000079154968,-0.10552000254392624,-0.17110000550746918,-0.10016000270843506,-0.19343000650405884,-0.021050000563263893,0.017669999971985817,0.07207000255584717,-0.3343200087547302,-0.0045900000259280205,-0.1280599981546402,-0.25235000252723694,-0.27842000126838684,0.1226700022816658,-0.15760000050067902,0.28220999240875244],[0.23311999440193176,0.17484000325202942,0.06406000256538391,-0.1231599971652031,0.17145000398159027,-0.12365999817848206,0.1595200002193451,-0.14057999849319458,-0.12943999469280243,0.09838999807834625,-0.15575000643730164,-0.38611000776290894,0.21966999769210815,-0.03874000161886215,-0.095490001142025,-0.007840000092983246,0.36403998732566833],[0.0003499999875202775,0.182669997215271,0.014270000159740448,-0.12984000146389008,0.05494000017642975,0.01396000012755394,0.3107900023460388,-0.021449999883770943,0.004579999949783087,0.27941998839378357,-0.03905000165104866,0.243599995970726,0.020910000428557396,-0.18535999953746796,0.007209999952465296,0.2576799988746643,-0.3637099862098694],[0.038419999182224274,0.09516999870538712,-0.16088999807834625,-0.008849999867379665,0.22404000163078308,0.0773100033402443,0.2795700132846832,-0.18914000689983368,0.16530999541282654,-0.12191999703645706,0.013930000364780426,-0.3404200077056885,0.11744999885559082,-0.08247999846935272,-0.10140000283718109,0.16075000166893005,0.045979999005794525],[-0.061719998717308044,0.09003999829292297,-0.3958800137042999,-0.005979999899864197,-0.046629998832941055,0.1416199952363968,-0.39427000284194946,0.04258999973535538,0.023830000311136246,0.24528999626636505,-0.09339000284671783,-0.17112000286579132,-0.16167999804019928,-0.3425999879837036,-0.16306999325752258,0.01972999982535839,-0.0773100033402443],[0.14013999700546265,-0.1666399985551834,0.018719999119639397,0.07015000283718109,-0.14994999766349792,0.0069599999114871025,-0.14122000336647034,-0.5108699798583984,-0.161190003156662,0.129830002784729,-0.20396000146865845,0.008259999565780163,-0.06216999888420105,0.03369000181555748,0.07107999920845032,-0.014680000022053719,0.1921599954366684],[-0.21051999926567078,0.36344000697135925,-0.09574999660253525,-0.057270001620054245,-0.00482999999076128,0.16118000447750092,0.05770000070333481,-0.04980999976396561,0.13896000385284424,-0.06052999943494797,-0.06565999984741211,-0.14598000049591064,-0.27195999026298523,0.018719999119639397,0.050919998437166214,-0.04261000081896782,0.04413999989628792],[0.035840000957250595,0.09912999719381332,-0.1745699942111969,0.08460000157356262,-0.1464499980211258,-0.10711999982595444,0.04340999945998192,-0.0894400030374527,-0.18610000610351562,-0.144569993019104,0.03420000150799751,0.10620000213384628,0.0024800000246614218,-0.5039700269699097,0.05992000177502632,-0.10672000050544739,-0.29047998785972595],[0.1096699982881546,-0.21122999489307404,-0.1358100026845932,-0.19303999841213226,-0.3852599859237671,0.32502999901771545,-0.050700001418590546,-0.11000999808311462,0.06751000136137009,0.032990001142024994,-0.016850000247359276,-0.17208999395370483,0.00812000036239624,-0.2700200080871582,0.19113999605178833,-0.16123999655246735,0.07071000337600708],[-0.13001999258995056,0.12657999992370605,-0.15433000028133392,0.07999999821186066,0.17681999504566193,-0.09427999705076218,0.05251000076532364,0.038279999047517776,-0.00925000011920929,-0.11604999750852585,-0.120619997382164,0.041999999433755875,-0.16428999602794647,0.06729000061750412,0.13790999352931976,-0.10467000305652618,-0.6407600045204163],[-0.3218599855899811,0.2914600074291229,0.04478999972343445,0.0804700031876564,-0.04033999890089035,0.1054299995303154,-0.05649000033736229,0.19467000663280487,-0.22894999384880066,-0.16359999775886536,0.02360999956727028,-0.023719999939203262,-0.19407999515533447,0.09211999922990799,0.12043999880552292,-0.11315000057220459,0.08214999735355377],[-0.04848000034689903,-0.0041600000113248825,0.03175999969244003,0.19041000306606293,0.2873600125312805,-0.033879999071359634,-0.06224999949336052,-0.030239999294281006,-0.10913000255823135,0.1042800024151802,-0.07528000324964523,0.023679999634623528,0.2405100017786026,0.23467999696731567,-0.25126001238822937,-0.08523999899625778,-0.08846999704837799],[-0.3046500086784363,-0.14735999703407288,-0.24769000709056854,-0.12241999804973602,0.17872999608516693,-0.2163199931383133,-0.06475000083446503,-0.07054000347852707,-0.22272999584674835,-0.0828000009059906,-0.2373100072145462,-0.16128000617027283,-0.047770000994205475,0.13662999868392944,-0.14213000237941742,-0.027149999514222145,-0.05477000027894974],[-0.10854999721050262,-0.22756999731063843,0.3487600088119507,-0.03316999971866608,0.036570001393556595,-0.08931999653577805,-0.13569000363349915,0.06588999927043915,0.02548000030219555,0.03164999932050705,0.010029999539256096,-0.08073999732732773,0.2135699987411499,-0.012269999831914902,0.05992000177502632,-0.37198999524116516,-0.3386799991130829],[0.0676800012588501,-0.0412600003182888,0.1476600021123886,-0.08525999635457993,-0.20329000055789948,-0.045779999345541,-0.1551000028848648,0.037689998745918274,0.1643500030040741,-0.24463999271392822,0.0877700001001358,-0.10593000054359436,-0.04058999940752983,0.06255000084638596,0.008440000005066395,-0.15828000009059906,0.4661499857902527],[-0.0822800025343895,0.18111999332904816,-0.016899999231100082,-0.20442000031471252,0.17840999364852905,0.046379998326301575,0.07492999732494354,0.040130000561475754,-0.1425900012254715,0.07924000173807144,0.007689999882131815,-0.010080000385642052,0.17484000325202942,-0.01858000084757805,-0.2721799910068512,-0.0035099999513477087,0.34964001178741455],[-0.1714400053024292,0.12553000450134277,0.07124000042676926,-0.06791999936103821,-0.08880999684333801,-0.08927000313997269,0.17452000081539154,0.07751999795436859,0.18273000419139862,0.1355700045824051,-0.027699999511241913,-0.0246799997985363,-0.2240699976682663,-0.23315000534057617,-0.020910000428557396,-0.08051999658346176,0.043869998306035995],[-0.15230999886989594,-0.1850699931383133,-0.06870000064373016,0.22463999688625336,-0.1179099977016449,0.10007999837398529,-0.13582000136375427,-0.06041000038385391,-0.3231799900531769,-0.20141999423503876,-0.4239000082015991,-0.1986600011587143,0.2348400056362152,0.239779993891716,-0.01155999954789877,-0.26460000872612,0.0049600000493228436],[-0.30761998891830444,-0.07780999690294266,-0.12161000072956085,-0.01972999982535839,-0.33678001165390015,0.067330002784729,-0.1820400059223175,-0.2502099871635437,0.088639996945858,-0.08866000175476074,0.17840999364852905,-0.025599999353289604,0.0762299969792366,-0.12240999937057495,0.1454399973154068,-0.058570001274347305,-0.07064999639987946],[0.21145999431610107,0.019419999793171883,0.41130000352859497,-0.10823000222444534,-0.0059899999760091305,0.09358000010251999,0.09230999648571014,0.05042999982833862,0.029500000178813934,0.1111299991607666,-0.13788999617099762,0.019829999655485153,0.028219999745488167,0.09399999678134918,-0.21012000739574432,-0.043880000710487366,-0.30344998836517334],[-0.099310003221035,0.11947000026702881,-0.2813299894332886,0.2045300006866455,-0.376910001039505,0.018470000475645065,0.007350000087171793,0.03092999942600727,0.09463000297546387,-0.18825000524520874,0.289139986038208,-0.009580000303685665,-0.2533999979496002,-0.07810000330209732,0.2131900042295456,-0.16505999863147736,-0.17284999787807465],[-0.292959988117218,0.04631999880075455,-0.2878200113773346,0.08687999844551086,-0.10412999987602234,-0.0257399994879961,0.18915000557899475,0.06463000178337097,0.07887999713420868,0.07175999879837036,0.11472000181674957,-0.03596999868750572,0.07963000237941742,0.32374998927116394,0.13954000174999237,0.18292999267578125,-0.18895000219345093],[-0.06674999743700027,0.27448999881744385,0.09797000139951706,0.012109999544918537,-0.20723000168800354,0.12891000509262085,0.07366999983787537,-0.0824500024318695,0.16324999928474426,0.0604499988257885,0.3135499954223633,0.006320000160485506,0.31001999974250793,0.024970000609755516,0.090379998087883,-0.0035099999513477087,0.10704000294208527],[-0.3150100111961365,-0.13652999699115753,-0.012090000323951244,0.07441999763250351,0.1341399997472763,-0.12410999834537506,-0.0011099999537691474,0.29715999960899353,0.20916999876499176,-0.006260000169277191,0.058309998363256454,0.13017000257968903,-0.22405000030994415,-0.16297000646591187,0.11806000024080276,-0.004689999856054783,0.2405100017786026],[0.02744000032544136,-0.121799997985363,0.08854000270366669,-0.17112000286579132,0.024569999426603317,-0.21389000117778778,-0.223690003156662,0.012000000104308128,-0.12266000360250473,-0.11223000288009644,0.1152999997138977,0.09354999661445618,-0.007079999893903732,-0.04749000072479248,0.0910400003194809,-0.20453999936580658,-0.0370200015604496],[-0.29058998823165894,-0.09690999984741211,0.007079999893903732,0.05226999893784523,0.029069999232888222,0.24807000160217285,-0.35354000329971313,0.16830000281333923,-0.1084899976849556,-0.12036000192165375,0.18942999839782715,0.10192999988794327,0.15535999834537506,-0.07737000286579132,0.23202000558376312,0.06531000137329102,-0.05192999914288521],[-0.03156000003218651,0.17936000227928162,0.00026000000070780516,-0.32207000255584717,0.10470999777317047,0.03401000052690506,-0.21389999985694885,-0.024860000237822533,0.2368299961090088,-0.08591999858617783,0.18542000651359558,-0.10243000090122223,-0.37038999795913696,0.07039999961853027,0.24286000430583954,-0.04961000010371208,-0.009929999709129333],[-0.08269999921321869,0.1636500060558319,-0.13854999840259552,0.06047999858856201,0.00839999970048666,-0.024129999801516533,0.06199999898672104,-0.1017099991440773,0.00506999995559454,0.09373000264167786,-0.19915999472141266,-0.07865999639034271,0.016489999368786812,-0.3884899914264679,-0.2627300024032593,0.019169999286532402,0.04039999842643738],[-0.26962000131607056,-0.016109999269247055,0.026920000091195107,-0.04187000170350075,-0.07167000323534012,-0.11994999647140503,-0.09747999906539917,0.364190012216568,0.14145000278949738,-0.24771000444889069,0.056710001081228256,0.248989999294281,0.02118000015616417,0.13217000663280487,-0.14590999484062195,0.04400999844074249,0.04751000180840492],[-0.05816999822854996,-0.006060000043362379,-0.05610999837517738,0.13689999282360077,0.034619998186826706,-0.21994000673294067,-0.2784300148487091,-0.20121000707149506,0.24710999429225922,-0.02865000069141388,0.0820700004696846,-0.07061000168323517,0.29739001393318176,-0.03815000131726265,0.38179999589920044,-0.17861999571323395,-0.1613900065422058],[0.0031999999191612005,0.12082000076770782,-0.18987999856472015,0.07558000087738037,0.07690999656915665,0.11918000131845474,-0.0005300000193528831,0.006850000005215406,-0.11819999665021896,0.16019000113010406,-0.08094999939203262,-0.34501001238822937,-0.3786099851131439,-0.3921299874782562,-0.16656999289989471,-0.1423099935054779,-0.03720000013709068],[0.33195000886917114,-0.15454000234603882,0.06265000253915787,-0.0856499969959259,-0.08355999737977982,0.2611599862575531,0.03813999891281128,0.26820001006126404,-0.1070299968123436,-0.22620999813079834,0.30640000104904175,0.15131999552249908,0.1854500025510788,0.055730000138282776,0.3267900049686432,-0.18470999598503113,0.011979999952018261],[0.32912999391555786,-0.05745000019669533,-0.0853400006890297,0.2384600043296814,-0.10066000372171402,-0.18137000501155853,0.026329999789595604,-0.36383000016212463,0.013170000165700912,-0.1694200038909912,0.2010899931192398,0.15786999464035034,0.029109999537467957,-0.07173000276088715,-0.004449999891221523,0.06553000211715698,-0.07704000174999237],[0.18318000435829163,0.007439999841153622,-0.049430001527071,0.08939000219106674,-0.17659999430179596,-0.2190600037574768,0.06030000001192093,0.21731999516487122,0.04315999895334244,-0.29451000690460205,-0.011730000376701355,0.007029999978840351,0.19627000391483307,0.1983799934387207,0.02806999906897545,-0.3968699872493744,0.15586000680923462],[0.1671299934387207,0.07699000090360641,-0.017410000786185265,0.006680000107735395,-0.11392000317573547,-0.12005999684333801,-0.08911000192165375,-0.07222999632358551,0.2623699903488159,-0.32763999700546265,0.08643999695777893,-0.1046300008893013,0.30823999643325806,0.10174000263214111,-0.17636999487876892,0.006459999829530716,0.24583999812602997],[0.019929999485611916,-0.12581999599933624,-0.039980001747608185,0.05705999955534935,0.0408100001513958,0.23529000580310822,-0.12577000260353088,0.08081000298261642,0.2736800014972687,-0.08303999900817871,0.027219999581575394,0.020479999482631683,0.08726999908685684,0.320279985666275,-0.24993999302387238,-0.012740000151097775,0.1506199985742569],[0.3018699884414673,0.09060999751091003,0.2503199875354767,0.1329600065946579,-0.09696000069379807,0.18010999262332916,0.05353999882936478,-0.03798000141978264,-0.19271999597549438,0.10531000047922134,0.08782000094652176,0.3024500012397766,0.2718699872493744,-0.16892999410629272,-0.007540000136941671,0.2503400146961212,-0.04315999895334244],[-0.09070000052452087,-0.01228999998420477,-0.05042999982833862,0.012240000069141388,-0.08100999891757965,0.08965999633073807,0.14079000055789948,-0.07423000037670135,-0.31126001477241516,0.3033500015735626,-0.12212000042200089,0.015270000323653221,0.12043999880552292,-0.11657000333070755,-0.2779400050640106,0.06776999682188034,-0.0775500014424324],[0.010689999908208847,-0.028589999303221703,0.062369998544454575,-0.06224000081419945,-0.024410000070929527,0.08511999994516373,0.07509999722242355,-0.0582600012421608,0.054340001195669174,0.08209999650716782,0.5058900117874146,0.20130999386310577,0.1902099996805191,0.11913000047206879,0.09401000291109085,0.09234999865293503,0.18148000538349152],[-0.24165000021457672,0.263590008020401,-0.14611999690532684,-0.0013800000306218863,-0.07526999711990356,-0.042089998722076416,-0.04538000002503395,-0.14813999831676483,0.007670000195503235,0.16512000560760498,0.07029999792575836,-0.08992999792098999,0.09115000069141388,0.27897998690605164,-0.14854000508785248,-0.10955999791622162,0.13596999645233154],[-0.03420000150799751,-0.2945899963378906,0.021549999713897705,0.2305999994277954,0.4313499927520752,0.022509999573230743,0.06349000334739685,-0.010879999957978725,-0.03957999870181084,-0.06996999680995941,-0.4110499918460846,0.1462700068950653,-0.21642999351024628,0.14168000221252441,-0.017430000007152557,0.15246999263763428,-0.24521000683307648],[0.1793300062417984,0.1835400015115738,-0.08382999897003174,-0.01988999918103218,-0.09663999825716019,0.23603999614715576,-0.00443999981507659,0.3066999912261963,0.07069999724626541,-0.05412999913096428,0.1242000013589859,0.17416000366210938,-0.17975999414920807,-0.22081999480724335,-0.11014000326395035,0.30748000741004944,-0.015519999898970127],[0.2829500138759613,-0.25189998745918274,-0.4452199935913086,-0.05260000005364418,-0.08969999849796295,0.06063000112771988,0.09843999892473221,-0.20440000295639038,-0.19089999794960022,0.045820001512765884,-0.030489999800920486,0.0791499987244606,-0.14877000451087952,-0.17601999640464783,-0.08099000155925751,0.15017999708652496,-0.1810699999332428],[-0.03319999948143959,0.01283000037074089,0.11394000053405762,0.03328000009059906,0.18127000331878662,-0.049320001155138016,0.064410001039505,-0.19002999365329742,-0.13350999355316162,-0.14994999766349792,-0.24835999310016632,-0.21592000126838684,0.13048000633716583,-0.3895699977874756,-0.08078999817371368,-0.3194099962711334,-0.11569000035524368],[-0.015390000306069851,-0.19874000549316406,0.2586100101470947,0.20631000399589539,-0.01672999933362007,0.0743200033903122,-0.32499998807907104,0.1694899946451187,-0.30570000410079956,0.0028800000436604023,0.11728999763727188,0.2570199966430664,0.14226999878883362,-0.053939998149871826,-0.004100000020116568,0.08466999977827072,-0.042149998247623444],[-0.0077599999494850636,-0.2760300040245056,-0.19347000122070312,-0.18258999288082123,0.16874000430107117,-0.30761000514030457,0.08186999708414078,0.16494999825954437,-0.0743200033903122,-0.16101999580860138,-0.031619999557733536,-0.1410900056362152,-0.4785099923610687,0.32128000259399414,-0.06823000311851501,0.033410001546144485,-0.13018999993801117],[0.020589999854564667,-0.17710000276565552,0.06627999991178513,0.11765000224113464,0.3226200044155121,0.055080000311136246,0.03945000097155571,0.06917999684810638,0.08410000056028366,0.3944000005722046,-0.08694999665021896,0.010809999890625477,0.052960000932216644,0.2002200037240982,-0.020579999312758446,0.022099999710917473,-0.04077000170946121],[-0.2791599929332733,0.08842000365257263,-0.3016299903392792,-0.08073999732732773,-0.16256000101566315,-0.2303999960422516,-0.1047699972987175,0.15669000148773193,0.06921999901533127,-0.5473099946975708,0.059390000998973846,-0.05753999948501587,0.10339000076055527,-0.05274000018835068,0.1420699954032898,0.02119000069797039,0.038120001554489136],[0.007829999551177025,-0.18978999555110931,-0.1440500020980835,0.1858000010251999,-0.04938000068068504,-0.05014999955892563,0.06543999910354614,0.28916001319885254,-0.058639999479055405,-0.3238399922847748,-0.033980000764131546,-0.15230000019073486,-0.07282999902963638,-0.17053000628948212,0.2809799909591675,-0.1581999957561493,-0.11045999825000763],[-0.20798000693321228,0.3185400068759918,-0.12256000190973282,0.20906999707221985,0.07707999646663666,-0.029890000820159912,-0.11738999933004379,-0.027149999514222145,0.22561000287532806,-0.030710000544786453,-0.16700999438762665,-0.27226999402046204,-0.11925999820232391,0.20853999257087708,0.09063000231981277,0.0938199982047081,0.004550000187009573],[-0.056210000067949295,-0.018290000036358833,-0.044360000640153885,-0.06530000269412994,-0.2160000056028366,0.08780000358819962,0.16898000240325928,-0.12438999861478806,0.33840999007225037,-0.10478000342845917,0.0709799975156784,0.16885000467300415,-0.03959999978542328,-0.28933998942375183,0.021849999204277992,0.0645499974489212,-0.13973000645637512],[-0.09477999806404114,0.3096500039100647,-0.07596000283956528,0.005100000184029341,0.30643001198768616,-0.02305000089108944,0.24255000054836273,0.05006999894976616,0.1910499930381775,-0.14324000477790833,-0.04521000012755394,-0.16453999280929565,-0.12273000180721283,-0.21275000274181366,-0.08478999882936478,0.005750000011175871,0.09239000082015991],[0.000590000010561198,-0.11131999641656876,0.13787999749183655,0.16373999416828156,0.12138999998569489,-0.12117999792098999,0.09431999921798706,-0.06227000057697296,-0.18424999713897705,0.0745600014925003,-0.013199999928474426,-0.03200000151991844,0.4157699942588806,0.14510999619960785,-0.003700000001117587,0.054510001093149185,0.09606999903917313],[-0.043949998915195465,-0.4492200016975403,0.16401000320911407,0.1580599993467331,-0.047359999269247055,-0.29444000124931335,0.3160400092601776,-0.06829000264406204,0.16934999823570251,-0.21748000383377075,-0.125450000166893,0.13676999509334564,-0.1879899948835373,-0.15805000066757202,0.017160000279545784,-0.2819800078868866,0.004350000061094761],[0.1915999948978424,-0.10516999661922455,0.11911000311374664,0.20093999803066254,0.07980000227689743,0.0754999965429306,-0.029659999534487724,0.08429999649524689,-0.19978000223636627,0.1151600033044815,-0.18416999280452728,-0.058720000088214874,0.22436000406742096,0.2830600142478943,-0.016100000590085983,-0.09274999797344208,-0.17866000533103943],[-0.16790999472141266,-0.15116000175476074,-0.16144999861717224,-0.22717000544071198,0.27233999967575073,-0.17780999839305878,-0.10834000259637833,0.003539999946951866,0.292169988155365,-0.16520999372005463,0.20728999376296997,-0.09708999842405319,0.4077799916267395,-0.09735000133514404,0.2237199991941452,-0.04360999912023544,-0.27671998739242554],[0.10627000033855438,-0.20374999940395355,0.051830001175403595,-0.07012999802827835,-0.12262000143527985,0.1367100030183792,0.0486299991607666,-0.09246999770402908,0.09899000078439713,0.13614000380039215,-0.18140000104904175,-0.20940999686717987,0.02531999908387661,-0.08262000232934952,-0.08748000115156174,-0.029319999739527702,0.2734299898147583],[-0.11614000052213669,-0.021320000290870667,0.11014000326395035,-0.041839998215436935,-0.16446000337600708,0.25227001309394836,0.06695999950170517,0.06836999952793121,-0.029370000585913658,-0.051750000566244125,0.1308699995279312,-0.06471999734640121,-0.23784999549388885,0.0188400000333786,0.09798000007867813,0.001550000044517219,0.4752599895000458],[-0.1117900013923645,0.07626999914646149,-0.008340000174939632,-0.3614499866962433,-0.08623000234365463,-0.12048999965190887,-0.11541000008583069,-0.10698000341653824,-0.0514799989759922,0.12995000183582306,0.20714999735355377,-0.09991999715566635,-0.040699999779462814,0.21342000365257263,0.10490000247955322,-0.2630699872970581,0.23670999705791473],[0.25957000255584717,-0.004209999926388264,0.1882999986410141,-0.08827999979257584,-0.188400000333786,0.14584000408649445,0.3154299855232239,-0.02297000028192997,-0.12268000096082687,0.12804999947547913,-0.18814000487327576,-0.2600499987602234,0.2149599939584732,-0.23079000413417816,0.2813900113105774,-0.0909700021147728,-0.06111999973654747],[0.3095400035381317,-0.21139000356197357,-0.17640000581741333,0.17287999391555786,-0.028459999710321426,-0.19208000600337982,0.039900001138448715,-0.11441999673843384,0.2434699982404709,-0.11719000339508057,-0.10290999710559845,0.12048999965190887,-0.14285999536514282,-0.12790000438690186,-0.17351999878883362,-0.1135300025343895,0.06168999895453453],[0.0011500000255182385,0.22819000482559204,0.10429000109434128,0.3151000142097473,-0.044829998165369034,0.0363599993288517,0.2753799855709076,0.19119000434875488,0.18330000340938568,0.12324000149965286,0.020659999921917915,0.25022000074386597,-0.1698800027370453,0.05925000086426735,-0.07062000036239624,0.1039000004529953,-0.04918999969959259],[0.09076999872922897,-0.06671000272035599,-0.0544000007212162,-0.2912299931049347,0.03799999877810478,-0.25146999955177307,0.09719999879598618,-0.10232000052928925,-0.14215999841690063,-0.15313999354839325,-0.05919000133872032,0.3598800003528595,-0.3312399983406067,0.07851000130176544,-0.005410000216215849,-0.1959100067615509,-0.07395999878644943],[-0.13315999507904053,0.06447000056505203,0.1548900008201599,-0.0508200004696846,0.1874299943447113,0.026499999687075615,-0.031619999557733536,0.16359999775886536,-0.1444000005722046,0.05305999889969826,0.02118000015616417,-0.06945999711751938,0.21563999354839325,-0.3378799855709076,0.08445999771356583,-0.33114001154899597,0.014809999614953995],[0.20804999768733978,-0.1395999938249588,-0.11856000125408173,0.2842099964618683,-0.22134000062942505,0.26701000332832336,0.20573000609874725,0.14952999353408813,-0.2589600086212158,-0.01664000004529953,-0.050220001488924026,-0.11569999903440475,0.24790999293327332,0.2325800061225891,-0.07694000005722046,0.2427700012922287,0.004170000087469816],[-0.15845000743865967,0.14018000662326813,-0.021770000457763672,-0.21965999901294708,-0.18199999630451202,-0.06876999884843826,-0.09759999811649323,-0.10086999833583832,0.026110000908374786,0.3496699929237366,0.2620700001716614,0.35554999113082886,-0.28279998898506165,-0.0684799998998642,0.3069800138473511,0.047290001064538956,0.2557600140571594],[0.19753000140190125,0.17395000159740448,0.18017999827861786,-0.004939999897032976,0.18696999549865723,0.11082000285387039,0.3702000081539154,-0.0727199986577034,0.02662000060081482,-0.29346999526023865,0.10634999722242355,-0.2248000055551529,0.024809999391436577,-0.06283000111579895,0.12303999811410904,-0.020999999716877937,0.0559299997985363],[-0.11937999725341797,-0.03286999836564064,-0.20077000558376312,-0.18000000715255737,0.12082000076770782,-0.04064000025391579,-0.031369999051094055,0.02404000051319599,0.06347999721765518,-0.12221000343561172,-0.06975000351667404,-0.028389999642968178,-0.2556900084018707,0.3196699917316437,-0.0903099998831749,-0.1453000009059906,-0.5346500277519226],[-0.17420999705791473,0.07319000363349915,-0.009320000186562538,0.0006000000284984708,-0.1242000013589859,0.05806000158190727,0.288349986076355,0.056299999356269836,0.12427999824285507,-0.03988000005483627,-0.07918000221252441,-0.094200000166893,0.2124200016260147,-0.1821500062942505,-0.08893000334501266,-0.21355000138282776,0.018079999834299088],[0.0830800011754036,-0.1730400025844574,0.14260999858379364,-0.3186900019645691,-0.12915000319480896,0.1233299970626831,-0.014510000124573708,0.1834000051021576,0.2347099930047989,0.07677999883890152,-0.06452000141143799,0.13184000551700592,-0.19705000519752502,0.023979999125003815,0.12076999992132187,-0.12949000298976898,0.15553000569343567],[0.2497899979352951,0.1767899990081787,-0.1912200003862381,0.020190000534057617,0.05728000029921532,-0.4187900125980377,0.2165600061416626,0.09161999821662903,0.16130000352859497,0.0876300036907196,0.12387999892234802,0.17347000539302826,-0.06074000149965286,-0.031849998980760574,-0.07553999871015549,0.4785799980163574,-0.23176999390125275],[0.07051999866962433,-0.0463699996471405,-0.008960000239312649,0.025520000606775284,0.0842600017786026,-0.1802300065755844,0.048569999635219574,-0.2430499941110611,0.38260000944137573,-0.19489000737667084,0.20816999673843384,-0.14744000136852264,0.2268500030040741,0.2625899910926819,0.08941999822854996,0.019899999722838402,-0.08006999641656876],[0.11452999711036682,-0.08833000063896179,0.2131199985742569,0.11198999732732773,-0.2774200141429901,0.08124999701976776,-0.1460600048303604,0.05655999854207039,-0.15737999975681305,-0.0597199983894825,-0.018120000138878822,0.04174000024795532,0.035670001059770584,0.3436099886894226,-0.01413000002503395,-0.0735900029540062,0.1975499987602234],[-0.2536099851131439,0.09674999862909317,-0.3204500079154968,-0.015110000036656857,0.08748000115156174,0.09329000115394592,0.09730000048875809,-0.1342799961566925,-0.19742999970912933,-0.03703000023961067,-0.064410001039505,-0.1803700029850006,-0.2556400001049042,0.06612999737262726,0.14441999793052673,0.11044000089168549,-0.08597999811172485],[-0.03878999873995781,-0.19853000342845917,-0.037129998207092285,-0.1946599930524826,-0.1419599950313568,-0.031190000474452972,-0.025769999250769615,0.10397999733686447,-0.19754000008106232,0.12150000035762787,0.31022000312805176,0.26680999994277954,0.14379000663757324,-0.15804000198841095,0.06668999791145325,-0.1430400013923645,-0.06380999833345413],[0.07727999985218048,0.10096000134944916,-0.26346999406814575,-0.16317999362945557,0.12700000405311584,-0.0019399999873712659,0.2358900010585785,0.22688999772071838,-0.03748000040650368,-0.04701000079512596,0.16362999379634857,-0.10913000255823135,0.19095000624656677,-0.06812000274658203,-0.1137000024318695,-0.12201999872922897,-0.3450999855995178],[0.1354600042104721,0.10450000315904617,0.061480000615119934,0.03821999952197075,0.3264999985694885,-0.07750000059604645,-0.12684999406337738,0.37105000019073486,0.19910000264644623,-0.19888000190258026,0.12014999985694885,0.18852999806404114,-0.19056999683380127,0.03601999953389168,-0.2485799938440323,-0.12046000361442566,-0.2687700092792511],[0.11795999854803085,-0.017729999497532845,0.10251999646425247,0.2345699965953827,0.08387000113725662,0.0326399989426136,-0.03830000013113022,-0.04261000081896782,-0.2032099962234497,-0.11546000093221664,-0.06503000110387802,-0.012389999814331532,0.3812200129032135,0.08682999759912491,0.2063400000333786,-0.19166000187397003,0.35256001353263855],[-0.09870000183582306,0.3814300000667572,-0.17520999908447266,-0.02369000017642975,-0.09007000178098679,0.08038999885320663,0.1789499968290329,-0.12025000154972076,0.1752299964427948,-0.03813999891281128,0.06419000029563904,-0.07903999835252762,0.18217000365257263,0.16686999797821045,0.23882000148296356,-0.04853000119328499,0.042249999940395355],[0.042410001158714294,-0.21480000019073486,-0.0814099982380867,0.012149999849498272,0.1457200050354004,-0.13270999491214752,0.04992000013589859,0.06120999902486801,0.062300000339746475,-0.09692999720573425,-0.33465999364852905,0.03172000125050545,-0.285290002822876,-0.20013999938964844,-0.07574000209569931,-0.18795999884605408,-0.17249999940395355],[-0.0064199999906122684,-0.2322400063276291,0.2384600043296814,0.3012000024318695,-0.04701999947428703,0.11065000295639038,-0.046870000660419464,-0.12950000166893005,-0.20656999945640564,-0.027049999684095383,-0.018149999901652336,0.2818300127983093,0.1982399970293045,0.11193999648094177,0.0958700031042099,0.0013699999544769526,0.03706999868154526],[0.2562499940395355,0.13469000160694122,-0.1903200000524521,-0.06524000316858292,0.011629999615252018,0.19991999864578247,0.17236000299453735,0.10315000265836716,0.222120001912117,0.064970001578331,-0.036479998379945755,-0.19220000505447388,0.22102999687194824,0.39280998706817627,0.11832000315189362,0.20547999441623688,-0.011339999735355377],[-0.15428000688552856,0.29363998770713806,-0.1350100040435791,0.09008999913930893,-0.15561999380588531,-0.16128000617027283,-0.04024999961256981,0.30862998962402344,0.21663999557495117,-0.20045000314712524,-0.02370999939739704,-0.20342999696731567,0.13798999786376953,0.04617999866604805,-0.04797999933362007,-0.0689300000667572,0.1695300042629242],[0.20774999260902405,-0.10434000194072723,0.05942999944090843,0.11361999809741974,0.004650000017136335,-0.029319999739527702,-0.269320011138916,-0.3157300055027008,-0.14316999912261963,-0.1253499984741211,-0.02921999990940094,0.04157999902963638,0.09545999765396118,-0.02734999917447567,0.2097499966621399,-0.3277199864387512,-0.16355000436306],[0.10645999759435654,0.1251000016927719,0.09008000046014786,-0.11853999644517899,-0.2866100072860718,0.30456000566482544,0.05860000103712082,-0.12213999778032303,-0.07808999717235565,0.10293000191450119,-0.012670000083744526,-0.011830000206828117,-0.019130000844597816,-0.03669000044465065,0.013129999861121178,-0.060989998281002045,-0.34415000677108765],[-0.1808999925851822,-0.023110000416636467,0.06300000101327896,-0.026440000161528587,0.11090999841690063,-0.08715999871492386,-0.09188999980688095,0.1271200031042099,-0.024660000577569008,0.00800000037997961,-0.18817999958992004,0.004310000222176313,0.13276000320911407,0.3048200011253357,0.06414999812841415,-0.11508999764919281,0.17281000316143036],[-0.03435000032186508,0.1483599990606308,0.0596500001847744,0.036479998379945755,0.03290000185370445,-0.09173999726772308,0.04244000092148781,0.145019993185997,-0.16514000296592712,0.0669500008225441,0.19002999365329742,-0.05339000001549721,0.021299999207258224,-0.5041800141334534,0.16128000617027283,-0.19311000406742096,0.016599999740719795],[0.04651999846100807,0.3229199945926666,0.08852999657392502,0.18324999511241913,-0.11157000064849854,0.09262000024318695,-0.17538000643253326,0.0313900001347065,-0.12049999833106995,-0.03347000107169151,0.13188999891281128,-0.14135000109672546,0.31856000423431396,0.1863899976015091,0.049389999359846115,-0.10140000283718109,-0.028589999303221703],[0.02491999976336956,-0.027780000120401382,-0.03443000093102455,-0.06905999779701233,-0.06119000166654587,-0.02305000089108944,0.15113000571727753,-0.09442999958992004,0.2820799946784973,0.04284000024199486,0.22098000347614288,0.0938899964094162,0.2659600079059601,0.06757000088691711,-0.20499999821186066,0.3943600058555603,0.32394999265670776],[0.20685000717639923,-0.010599999688565731,0.1311900019645691,0.18624000251293182,0.35833999514579773,0.0945499986410141,-0.1278499960899353,-0.21273000538349152,0.10061000287532806,-0.4173699915409088,0.07204999774694443,0.14698000252246857,0.0767500028014183,-0.009429999627172947,0.2032500058412552,-0.21164999902248383,0.146029993891716],[0.0857900008559227,-0.025849999859929085,-0.21383999288082123,0.23386000096797943,-0.19089999794960022,0.03871000185608864,-0.10313999652862549,0.3269500136375427,0.10874000191688538,-0.1368499994277954,-0.014229999855160713,-0.02230999991297722,0.017100000753998756,-0.35168999433517456,0.05395999923348427,-0.3090200126171112,-0.04298999905586243],[0.052390001714229584,0.10155999660491943,0.17180000245571136,0.1637600064277649,-0.049720000475645065,-0.05954999849200249,0.2184399962425232,-0.026259999722242355,-0.06889999657869339,0.45350998640060425,0.16181999444961548,0.0888499990105629,0.10920999944210052,0.010820000432431698,0.2565000057220459,0.17497000098228455,-0.07970000058412552],[0.05130000039935112,-0.21603000164031982,-0.022280000150203705,-0.06990999728441238,0.06889999657869339,-0.10266000032424927,-0.11168000102043152,0.13673000037670135,0.17077000439167023,-0.0989300012588501,-0.2002599984407425,-0.0849199965596199,-0.2858799993991852,0.2809099853038788,-0.1514499932527542,-0.06538999825716019,0.04634999856352806],[-0.03889000043272972,-0.03466999903321266,-0.05595000088214874,-0.14893999695777893,0.04704999923706055,0.18653999269008636,-0.0678199976682663,0.1761299967765808,-0.39247000217437744,-0.20482000708580017,-0.34474998712539673,0.09155000001192093,-0.38631001114845276,-0.04623999819159508,0.010320000350475311,0.08116000145673752,4.999999873689376e-05],[0.26458001136779785,-0.1620199978351593,-0.11113999783992767,0.09715999662876129,-0.14508000016212463,0.01924999989569187,0.14988000690937042,0.06949999928474426,-0.04222000017762184,0.006440000142902136,-0.2419700026512146,-0.09149999916553497,-0.07778000086545944,-0.17217999696731567,0.22688999772071838,-0.11393000185489655,-0.05785999819636345],[0.1259700059890747,0.03215999901294708,0.005499999970197678,0.19315999746322632,0.0008299999753944576,0.03345999866724014,-0.2021999955177307,-0.1850699931383133,0.004000000189989805,-0.032510001212358475,0.09677000343799591,0.07656999677419662,0.4400799870491028,0.021469999104738235,0.05457000061869621,-0.22920000553131104,-0.17383000254631042],[0.17192000150680542,-0.03044999949634075,0.06084999814629555,-0.17152999341487885,-0.1682099997997284,-0.034929998219013214,0.04636000096797943,-0.06265000253915787,-0.12522999942302704,-0.13172000646591187,0.039409998804330826,-0.023439999669790268,-0.4477899968624115,0.2524699866771698,0.14977000653743744,0.06893999874591827,-0.2079000025987625],[-0.03398999944329262,-0.046480000019073486,0.3095700144767761,-0.16179999709129333,0.3401699960231781,0.12519000470638275,-0.11947999894618988,-0.12335000187158585,0.23844000697135925,-0.064970001578331,0.23670999705791473,0.12354999780654907,-0.24845999479293823,0.02676999941468239,0.04927999898791313,0.28365999460220337,0.26282998919487],[0.21668000519275665,0.04967999830842018,0.06905999779701233,-0.23797999322414398,-0.20000000298023224,0.02191000059247017,0.18640999495983124,-0.3378799855709076,-0.14607000350952148,0.17679999768733978,-0.004670000169426203,0.11069999635219574,-0.03829000145196915,-0.18743999302387238,-0.003169999923557043,-0.07391999661922455,-0.09064000099897385],[0.07107999920845032,0.06666000187397003,0.3333899974822998,0.024979999288916588,0.08523000031709671,0.10653000324964523,-0.13866999745368958,-0.042899999767541885,-0.02160000056028366,0.012670000083744526,-0.28099000453948975,-0.13928000628948212,-0.2920899987220764,-0.061330001801252365,0.07117000222206116,-0.27336999773979187,-0.11731000244617462],[0.2767699956893921,-0.04027000069618225,0.016610000282526016,-0.1189500018954277,-0.17896999418735504,-0.1419599950313568,0.19053000211715698,-0.3841400146484375,-0.00406000018119812,0.1625099927186966,-0.2156199961900711,-0.00044999999227002263,-0.12185999751091003,0.18411000072956085,-0.182669997215271,0.01906999945640564,0.017570000141859055],[0.045340001583099365,-0.12178000062704086,-0.12894999980926514,-0.41433000564575195,-0.1624400019645691,0.08759000152349472,-0.08252999931573868,-0.08607999980449677,-0.04222999885678291,-0.27000001072883606,-0.20746999979019165,-0.1930599957704544,-0.007000000216066837,0.00686000008136034,0.11196000128984451,-0.17479999363422394,0.02101000025868416],[0.10699000209569931,-0.3761799931526184,-0.027809999883174896,0.2258799970149994,0.19574999809265137,-0.08957000076770782,-0.093019999563694,0.33169999718666077,-0.144569993019104,0.26607000827789307,-0.09254000335931778,0.2212499976158142,-0.20451000332832336,-0.1538199931383133,0.09638000279664993,-0.023919999599456787,-0.22923000156879425],[0.01882000081241131,0.13213999569416046,0.03237000107765198,-0.04879999905824661,-0.17829999327659607,0.23151999711990356,0.07209999859333038,0.1802300065755844,0.11349000036716461,-0.028880000114440918,-0.36250001192092896,0.017489999532699585,-0.2869499921798706,0.10075999796390533,0.19088999927043915,-0.14315000176429749,-0.09848000109195709],[-0.09709999710321426,0.14139999449253082,-0.1718199998140335,-0.1431799978017807,-0.0692100003361702,-0.09324000030755997,0.021789999678730965,0.23337000608444214,0.29405999183654785,-0.305759996175766,0.021139999851584435,-0.056370001286268234,-0.06950999796390533,0.01874000020325184,-0.16276000440120697,-0.14484000205993652,0.023809999227523804],[0.3646799921989441,-0.3479900062084198,-0.26350000500679016,0.16920000314712524,-0.16317999362945557,0.08636999875307083,0.34711000323295593,-0.2096399962902069,-0.02167000062763691,0.01785999909043312,-0.13651999831199646,0.1964700073003769,0.3551200032234192,0.1120000034570694,0.06678000092506409,-0.0020600000862032175,0.26583001017570496],[-0.017149999737739563,-0.19941000640392303,-0.10395999997854233,-0.30366000533103943,-0.2983500063419342,0.12661999464035034,-0.23531000316143036,-0.0900299996137619,-0.13471999764442444,0.036570001393556595,-0.08463999629020691,0.05620000138878822,-0.17539000511169434,0.4228399991989136,0.19309000670909882,-0.18463000655174255,-0.3650699853897095],[0.021080000326037407,-0.3461399972438812,-0.0023399998899549246,-0.17591999471187592,0.07581999897956848,-0.10435999929904938,-0.016359999775886536,-0.0626399964094162,0.015320000238716602,0.33737999200820923,-0.10254000127315521,-0.09008000046014786,0.06798999756574631,-0.08771000057458878,0.05358999967575073,0.017669999971985817,0.3490299880504608],[-0.1940300017595291,0.3011299967765808,0.1539900004863739,-0.04131999984383583,-0.05181000009179115,0.15211999416351318,0.0971900001168251,-0.31490999460220337,0.01228999998420477,-0.09697999805212021,0.17858000099658966,-0.14240999519824982,-0.10738000273704529,0.09443999826908112,0.07168000191450119,0.004800000227987766,-0.09791000187397003],[-0.21459999680519104,-0.23265999555587769,0.018120000138878822,0.12422999739646912,0.09651999920606613,-0.08812999725341797,0.1918099969625473,-0.1420300006866455,-0.19009999930858612,0.26653000712394714,-0.06182999908924103,-0.02628999948501587,-0.24907000362873077,0.044679999351501465,-0.1964000016450882,0.19651000201702118,-0.17906999588012695],[-0.1676899939775467,0.1828799992799759,0.16621999442577362,-0.00026000000070780516,0.04670000076293945,-0.08247999846935272,0.20603999495506287,-0.11156000196933746,0.09266000241041183,0.1270499974489212,-0.039400000125169754,-0.04839000105857849,0.18276000022888184,0.09150999784469604,0.04029000177979469,-0.2952300012111664,0.39807000756263733],[-0.060270000249147415,-0.017750000581145287,0.06729000061750412,0.07608000189065933,-0.012319999746978283,-0.06290999799966812,-0.29343000054359436,0.04642999917268753,-0.1817300021648407,-0.1970299929380417,-0.10062000155448914,0.0442500002682209,0.19473999738693237,0.2870999872684479,0.04552999883890152,-0.09508000314235687,-0.18060000240802765],[-0.17685000598430634,0.26183000206947327,-0.1470700055360794,-0.3250499963760376,-0.09960000216960907,-0.09489999711513519,-0.07793000340461731,0.2917099893093109,0.15636000037193298,-0.15793000161647797,0.09765999764204025,-0.24936999380588531,-0.14639000594615936,0.2776400148868561,-0.036649998277425766,-0.2563300132751465,0.005080000031739473],[0.10256999731063843,-0.05463000014424324,-0.4175100028514862,-0.07096000015735626,-0.15563000738620758,-0.17773999273777008,0.11817999929189682,0.00279000005684793,0.10650999844074249,0.04772999882698059,-0.12355999648571014,0.10745000094175339,0.1404300034046173,-0.07399000227451324,0.09860999882221222,0.08867000043392181,0.3389900028705597],[0.22863000631332397,-0.30570000410079956,-0.059859998524188995,-0.16234000027179718,0.07797999680042267,-0.2654600143432617,0.03539999946951866,-0.15613999962806702,0.2778500020503998,-0.06869000196456909,-0.1730699986219406,-0.04016000032424927,-0.1690800040960312,-0.17997999489307404,0.05623000115156174,0.00026000000070780516,0.12815000116825104],[-0.22488999366760254,0.10712999850511551,0.04678000137209892,0.15629999339580536,0.17549000680446625,-0.04659000039100647,0.038759998977184296,-0.3075999915599823,-0.041510000824928284,0.005950000137090683,-0.12767000496387482,-0.16123999655246735,0.05268000066280365,0.1475600004196167,-0.09196999669075012,-0.056120000779628754,-0.03993000090122223],[-0.05530000105500221,0.03796999901533127,0.032990001142024994,-0.3815999925136566,0.175819993019104,-0.2050500065088272,-0.20760999619960785,0.065870001912117,0.01995999924838543,-0.2743000090122223,-0.23362000286579132,0.009359999559819698,0.1279599964618683,-0.13933999836444855,0.2619200050830841,-0.26934999227523804,-0.015399999916553497],[0.1985899955034256,-0.25815001130104065,-0.10328999906778336,-0.08540000021457672,0.01631000079214573,-0.08425000309944153,-0.06779000163078308,0.28108999133110046,0.011300000362098217,-0.15454000234603882,-0.09013000130653381,0.2569099962711334,0.09604000300168991,0.25946998596191406,-0.026249999180436134,0.009920000098645687,-0.259799987077713],[0.11905000358819962,-0.012179999612271786,0.03901999816298485,-0.10424000024795532,0.05770999938249588,0.08267000317573547,-0.20693999528884888,0.1723099946975708,-0.07597000151872635,0.1096699982881546,0.14574000239372253,0.153889998793602,0.04535999894142151,-0.4151900112628937,0.1664399951696396,0.07525999844074249,0.1961199939250946],[0.3794200122356415,-0.12372999638319016,-0.1529500037431717,0.029179999604821205,0.02319999970495701,-0.05705999955534935,0.0062699997797608376,-0.04267000034451485,0.007120000198483467,0.06283999979496002,-0.005929999984800816,0.20449000597000122,0.021560000255703926,-0.5080999732017517,0.03265000134706497,0.13965000212192535,-0.11898999661207199],[0.14395999908447266,-0.12861000001430511,-0.0774800032377243,0.2776699960231781,0.12105999886989594,-0.04050000011920929,0.18643000721931458,-0.08608999848365784,-0.38576000928878784,0.3725399971008301,-0.14147000014781952,0.05768999829888344,-0.1359899938106537,-0.09080000221729279,0.14207999408245087,-0.017969999462366104,-0.018629999831318855],[-0.46237999200820923,-0.12927000224590302,0.14509999752044678,0.08154000341892242,0.21424999833106995,-0.012880000285804272,-0.03846000134944916,0.04441000148653984,0.08013000339269638,0.04050999879837036,0.001990000018849969,-0.13675999641418457,0.09319999814033508,0.23623999953269958,0.2265399992465973,0.23715999722480774,0.30188998579978943],[-0.2474599927663803,0.045979999005794525,-0.21570999920368195,0.04698000103235245,-0.09867999702692032,-0.0689999982714653,0.032910000532865524,-0.1532299965620041,0.09055999666452408,-0.03635000064969063,0.10933999717235565,-0.03338000178337097,0.026170000433921814,0.09074000269174576,0.0752900019288063,-0.11951000243425369,-0.11984000355005264],[-0.24312999844551086,0.05981000140309334,0.12281999737024307,0.1848199963569641,0.19203999638557434,-0.010400000028312206,0.09126999974250793,-0.3036099970340729,-0.1600400060415268,-0.03661999851465225,-0.1662299931049347,-0.17951999604701996,0.3066900074481964,-0.08760000020265579,-0.0024900001008063555,0.006850000005215406,0.15929999947547913],[-0.03807999938726425,-0.11135999858379364,-0.0423399992287159,0.17587999999523163,0.027890000492334366,0.09430000185966492,0.06908000260591507,-0.1767600029706955,-0.09419000148773193,0.1696300059556961,-0.07700999826192856,0.12600000202655792,-0.11794000118970871,-0.14336000382900238,-0.096390001475811,-0.0384799987077713,-0.42451000213623047],[-0.11203999817371368,-0.3189699947834015,0.3426699936389923,-0.07936999946832657,-0.22579999268054962,-0.09653999656438828,-0.010400000028312206,0.19844000041484833,0.2188200056552887,-0.1382800042629242,-0.041760001331567764,-0.056439999490976334,-0.26572999358177185,-0.029670000076293945,-0.003000000026077032,-0.23874999582767487,-0.30235999822616577],[-0.18783000111579895,-0.05330999940633774,0.0369499996304512,-0.0746299996972084,-0.0287299994379282,-0.0841199979186058,-0.05632000043988228,0.001120000029914081,-0.028669999912381172,-0.10239999741315842,-0.12403000146150589,-0.23385000228881836,0.1430100053548813,0.14156000316143036,0.09920000284910202,-0.0863099992275238,0.15679000318050385],[0.29510998725891113,-0.1278499960899353,-0.06814999878406525,0.04075999930500984,-0.020150000229477882,-0.1973000019788742,0.05906999856233597,0.09272000193595886,-0.066880002617836,-0.38677000999450684,-0.16776999831199646,-0.10417000204324722,-0.1565999984741211,0.05996000021696091,0.14238999783992767,-0.18926000595092773,-0.006409999914467335],[0.26587000489234924,-0.23608000576496124,0.22955000400543213,0.1733900010585785,-0.07502999901771545,-0.043719999492168427,-0.179189994931221,-0.04179000109434128,-0.20732000470161438,-0.03197000175714493,-0.13106000423431396,0.16481000185012817,-0.05218999832868576,-0.15049000084400177,0.07412000000476837,-0.016829999163746834,-0.054680000990629196],[0.006519999820739031,-0.10552000254392624,-0.02638000063598156,-0.0004799999878741801,-0.18498000502586365,-0.019379999488592148,0.35089999437332153,0.0812700018286705,0.04552999883890152,-0.17301000654697418,0.24661999940872192,0.06007999926805496,0.21649999916553497,0.10072000324726105,0.44530999660491943,-7.000000186963007e-05,0.2796800136566162],[-0.13705000281333923,-0.2445400059223175,-0.24785999953746796,0.11659999936819077,0.10248000174760818,0.08230999857187271,-0.11827000230550766,-0.4611800014972687,-0.10503000020980835,0.028939999639987946,-0.05821000039577484,-0.08358000218868256,0.09322000294923782,0.1397700011730194,0.2097799926996231,-0.04600999876856804,-0.20191000401973724],[-0.12993000447750092,0.1390800029039383,0.17146000266075134,0.06752000004053116,0.03280000016093254,0.2386000007390976,0.12043000012636185,-0.10391999781131744,0.057739999145269394,0.160630002617836,0.041039999574422836,-0.024049999192357063,-0.01689000055193901,0.25415998697280884,-0.11640000343322754,0.12066999822854996,0.41025999188423157],[0.16568000614643097,-0.15915000438690186,-0.05438999831676483,-0.02338000014424324,0.3123199939727783,-0.11076000332832336,0.03344999998807907,0.0770300030708313,-0.2503899931907654,0.049630001187324524,-0.03029000014066696,0.33612000942230225,-0.24360999464988708,-0.09245000034570694,-0.21987999975681305,0.21135999262332916,0.251010000705719],[0.06289000064134598,0.12838000059127808,-0.0011399999493733048,0.13752999901771545,0.24211999773979187,0.03365999832749367,-0.10046999901533127,0.03344999998807907,-0.12884999811649323,-0.11276999861001968,-0.24860000610351562,0.044530000537633896,-0.20134000480175018,-0.2197899967432022,-0.23398999869823456,-0.043389998376369476,-0.3298099935054779],[-0.6006100177764893,-0.2049800008535385,-0.030489999800920486,-0.20332999527454376,-0.04859999939799309,-0.093299999833107,-0.2915000021457672,0.210549995303154,-0.1437000036239624,-0.1240599974989891,0.12646999955177307,-0.08505000174045563,-0.045499999076128006,-0.2534700036048889,0.2673799991607666,0.024210000410676003,0.10255999863147736],[0.14646999537944794,-0.3677099943161011,-0.058479998260736465,-0.1576399952173233,-0.33840999007225037,0.017079999670386314,-0.22362999618053436,-0.246069997549057,-0.05894000083208084,-0.10221000015735626,-0.08470000326633453,0.2164199948310852,0.07147999852895737,-0.06426999717950821,-0.07594999670982361,-0.2854500114917755,0.15803000330924988],[0.12026000022888184,-0.04267999902367592,-0.0749099999666214,-0.11288999766111374,0.09195999801158905,0.27595001459121704,-0.003819999983534217,-0.1453399956226349,-0.15881000459194183,-0.12567000091075897,-0.2217400074005127,-0.34014999866485596,0.10247000306844711,0.08676999807357788,-0.05473000183701515,0.10938999801874161,0.11461000144481659],[0.0971900001168251,-0.10891000181436539,-0.21841999888420105,-0.02111000008881092,-0.20622000098228455,0.14336000382900238,-0.04952000081539154,-0.08442000299692154,0.005840000230818987,-0.12025000154972076,-0.15530000627040863,-0.2366500049829483,-0.05886999890208244,-0.3052600026130676,0.1147100031375885,-0.09500999748706818,0.0006000000284984708],[-0.3317900002002716,0.08631999790668488,-0.09139999747276306,-0.13673000037670135,-0.18387000262737274,-0.07255999743938446,0.11069999635219574,-0.13867999613285065,-0.06436999887228012,-0.1754699945449829,0.16672000288963318,0.14279000461101532,-0.012360000051558018,0.19575999677181244,-0.0007399999885819852,-0.1889200061559677,0.22248999774456024],[0.10430999845266342,0.014650000259280205,0.06257999688386917,-0.12100999802350998,0.049630001187324524,-0.07055000215768814,0.07863999903202057,-0.1137399971485138,0.19014999270439148,0.16126999258995056,-0.10208000242710114,-0.23146000504493713,0.02384999953210354,0.021530000492930412,-0.13353000581264496,-0.14398999512195587,0.47898000478744507],[-0.14159999787807465,0.19512000679969788,0.09814000129699707,-0.13142000138759613,-0.1594800055027008,0.15129999816417694,-0.10259000211954117,0.06819000095129013,-0.02549000084400177,0.23377999663352966,0.027580000460147858,0.16126999258995056,0.09318000078201294,-0.08904000371694565,0.028950000181794167,0.08137000352144241,0.45475998520851135],[-0.04583999887108803,-0.22363999485969543,0.08219999819993973,0.07474000006914139,0.11967000365257263,-0.14891000092029572,-0.03968999907374382,-0.10100000351667404,-0.15091000497341156,0.10067000240087509,0.02809000015258789,-0.13161000609397888,0.43988001346588135,0.09909000247716904,-0.00803999975323677,0.024310000240802765,-0.3185400068759918],[0.03815000131726265,-0.09860000014305115,0.049720000475645065,0.08030000329017639,-0.08568999916315079,-0.054019998759031296,-0.21785999834537506,0.04106999933719635,-0.014759999699890614,0.31053000688552856,0.16176000237464905,0.00041000000783242285,0.17130999267101288,-0.00827999971807003,0.08968000113964081,0.23883000016212463,0.29725000262260437],[0.16342000663280487,-0.3491800129413605,-0.1636500060558319,-0.01909000054001808,-0.15407000482082367,0.1431799978017807,-0.02092999964952469,0.04123999923467636,0.06971000134944916,0.22213000059127808,0.12093000113964081,0.1732800006866455,0.3363400101661682,0.10333999991416931,0.23648999631404877,0.09048999845981598,-0.1808599978685379],[-0.17274999618530273,0.17447000741958618,0.03164999932050705,0.045779999345541,-0.05201999843120575,-0.08817999809980392,-0.005869999993592501,0.10911999642848969,-0.11928000301122665,0.2122800052165985,0.09348999708890915,0.023649999871850014,0.2180200070142746,0.2649900019168854,-0.08727999776601791,0.19070999324321747,0.3174299895763397],[-0.04340000078082085,0.026319999247789383,-0.20433999598026276,-0.16956999897956848,0.03742000088095665,-0.032280001789331436,0.05964000150561333,-0.08674000203609467,0.09581000357866287,0.286190003156662,0.14952999353408813,0.17552000284194946,0.5021499991416931,-0.27518999576568604,0.052799999713897705,-0.11235000193119049,-0.2415899932384491],[0.24675999581813812,0.09766999632120132,-0.0035200000274926424,0.1389400064945221,-0.05366000160574913,-0.025369999930262566,0.21457000076770782,-0.07028000056743622,-0.005499999970197678,-0.10179000347852707,0.07453999668359756,-0.029020000249147415,0.4180299937725067,0.06622999906539917,0.04202000051736832,0.2425999939441681,0.12459000200033188],[0.14821000397205353,-0.03474999964237213,0.0019199999514967203,0.07793000340461731,0.1523900032043457,-0.3754499852657318,0.12529000639915466,0.007319999858736992,0.28918999433517456,-0.011359999887645245,-0.11034999787807465,-0.05167999863624573,-0.24482999742031097,-0.09950999915599823,-0.19933000206947327,-0.19981999695301056,0.08011999726295471],[-0.21607999503612518,0.1345600038766861,-0.2511399984359741,-0.13268999755382538,0.26607000827789307,-0.16516000032424927,0.11567000299692154,0.047449998557567596,0.2727299928665161,0.2996799945831299,0.21062999963760376,0.15162000060081482,-0.03378000110387802,0.27757999300956726,-0.22724999487400055,0.23980000615119934,-0.18084000051021576]],"b":[-0.03382999822497368,0.0573900006711483,-0.0841199979186058,-0.16197000443935394,-0.10566999763250351,-0.10027000308036804,-0.06623999774456024,-0.004259999841451645,-0.14847999811172485,0.11297000199556351,0.011049999855458736,-0.21220000088214874,-0.12439999729394913,0.26521000266075134,-0.04326999932527542,-0.004619999788701534,-0.08849000185728073,-0.029410000890493393,0.17687000334262848,0.08410000056028366,-0.04642999917268753,0.06134000048041344,0.1609099954366684,-0.023590000346302986,0.06975000351667404,-0.01018999982625246,0.03903000056743622,0.20746000111103058,-0.12032999843358994,0.021490000188350677,-0.026119999587535858,0.06480000168085098,0.00675999978557229,0.06996999680995941,0.03466999903321266,0.06921999901533127,-0.0685499981045723,0.2348099946975708,-0.17760999500751495,0.05358999967575073,-0.07208000123500824,-0.16976000368595123,0.0200399998575449,-0.03013000078499317,-0.07565999776124954,-0.1275400072336197,0.23583999276161194,-0.017090000212192535,-0.03373999893665314,-0.06767000257968903,0.1162400022149086,0.0697999969124794,0.05685000121593475,0.041519999504089355,0.14041000604629517,0.24190999567508698,-0.21320000290870667,0.13833999633789062,-0.11326000094413757,0.032910000532865524,-0.035020001232624054,0.09324999898672104,-0.10790999978780746,-0.09071999788284302,0.1342799961566925,0.12725000083446503,0.08814000338315964,0.03441999852657318,0.05925000086426735,0.2024099975824356,0.028680000454187393,-0.0774800032377243,0.19690999388694763,0.2545199990272522,0.0406700000166893,-0.16287000477313995,-0.2423200011253357,0.2024099975824356,-0.13037000596523285,0.1828799992799759,0.16422000527381897,0.012190000154078007,-0.13124999403953552,0.16665999591350555,0.21150000393390656,-0.20031000673770905,-0.07834000140428543,0.30998000502586365,0.10109999775886536,-0.006539999973028898,-0.2768299877643585,-0.029600000008940697,0.12869000434875488,-0.09290000051259995,0.006149999797344208,0.36204999685287476,0.15294000506401062,0.10130000114440918,0.2317499965429306,0.13353000581264496,-0.042569998651742935,-0.10653000324964523,-0.26023000478744507,-0.062470000237226486,-0.09448999911546707,-0.05719999969005585,0.04335999861359596,0.1066799983382225,-0.017580000683665276,-0.04324999824166298,-0.15745000541210175,0.09929999709129333,0.1687300056219101,0.11339999735355377,-0.03384000062942505,0.05575000122189522,-0.05634000152349472,0.12404999881982803,0.07201000303030014,0.026969999074935913,-0.07281000167131424,0.08991000056266785,-0.1598300039768219,0.2113099992275238,-0.011250000447034836,-0.024550000205636024,-0.02969999983906746,-0.17840999364852905,0.11005000025033951,-0.15977999567985535,0.0025100000202655792,-0.28845998644828796,-0.05395999923348427,0.08931999653577805,-0.09904000163078308,-0.18363000452518463,0.11731000244617462,0.14764000475406647,-0.122809998691082,-0.07633999735116959,0.018160000443458557,-0.010420000180602074,-0.1734900027513504,0.0027199999894946814,-0.20973999798297882,-0.0006099999882280827,-0.07464999705553055,0.11270000040531158,-0.14218999445438385,-0.06668999791145325,0.1329299956560135,-0.019370000809431076,0.11986000090837479,0.07201000303030014,-0.1160999983549118,-0.11479999870061874,0.16651000082492828,-0.008030000142753124,0.11565999686717987,-0.1874600052833557,0.04766000062227249,0.12563000619411469,-0.18716999888420105,0.28352999687194824,0.23984000086784363,0.06947000324726105,0.15609000623226166,-0.029030000790953636,0.015159999951720238,-0.12195000052452087,-0.22317999601364136,0.19046999514102936,0.1502400040626526,-0.047759998589754105,-0.2880699932575226,-0.06142999976873398,0.185139998793602,-0.0674699991941452,-0.07953999936580658,0.08442000299692154,0.22863000631332397,-0.09765999764204025,-0.3285300135612488,-0.058389998972415924,0.08392000198364258,-0.090379998087883,-0.1238899976015091,0.018810000270605087,-0.005770000163465738,-0.06289999932050705,-0.010610000230371952,-0.06769999861717224,-0.10954999923706055,-0.06112999841570854,-0.08415000140666962,-0.013969999738037586,0.032760001718997955,-0.052400000393390656,0.07684999704360962,0.13096000254154205,0.05121999979019165,0.16825999319553375,0.045419998466968536,0.2488200068473816,0.24695000052452087,0.05666999891400337,0.07434000074863434,0.13968999683856964,0.10134000331163406,0.21006999909877777,0.1811700016260147,0.03147000074386597,0.07693000137805939,-0.23503999412059784,0.057009998708963394,-0.13830000162124634,0.07711999863386154,-0.008430000394582748,-0.1600400060415268,-0.06469999998807907,0.19867999851703644,-0.059050001204013824,-0.2311200052499771,-0.09604000300168991,0.09384000301361084,-0.013240000233054161,-0.0689999982714653,0.17302000522613525,0.093299999833107,-0.22926999628543854,-0.0812000036239624,0.06249000132083893,-0.15183000266551971,0.2542699873447418,0.15836000442504883,0.06254000216722488,-0.10078000277280807,0.13583999872207642,-0.0502999983727932,-0.04121999815106392,-0.034940000623464584,-0.028440000489354134,0.08477000147104263,0.2060600072145462,0.19934000074863434,-0.21985000371932983,-0.05212000012397766,0.1471800059080124,-0.06102000176906586,-0.014069999568164349,0.03322000056505203,-0.21995000541210175,0.07846000045537949,-0.11100000143051147,-0.0037899999879300594,-0.0025500000920146704],"act":"tanh","in":17,"out":256},{"w":[[-0.045329999178647995,0.012029999867081642,-0.007790000177919865,-0.05372999981045723,-0.13473999500274658,-0.18038000166416168,-0.14169000089168549,-0.13436000049114227,0.09047999978065491,-0.04125000163912773,0.2502399981021881,0.18860000371932983,-0.14632999897003174,-0.13243000209331512,-0.03554999828338623,-0.010099999606609344,-0.07853999733924866,0.22155000269412994,0.1421400010585785,0.07057999819517136,-0.1163799986243248,-0.19107000529766083,0.18532000482082367,0.026639999821782112,0.2063400000333786,-0.3234899938106537,-0.10158000141382217,0.1498900055885315,0.22857999801635742,-0.14969000220298767,0.1363999992609024,-0.010060000233352184,-0.2154099941253662,-0.016990000382065773,0.22493000328540802,-0.02751000039279461,0.13420000672340393,0.023110000416636467,0.17944000661373138,0.014399999752640724,-0.04049000144004822,0.009229999966919422,0.16133999824523926,0.2292799949645996,0.03909999877214432,-0.05096999928355217,-0.14381000399589539,-0.1019200012087822,0.1309400051832199,-0.07474999874830246,0.03787999972701073,-0.08658000081777573,-0.3410100042819977,-0.022600000724196434,-0.10019999742507935,-0.22281000018119812,0.040470000356435776,-0.06380999833345413,-5.999999848427251e-05,-0.0815500020980835,-0.13492000102996826,0.049240000545978546,-0.055980000644922256,0.041850000619888306,-0.0020099999383091927,0.241349995136261,-0.027869999408721924,0.15307000279426575,0.054829999804496765,-0.05553999915719032,0.0857200026512146,-0.06983000040054321,-0.05496999993920326,0.050680000334978104,-0.029769999906420708,0.01565999910235405,-0.027130000293254852,0.017090000212192535,-0.0594400018453598,-0.009270000271499157,-0.08528000116348267,0.2291100025177002,-0.12424000352621078,0.06013000011444092,-0.24311000108718872,0.014569999650120735,-0.11917000263929367,-0.11104000359773636,0.014170000329613686,-0.18036000430583954,-0.05607999861240387,0.04842999950051308,0.16370999813079834,0.07593999803066254,-0.01964000053703785,0.10414999723434448,-0.10722000151872635,-0.20298999547958374,0.20499999821186066,-0.03139999881386757,0.20927000045776367,0.010529999621212482,0.009680000133812428,-0.20250999927520752,0.14322000741958618,-0.121069997549057,0.1287900060415268,-0.04019999876618385,0.015080000273883343,0.1507900059223175,-0.06080999970436096,-0.15707999467849731,0.0052999998442828655,0.25738999247550964,0.10217999666929245,0.0036100000143051147,0.26552000641822815,0.17621000111103058,-0.2538299858570099,-0.030419999733567238,0.24922999739646912,-0.3050599992275238,-0.08489999920129776,0.07511000335216522,-0.038750000298023224,-0.16790999472141266,0.08235999941825867,0.1388700008392334,0.02727999910712242,0.047449998557567596,-0.06769999861717224,0.17433999478816986,0.05956000089645386,0.05737999826669693,-0.08278000354766846,-0.14545999467372894,-0.12058000266551971,0.09709999710321426,0.08365999907255173,0.10136999934911728,0.2842400074005127,-0.1482200026512146,-0.2866300046443939,0.03584999963641167,-0.1054299995303154,0.007019999902695417,-0.0660799965262413,0.026189999654889107,0.03322000056505203,0.01761999912559986,0.1401599943637848,-0.10600999742746353,0.1726599931716919,-0.20615999400615692,0.07795000076293945,0.20813000202178955,0.006649999879300594,0.18111999332904816,0.0640299990773201,-0.03809000179171562,-0.009399999864399433,-0.010979999788105488,-0.27393999695777893,-0.09521999955177307,0.0868000015616417,